tree
version=v4
num_class=1
num_tree_per_iteration=1
label_index=0
max_feature_idx=38
objective=regression
feature_names=Real_Return_3Y Real_Return_5Y Real_Return_10Y PP_Multiplier_1Y PP_Multiplier_5Y PP_Multiplier_10Y PP_vs_Cash_5Y Volatility_90D Sharpe_Ratio_5Y Calmar_Ratio_5Y Max_Drawdown Distance_From_MA_200D_Pct Distance_From_MA_50D_Pct Distance_From_ATH_Pct Days_Since_ATH Momentum_50D Momentum_200D Market_Cap_Saturation_Pct Growth_Potential_Multiplier Composite_Score_5Y Vol_Adj_PP_Score_5Y Correlation_With_SP500 Correlation_With_Gold CPI_Correlation Scarcity_Score Days_Since_Bitcoin_Halving Bitcoin_Cycle_Year Real_PP_Index Eggs_Per_100USD Milk_Gallons_Per_100USD Real_Return_Eggs_1Y Real_Return_Milk_1Y Real_Commodity_Basket_Return_1Y Recession_Risk Yield_Curve_Inverted PP_Stability_Index Return_Consistency Recovery_Strength PPP_Q_Composite_Score
feature_infos=[-157.548:11369.893] [-184.06399999999999:6983.4979999999996] [-140.01499999999999:28256.989000000001] [0:10] [0:10] [0:10] [0:10.053000000000001] [0:573.87] [-4.5650000000000004:94.445999999999998] [-1.373:2095.9229999999998] [0:133.029] [-177.58500000000001:459.85700000000003] [-244.77199999999999:278.21800000000002] [-133.029:0] [0:3897] [-244.77199999999999:278.21800000000002] [-177.58500000000001:459.86099999999999] [0:100] [0.70699999999999996:1] [0:200] [0:100] [-0.254:0.52900000000000003] none [-0.28100000000000003:0.26700000000000002] [0:89.085999999999999] [0:1401] [0:3.8380000000000001] [87.852999999999994:118.702] [33.715000000000003:83.126000000000005] [25.920000000000002:35.223999999999997] [-66.733000000000004:1248.9839999999999] [-63.124000000000002:1732.317] [-64.322999999999993:1490.6500000000001] [0:50] [0:1] [0:1] [0:1] [0.085999999999999993:1] [25.094999999999999:82.114999999999995]
tree_sizes=2728 2752 2754 2789 2784 2795 2784 2756 2761 2754 2791 2798 2767 2778 2775 2785 2790 2798 2794 2802 2797 2786 2803 2799 2806 2795 2794 2801 2800 2783 2789 2788 2788 2774 2792 2776 2785 2802 2788 2799 2782 2795 2797 2801 2789 2794 2791 2805 2788 2796 2812 2810 2803 2806 2810 2805 2804 2798 2798 2806 2823 2809 2825 2843 2829 2842 2835 2850 2825 2831 2828 2855 2854 2848 2841 2834 2843 2834 2822 2834 2805 2864 2863 2857 2842 2865 2859 2867 2865 2847 2861 2851 2837 2848 2856 2854 2862 2843 2834 2869 2846 2862 2850 2845 2860 2840 2841 2874 2863 2876 2823 2881 2836 2869 2846 2882 2834 2887 2846 2889 2850 2865 2846 2853 2866 2859 2848 2837 2872 2879 2871 2855 2888 2859 2848 2836 2898 2847 2838 2854 2858 2839 2519 2825 2855 2840 2840 2850 2851 2782 2859 2874 2597 2850 2900 2865 2871 2876 2892 2875 2877 2914 2900 2869 2862 2901 2824 2874 2889 2841 2705 2855 2883 2858 2916 2823 2852 2804 2853 2874 2879 2901 2825 2860 2899 2891 2901 2894 2905 2927 2853 2865 2838 2897 2855 2920 2918 2861 2887 2863 2883 2904 2838 2886 2906 2887 2871 2866 2887 2875 2910 2914 2899 2903 2928 2879 2867 2837 2847 2894 2876 2847 2897 2891 2912 2837 2870 2866 2858 2866 2811 2862 2862 2864 2834 2860 2869 2887 2879 2862 2881 2911 2905 2912 2951 2894 2916 2918 2905 2878 2862 2882 2857 2877 2894 2933 2897 2895 2902 2892 2856 2877 2872 2870 2893 2886 2885 2893 2881 2887 2878 2874 2890 2132 2903 2883 2881 2908 2821 2561 2905 2902 2899 2870 2904 2895 2904 2872 2897 2918 2882 2898 2839 2886 2845 2928 2812 2823 2940 2961 2842 2854 2818 2861 2834 2876 2857 2910 2922 2888 2831 2938 2922 2791 2880 2860 2892

Tree=0
num_leaves=31
num_cat=0
split_feature=8 8 8 8 8 8 8 8 8 8 8 8 8 8 8 8 8 8 8 8 9 8 8 8 8 8 8 8 8 8
split_gain=1.18754e+08 1.92945e+06 1.40007e+06 109898 95720.7 81183.9 36647 14541.3 10447.8 10037.1 9368.73 8761.52 5491.41 4156.93 2827.07 1508.24 1406.88 1237.99 1205.56 1204.45 1173.95 1143.13 1016.52 1004.63 767.503 555.745 529.742 337.63 310.725 304.738
threshold=0.50750000000000017 0.97350000000000014 0.16150000000000003 1.6525000000000001 0.32050000000000006 0.74150000000000016 0.060500000000000005 0.40150000000000008 1.0225000000000002 0.85250000000000015 0.62350000000000005 0.24250000000000002 1.3395000000000004 1.8895000000000002 0.43550000000000005 0.11450000000000002 0.69850000000000001 0.20150000000000004 0.36350000000000005 0.28350000000000003 1.0000000180025095e-35 0.5505000000000001 0.81650000000000011 0.93150000000000011 0.47350000000000003 1.1855000000000002 1.5005000000000002 0.58750000000000002 0.65750000000000008 0.77750000000000019
decision_type=2 2 2 2 2 2 2 2 2 2 2 2 2 2 2 2 2 2 2 2 2 2 2 2 2 2 2 2 2 2
left_child=2 5 6 8 11 10 20 18 -3 22 21 17 25 -5 -9 -8 28 -4 -6 -13 -1 -2 29 -11 -16 -10 -14 -23 -12 -7
right_child=1 3 4 13 7 9 15 14 12 23 16 19 26 -15 24 -17 -18 -19 -20 -21 -22 27 -24 -25 -26 -27 -28 -29 -30 -31
leaf_value=47.411041073571781 49.994261215202194 51.630506881350492 48.321191174427902 52.293337540996284 49.112976102792935 50.693736518238786 47.863382603187979 49.501609825742875 51.961523492993116 51.091684330663682 50.330825409352173 48.719960699641355 52.120859500105901 52.410473781031271 49.690542549712539 48.103702347644081 50.576531398599229 48.538377551376698 49.320170449631668 48.928002250695641 47.570275128642464 50.11652081087918 50.913186296494594 51.262049219750082 49.855301729366737 52.042042082714303 52.198554451374946 50.225762390235239 50.436908029821318 50.802162098097014
leaf_weight=24243 136 138 141 836 138 145 146 146 580 278 148 147 682 21478 142 142 140 141 148 143 142 145 144 138 141 561 558 141 138 141
leaf_count=24243 136 138 141 836 138 145 146 146 580 278 148 147 682 21478 142 142 140 141 148 143 142 145 144 138 141 561 558 141 138 141
internal_value=49.9066 52.2593 47.5025 52.3707 49.1103 50.6266 47.4186 49.4961 52.0573 50.9731 50.2808 48.6282 52.082 52.4061 49.6803 47.9812 50.4462 48.4292 49.2199 48.8222 47.412 50.1137 50.8032 51.1485 49.7726 52.0013 52.156 50.1705 50.3822 50.7475
internal_weight=52487 26527 25960 24833 1287 1694 24673 715 2519 846 848 572 2381 22314 429 288 426 282 286 290 24385 422 430 416 283 1141 1240 286 286 286
internal_count=52487 26527 25960 24833 1287 1694 24673 715 2519 846 848 572 2381 22314 429 288 426 282 286 290 24385 422 430 416 283 1141 1240 286 286 286
is_linear=0
shrinkage=1


Tree=1
num_leaves=31
num_cat=0
split_feature=6 19 1 9 1 18 19 7 19 19 18 1 18 19 6 0 9 7 6 1 7 1 18 7 1 1 7 6 6 7
split_gain=1.05195e+08 2.23658e+06 1.05757e+06 330644 300416 241462 148831 139299 78080 54740.5 64425.4 52680.8 50167.8 36364.7 34365.1 25838.7 24445.1 21578.9 19861.7 17983.7 17955.5 15789.7 13700.5 12180.6 11546.6 10831.7 10318.3 10007.3 9767.53 20589.1
threshold=1.0775000000000003 68.560500000000005 1.7355000000000003 0.45850000000000007 15.175500000000001 0.80750000000000022 71.307000000000016 13.006500000000001 58.452500000000008 77.409500000000023 0.88550000000000006 4.4240000000000004 0.92250000000000021 60.32200000000001 1.0995000000000001 49.803000000000004 0.29950000000000004 10.207500000000001 1.0095000000000003 12.013500000000002 8.5355000000000008 21.342000000000002 0.77950000000000019 29.951500000000006 20.619000000000003 37.873500000000007 10.145500000000002 1.2675000000000003 1.2605000000000002 18.211500000000004
decision_type=2 2 2 2 2 2 2 2 2 2 2 2 2 2 2 2 2 2 2 2 2 2 2 2 2 2 2 2 2 2
left_child=2 3 18 12 7 8 23 14 25 10 -6 26 16 21 20 -12 -2 -13 -1 -9 -3 -7 -10 -4 -14 -5 -8 -15 29 -11
right_child=1 4 6 5 9 13 11 19 22 28 15 17 24 27 -16 -17 -18 -19 -20 -21 -22 -23 -24 -25 -26 -27 -28 -29 -30 -31
leaf_value=-2.3698573089129802 -0.51051605053426674 1.8726573006613749 -1.1947938955220447 0.55407850025979843 2.2668487207400396 -0.98645722829053251 -0.43345675530365596 0.25407942464435557 2.0051042436368807 2.2788413976548383 1.1797613922894523 0.6668320081649648 -1.2908641065671269 0.31153663629137862 2.0297770172161522 1.9657514946273407 0.20833292224064537 -0.17931208817730676 -1.8551237695195923 1.0318267635491998 1.0128859077333869 0.026970148894625047 1.0986207626905462 -1.7972516436751247 -0.35060025529629113 1.5798822881324499 -1.154528711019277 0.93221355149277008 2.3716340832519767 1.3849207752076542
leaf_weight=24346 202 100 342 151 944 45 126 164 493 1462 239 179 137 111 684 187 285 130 191 136 156 260 46 112 43 31 82 157 20878 68
leaf_count=24346 202 100 342 151 944 45 126 164 493 1462 239 179 137 111 684 187 285 130 191 136 156 260 46 112 43 31 82 157 20878 68
internal_value=0.000244119 2.17678 -2.30181 0.550688 2.30424 1.01679 -0.683318 1.54526 1.62562 2.34381 2.03636 -0.103171 -0.35358 0.250555 1.84464 1.52518 -0.0898677 0.31089 -2.36586 0.606901 1.34935 -0.12281 1.92797 -1.34379 -1.06659 0.729602 -0.718168 0.675373 2.3626 2.23921
internal_weight=52487 26979 25508 1961 25018 1294 971 1240 721 23778 1370 517 667 573 940 426 487 309 24537 300 256 305 539 454 180 182 208 268 22408 1530
internal_count=52487 26979 25508 1961 25018 1294 971 1240 721 23778 1370 517 667 573 940 426 487 309 24537 300 256 305 539 454 180 182 208 268 22408 1530
is_linear=0
shrinkage=0.05


Tree=2
num_leaves=31
num_cat=0
split_feature=20 1 20 4 20 20 20 7 7 20 6 20 1 4 7 20 20 20 1 20 20 20 1 7 20 7 7 1 20 6
split_gain=9.64548e+07 1.72609e+06 952299 104192 80001 76671.1 55613.1 43958.1 34664.9 34278.2 17921.2 14442.3 13464.1 12109.5 11994.9 11697.3 11205.6 8750.42 8352.71 6702.66 6133.66 5391.88 4799.2 4165.76 4161.25 3269.98 3197.23 2827.63 2662.65 2537.26
threshold=24.976500000000005 1.7355000000000003 28.144500000000004 1.1155000000000002 26.653000000000002 30.470500000000005 22.962500000000002 13.627500000000003 17.855500000000003 15.503500000000003 1.0095000000000003 34.801500000000004 3.5530000000000004 1.3175000000000001 15.825500000000002 20.521500000000003 25.878500000000006 22.743000000000006 5.363500000000001 29.085000000000004 24.123500000000003 27.206500000000002 25.078500000000002 24.814500000000006 24.123500000000003 8.2995000000000019 10.618500000000003 21.342000000000002 23.170000000000005 1.0535000000000003
decision_type=2 2 2 2 2 2 2 2 2 2 2 2 2 2 2 2 2 2 2 2 2 2 2 2 2 2 2 2 2 2
left_child=1 10 4 6 16 8 15 21 -4 22 -1 14 24 17 -7 29 -2 27 -17 -10 -14 25 -5 -21 -8 -6 -18 -11 -12 -3
right_child=2 3 5 9 7 11 12 -9 19 13 28 -13 20 -15 -16 18 26 -19 -20 23 -22 -23 -24 -25 -26 -27 -28 -29 -30 -31
leaf_value=-2.2513649062495826 0.3510442993302858 -1.8180447330089304 1.9991585714575928 -1.2344230730761476 1.7173197367582897 2.2002125709718205 -1.1031803672154195 0.89285280952463852 1.1103365920064565 -0.56670329124757068 -1.9618171909637956 2.2538733106193796 -0.57593375248675949 0.34612945820965985 1.9470002125218973 -1.4415398086048195 0.92435793590742843 0.069357252651586529 -0.90186212452170256 1.8264133904085254 -0.13735543815229012 1.7953794271170924 -0.52802109119063123 1.3735296846950187 -0.62640641536539476 1.1866756165683958 0.61887403698048093 -0.21474326090467702 -1.5791326538070696 -1.457070786314584
leaf_weight=24346 373 84 873 70 48 1443 115 372 126 102 91 21355 182 164 708 119 145 222 183 93 142 250 37 118 77 78 213 130 100 128
leaf_count=24346 373 84 873 70 48 1443 115 372 126 102 91 21355 182 164 708 119 145 222 183 93 142 250 37 118 77 78 213 130 100 128
internal_value=0.000233168 -2.13922 2.14761 -0.62435 0.915116 2.22136 -0.947548 1.27864 1.8327 -0.165111 -2.24757 2.24135 -0.580668 -0.0219858 2.11696 -1.31566 0.543005 -0.155019 -1.11494 1.401 -0.383834 1.65998 -0.990921 1.57394 -0.912426 1.39007 0.742841 -0.369683 -1.76242 -1.60091
internal_weight=52487 26292 26195 1755 1479 24716 1030 748 1210 725 24537 23506 516 618 2151 514 731 454 302 337 324 376 107 211 192 126 358 232 191 212
internal_count=52487 26292 26195 1755 1479 24716 1030 748 1210 725 24537 23506 516 618 2151 514 731 454 302 337 324 376 107 211 192 126 358 232 191 212
is_linear=0
shrinkage=0.05


Tree=3
num_leaves=31
num_cat=0
split_feature=8 8 8 8 8 8 8 8 8 8 8 8 8 8 8 8 8 8 8 8 9 8 8 8 8 8 8 8 8 8
split_gain=8.7331e+07 1.42067e+06 1.02297e+06 83707.1 70291.3 59580.1 25794.3 10742.5 7623.21 7373.64 6895.01 6395.06 3700.48 3225.88 2164.56 1100.09 1052.98 931.331 916.05 887.532 833.548 826.803 811.911 717.872 591.936 419.715 282.55 264.206 235.67 214.733
threshold=0.50750000000000017 0.97350000000000014 0.16150000000000003 1.6525000000000001 0.32050000000000006 0.74150000000000016 0.060500000000000005 0.40150000000000008 1.0225000000000002 0.85250000000000015 0.62350000000000005 0.24250000000000002 1.3395000000000004 1.8455000000000001 0.43550000000000005 0.69850000000000001 0.11450000000000002 0.36350000000000005 0.28350000000000003 0.20150000000000004 1.0000000180025095e-35 0.5505000000000001 0.77750000000000019 0.93150000000000011 0.47350000000000003 1.5005000000000002 1.1855000000000002 0.58750000000000002 0.81650000000000011 0.65750000000000008
decision_type=2 2 2 2 2 2 2 2 2 2 2 2 2 2 2 2 2 2 2 2 2 2 2 2 2 2 2 2 2 2
left_child=2 5 6 8 11 10 20 17 -3 22 21 19 26 -5 -9 29 -8 -6 -13 -4 -1 -2 -7 -11 -16 -14 -10 -23 -24 -12
right_child=1 3 4 13 7 9 16 14 12 23 15 18 25 -15 24 -17 -18 -19 -20 -21 -22 27 28 -25 -26 -27 -28 -29 -30 -31
leaf_value=-2.1394773305649704 0.075605543384234059 1.47526574407601 -1.3618286088204066 2.0351943604203924 -0.68785407123662368 0.66997054867051054 -1.7598113655962413 -0.3545163604349898 1.7646642219031852 1.0158742170117818 0.36308425134456623 -1.0236032533937374 1.8908538403390107 2.1477651135256819 -0.18945427440070167 0.57767079963929147 -1.558310240410651 -0.50576228515913491 -0.84220742526211001 -1.1776640715622717 -2.0047928967834947 0.17775802515359851 0.76855150962196972 1.1600638659599465 -0.044754629114327246 1.9592949001747657 1.8252329429826344 0.27438047603036736 0.86507222998233257 0.45139763370792912
leaf_weight=24243 136 138 141 696 138 145 146 146 580 278 148 147 682 21618 142 140 142 148 143 141 142 145 141 138 141 558 561 141 144 138
leaf_count=24243 136 138 141 696 138 145 146 146 580 278 148 147 682 21618 142 140 142 148 143 141 142 145 141 138 141 558 561 141 144 138
internal_value=0.000221956 2.01782 -2.06145 2.11339 -0.687112 0.616801 -2.13313 -0.35652 1.83987 0.913665 0.320558 -1.10021 1.86093 2.14426 -0.198185 0.462456 -1.66105 -0.593852 -0.934495 -1.27021 -2.1387 0.177227 0.768013 1.06399 -0.117419 1.92181 1.79461 0.22549 0.817624 0.405857
internal_weight=52487 26527 25960 24833 1287 1694 24673 715 2519 846 848 572 2381 22314 429 426 288 286 290 282 24385 422 430 416 283 1240 1141 286 285 286
internal_count=52487 26527 25960 24833 1287 1694 24673 715 2519 846 848 572 2381 22314 429 426 288 286 290 282 24385 422 430 416 283 1240 1141 286 285 286
is_linear=0
shrinkage=0.05


Tree=4
num_leaves=31
num_cat=0
split_feature=8 8 8 8 8 8 8 8 8 8 8 8 8 8 8 8 8 8 8 8 9 8 8 8 8 8 8 8 8 3
split_gain=7.88165e+07 1.28212e+06 923195 75537.1 63442.4 53773.7 23273 9695.75 6654.48 6571.78 6223.15 5771.79 4006.58 2724.45 1953.6 992.813 950.048 840.49 826.609 800.816 750.857 746.219 732.672 682.813 534.239 350.926 238.422 212.549 193.738 171.718
threshold=0.50750000000000017 0.97350000000000014 0.16150000000000003 1.6095000000000004 0.32050000000000006 0.74150000000000016 0.060500000000000005 0.40150000000000008 0.85250000000000015 1.0225000000000002 0.62350000000000005 0.24250000000000002 1.8455000000000001 1.2995000000000003 0.43550000000000005 0.69850000000000001 0.11450000000000002 0.36350000000000005 0.28350000000000003 0.20150000000000004 1.0000000180025095e-35 0.5505000000000001 0.77750000000000019 0.89450000000000018 0.47350000000000003 1.4325000000000003 0.58750000000000002 0.81650000000000011 0.65750000000000008 1.0125000000000002
decision_type=2 2 2 2 2 2 2 2 2 2 2 2 2 2 2 2 2 2 2 2 2 2 2 2 2 2 2 2 2 2
left_child=2 5 6 9 11 10 20 17 22 29 21 19 -5 -11 -9 28 -8 -6 -13 -4 -1 -2 -7 -10 -16 -15 -23 -24 -12 -3
right_child=1 3 4 12 7 8 16 14 23 13 15 18 -14 25 24 -17 -18 -19 -20 -21 -22 26 27 -25 -26 -27 -28 -29 -30 -31
leaf_value=-2.0325039330057355 0.071828045129425644 1.4769251962340211 -1.2937854474863206 1.9263000375317549 -0.65348627095978662 0.63649510956073463 -1.6718810217907625 -0.33680267709318212 0.91824129889993122 1.6976289895601617 0.3449423005337815 -0.97245790143145916 2.0403773055751402 1.7748850359602124 -0.17998822725297364 0.54880786959738681 -1.4804495558446769 -0.48049124325553283 -0.80012647707424012 -1.1188225865786503 -1.9046237881128256 0.16887624727948464 0.73015117320838685 1.0579080506092156 -0.042518483878830809 1.8383187386515871 0.26067117379118926 0.821848631533875 0.42884410175182613 1.3399447073732371
leaf_weight=24243 136 61 141 834 138 145 146 146 141 1004 148 147 21618 535 142 140 142 148 143 141 142 145 141 275 141 704 141 144 138 77
leaf_count=24243 136 61 141 834 138 145 146 146 141 1004 148 147 21618 535 142 140 142 148 143 141 142 145 141 275 141 704 141 144 138 77
internal_value=0.000211401 1.91694 -1.95838 2.00773 -0.652782 0.585981 -2.02648 -0.338708 0.868009 1.73964 0.304543 -1.04524 2.03615 1.76038 -0.188284 0.439351 -1.57806 -0.564181 -0.887803 -1.20675 -2.03177 0.168373 0.72964 1.01081 -0.111553 1.81108 0.214225 0.776772 0.38558 1.40156
internal_weight=52487 26527 25960 24833 1287 1694 24673 715 846 2381 848 572 22452 2243 429 426 288 286 290 282 24385 422 430 416 283 1239 286 285 286 138
internal_count=52487 26527 25960 24833 1287 1694 24673 715 846 2381 848 572 22452 2243 429 426 288 286 290 282 24385 422 430 416 283 1239 286 285 286 138
is_linear=0
shrinkage=0.05


Tree=5
num_leaves=31
num_cat=0
split_feature=8 8 8 8 8 8 8 8 8 8 8 8 8 8 8 8 8 8 9 8 8 8 8 8 8 8 8 8 8 8
split_gain=7.13368e+07 1.13439e+06 828062 67952.7 58724.8 48599.3 19918.7 9977.63 6285.67 5930.82 5867.23 4628.26 2610.36 2156.09 1767.59 1003.89 901.503 805.936 771.823 680.807 644.705 610.759 531.503 513.231 495.776 475.718 206.766 196.415 166.227 159.713
threshold=0.50750000000000017 0.97350000000000014 0.16150000000000003 1.6865000000000003 0.36350000000000005 0.74150000000000016 0.060500000000000005 0.28350000000000003 0.85250000000000015 1.2625000000000002 0.62350000000000005 0.43550000000000005 1.0225000000000002 0.20150000000000004 1.9245000000000003 1.4675000000000002 0.69850000000000001 0.11450000000000002 1.0000000180025095e-35 0.5505000000000001 0.77750000000000019 0.93150000000000011 0.32050000000000006 0.24250000000000002 0.40150000000000008 0.47350000000000003 0.58750000000000002 0.81650000000000011 0.65750000000000008 0.89450000000000018
decision_type=2 2 2 2 2 2 2 2 2 2 2 2 2 2 2 2 2 2 2 2 2 2 2 2 2 2 2 2 2 2
left_child=2 5 6 9 7 10 18 13 20 12 19 24 -3 -4 -5 -11 28 -8 -1 -2 -7 29 -9 -15 -6 -13 -21 -22 -12 -10
right_child=1 3 4 14 11 8 17 22 21 15 16 25 -14 23 -16 -17 -18 -19 -20 26 27 -23 -24 -25 -26 -27 -28 -29 -30 -31
leaf_value=-1.9308832489437169 0.06379655655104069 1.3698520903349092 -1.2309641505487108 1.8613526729744123 -0.45682168493534481 0.60354034510958976 -1.5901519820410659 -0.76426842651822346 0.87576666496211342 1.6868866359687325 0.32942812202807187 -0.16853352747832248 1.6059894674175728 -1.0598447644418634 1.9389666278404267 1.7678710015055434 0.52218366746184519 -1.4062838913116347 -1.8022457931161686 0.15903519036342723 0.69275351907605331 1.0529664925309348 -0.62383784845846202 -0.92173816645762185 -0.32152210515795315 -0.040819586127441895 0.24575578075315019 0.78222884909242385 0.40874949357180945 0.9593964868711865
leaf_weight=24335 131 142 147 830 141 140 127 134 128 865 138 147 850 151 21332 858 150 140 141 140 139 143 147 141 134 145 138 137 137 157
leaf_count=24335 131 142 147 830 141 140 127 134 128 865 138 147 850 151 21332 858 150 140 141 140 139 143 147 141 134 145 138 137 137 157
internal_value=-0.00105777 1.82225 -1.86114 1.90712 -0.624549 0.563911 -1.92545 -0.924246 0.831386 1.67075 0.293156 -0.243877 1.57233 -1.0733 1.93607 1.72732 0.423249 -1.49432 -1.93015 0.157892 0.692554 0.966121 -0.691071 -0.993512 -0.391053 -0.105167 0.202174 0.737452 0.369097 0.922174
internal_weight=52585 26555 26030 24877 1287 1678 24743 720 844 2715 834 567 992 439 22162 1723 425 267 24476 409 416 428 281 292 275 292 278 276 275 285
internal_count=52585 26555 26030 24877 1287 1678 24743 720 844 2715 834 567 992 439 22162 1723 425 267 24476 409 416 428 281 292 275 292 278 276 275 285
is_linear=0
shrinkage=0.05


Tree=6
num_leaves=31
num_cat=0
split_feature=8 8 8 8 8 8 8 8 8 8 8 8 8 8 8 8 8 9 8 8 8 8 8 8 8 8 8 8 8 8
split_gain=6.43817e+07 1.02375e+06 747299 61330.2 53002.8 43864 17971.3 9005.23 5673.04 5295.5 4720.04 4177.28 2426.57 2354.7 1945.79 813.56 727.182 695.335 661.66 614.452 581.771 551.059 479.603 463.018 447.393 429.346 186.582 177.14 149.962 143.947
threshold=0.50750000000000017 0.97350000000000014 0.16150000000000003 1.6525000000000001 0.36350000000000005 0.74150000000000016 0.060500000000000005 0.28350000000000003 0.85250000000000015 0.62350000000000005 1.2625000000000002 0.43550000000000005 1.8895000000000002 1.0225000000000002 0.20150000000000004 0.69850000000000001 0.11450000000000002 1.0000000180025095e-35 1.4675000000000002 0.5505000000000001 0.77750000000000019 0.93150000000000011 0.32050000000000006 0.24250000000000002 0.40150000000000008 0.47350000000000003 0.58750000000000002 0.81650000000000011 0.65750000000000008 0.89450000000000018
decision_type=2 2 2 2 2 2 2 2 2 2 2 2 2 2 2 2 2 2 2 2 2 2 2 2 2 2 2 2 2 2
left_child=2 5 6 10 7 9 17 14 20 19 13 24 -5 -3 -4 28 -8 -1 -12 -2 -7 29 -9 -16 -6 -13 -21 -22 -11 -10
right_child=1 3 4 12 11 8 16 22 21 15 18 25 -14 -15 23 -17 -18 -19 -20 26 27 -23 -24 -25 -26 -27 -28 -29 -30 -31
leaf_value=-1.8343395706513412 0.06060916214135656 1.3014076879878518 -1.169457771565783 1.7522252901029365 -0.43399678922392315 0.57338487324248388 -1.5107069452197228 -0.72608350708269531 0.83201250721010556 0.31296864388042567 1.602552044552856 -0.16011257823999847 1.841767837798183 1.5256994348850661 -1.0068875868852214 0.4960918777232009 -1.3360198939212471 -1.7121973633850658 1.6729577234225663 0.15108910610129545 0.65814073557137254 1.0003549575805664 -0.5926671541604277 -0.87568390932089901 -0.30545798631678051 -0.038780013456052337 0.23347689064407073 0.74314593656666528 0.38832692588705991 0.91145720333145508
leaf_weight=24335 131 142 147 832 141 140 127 134 128 138 865 147 21475 850 151 150 140 141 713 140 139 143 147 141 134 145 138 137 137 157
leaf_count=24335 131 142 147 832 141 140 127 134 128 138 865 147 21475 850 151 150 140 141 713 140 139 143 147 141 134 145 138 137 137 157
internal_value=-0.00100442 1.73114 -1.76808 1.81177 -0.593345 0.535737 -1.82918 -0.878067 0.789848 0.27851 1.58021 -0.231694 1.83844 1.49373 -1.01967 0.402103 -1.41966 -1.83364 1.63447 0.150004 0.657952 0.91785 -0.656543 -0.943871 -0.371515 -0.0999128 0.192074 0.700607 0.350656 0.876099
internal_weight=52585 26555 26030 24877 1287 1678 24743 720 844 834 2570 567 22307 992 439 425 267 24476 1578 409 416 428 281 292 275 292 278 276 275 285
internal_count=52585 26555 26030 24877 1287 1678 24743 720 844 834 2570 567 22307 992 439 425 267 24476 1578 409 416 428 281 292 275 292 278 276 275 285
is_linear=0
shrinkage=0.05


Tree=7
num_leaves=31
num_cat=0
split_feature=20 4 20 4 20 20 20 4 7 7 20 20 19 20 4 4 7 20 20 4 20 20 20 4 20 7 6 20 7 7
split_gain=5.792e+07 1.02511e+06 552614 52572.8 47381.8 45399 39451.3 28506.9 25352.3 22539 14246.8 9834.76 8075.52 6580.12 5701.63 5237 4294.95 4151.87 3865.18 3682.53 3660.23 3123.77 2989.07 2621.37 2353.39 2218.98 2160.66 2107.08 2007.26 1987.48
threshold=24.976500000000005 1.0255000000000003 28.144500000000004 1.1475000000000002 30.687000000000001 26.653000000000002 21.697000000000006 1.0075000000000001 12.459500000000002 19.825000000000006 15.978500000000002 23.609500000000004 79.636500000000012 25.878500000000006 1.2985000000000002 1.0655000000000003 23.935500000000001 23.609500000000004 29.085000000000004 1.0585000000000002 20.169500000000003 27.206500000000002 17.659000000000002 1.0495000000000003 34.252500000000005 24.569500000000001 1.2605000000000002 24.387500000000006 10.085500000000001 8.2995000000000019
decision_type=2 2 2 2 2 2 2 2 2 2 2 2 2 2 2 2 2 2 2 2 2 2 2 2 2 2 2 2 2 2
left_child=1 7 5 6 9 13 19 -1 21 28 26 15 16 -2 20 -8 24 -9 -11 -3 -12 29 -21 27 -6 -20 -5 -13 -4 -7
right_child=2 3 4 10 12 8 11 17 -10 18 14 23 -14 -15 -16 -17 -18 -19 25 22 -22 -23 -24 -25 -26 -27 -28 -29 -30 -31
leaf_value=-1.7419302684711202 0.27346321695026121 -1.2901114761506192 1.6320117000929653 -0.84913309855200714 1.5979824761590475 1.3550003583950814 -0.84682920381946047 -1.3587376426811792 0.72316671545335609 0.8572500405852328 -0.40753826628776268 -0.56728649999984415 1.7435282382109905 0.57623280366132257 0.25519806447356441 -0.43448831434844792 1.5132838971676223 -0.93462301609026177 1.4254784320578968 -1.2037206064333437 -0.0029620417542172359 1.4394568030860935 -0.83014579280922374 -0.13006591618397495 1.7349544765871177 1.0867733939726978 -0.36076913073733263 -0.20741911496301324 1.4862089962216478 0.9307531894052794
leaf_weight=24456 351 129 435 53 535 49 152 179 397 126 72 88 21507 368 184 157 532 87 77 82 249 205 160 197 858 140 40 76 577 67
leaf_count=24456 351 129 435 53 535 49 152 179 397 126 72 88 21507 368 184 157 532 87 77 82 249 205 160 197 858 140 40 76 577 67
internal_value=-0.000953813 -1.65604 1.66278 -0.445055 1.71805 0.709439 -0.659667 -1.73632 0.990671 1.4302 -0.0714014 -0.430502 1.73469 0.428493 0.0333609 -0.637547 1.6358 -1.22045 1.07919 -1.07328 -0.0938223 1.32117 -0.957195 -0.253139 1.68247 1.20758 -0.639751 -0.400777 1.54904 1.11102
internal_weight=52585 26361 26224 1639 24787 1437 1041 24722 718 1355 598 670 23432 719 505 309 1925 266 343 371 321 321 242 361 1393 217 93 164 1012 116
internal_count=52585 26361 26224 1639 24787 1437 1041 24722 718 1355 598 670 23432 719 505 309 1925 266 343 371 321 321 242 361 1393 217 93 164 1012 116
is_linear=0
shrinkage=0.05


Tree=8
num_leaves=31
num_cat=0
split_feature=6 19 9 9 1 18 19 7 19 17 4 19 17 19 6 1 4 0 19 7 7 1 17 1 6 7 19 1 38 7
split_gain=5.14395e+07 1.06375e+06 533392 173883 138640 117958 67273.8 66343.7 42194.7 26807.8 24746.8 23027.3 27258.6 20680.5 18417.3 18274.1 12594.6 10962 10455.3 9362.91 9078.79 7609.19 6728.1 6405.52 6316.16 5864.39 5482.81 5456.35 4715.07 4364.3
threshold=1.0775000000000003 68.960000000000022 0.060500000000000005 0.45850000000000007 15.699500000000002 0.80750000000000022 71.307000000000016 13.006500000000001 57.681500000000007 17.282500000000002 1.0075000000000001 77.409500000000023 44.938500000000005 59.177500000000009 1.0995000000000001 5.363500000000001 1.1225000000000003 49.803000000000004 85.635500000000022 8.5355000000000008 10.686500000000001 21.920000000000005 64.429500000000019 49.747500000000009 1.0355000000000001 28.081500000000002 47.87850000000001 20.619000000000003 63.905500000000011 24.814500000000006
decision_type=2 2 2 2 2 2 2 2 2 2 2 2 2 2 2 2 2 2 2 2 2 2 2 2 2 2 2 2 2 2
left_child=2 3 10 9 7 8 25 14 26 27 -1 12 17 21 19 24 -11 -6 28 -3 -17 -7 -10 -15 -8 -4 -5 -2 -9 -18
right_child=1 4 6 5 11 13 15 18 22 16 -12 -13 -14 23 -16 20 29 -19 -20 -21 -22 -23 -24 -25 -26 -27 -28 -29 -30 -31
leaf_value=-1.6548416770628582 -0.89603128951598809 1.3091649530049625 -0.76276577302854343 0.0080391031293016463 0.85929967084843606 -0.75024255143208629 -0.67258691843381668 -0.1760256571518948 0.83844335018680782 -0.36420668180506416 -1.1759842885840943 1.6505069340096015 1.5892655088352345 0.33857435928367241 1.4364571264423376 0.54208322944461651 0.49582422583179242 1.3765256364703615 1.0320719154687648 0.69500844776046433 -0.11158382405335161 -0.015415277557377739 1.4040271876203769 0.86193336958158651 -0.13020179168726639 -1.1984151410138686 0.63538422101008019 -0.22351065093450972 0.42236876059296835 0.045707304146383812
leaf_weight=24453 148 105 270 48 223 42 77 39 59 192 274 22360 899 234 745 154 72 191 67 153 81 216 532 78 177 109 127 38 209 213
leaf_count=24453 148 105 270 48 223 42 77 39 59 192 274 22360 899 234 745 154 72 191 67 153 81 216 532 78 177 109 127 38 209 213
internal_value=-0.000905329 1.52196 -1.60678 0.412064 1.61074 0.740554 -0.388451 1.11145 1.1458 -0.249876 -1.64954 1.63853 1.43453 0.195853 1.31025 -0.000888594 -0.0512785 1.09821 0.478219 0.945386 0.316804 -0.135302 1.34772 0.469664 -0.294845 -0.888354 0.463444 -0.758855 0.328213 0.159573
internal_weight=52585 26990 25595 1999 24991 1336 868 1318 766 663 24727 23673 1313 570 1003 489 477 414 315 258 235 258 591 312 254 379 175 186 248 285
internal_count=52585 26990 25595 1999 24991 1336 868 1318 766 663 24727 23673 1313 570 1003 489 477 414 315 258 235 258 591 312 254 379 175 186 248 285
is_linear=0
shrinkage=0.05


Tree=9
num_leaves=31
num_cat=0
split_feature=20 1 20 1 20 20 20 7 7 20 6 1 20 1 7 20 20 6 20 20 20 7 7 4 6 7 20 20 20 12
split_gain=4.71886e+07 835235 452505 50533.5 44693.1 33172.1 30905.1 25142.4 14935.6 12098.4 8542.2 6825.93 6668.65 6395.46 5989.8 5965.32 5395.07 4938.48 3059.73 2823.64 2654.42 2378 2094.11 1919.21 1814.49 1731.96 1697.41 1682.13 1509.99 1483.03
threshold=24.976500000000005 1.7355000000000003 28.363500000000005 14.667000000000002 26.653000000000002 23.170000000000005 30.687000000000001 14.428500000000001 22.256500000000006 15.978500000000002 1.0095000000000003 5.363500000000001 34.801500000000004 3.5530000000000004 13.768500000000001 20.521500000000003 25.878500000000006 1.2925000000000002 27.206500000000002 24.123500000000003 20.521500000000003 9.9725000000000019 8.2995000000000019 1.0655000000000003 1.3185000000000002 10.618500000000003 24.123500000000003 18.069500000000001 29.579500000000003 -3.9864999999999999
decision_type=2 2 2 2 2 2 2 2 2 2 2 2 2 2 2 2 2 2 2 2 2 2 2 2 2 2 2 2 2 2
left_child=1 10 4 5 16 11 8 18 21 24 -1 27 14 26 -8 -13 -2 20 22 23 -11 -4 -6 -15 -5 -18 -7 -3 -10 -20
right_child=2 3 6 9 7 13 12 -9 28 17 -12 15 -14 19 -16 -17 25 -19 29 -21 -22 -23 -24 -25 -26 -27 -28 -29 -30 -31
leaf_value=-1.5722313939455641 0.24502804504139275 -1.3692865686147695 1.4881017707454831 -0.71866975218355245 1.2244068225386675 -0.75002911520606497 1.5549204617931729 0.62669755311025777 0.81940818419641559 -0.34201522134834317 -1.2196081359749995 -0.97950286342195447 1.574272783134254 -0.5129915847637927 1.3815261464914839 -0.57957689533644674 0.65171739473928891 0.219835742830504 0.89493696170539438 -0.073262321815778089 -0.010614063856670602 1.3280833256754068 0.80463584147572687 -0.19309823730766421 -0.21349301772246224 0.42974509447609938 -0.42851342595784009 -1.027251155940015 1.0804582440886512 1.2900546225554508
leaf_weight=24440 351 46 398 70 49 87 1158 388 121 82 175 164 21376 95 898 218 148 201 27 169 229 606 79 93 24 220 79 189 107 298
leaf_count=24440 351 46 398 70 49 87 1158 388 121 82 175 164 21376 95 898 218 148 201 27 169 229 606 79 93 24 220 79 189 107 298
internal_value=-0.000859358 -1.49477 1.50086 -0.43799 0.674941 -0.634097 1.55309 0.922393 1.3086 -0.0690251 -1.56973 -0.882409 1.56594 -0.341033 1.47926 -0.751497 0.385406 0.0267288 1.17545 -0.221679 -0.0980911 1.39166 0.966199 -0.35496 -0.590106 0.519183 -0.597399 -1.09478 0.94236 1.25753
internal_weight=52585 26361 26224 1746 1560 1140 24664 841 1232 606 24615 617 23432 523 2056 382 719 512 453 357 311 1004 128 188 94 368 166 235 228 325
internal_count=52585 26361 26224 1746 1560 1140 24664 841 1232 606 24615 617 23432 523 2056 382 719 512 453 357 311 1004 128 188 94 368 166 235 228 325
is_linear=0
shrinkage=0.05


Tree=10
num_leaves=31
num_cat=0
split_feature=8 8 8 8 8 8 8 8 8 8 8 8 8 8 8 8 8 8 8 8 8 8 8 9 8 8 8 8 8 8
split_gain=4.28097e+07 688271 489884 43532.8 33986.6 28508.3 11972.9 5352.38 3718.62 3212.95 3195.71 3109.17 1586.01 1187.03 1173.32 535.475 503.881 472.029 469.787 463.795 425.855 385.685 371.067 343.535 310.105 257.264 126.179 121.377 82.8765 79.7241
threshold=0.50750000000000017 0.97350000000000014 0.16150000000000003 1.6865000000000003 0.32050000000000006 0.74150000000000016 0.060500000000000005 0.43550000000000005 0.85250000000000015 0.24250000000000002 0.62350000000000005 1.2995000000000003 1.0225000000000002 0.36350000000000005 1.9245000000000003 0.11450000000000002 0.20150000000000004 1.5375000000000003 0.69850000000000001 0.77750000000000019 0.28350000000000003 0.5505000000000001 0.47350000000000003 1.0000000180025095e-35 0.93150000000000011 0.40150000000000008 0.58750000000000002 0.81650000000000011 0.65750000000000008 1.7605000000000002
decision_type=2 2 2 2 2 2 2 2 2 2 2 2 2 2 2 2 2 2 2 2 2 2 2 2 2 2 2 2 2 2
left_child=2 5 6 11 9 10 23 13 19 16 21 12 -3 -6 29 -8 -4 -13 28 -7 -11 -2 -9 -1 -10 -15 -23 -21 -12 -5
right_child=1 3 4 14 7 8 15 22 24 20 18 17 -14 25 -16 -17 -18 -19 -20 27 -22 26 -24 -25 -26 -27 -28 -29 -30 -31
leaf_value=-1.4941738322529143 0.055294386367855858 1.061113930162876 -0.95660278960948697 1.4065316495648355 -0.48237702528302445 0.45701089381845261 -1.2407576853923672 -0.1393066218394671 0.71031674388816046 -0.71521122923584868 0.25681855442733043 1.3104423030313956 1.2455757086923978 -0.35371501825955809 1.5017078966197579 -1.0957255677062867 -0.82100286438991221 1.3714627090819094 0.39680298384680951 0.531920061543939 -0.59063602689980332 0.12623182400554755 -0.023087896321917982 -1.4060596605659288 0.80594952798432784 -0.25782402339368787 0.19275969601980136 0.60295017602002687 0.31268157550573888 1.454356629732064
leaf_weight=24352 133 138 144 274 143 146 135 139 280 140 147 1005 996 141 21389 148 149 581 138 130 147 150 136 142 136 144 139 141 133 559
leaf_count=24352 133 138 144 274 143 146 135 139 280 140 147 1005 996 141 21389 148 149 581 138 130 147 150 136 142 136 144 139 141 133 559
internal_value=-8.92681e-05 1.41038 -1.44059 1.47623 -0.487874 0.428583 -1.48992 -0.25406 0.635839 -0.771172 0.222997 1.28722 1.22323 -0.364634 1.49936 -1.16534 -0.887967 1.33288 0.320986 0.529989 -0.65165 0.125871 -0.0818786 -1.49367 0.74178 -0.30539 0.158303 0.569104 0.283473 1.4388
internal_weight=52675 26615 26060 24942 1283 1673 24777 703 833 580 840 2720 1134 428 22222 283 293 1586 418 417 287 422 275 24494 416 285 289 271 280 833
internal_count=52675 26615 26060 24942 1283 1673 24777 703 833 580 840 2720 1134 428 22222 283 293 1586 418 417 287 422 275 24494 416 285 289 271 280 833
is_linear=0
shrinkage=0.05


Tree=11
num_leaves=31
num_cat=0
split_feature=8 8 8 8 8 8 8 8 8 8 8 8 8 8 8 8 8 8 8 8 8 8 8 9 8 8 8 8 8 8
split_gain=3.86359e+07 621148 442104 39284.7 30675 25730.1 10802.3 4830.83 3355.89 2899.73 2884.3 2805.68 1430.59 1071.29 1062.22 483.111 454.624 425.842 423.948 418.524 384.246 348.088 334.898 309.291 279.84 232.141 113.856 109.437 77.0023 74.7509
threshold=0.50750000000000017 0.97350000000000014 0.16150000000000003 1.6865000000000003 0.32050000000000006 0.74150000000000016 0.060500000000000005 0.43550000000000005 0.85250000000000015 0.24250000000000002 0.62350000000000005 1.2995000000000003 1.0225000000000002 0.36350000000000005 1.8895000000000002 0.11450000000000002 0.20150000000000004 1.5375000000000003 0.69850000000000001 0.77750000000000019 0.28350000000000003 0.5505000000000001 0.47350000000000003 1.0000000180025095e-35 0.93150000000000011 0.40150000000000008 0.58750000000000002 0.81650000000000011 0.89450000000000018 0.65750000000000008
decision_type=2 2 2 2 2 2 2 2 2 2 2 2 2 2 2 2 2 2 2 2 2 2 2 2 2 2 2 2 2 2
left_child=2 5 6 11 9 10 23 13 19 16 21 12 -3 -6 -5 -8 -4 -13 29 -7 -11 -2 -9 -1 28 -15 -23 -21 -10 -12
right_child=1 3 4 14 7 8 15 22 24 20 18 17 -14 25 -16 -17 -18 -19 -20 27 -22 26 -24 -25 -26 -27 -28 -29 -30 -31
leaf_value=-1.4194653911787094 0.052531744404237628 1.0080966488163512 -0.90880584796214592 1.3611568658897513 -0.45827502787821289 0.43417599033118121 -1.1787657192069279 -0.13234629795158792 0.64499879935058346 -0.67947618537592436 0.24398635449172851 1.2449267060895925 1.1833031772980787 -0.33604180091328018 1.4264276284480515 -1.0409762727014928 -0.77998025089522338 1.3029013786519421 0.37697720420610903 0.50534450426915356 -0.56112429834725019 0.11992443984623834 -0.021934349481139571 -1.3358061474364549 0.76568165757391593 -0.24494176954961669 0.18312864232457515 0.57282403388993275 0.70411101531165576 0.29705924002592232
leaf_weight=24352 133 138 144 696 143 146 135 139 140 140 147 1005 996 141 21526 148 149 581 138 130 147 150 136 142 136 144 139 141 140 133
leaf_count=24352 133 138 144 696 143 146 135 139 140 140 147 1005 996 141 21526 148 149 581 138 130 147 150 136 142 136 144 139 141 140 133
internal_value=-8.43712e-05 1.33986 -1.36856 1.40242 -0.463499 0.407169 -1.41543 -0.241367 0.604067 -0.732641 0.211856 1.22286 1.16208 -0.346416 1.42439 -1.10712 -0.843599 1.26625 0.30495 0.50351 -0.619091 0.119583 -0.0777886 -1.41899 0.704709 -0.290132 0.150394 0.540671 0.674814 0.269311
internal_weight=52675 26615 26060 24942 1283 1673 24777 703 833 580 840 2720 1134 428 22222 283 293 1586 418 417 287 422 275 24494 416 285 289 271 280 280
internal_count=52675 26615 26060 24942 1283 1673 24777 703 833 580 840 2720 1134 428 22222 283 293 1586 418 417 287 422 275 24494 416 285 289 271 280 280
is_linear=0
shrinkage=0.05


Tree=12
num_leaves=31
num_cat=0
split_feature=20 1 20 9 20 20 7 20 7 20 9 20 1 20 4 20 20 1 1 7 20 7 20 4 19 7 7 20 1 7
split_gain=3.47501e+07 615453 333434 36628.6 33982.3 22054.3 16237.1 15397.5 11683 9514.49 6488.93 6025.53 5987.95 5903.2 5888.45 4098.9 3571.91 3229.26 3191.49 2545.61 2301.94 2077.6 1896.88 1863.05 1818.63 4185.72 1684.91 2538.5 1626.66 1280.95
threshold=24.976500000000005 1.7355000000000003 28.363500000000005 0.29950000000000004 26.928500000000003 32.991000000000007 14.807500000000003 21.431000000000001 17.542500000000004 15.503500000000003 0.021500000000000002 26.141500000000004 29.883500000000002 30.038500000000003 1.0325000000000002 22.743000000000006 23.874500000000005 7.0285000000000002 16.234000000000005 9.7005000000000017 23.874500000000005 10.036500000000002 13.170000000000002 1.0945000000000003 84.417500000000018 23.272500000000004 10.504500000000002 27.669500000000003 25.078500000000002 23.079500000000003
decision_type=2 2 2 2 2 2 2 2 2 2 2 2 2 2 2 2 2 2 2 2 2 2 2 2 2 2 2 2 2 2
left_child=1 10 4 7 11 8 26 17 21 28 -1 -2 15 29 20 18 23 -3 -11 -13 -9 -4 -19 -16 25 -7 -6 -28 -5 -10
right_child=2 3 5 9 6 24 -8 14 13 12 -12 19 -14 -15 16 -17 -18 22 -20 -21 -22 -23 -24 -25 -26 -27 27 -29 -30 -31
leaf_value=-1.3478269508906497 0.24904724667823977 -0.99430174841038055 1.3167990628646034 -0.81761149124987809 1.1192664502674439 1.3430633515374328 0.55422100582015466 -0.82434205083636347 0.94889993778366122 -0.57739819182253738 -1.0304747294391676 0.69703039262388966 0.18111208290606362 1.1168664116742326 -0.51840191755648346 -0.014219926443066092 -0.15108087435126494 -0.95162383573218845 -0.16952302812423814 0.41957215420016403 -0.47553115252333528 1.2060695393842997 -0.57703029659973382 -0.23977693945134015 1.3526445665098474 1.1914104356454169 0.65299558202490671 1.0665044392771434 -0.35346054440346836 0.70079438019621565
leaf_weight=24483 486 177 763 47 251 1930 302 104 86 73 164 129 197 403 213 262 168 48 140 233 88 1025 118 84 19762 609 61 98 32 139
leaf_count=24483 486 177 763 47 251 1930 302 104 86 73 164 129 197 403 213 262 168 48 140 233 88 1025 118 84 19762 609 61 98 32 139
internal_value=-7.98416e-05 -1.28137 1.28711 -0.375565 0.578092 1.33186 0.832769 -0.573731 1.18811 -0.111647 -1.34572 0.36418 -0.050577 1.00207 -0.431839 -0.146695 -0.335505 -0.845296 -0.30954 0.518624 -0.664827 1.2534 -0.685884 -0.439723 1.34742 1.30674 1.03775 0.908404 -0.630349 0.796027
internal_weight=52675 26398 26277 1751 1560 24717 712 1000 2416 751 24647 848 672 628 657 475 465 343 213 362 192 1788 166 297 22301 2539 410 159 79 225
internal_count=52675 26398 26277 1751 1560 24717 712 1000 2416 751 24647 848 672 628 657 475 465 343 213 362 192 1788 166 297 22301 2539 410 159 79 225
is_linear=0
shrinkage=0.05


Tree=13
num_leaves=31
num_cat=0
split_feature=20 1 20 1 20 20 20 7 20 7 4 20 20 20 4 1 20 19 4 17 20 7 7 19 7 20 1 20 20 20
split_gain=3.13621e+07 555422 300912 33145.8 30671.2 19919 19058.5 14655.5 12119.9 9975.05 5798.04 5438.54 4907.64 4114.67 4067.78 3561.24 3499.91 3335.73 3136.11 2907.94 2478.9 2297.63 1755.95 1619.77 1519.91 2290.83 1346.34 1279.27 1094.68 1035.51
threshold=24.976500000000005 1.7355000000000003 28.363500000000005 11.321500000000002 26.928500000000003 31.316500000000005 22.962500000000002 14.807500000000003 15.503500000000003 20.142500000000002 1.0075000000000001 26.141500000000004 24.387500000000006 18.069500000000001 1.3175000000000001 5.363500000000001 22.743000000000006 80.572500000000005 1.0495000000000003 56.842500000000008 30.038500000000003 9.7005000000000017 9.3045000000000027 70.316500000000019 10.504500000000002 27.669500000000003 25.733500000000003 22.265000000000004 25.591500000000003 19.342000000000002
decision_type=2 2 2 2 2 2 2 2 2 2 2 2 2 2 2 2 2 2 2 2 2 2 2 2 2 2 2 2 2 2
left_child=1 10 4 6 11 9 13 24 26 22 -1 28 18 -3 16 -15 29 19 -8 -7 -11 -13 -4 -21 -6 -26 -5 -12 -2 -10
right_child=2 3 5 8 7 17 12 -9 14 20 27 21 -14 15 -16 -17 -18 -19 -20 23 -22 -23 -24 -25 25 -27 -28 -29 -30 -31
leaf_value=-1.2804984488401256 0.16078381217608237 -1.0216477060191511 1.2337794004317892 -0.69664679318475686 1.0633254120331843 1.1018539656876631 -0.54224028391862233 0.52651912877986617 -0.37351596454904901 0.73442405903714714 -1.1880650682332428 0.66220587169727008 -0.079254938220386206 -0.86252766721774321 0.20281987943837432 -0.55767843584441201 0.049518636956276903 1.2826788668977411 -0.24157348076904706 1.1646809486152685 1.0214069694934291 0.39860254521535632 1.1092053418488319 1.2828484612906079 0.62039923816187681 1.0132335826162171 -0.30069940036218429 -0.89538533397325448 0.31105688004433407 -0.14990119158920864
leaf_weight=24471 241 113 472 78 251 458 217 302 79 200 57 129 147 160 161 242 228 21248 145 429 123 233 767 1020 61 98 30 119 245 151
leaf_count=24471 241 113 472 78 251 458 217 302 79 200 57 129 147 160 161 242 228 21248 145 429 123 233 767 1020 61 98 30 119 245 151
internal_value=-7.53252e-05 -1.2173 1.22276 -0.356807 0.549203 1.26527 -0.540093 0.791156 -0.098597 1.09215 -1.27843 0.345979 -0.323003 -0.754539 -0.0132785 -0.679208 -0.0892818 1.27694 -0.421921 1.21292 0.844006 0.492709 1.15676 1.24795 0.985895 0.86304 -0.587088 -0.990823 0.236597 -0.226859
internal_weight=52675 26398 26277 1751 1560 24717 1024 712 727 1562 24647 848 509 515 619 402 458 23155 362 1907 323 362 1239 1449 410 159 108 176 486 230
internal_count=52675 26398 26277 1751 1560 24717 1024 712 727 1562 24647 848 509 515 619 402 458 23155 362 1907 323 362 1239 1449 410 159 108 176 486 230
is_linear=0
shrinkage=0.05


Tree=14
num_leaves=31
num_cat=0
split_feature=20 1 20 9 20 20 20 6 4 20 6 1 6 20 20 20 20 6 20 1 4 4 20 20 4 20 20 29 4 5
split_gain=2.83044e+07 501253 271691 30108.2 22717.3 22578.1 12731.8 9456.34 9044.57 7804.09 5379.04 5178.93 5069.32 4908.62 4552.48 3646.27 3036.65 2820.79 2698.94 2679.06 2578.48 1956.71 1788.78 1562.92 1515.91 1307.2 1210.61 1198.28 1161.3 997.706
threshold=24.976500000000005 1.7355000000000003 28.144500000000004 0.29950000000000004 30.470500000000005 26.928500000000003 21.431000000000001 1.1475000000000002 1.1875000000000002 14.295000000000002 1.0095000000000003 28.845000000000002 1.0355000000000001 26.141500000000004 35.58100000000001 21.963500000000003 23.609500000000004 1.1985000000000003 29.085000000000004 7.0285000000000002 1.3175000000000001 1.0945000000000003 23.874500000000005 13.170000000000002 1.0875000000000001 19.737500000000004 23.170000000000005 30.931000000000004 1.2655000000000001 1.6195000000000002
decision_type=2 2 2 2 2 2 2 2 2 2 2 2 2 2 2 2 2 2 2 2 2 2 2 2 2 2 2 2 2 2
left_child=1 10 5 6 8 13 19 27 -4 -5 -1 15 22 -2 20 17 24 -11 -10 -3 -6 -15 -8 -21 -14 -13 -12 -7 -20 -29
right_child=2 3 4 9 14 7 12 -9 18 11 26 25 16 21 -16 -17 -18 -19 28 23 -22 -23 -24 -25 -26 -27 -28 29 -30 -31
leaf_value=-1.2165850252910988 0.22477293954801977 -0.90130565003578722 1.0742712521189488 -0.64620681364405375 1.1713273210792639 0.68461454362916863 -0.75126956067286099 0.48291024432534702 0.57204221607178685 -0.53929090067725882 -1.0879658001572341 -0.0093430705000920999 -0.50308291899537849 0.59041815075605575 1.2188609513947553 -0.032759582340363344 -0.15970216905252788 -0.14723584007824667 0.9595652267815471 -0.8616113527896746 1.0386940238397739 0.35707059090918841 -0.43937043852307406 -0.5215752574319461 -0.2489678020681049 0.24166236530333909 -0.83122160588171945 0.98802920724945553 0.72113066502048362 0.77715643281128877
leaf_weight=24456 486 177 859 60 2117 60 102 234 116 81 87 83 171 172 21064 283 209 106 140 48 455 190 85 118 90 138 104 221 84 79
leaf_count=24456 486 177 859 60 2117 60 102 234 116 81 87 83 171 172 21064 283 209 106 140 48 455 190 85 118 90 138 104 221 84 79
internal_value=-7.09788e-05 -1.15644 1.16162 -0.33898 1.20036 0.494351 -0.518644 0.730746 0.987756 -0.0997035 -1.21451 -0.0521564 -0.389618 0.32869 1.21115 -0.146017 -0.301879 -0.317281 0.76891 -0.765587 1.14791 0.468089 -0.609835 -0.620389 -0.415605 0.147409 -0.948702 0.891646 0.870536 0.932794
internal_weight=52675 26398 26277 1751 24835 1442 1000 594 1199 751 24647 691 657 848 23636 470 470 187 340 343 2572 362 187 166 261 221 191 360 224 300
internal_count=52675 26398 26277 1751 24835 1442 1000 594 1199 751 24647 691 657 848 23636 470 470 187 340 343 2572 362 187 166 261 221 191 360 224 300
is_linear=0
shrinkage=0.05


Tree=15
num_leaves=31
num_cat=0
split_feature=8 8 8 8 8 8 8 8 8 8 8 8 8 8 8 8 8 8 8 33 8 8 8 8 8 14 8 8 8 8
split_gain=2.55842e+07 483171 234483 27998.2 21805.7 15108.8 6258.66 3492.44 1931.79 1822.09 1821.05 1691.06 1088.52 809.121 555.492 307.625 290.533 286.68 278.67 277.55 271.639 250.93 239.636 233.765 212.586 198.801 110.185 87.3269 81.8105 73.816
threshold=0.47350000000000003 0.97350000000000014 0.16150000000000003 1.6865000000000003 0.69850000000000001 0.32050000000000006 0.060500000000000005 0.81650000000000011 0.58750000000000002 0.24250000000000002 1.0225000000000002 0.40150000000000008 1.4025000000000001 1.9245000000000003 0.89450000000000018 0.43550000000000005 0.11450000000000002 0.50750000000000017 0.28350000000000003 1.8850000000000002 0.20150000000000004 0.36350000000000005 1.0000000180025095e-35 0.77750000000000019 0.62350000000000005 2425.5000000000005 1.5375000000000003 0.85250000000000015 1.2265000000000004 1.7605000000000002
decision_type=2 2 2 2 2 2 2 2 2 2 2 2 2 2 2 2 2 2 2 2 2 2 2 2 2 2 2 2 2 2
left_child=2 4 6 10 8 9 22 23 17 20 19 21 28 29 27 -13 -8 -2 -11 -3 -4 -7 -1 -6 -10 -21 -14 -9 -12 -5
right_child=1 3 5 13 7 11 16 14 24 18 12 15 26 -15 -16 -17 -18 -19 -20 25 -22 -23 -24 -25 -26 -27 -28 -29 -30 -31
leaf_value=-1.156248081433195 -0.014004745861082185 0.67908154157834622 -0.73720326043070772 1.0840175803330176 0.33071598438950139 -0.37354577436453767 -0.96654515742897373 0.46524818401074264 0.14277217947245513 -0.56168925853676777 0.95567416380301506 -0.20877489812677497 1.0188315197295414 1.1628470645235296 0.5961526608052975 -0.10594766694402091 -0.8558533653583571 0.07311962209390134 -0.46027199007740194 0.89566154309884005 -0.63802671061515182 -0.27669423553780537 -1.0844161174939799 0.40891142339213921 0.21864907126114899 0.73208476817075319 1.0560196705626641 0.524432140379261 0.98502824442015635 1.1250089798621679
leaf_weight=24269 142 32 149 286 288 144 133 138 137 138 696 139 565 21380 282 154 134 281 145 84 149 130 145 149 292 29 573 145 737 565
leaf_count=24269 142 32 149 286 288 144 133 138 137 138 696 139 565 21380 282 154 134 281 145 84 149 130 145 149 292 29 573 145 737 565
internal_value=0.00225503 1.08448 -1.12069 1.14235 0.305703 -0.422114 -1.15319 0.463815 0.119716 -0.601302 0.990653 -0.23842 1.00046 1.16088 0.545975 -0.154801 -0.911352 0.043864 -0.509925 0.816246 -0.687862 -0.32773 -1.15583 0.357476 0.194469 0.85441 1.03765 0.495764 0.970842 1.11137
internal_weight=52630 26801 25829 24947 1854 1148 24681 1002 852 581 2716 567 2571 22231 565 293 267 423 283 145 298 274 24414 437 429 113 1138 283 1433 851
internal_count=52630 26801 25829 24947 1854 1148 24681 1002 852 581 2716 567 2571 22231 565 293 267 423 283 145 298 274 24414 437 429 113 1138 283 1433 851
is_linear=0
shrinkage=0.05


Tree=16
num_leaves=31
num_cat=0
split_feature=8 8 8 8 8 8 8 8 8 8 8 8 8 8 8 2 8 8 8 8 8 38 8 8 9 8 8 20 1 8
split_gain=2.30898e+07 436054 211611 25270 19680.8 13636.6 5646.53 3152.05 1847.46 1743.53 1644.42 1526.26 1035.49 501.143 439.816 379.625 277.625 262.055 258.748 251.426 245.041 239.442 226.413 221.245 217.831 210.952 191.814 85.0039 82.178 63.5909
threshold=0.47350000000000003 0.97350000000000014 0.16150000000000003 1.7225000000000004 0.69850000000000001 0.32050000000000006 0.060500000000000005 0.81650000000000011 1.3725000000000003 0.58750000000000002 0.24250000000000002 0.40150000000000008 1.0225000000000002 0.89450000000000018 1.9245000000000003 13.328500000000002 0.43550000000000005 0.11450000000000002 0.50750000000000017 0.28350000000000003 0.20150000000000004 60.088500000000003 0.36350000000000005 1.5375000000000003 1.0000000180025095e-35 0.77750000000000019 0.62350000000000005 28.622500000000006 56.991500000000009 0.65750000000000008
decision_type=2 2 2 2 2 2 2 2 2 2 2 2 2 2 2 2 2 2 2 2 2 2 2 2 2 2 2 2 2 2
left_child=2 4 6 8 9 10 24 25 12 18 20 22 15 28 -5 21 -13 -8 -2 -12 -4 -3 -7 -10 -1 -6 -11 -17 -9 -28
right_child=1 3 5 14 7 11 17 13 23 26 19 16 -14 -15 -16 27 -18 -19 -20 -21 -22 -23 -24 -25 -26 -27 29 -29 -30 -31
leaf_value=-1.0984346457314467 -0.013305001570872655 0.81299100815062497 -0.70036781670501946 1.0623606251119107 0.31418592420893798 -0.35488144955975909 -0.91825420435526428 0.46268382410837561 0.96417672082091743 0.13563877797144161 -0.53362512671369133 -0.19834365919928687 0.91891061781196637 0.56635559867012375 1.1047049630930033 0.79609989542292869 -0.10065372104307493 -0.81309261236681507 0.069464941391716717 -0.4372742553647842 -0.60614677227079117 0.61018335614569497 -0.26287015767211097 1.0070994028439459 -1.0294947488919413 0.38847956056166311 0.18432629867778538 0.9199916241855024 0.57175837738254065 0.23191520724573145
leaf_weight=24271 142 25 149 710 288 144 133 262 719 137 138 139 1279 282 21380 42 154 134 281 145 149 43 130 714 143 149 149 35 21 143
leaf_count=24271 142 25 149 710 288 144 133 262 719 137 138 139 1279 282 21380 42 154 134 281 145 149 43 130 714 143 149 149 35 21 143
internal_value=0.00214277 1.03026 -1.06466 1.08524 0.290426 -0.401025 -1.09553 0.440636 0.945165 0.113733 -0.571259 -0.226509 0.904368 0.518691 1.10335 0.775517 -0.147067 -0.865819 0.0416709 -0.484448 -0.653493 0.685903 -0.311357 0.985635 -1.09804 0.339612 0.18475 0.853599 0.470994 0.20772
internal_weight=52630 26801 25829 24947 1854 1148 24681 1002 2857 852 581 567 1424 565 22090 145 293 267 423 283 298 68 274 1433 24414 437 429 77 283 292
internal_count=52630 26801 25829 24947 1854 1148 24681 1002 2857 852 581 567 1424 565 22090 145 293 267 423 283 298 68 274 1433 24414 437 429 77 283 292
is_linear=0
shrinkage=0.05


Tree=17
num_leaves=31
num_cat=0
split_feature=8 8 8 8 8 8 8 8 8 8 8 8 8 8 8 8 33 8 8 8 8 8 9 8 37 8 8 8 8 20
split_gain=2.08386e+07 393532 190970 22811.4 17762.8 12307.8 5094.25 2853.01 1573.69 1484.07 1478.86 1377.51 888.588 656.967 508.385 250.55 245.19 236.36 233.539 226.842 221.041 204.289 196.118 173.093 172.045 168.882 88.8006 74.4081 62.7447 61.5819
threshold=0.47350000000000003 0.97350000000000014 0.16150000000000003 1.6865000000000003 0.69850000000000001 0.32050000000000006 0.060500000000000005 0.85250000000000015 0.58750000000000002 0.24250000000000002 1.0225000000000002 0.40150000000000008 1.4025000000000001 1.8455000000000001 0.77750000000000019 0.43550000000000005 1.8850000000000002 0.11450000000000002 0.50750000000000017 0.28350000000000003 0.20150000000000004 0.36350000000000005 1.0000000180025095e-35 0.62350000000000005 0.23850000000000002 0.93150000000000011 1.5745000000000002 1.2625000000000002 0.81650000000000011 21.963500000000003
decision_type=2 2 2 2 2 2 2 2 2 2 2 2 2 2 2 2 2 2 2 2 2 2 2 2 2 2 2 2 2 2
left_child=2 4 6 10 8 9 22 14 18 20 16 21 27 -5 -6 -13 -3 29 -2 -11 -4 -7 -1 -10 -18 -9 -14 -12 -16 -8
right_child=1 3 5 13 7 11 17 25 23 19 12 15 26 -15 28 -17 24 -19 -20 -21 -22 -23 -24 -25 -26 -27 -28 -29 -30 -31
leaf_value=-1.0435131495998469 -0.012640219927981056 0.60836922179130004 -0.66537291707807078 0.9931528878034328 0.29848207940826893 -0.33714969116809224 -0.90835401695441975 0.49418758680958885 0.12886178311772975 -0.50696319722335126 0.86454148708239897 -0.18843360562105133 0.9232359776437884 1.0491505964055985 0.36906861488168313 -0.0956243004437973 0.65920113763448707 -0.77246829821581642 0.065992930208702907 -0.41542561736129885 -0.57585975946315104 -0.24973675378188093 -0.97805597610526951 0.19734232482111075 0.81089363988316165 0.564158707274662 0.95769019187167981 0.89250962435643633 0.41864822875926849 -0.82281093831237695
leaf_weight=24271 142 32 149 577 288 144 76 291 137 138 843 139 703 21654 149 154 29 134 281 145 149 130 143 292 84 136 435 590 138 57
leaf_count=24271 142 32 149 577 288 144 76 291 137 138 843 139 703 21654 149 154 29 134 281 145 149 130 143 292 84 136 435 590 138 57
internal_value=0.00203602 0.978746 -1.01143 1.03098 0.275914 -0.380989 -1.04075 0.418617 0.108051 -0.542717 0.894047 -0.215193 0.902881 1.0477 0.345759 -0.13972 0.736854 -0.822562 0.0395874 -0.460243 -0.620841 -0.295801 -1.04313 0.17552 0.772625 0.516612 0.936493 0.876122 0.393063 -0.872376
internal_weight=52630 26801 25829 24947 1854 1148 24681 1002 852 581 2716 567 2571 22231 575 293 145 267 423 283 298 274 24414 429 113 427 1138 1433 287 133
internal_count=52630 26801 25829 24947 1854 1148 24681 1002 852 581 2716 567 2571 22231 575 293 145 267 423 283 298 274 24414 429 113 427 1138 1433 287 133
is_linear=0
shrinkage=0.05


Tree=18
num_leaves=31
num_cat=0
split_feature=20 1 20 6 20 20 20 7 7 20 9 20 20 7 1 20 20 6 6 1 20 20 7 20 7 20 7 19 17 7
split_gain=1.87338e+07 336103 186536 21495.4 15090.7 14585.3 11777.7 8952.8 7107.38 6318.43 3934.58 3780.71 3104.2 3064.52 2816.95 2602.29 2236.12 2083.23 1940.98 1643.71 1347.18 1050.08 1010.89 933.25 894.062 888.723 831.168 798.846 2386.65 682.919
threshold=24.976500000000005 1.7355000000000003 28.144500000000004 1.1205000000000003 30.038500000000003 26.653000000000002 22.962500000000002 12.181500000000002 17.855500000000003 17.659000000000002 0.021500000000000002 33.572500000000012 24.387500000000006 11.799500000000002 28.845000000000002 18.941500000000001 25.878500000000006 1.0535000000000003 1.0535000000000003 34.14050000000001 22.962500000000002 27.206500000000002 9.8435000000000006 27.397500000000004 8.1445000000000025 28.874500000000001 23.079500000000003 84.417500000000018 44.938500000000005 19.046500000000005
decision_type=2 2 2 2 2 2 2 2 2 2 2 2 2 2 2 2 2 2 2 2 2 2 2 2 2 2 2 2 2 2
left_child=1 10 5 6 8 16 15 21 -4 19 -1 13 17 -6 20 -3 -2 -8 -17 -5 -11 24 -18 -9 -7 -10 -27 28 -13 -15
right_child=2 3 4 9 11 7 12 23 25 14 -12 27 -14 29 -16 18 22 -19 -20 -21 -22 -23 -24 -25 -26 26 -28 -29 -30 -31
leaf_value=-0.99073920923817882 0.1542841317538631 -0.77513779849574838 0.86739568967782432 -0.43523842349686337 0.98801069697172383 0.85972413303696094 -0.42532087001642405 0.32718172092747888 0.44555967870499097 -0.14364214832914171 -0.74069984204913597 0.84460569247298134 -0.051906356447629025 0.89704880853801028 0.18254299372953731 -0.66809440070006587 0.43447979815426607 -0.18461431551586879 -0.4305750484252891 -0.035807471358135702 0.042106147964398634 0.82415107391092024 0.26500214586551868 0.47987598358576639 0.54634463597137783 0.78113262542012041 0.5474203505044255 0.99454378968539769 0.98444061949969708 0.81293980971062885
leaf_weight=24410 366 137 700 118 826 32 217 209 101 213 160 366 144 537 175 138 140 154 232 33 180 204 240 195 84 62 104 19636 2039 478
leaf_count=24410 366 137 700 118 826 32 217 209 101 213 160 366 144 537 175 138 140 154 232 33 180 204 240 195 84 62 104 19636 2039 478
internal_value=0.00193447 -0.941544 0.945126 -0.270184 0.977503 0.397801 -0.417535 0.557674 0.7836 -0.0607015 -0.989114 0.98535 -0.249031 0.916125 0.0157304 -0.588605 0.242583 -0.325495 -0.519333 -0.34806 -0.0585648 0.755276 0.327552 0.400996 0.633503 0.56365 0.635158 0.991128 0.963198 0.857528
internal_weight=52630 26311 26319 1741 24849 1470 1022 724 967 719 24570 23882 515 1841 568 507 746 371 370 151 393 320 380 404 116 267 166 22041 2405 1015
internal_count=52630 26311 26319 1741 24849 1470 1022 724 967 719 24570 23882 515 1841 568 507 746 371 370 151 393 320 380 404 116 267 166 22041 2405 1015
is_linear=0
shrinkage=0.05


Tree=19
num_leaves=31
num_cat=0
split_feature=8 8 8 8 8 8 8 8 8 8 8 8 8 8 8 2 8 3 8 8 8 8 8 8 8 8 8 20 20 20
split_gain=1.69747e+07 320593 155532 18837.6 14494.8 10121 4119.05 2349.54 1322.08 1271.13 1209.71 1108.81 754.876 406.542 343.822 338.665 204.527 203.264 194.91 193.853 177.156 165.331 160.208 160.189 157.24 150.631 132.46 68.6895 66.7705 66.5664
threshold=0.47350000000000003 0.97350000000000014 0.16150000000000003 1.7225000000000004 0.69850000000000001 0.32050000000000006 0.060500000000000005 0.85250000000000015 1.3725000000000003 0.58750000000000002 0.24250000000000002 0.40150000000000008 1.0225000000000002 0.77750000000000019 1.9245000000000003 13.328500000000002 0.43550000000000005 1.0005000000000002 0.11450000000000002 0.28350000000000003 0.50750000000000017 0.20150000000000004 0.36350000000000005 1.5375000000000003 1.0000000180025095e-35 0.65750000000000008 0.93150000000000011 28.622500000000006 26.141500000000004 21.963500000000003
decision_type=2 2 2 2 2 2 2 2 2 2 2 2 2 2 2 2 2 2 2 2 2 2 2 2 2 2 2 2 2 2
left_child=2 4 6 8 9 10 24 13 12 20 21 22 15 -6 -5 17 -13 -3 29 -12 -2 -4 -7 -10 -1 -11 -9 -17 -15 -8
right_child=1 3 5 14 7 11 18 26 23 25 19 16 -14 28 -16 27 -18 -19 -20 -21 -22 -23 -24 -25 -26 -27 -28 -29 -30 -31
leaf_value=-0.94180222967158456 -0.0096611413117177018 0.67218123807647789 -0.59976585926744153 0.90998979605280028 0.26949527687349489 -0.30251952508189134 -0.82420538502516494 0.44692936084476048 0.82551241175651935 0.13688376986560644 -0.45926556922144696 -0.16985905904036303 0.78745712473826623 0.41949388653120262 0.94733535151524662 0.68712857432150221 -0.085996895639792736 0.49288356120769788 -0.69761164748428661 -0.37469203332471168 0.058821511167233748 -0.52203741476569376 -0.22505834051318396 0.86211807372239169 -0.88344872512133854 0.20005446347862921 0.5090259140681731 0.79758737691786896 0.34423220675261396 -0.73907963774458951
leaf_weight=24269 142 33 149 710 288 144 76 291 719 286 138 139 1279 37 21380 42 154 35 134 145 281 149 130 714 145 143 136 35 250 57
leaf_count=24269 142 33 149 710 288 144 76 291 719 286 138 139 1279 37 21380 42 154 35 134 145 281 149 130 714 145 143 136 35 250 57
internal_value=0.00183851 0.883359 -0.912855 0.930502 0.248994 -0.343908 -0.939317 0.377903 0.809563 0.0973561 -0.490567 -0.19356 0.775036 0.311785 0.946139 0.664975 -0.125843 0.580828 -0.743104 -0.416098 0.0358234 -0.561107 -0.265882 0.843814 -0.941459 0.157994 0.466833 0.738371 0.354095 -0.788343
internal_weight=52630 26801 25829 24947 1854 1148 24681 1002 2857 852 581 567 1424 575 22090 145 293 68 267 283 423 298 274 1433 24414 429 427 77 287 133
internal_count=52630 26801 25829 24947 1854 1148 24681 1002 2857 852 581 567 1424 575 22090 145 293 68 267 283 423 298 274 1433 24414 429 427 77 287 133
is_linear=0
shrinkage=0.05


Tree=20
num_leaves=31
num_cat=0
split_feature=8 8 8 8 8 8 8 8 8 8 8 8 8 8 8 8 8 8 8 9 1 8 8 8 8 3 38 8 20 1
split_gain=1.52918e+07 284194 140167 16715.8 13383.5 9049.52 3795.32 1860.89 1291.81 1173.39 1099.42 955.981 624.135 357.714 285.675 193.073 174.686 170.819 169.34 164.56 155.591 152.72 151.597 133.573 133.561 128.646 157.665 118.095 81.6487 72.8886
threshold=0.47350000000000003 0.97350000000000014 0.16150000000000003 1.7225000000000004 0.74150000000000016 0.32050000000000006 0.060500000000000005 0.62350000000000005 0.85250000000000015 1.3395000000000004 0.24250000000000002 0.40150000000000008 1.0225000000000002 0.5505000000000001 1.9245000000000003 1.5745000000000002 0.43550000000000005 0.28350000000000003 0.11450000000000002 1.0000000180025095e-35 70.28700000000002 0.36350000000000005 0.69850000000000001 0.20150000000000004 0.81650000000000011 1.0125000000000002 66.147500000000022 0.89450000000000018 25.878500000000006 37.873500000000007
decision_type=2 2 2 2 2 2 2 2 2 2 2 2 2 2 2 2 2 2 2 2 2 2 2 2 2 2 2 2 2 2
left_child=2 4 6 9 7 10 19 13 24 12 23 21 25 -2 -5 29 -13 -12 -8 -1 27 -7 -9 -4 28 -3 -27 -10 -6 -11
right_child=1 3 5 14 8 11 18 22 20 15 17 16 -14 -15 -16 -17 -18 -19 -20 -21 -22 -23 -24 -25 -26 26 -28 -29 -30 -31
leaf_value=-0.89471223659742649 0.010216980370893455 0.68802726169885042 -0.57071627415181192 0.86515527239960832 0.39318155465622295 -0.2881103883252189 -0.74437219316714287 0.16951267959158678 0.39708888282343319 0.79445192761867611 -0.43533014774648893 -0.15830733415587059 0.74600535491177111 0.090374855836727788 0.89995922161691855 0.82450592383575572 -0.080329498132092794 -0.35657980520904781 -0.65953849290703359 -0.83561322935582205 0.57598772178408253 -0.2134252377692675 0.23511877265185419 -0.49871900525324425 0.35941171220310358 0.50895157185752249 0.65805333915196751 0.45586721288759158 0.29012340251626528 0.75891976937929906
leaf_weight=24331 279 65 146 685 22 137 139 285 141 738 146 148 1123 278 21269 545 141 142 128 144 22 143 130 138 141 38 40 266 255 273
leaf_count=24331 279 65 146 685 22 137 139 285 141 738 146 148 1123 278 21269 545 141 142 128 144 22 143 130 138 141 38 40 266 255 273
internal_value=-0.0021565 0.839854 -0.867329 0.884141 0.236614 -0.32546 -0.892317 0.109985 0.381894 0.76947 -0.4659 -0.184213 0.733294 0.050242 0.898877 0.798852 -0.120321 -0.396656 -0.703984 -0.894368 0.442962 -0.250075 0.190128 -0.535937 0.319117 0.632981 0.586223 0.435619 0.298466 0.784938
internal_weight=52478 26595 25883 24776 1819 1141 24742 972 847 2822 572 569 1266 557 21954 1556 289 288 267 24475 429 280 415 284 418 143 78 407 277 1011
internal_count=52478 26595 25883 24776 1819 1141 24742 972 847 2822 572 569 1266 557 21954 1556 289 288 267 24475 429 280 415 284 418 143 78 407 277 1011
is_linear=0
shrinkage=0.05


Tree=21
num_leaves=31
num_cat=0
split_feature=8 8 8 8 8 8 8 8 8 8 8 8 8 8 8 8 8 8 9 1 8 8 8 8 8 3 8 11 0 20
split_gain=1.38009e+07 256478 126495 15083.6 12079.7 8167.73 3424.08 1679.54 1165.87 1064.15 992.213 862.806 593.496 322.839 257.545 157.642 154.098 152.699 148.16 140.603 137.794 137.245 136.807 126.29 120.453 118.1 106.475 100.204 73.8137 60.3769
threshold=0.47350000000000003 0.97350000000000014 0.16150000000000003 1.7225000000000004 0.74150000000000016 0.32050000000000006 0.060500000000000005 0.62350000000000005 0.85250000000000015 1.3725000000000003 0.24250000000000002 0.40150000000000008 1.0225000000000002 0.5505000000000001 1.9245000000000003 0.43550000000000005 0.28350000000000003 0.11450000000000002 1.0000000180025095e-35 70.28700000000002 0.36350000000000005 1.5745000000000002 0.69850000000000001 0.77750000000000019 0.20150000000000004 0.96950000000000014 0.89450000000000018 5.214500000000001 54.620500000000007 26.653000000000002
decision_type=2 2 2 2 2 2 2 2 2 2 2 2 2 2 2 2 2 2 2 2 2 2 2 2 2 2 2 2 2 2
left_child=2 4 6 9 7 10 18 13 23 12 24 20 25 -2 -5 -13 -12 -8 -1 26 -7 -11 -9 29 -4 -3 -10 -27 -25 -6
right_child=1 3 5 14 8 11 17 22 19 21 16 15 -14 -15 -16 -17 -18 -19 -20 -21 -22 -23 -24 28 -26 27 -28 -29 -30 -31
leaf_value=-0.84997679805331927 0.0097063142243026604 0.66814323394216002 -0.54219999528763485 0.8219038201185791 0.30103398570633522 -0.27371537760171816 -0.70718033528002289 0.16104001887835187 0.37724851358874656 0.74839491421400917 -0.4135785344037024 -0.15039731182993102 0.71086012910882723 0.085857738425713384 0.85496153976108491 -0.076315870188298093 -0.3387633606214745 -0.62658731473971874 -0.79386155904787115 0.54731865360726062 -0.2027614322098546 0.78328819073705225 0.2233718689637034 0.31569634707412214 -0.47380111405678549 0.52163232328969722 0.43308241318061536 0.63539320002632449 0.41885576058383012 0.23397730961159421
leaf_weight=24331 279 49 146 685 65 137 139 285 141 874 146 148 1260 278 21269 141 142 128 144 22 143 545 130 254 138 58 266 36 20 79
leaf_count=24331 279 49 146 685 65 137 139 285 141 874 146 148 1260 278 21269 141 142 128 144 22 143 545 130 254 138 58 266 36 20 79
internal_value=-0.00204822 0.797863 -0.823964 0.839936 0.224793 -0.3092 -0.847702 0.10449 0.362816 0.731006 -0.442623 -0.175011 0.699751 0.0477312 0.853934 -0.11431 -0.376838 -0.668812 -0.84965 0.420831 -0.237581 0.761854 0.180627 0.303175 -0.50916 0.6014 0.413849 0.565882 0.323395 0.264469
internal_weight=52478 26595 25883 24776 1819 1141 24742 972 847 2822 572 569 1403 557 21954 289 288 267 24475 429 280 1419 415 418 284 143 407 94 274 144
internal_count=52478 26595 25883 24776 1819 1141 24742 972 847 2822 572 569 1403 557 21954 289 288 267 24475 429 280 1419 415 418 284 143 407 94 274 144
is_linear=0
shrinkage=0.05


Tree=22
num_leaves=31
num_cat=0
split_feature=8 8 8 8 8 8 8 8 8 8 8 8 8 8 8 8 8 8 8 9 1 8 8 8 8 11 38 8 20 7
split_gain=1.24554e+07 231464 114156 13611.1 10903.1 7371.85 3089.14 1515.86 1052.13 960.919 895.457 778.71 505.693 291.365 232.176 155.797 142.26 139.011 137.686 133.386 127.054 124.325 123.459 114.67 108.616 105.556 202.626 95.9945 69.862 68.1698
threshold=0.47350000000000003 0.97350000000000014 0.16150000000000003 1.7225000000000004 0.74150000000000016 0.32050000000000006 0.060500000000000005 0.62350000000000005 0.85250000000000015 1.3395000000000004 0.24250000000000002 0.40150000000000008 1.0225000000000002 0.5505000000000001 1.9245000000000003 1.5745000000000002 0.43550000000000005 0.28350000000000003 0.11450000000000002 1.0000000180025095e-35 70.28700000000002 0.36350000000000005 0.69850000000000001 0.81650000000000011 0.20150000000000004 -3.0834999999999995 66.147500000000022 0.89450000000000018 25.878500000000006 25.717500000000005
decision_type=2 2 2 2 2 2 2 2 2 2 2 2 2 2 2 2 2 2 2 2 2 2 2 2 2 2 2 2 2 2
left_child=2 4 6 9 7 10 19 13 23 12 24 21 25 -2 -5 29 -13 -12 -8 -1 27 -7 -9 28 -4 -3 -27 -10 -6 -11
right_child=1 3 5 14 8 11 18 22 20 15 17 16 -14 -15 -16 -17 -18 -19 -20 -21 -22 -23 -24 -25 -26 26 -28 -29 -30 -31
leaf_value=-0.80747809805795345 0.0092211725764057978 0.65009242926938382 -0.51510854762845637 0.78081463315577038 0.35646214722508218 -0.26003959060671727 -0.67184674230777142 0.15299084282828732 0.35839945568757903 0.71784251038235625 -0.39291376300579395 -0.14288252421845302 0.67316856739219799 0.081566394478114798 0.8122136697493364 0.7441309653866337 -0.072502780920072799 -0.32183711278782523 -0.59528239843530828 -0.75419602020178966 0.52007654759678912 -0.19263044573226065 0.21221185936367026 0.32535123500648244 -0.45012820842557855 0.46785486234638268 0.6103171161511316 0.4114364300756157 0.26119842017131528 0.68445578806419594
leaf_weight=24331 279 36 146 685 22 137 139 285 141 727 146 148 1123 278 21269 545 141 142 128 144 22 143 130 141 138 50 57 266 255 284
leaf_count=24331 279 36 146 685 22 137 139 285 141 727 146 148 1123 278 21269 545 141 142 128 144 22 143 130 141 138 50 57 266 255 284
internal_value=-0.00194543 0.757972 -0.782767 0.79794 0.213563 -0.293752 -0.805317 0.0992683 0.344692 0.694464 -0.420508 -0.166268 0.661723 0.045346 0.811238 0.721055 -0.108599 -0.35801 -0.635397 -0.807168 0.399807 -0.225712 0.171601 0.288033 -0.483721 0.571397 0.544292 0.393167 0.268908 0.708537
internal_weight=52478 26595 25883 24776 1819 1141 24742 972 847 2822 572 569 1266 557 21954 1556 289 288 267 24475 429 280 415 418 284 143 107 407 277 1011
internal_count=52478 26595 25883 24776 1819 1141 24742 972 847 2822 572 569 1266 557 21954 1556 289 288 267 24475 429 280 415 418 284 143 107 407 277 1011
is_linear=0
shrinkage=0.05


Tree=23
num_leaves=31
num_cat=0
split_feature=8 8 8 8 8 8 8 8 8 8 8 8 8 8 8 8 8 9 8 7 8 8 3 11 8 8 8 8 0 8
split_gain=1.12412e+07 181603 129357 12282 9273.66 7796.45 2786.96 1474.43 949.549 871.145 863.961 808.132 481.059 286.6 209.296 125.397 124.143 120.077 119.136 117.627 111.411 108.506 105.989 143.102 97.9384 95.612 89.7493 75.0266 64.8126 63.3799
threshold=0.50750000000000017 0.97350000000000014 0.16150000000000003 1.7225000000000004 0.32050000000000006 0.74150000000000016 0.060500000000000005 0.43550000000000005 0.85250000000000015 1.3725000000000003 0.62350000000000005 0.24250000000000002 1.0225000000000002 0.36350000000000005 1.9245000000000003 0.28350000000000003 0.11450000000000002 1.0000000180025095e-35 0.93150000000000011 25.388500000000004 0.69850000000000001 0.77750000000000019 1.0125000000000002 5.214500000000001 0.20150000000000004 0.47350000000000003 0.5505000000000001 1.5375000000000003 54.620500000000007 0.40150000000000008
decision_type=2 2 2 2 2 2 2 2 2 2 2 2 2 2 2 2 2 2 2 2 2 2 2 2 2 2 2 2 2 2
left_child=2 5 6 9 11 10 17 13 21 12 26 24 22 -6 -5 -13 -8 -1 -10 27 -12 -7 -3 -24 -4 -9 -2 -11 -23 -15
right_child=1 3 4 14 7 8 16 25 18 19 20 15 -14 29 -16 -17 -18 -19 -20 -21 -22 28 23 -25 -26 -27 -28 -29 -30 -31
leaf_value=-0.76710436644081981 0.028189926165056313 0.59259798332659697 -0.489370746338392 0.74177959740309796 -0.24704709256503984 0.23778484850439408 -0.63827855612715756 -0.068880210764452693 0.36094170492790933 0.6820092560527562 0.14534398392182574 -0.3732815219309949 0.64147167454805754 -0.18300565351230294 0.77160312483492999 -0.30575658103934822 -0.56554151135994812 -0.71651239295869473 0.41892161201350908 0.66212313837577375 0.20160942267308687 0.28517790910344759 0.43478616756384841 0.57604264473320699 -0.42763809373981276 -0.010501247986441187 0.077489541667985398 0.71273794836754911 0.38169016268715933 -0.13574322294255192
leaf_weight=24331 139 65 146 685 137 144 139 141 290 522 285 146 1260 143 21269 142 128 144 139 389 130 254 42 36 138 140 278 508 20 148
leaf_count=24331 139 65 146 685 137 144 139 141 290 522 285 146 1260 143 21269 142 128 144 139 389 130 254 42 36 138 140 278 508 20 148
internal_value=-0.0018478 0.723942 -0.739686 0.758044 -0.249731 0.220689 -0.765052 -0.128856 0.327472 0.659749 0.111949 -0.399499 0.631467 -0.187274 0.770676 -0.340123 -0.603652 -0.76681 0.379833 0.687662 0.163026 0.273644 0.542891 0.5007 -0.459553 -0.0398265 0.061079 0.697237 0.292378 -0.15904
internal_weight=52478 26455 26023 24776 1281 1679 24742 709 847 2822 832 572 1403 428 21954 288 267 24475 429 1419 415 418 143 78 284 281 417 1030 274 291
internal_count=52478 26455 26023 24776 1281 1679 24742 709 847 2822 832 572 1403 428 21954 288 267 24475 429 1419 415 418 143 78 284 281 417 1030 274 291
is_linear=0
shrinkage=0.05


Tree=24
num_leaves=31
num_cat=0
split_feature=20 4 20 20 1 20 20 9 6 1 20 20 20 20 6 1 1 20 20 20 1 1 19 4 20 1 20 20 19 9
split_gain=1.01053e+07 178180 100039 10113.9 9339.2 7776.29 6870.44 4599.61 4034.05 3460.21 2561.42 1918.84 1916.38 1352.13 1224.94 1162.16 1135.89 1083.51 1006.35 849.403 778.583 739.187 727.643 667.849 586.174 563.739 520.079 516.92 398.034 384.72
threshold=24.976500000000005 1.0255000000000003 27.906500000000005 30.038500000000003 16.234000000000005 21.431000000000001 26.408000000000005 0.021500000000000002 1.1765000000000001 12.013500000000002 17.659000000000002 33.76550000000001 23.391500000000004 27.206500000000002 1.2675000000000003 8.4220000000000024 48.782000000000004 28.874500000000001 23.391500000000004 25.591500000000003 6.1580000000000004 42.781000000000013 91.408500000000018 1.2345000000000004 24.387500000000006 5.363500000000001 14.295000000000002 21.963500000000003 83.652000000000015 1.0000000180025095e-35
decision_type=2 2 2 2 2 2 2 2 2 2 2 2 2 2 2 2 2 2 2 2 2 2 2 2 2 2 2 2 2 2
left_child=1 7 6 8 5 25 19 29 -4 13 21 14 15 22 -5 -7 27 -10 -9 -2 24 -6 -8 -19 -14 -3 -27 -12 -11 -1
right_child=2 4 3 11 10 12 9 18 17 28 16 -13 20 -15 -16 -17 -18 23 -20 -21 -22 -23 -24 -25 -26 26 -28 -29 -30 -31
leaf_value=-0.72874931663619091 0.082335763397104578 -0.56138167691161411 0.63705714637066824 0.69876527761653973 -0.25805964329502762 -0.34847885331841916 0.36256133772676891 -0.6189403375362067 0.32537343753534093 0.24264308817732783 -0.050079987036552469 0.72873394765899935 -0.22573266571453737 0.59301176459087546 0.60435110143479553 -0.1579759779549578 0.26478449590013076 0.57968828522515448 -0.42244538427012368 0.20163177190725623 -0.016136596620555207 0.065425516573173734 0.63350864357964687 0.40354883520124396 -0.067510799067249994 -0.53213494695954322 -0.37223146838238902 0.071488430138076639 0.37909875110851299 -0.64247470154095876
leaf_weight=24331 257 103 718 1473 109 183 180 128 144 294 159 21773 138 164 458 143 53 124 136 357 160 21 29 98 102 74 171 194 66 138
leaf_count=24331 257 103 718 1473 109 183 180 128 144 294 159 21773 138 164 458 143 53 124 136 357 160 21 29 98 102 74 171 194 66 138
internal_value=-0.00175509 -0.692845 0.694835 0.717639 -0.183154 -0.268221 0.275159 -0.726023 0.568121 0.37851 -0.012676 0.724474 -0.175021 0.485274 0.676407 -0.265004 0.0491707 0.432734 -0.517933 0.151728 -0.101625 -0.205756 0.400466 0.502172 -0.158565 -0.462535 -0.420747 0.0167181 0.267772 -0.728266
internal_weight=52478 26343 26135 24788 1610 1074 1347 24733 1084 733 536 23704 726 373 1931 326 406 366 264 614 400 130 209 222 240 348 245 353 360 24469
internal_count=52478 26343 26135 24788 1610 1074 1347 24733 1084 733 536 23704 726 373 1931 326 406 366 264 614 400 130 209 222 240 348 245 353 360 24469
is_linear=0
shrinkage=0.05


Tree=25
num_leaves=31
num_cat=0
split_feature=20 4 20 1 20 20 20 7 9 7 20 20 1 20 20 20 1 20 20 1 7 19 17 4 7 20 7 20 7 20
split_gain=9.14503e+06 163459 87843.8 9305.83 8547.16 7953.27 5891.1 5165.41 4156.86 3500.43 2186.6 1375.63 1360.39 1211.67 1209.42 1053.87 1033.23 915.406 850.867 801.128 649.43 618.692 1527.27 612.195 568.026 561.681 548.139 523.616 486.2 433.39
threshold=24.976500000000005 1.0255000000000003 28.363500000000005 16.234000000000005 26.408000000000005 22.265000000000004 32.417000000000009 14.807500000000003 0.021500000000000002 14.011500000000002 17.659000000000002 27.206500000000002 6.1580000000000004 29.806500000000003 24.387500000000006 17.659000000000002 45.75950000000001 23.391500000000004 25.591500000000003 42.31450000000001 8.2125000000000004 84.054000000000016 44.938500000000005 1.0585000000000002 10.145500000000002 23.874500000000005 23.079500000000003 21.135500000000004 8.9035000000000029 23.391500000000004
decision_type=2 2 2 2 2 2 2 2 2 2 2 2 2 2 2 2 2 2 2 2 2 2 2 2 2 2 2 2 2 2
left_child=1 8 4 5 18 15 9 11 -1 24 19 20 14 26 29 -3 27 -10 -2 -5 -6 22 -8 -17 -4 -14 -11 -12 -20 -7
right_child=2 3 6 10 7 12 21 -9 17 13 16 -13 25 -15 -16 23 -18 -19 28 -21 -22 -23 -24 -25 -26 -27 -28 -29 -30 -31
leaf_value=-0.69184897315565141 0.073910013700873675 -0.53801358480403716 0.68583229843891547 -0.25160727149663131 0.55862312457458774 -0.34716226896516422 0.57999852845629718 0.25875741067800168 -0.58899864447299366 0.49935740105039639 -0.070437538346274142 0.55395765840138256 -0.12471954945092086 0.56688621002172701 -0.068271553969187687 -0.46669847865064606 0.22454385062554763 -0.4000497548042371 0.2899607399245957 0.09474620859124766 0.34037020435671056 0.69424949470654385 0.6850117030419538 -0.31812770478188968 0.61992058446541409 0.014163036763427476 0.35711799681333128 0.058068589571082713 0.15990471159719399 -0.21311322203635472
leaf_weight=24408 236 134 698 99 44 110 421 427 124 158 120 336 178 528 102 107 70 136 100 20 158 20062 2104 203 656 123 122 233 259 136
leaf_count=24408 236 134 698 99 44 110 421 427 124 158 120 336 178 528 102 107 70 136 100 20 158 20062 2104 203 656 123 122 233 259 136
internal_value=0.00164049 -0.657638 0.660769 -0.173471 0.29683 -0.257465 0.683707 0.38873 -0.689728 0.604715 -0.00406404 0.49181 -0.145859 0.522132 -0.21318 -0.42052 0.0492006 -0.490375 0.147734 -0.193324 0.388188 0.691266 0.667528 -0.369559 0.653951 -0.0679644 0.437549 0.0143621 0.196217 -0.273191
internal_weight=52612 26303 26309 1635 1560 1093 24749 965 24668 2162 542 538 649 808 348 444 423 260 595 119 202 22587 2525 310 1354 301 280 353 359 246
internal_count=52612 26303 26309 1635 1560 1093 24749 965 24668 2162 542 538 649 808 348 444 423 260 595 119 202 22587 2525 310 1354 301 280 353 359 246
is_linear=0
shrinkage=0.05


Tree=26
num_leaves=31
num_cat=0
split_feature=8 8 8 8 8 8 8 8 8 8 8 8 8 8 5 8 12 18 8 1 8 8 7 33 8 9 8 8 19 19
split_gain=8.29003e+06 133687 93603 9690.27 6809.95 5583.96 2193.18 1025.91 706.123 626.385 620.942 599.81 326.689 290.74 205.969 189.55 162.549 127.146 103.108 98.4978 95.3677 94.5232 92.65 88.7921 86.6069 76.8999 76.4526 76.3133 65.6337 71.7217
threshold=0.50750000000000017 0.97350000000000014 0.16150000000000003 1.6865000000000003 0.32050000000000006 0.74150000000000016 0.060500000000000005 0.43550000000000005 0.85250000000000015 1.0225000000000002 0.24250000000000002 0.62350000000000005 1.4325000000000003 1.8005000000000002 1.2065000000000003 0.36350000000000005 -0.48249999999999993 0.88550000000000006 0.11450000000000002 70.28700000000002 0.65750000000000008 0.28350000000000003 25.388500000000004 2.9170000000000003 0.77750000000000019 1.0000000180025095e-35 0.58750000000000002 0.47350000000000003 92.398500000000027 77.409500000000023
decision_type=2 2 2 2 2 2 2 2 2 2 2 2 2 2 2 2 2 2 2 2 2 2 2 2 2 2 2 2 2 2
left_child=2 5 6 9 10 11 25 15 24 14 -4 26 28 -5 16 -6 -3 -18 -8 -10 -13 -12 -14 -16 -7 -1 -2 -9 29 -11
right_child=1 3 4 13 7 8 18 27 19 12 21 20 22 -15 23 -17 17 -19 -20 -21 -22 -23 -24 -25 -26 -27 -28 -29 -30 -31
leaf_value=-0.65771876608128221 0.041226725237348341 0.30490768098355925 -0.39398732555563698 0.6175187261764612 -0.20975821863038094 0.19967398991755728 -0.54753421348177067 -0.061629076253578829 0.31990347114071693 0.55741601704895283 -0.31942410701920809 0.10723157455502537 0.59955339396396079 0.66161465016895471 0.44058653966364159 -0.13644521343288196 0.54233890054545875 0.36584880939592118 -0.48312557197670253 0.43135636834537278 0.1584952974674618 -0.2593086716809398 0.56253093494400142 0.5677545969956278 0.24946561277586074 -0.61743756770134617 0.086197218862817726 -0.00973846505467197 0.58260069291451566 0.53200399946030696
leaf_weight=24269 286 30 291 407 130 131 141 144 399 836 133 140 701 21878 25 281 23 21 138 22 268 141 277 42 292 150 142 140 182 552
leaf_count=24269 286 30 291 407 130 131 141 144 399 836 133 140 701 21878 25 281 23 21 138 22 268 141 277 42 292 150 142 140 182 552
internal_value=0.00155882 0.620942 -0.634431 0.649985 -0.214041 0.189183 -0.655877 -0.109199 0.279905 0.560233 -0.342954 0.0975653 0.565955 0.660812 0.456459 -0.159692 0.397236 0.459239 -0.515879 0.325841 0.140948 -0.288613 0.589131 0.521106 0.234108 -0.657474 0.0561752 -0.0360792 0.551479 0.547352
internal_weight=52612 26654 25958 24974 1260 1680 24698 695 844 2689 565 836 2548 22285 141 411 74 44 279 421 408 274 978 67 423 24419 428 284 1570 1388
internal_count=52612 26654 25958 24974 1260 1680 24698 695 844 2689 565 836 2548 22285 141 411 74 44 279 421 408 274 978 67 423 24419 428 284 1570 1388
is_linear=0
shrinkage=0.05


Tree=27
num_leaves=31
num_cat=0
split_feature=8 8 8 8 8 8 8 8 8 8 8 8 8 8 5 8 38 19 35 8 8 8 7 8 8 8 8 8 8 20
split_gain=7.48178e+06 120650 84474.1 8743.51 6146.24 5039.77 1978.65 925.902 637.276 564.318 560.281 541.334 294.738 265.682 185.765 171.066 131.534 136.014 97.0955 92.9625 86.0394 85.2608 83.4715 82.0889 68.9953 68.8709 68.7848 66.0459 65.8752 60.2547
threshold=0.50750000000000017 0.97350000000000014 0.16150000000000003 1.6865000000000003 0.32050000000000006 0.74150000000000016 0.060500000000000005 0.43550000000000005 0.85250000000000015 1.0225000000000002 0.24250000000000002 0.62350000000000005 1.4325000000000003 1.8455000000000001 1.2065000000000003 0.36350000000000005 60.088500000000003 74.378500000000017 0.61850000000000016 0.11450000000000002 0.65750000000000008 0.28350000000000003 25.388500000000004 0.81650000000000011 0.58750000000000002 0.47350000000000003 1.0000000180025095e-35 0.89450000000000018 0.20150000000000004 21.963500000000003
decision_type=2 2 2 2 2 2 2 2 2 2 2 2 2 2 2 2 2 2 2 2 2 2 2 2 2 2 2 2 2 2
left_child=2 5 6 9 10 11 26 15 23 14 28 24 -11 -5 16 -6 -3 -18 -10 29 -13 -12 -14 -7 -2 -9 -1 -20 -4 -8
right_child=1 3 4 13 7 8 19 25 18 12 21 20 22 -15 -16 -17 17 -19 27 -21 -22 -23 -24 -25 -26 -27 -28 -29 -30 -31
leaf_value=-0.62483399776961457 0.039166109026736839 0.47857271004548835 -0.39926494520175554 0.59212540665190716 -0.19927836876479962 0.20641625670087335 -0.55030687624876751 -0.058549761139942202 0.40528276213284198 0.52391029858648408 -0.30346490113382324 0.10187382204411584 0.56957999592483033 0.62866262493668479 0.49512925270595071 -0.12962538005935895 0.238430621355643 0.40559396120152863 0.2738267351125287 -0.45898678452963426 0.1505734872371681 -0.2463524245776495 0.53441453890351343 0.25385286769423998 0.081890390511342628 -0.0092518892547356329 -0.58692497956290368 0.31840673645046036 -0.34920500220704132 -0.47735645597557935
leaf_weight=24267 286 23 145 545 130 281 82 144 26 1570 133 140 701 21740 67 281 23 28 136 138 268 141 277 142 142 140 152 259 146 59
leaf_count=24267 286 23 145 545 130 281 82 144 26 1570 133 140 701 21740 67 281 23 28 136 138 268 141 277 142 142 140 152 259 146 59
internal_value=0.0014813 0.589896 -0.60271 0.617487 -0.203346 0.17973 -0.623083 -0.103743 0.265918 0.532231 -0.325816 0.0926903 0.537663 0.627772 0.433722 -0.151712 0.377462 0.330919 0.309558 -0.490104 0.133904 -0.274194 0.559681 0.222409 0.0533685 -0.0342774 -0.624601 0.303144 -0.374295 -0.520177
internal_weight=52612 26654 25958 24974 1260 1680 24698 695 844 2689 565 836 2548 22285 141 411 74 51 421 279 408 274 978 423 428 284 24419 395 291 141
internal_count=52612 26654 25958 24974 1260 1680 24698 695 844 2689 565 836 2548 22285 141 411 74 51 421 279 408 274 978 423 428 284 24419 395 291 141
is_linear=0
shrinkage=0.05


Tree=28
num_leaves=31
num_cat=0
split_feature=8 8 8 8 8 8 8 8 8 8 8 8 8 33 8 7 19 35 8 4 4 8 19 8 8 14 8 8 8 4
split_gain=6.75234e+06 108884 76234.8 7898.4 5547.41 4548.73 1784.82 835.644 586.433 575.188 505.621 488.558 351.98 156.105 154.384 109.172 93.1042 87.7017 83.8745 82.0283 81.3228 76.9035 74.4133 73.0404 69.3942 63.4894 62.3111 62.154 61.8762 71.7177
threshold=0.50750000000000017 0.97350000000000014 0.16150000000000003 1.7605000000000002 0.32050000000000006 0.74150000000000016 0.060500000000000005 0.43550000000000005 1.4025000000000001 0.85250000000000015 0.24250000000000002 0.62350000000000005 1.0225000000000002 2.8370000000000006 0.36350000000000005 24.814500000000006 69.32350000000001 0.61850000000000016 0.11450000000000002 1.3495000000000001 1.5085000000000002 0.28350000000000003 85.283000000000015 1.9615000000000002 0.81650000000000011 572.50000000000011 0.5505000000000001 0.47350000000000003 1.0000000180025095e-35 1.0075000000000001
decision_type=2 2 2 2 2 2 2 2 2 2 2 2 2 2 2 2 2 2 2 2 2 2 2 2 2 2 2 2 2 2
left_child=2 5 6 8 10 11 28 14 12 20 -4 26 13 22 -6 -10 -15 -11 -8 -13 24 -12 -3 -5 -7 -19 -2 -9 -1 -30
right_child=1 3 4 23 7 9 18 27 15 17 21 19 -14 16 -16 -17 -18 25 -20 -21 -22 -23 -24 -25 -26 -27 -28 -29 29 -31
leaf_value=-0.59359242347715002 0.023404793209092029 0.29272276055404334 -0.35559370367848886 0.57950447690435147 -0.18932210896035329 0.19085771775433821 -0.49420625327074474 -0.055624304948624109 0.54267744186546607 0.38509626936638491 -0.28830305555545682 0.11715828674495639 0.49621786365865389 0.52946028384655408 -0.12314641627975731 0.50916369360722091 0.41432541135002182 0.26251786721800791 -0.43605405895887817 0.1780593358990688 0.30610619065988121 -0.23404353300279801 0.41367577126411981 0.59751818277463964 0.23565072633883055 0.30483989983055476 0.064082671385141649 -0.0087896249022037017 -0.53120510418593136 -0.61178030103384362
leaf_weight=24267 141 32 291 714 130 266 141 144 1019 26 133 341 1429 30 281 373 55 158 138 67 22 141 24 21298 135 237 287 140 103 49
leaf_count=24267 141 32 291 714 130 266 141 144 1019 26 133 341 1429 30 281 373 55 158 138 67 22 141 24 21298 135 237 287 140 103 49
internal_value=0.00140745 0.560403 -0.572576 0.586614 -0.193186 0.17075 -0.59193 -0.0985601 0.509881 0.252631 -0.309538 0.0880589 0.488693 0.412098 -0.144131 0.533738 0.455594 0.294093 -0.465627 0.127213 0.211294 -0.260495 0.345294 0.596937 0.206005 0.287994 0.0507021 -0.0325656 -0.593371 -0.557598
internal_weight=52612 26654 25958 24974 1260 1680 24698 695 2962 844 565 836 1570 141 411 1392 85 421 279 408 423 274 56 22012 401 395 428 284 24419 152
internal_count=52612 26654 25958 24974 1260 1680 24698 695 2962 844 565 836 1570 141 411 1392 85 421 279 408 423 274 56 22012 401 395 428 284 24419 152
is_linear=0
shrinkage=0.05


Tree=29
num_leaves=31
num_cat=0
split_feature=8 8 8 8 8 8 8 8 8 8 8 8 8 8 5 8 12 8 17 35 20 8 8 7 12 8 8 8 19 19
split_gain=6.09401e+06 98264.1 68799.8 7133.2 5006.74 4105.63 1610.23 754.185 519.095 457.499 456.22 443.034 240.56 213.133 163.385 144.273 137.15 127.978 102.729 79.2138 77.8508 75.6129 69.3629 67.856 64.9162 62.866 59.95 59.9311 59.4944 67.0262
threshold=0.50750000000000017 0.97350000000000014 0.16150000000000003 1.6865000000000003 0.32050000000000006 0.74150000000000016 0.060500000000000005 0.43550000000000005 0.85250000000000015 1.0225000000000002 0.24250000000000002 0.65750000000000008 1.4325000000000003 1.8455000000000001 1.2065000000000003 0.40150000000000008 -0.48249999999999993 0.58750000000000002 50.632000000000012 0.61850000000000016 26.653000000000002 0.11450000000000002 0.28350000000000003 25.388500000000004 0.88050000000000017 0.77750000000000019 0.20150000000000004 0.89450000000000018 92.398500000000027 77.802500000000023
decision_type=2 2 2 2 2 2 2 2 2 2 2 2 2 2 2 2 2 2 2 2 2 2 2 2 2 2 2 2 2 2
left_child=2 5 6 9 10 11 -1 15 20 14 26 17 28 -5 16 -6 -3 -2 -18 -10 -7 -8 -12 -14 -16 -22 -4 -21 29 -11
right_child=1 3 4 13 7 8 21 -9 19 12 22 -13 23 -15 24 -17 18 -19 -20 27 25 -23 -24 -25 -26 -27 -28 -29 -30 -31
leaf_value=-0.56370272916551101 0.035007848205021751 0.25430341915434779 -0.36154802626038657 0.53461519005844904 -0.15885149292908229 0.22737273357804183 -0.46951344988178828 -0.030939339868491924 0.36591522611420735 0.47806327373649166 -0.27389873593127612 0.13665807075306621 0.51400373954266931 0.56737221052068465 0.48905973624163734 -0.09659601276121689 0.31196292880304616 0.082536732794621037 0.47028025744797342 0.2457542645064108 0.1430488056099366 -0.41426714701034478 -0.22234965034784959 0.48225445188111404 0.38003502526724958 0.19888036989625946 -0.31398918738029008 0.28810581281257847 0.50192145091501461 0.45367169165879151
leaf_weight=24419 286 30 145 545 266 169 141 284 26 863 133 268 701 21740 42 145 21 282 23 136 73 138 141 277 25 181 146 259 182 525
leaf_count=24419 286 30 145 545 266 169 141 284 26 863 133 268 701 21740 42 145 21 282 23 136 73 138 141 277 25 181 146 259 182 525
internal_value=0.00133733 0.532384 -0.543948 0.557284 -0.183533 0.16222 -0.562334 -0.0936359 0.240011 0.480277 -0.29407 0.0836591 0.485169 0.566574 0.391557 -0.136929 0.338872 0.0586241 0.395712 0.279401 0.200739 -0.442363 -0.247481 0.505067 0.44908 0.182917 -0.33782 0.273603 0.47274 0.468874
internal_weight=52612 26654 25958 24974 1260 1680 24698 695 844 2689 565 836 2548 22285 141 411 74 568 44 421 423 279 274 978 67 254 291 395 1570 1388
internal_count=52612 26654 25958 24974 1260 1680 24698 695 844 2689 565 836 2548 22285 141 411 74 568 44 421 423 279 274 978 67 254 291 395 1570 1388
is_linear=0
shrinkage=0.05


Tree=30
num_leaves=31
num_cat=0
split_feature=20 4 20 20 1 20 7 9 20 7 20 20 20 7 20 1 1 20 1 20 1 20 7 4 20 20 20 7 7 1
split_gain=5.48035e+06 96147.7 54911.1 6543.1 5675.43 4785.93 3218.4 2713.32 2668.92 2323.18 1315.09 1035.74 1004.09 1160.84 920.283 669.953 636.528 634.429 504.358 487.373 442.577 437.906 389.3 380.423 348.167 341.685 334.416 243.831 242.647 231.027
threshold=24.976500000000005 1.0255000000000003 27.669500000000003 30.038500000000003 16.234000000000005 21.431000000000001 15.731000000000002 1.0000000180025095e-35 26.141500000000004 9.9725000000000019 17.659000000000002 23.609500000000004 33.572500000000012 11.974500000000001 23.170000000000005 8.4220000000000024 43.20750000000001 26.653000000000002 42.31450000000001 28.874500000000001 6.1580000000000004 17.659000000000002 22.602500000000003 1.3575000000000002 22.962500000000002 24.727500000000003 25.258500000000002 9.3045000000000027 29.462500000000002 4.4240000000000004
decision_type=2 2 2 2 2 2 2 2 2 2 2 2 2 2 2 2 2 2 2 2 2 2 2 2 2 2 2 2 2 2
left_child=1 7 8 6 5 21 27 -1 23 17 18 15 13 -5 -9 -7 24 -10 -6 -8 25 -3 -21 26 -12 -13 -2 -4 -15 -23
right_child=2 4 3 12 10 11 19 14 9 -11 16 20 -14 28 -16 -17 -18 -19 -20 22 -22 29 -24 -25 -26 -27 -28 -29 -30 -31
leaf_value=-0.53572533921947141 0.013072467247488626 -0.42267321088880333 0.5057816152208453 0.54057643937600408 -0.1989302878217229 -0.24323190234768891 0.24643367158152907 -0.47834083286750434 0.2601798665761697 0.17947720363435662 -0.036723524503015401 -0.139990892090433 0.5355043145015731 0.47240884676345729 -0.32833842909078637 -0.10464948089684956 0.16851475740361346 0.42211996248630951 0.06108676334480187 0.43517032195177752 0.00046686613119556648 -0.39390021425713712 0.29134133113767607 0.30462582393845111 0.065747579681171453 0.024295829258018278 0.11091024468522044 0.44807347533196185 0.40845642228367629 -0.27961981136808028
leaf_weight=24209 115 130 322 832 97 218 215 214 95 471 185 187 22171 810 199 146 77 171 23 87 142 60 106 21 150 38 365 470 191 182
leaf_count=24209 115 130 322 832 97 218 215 214 95 471 185 187 22171 810 199 146 77 171 23 87 142 60 106 21 150 38 365 470 191 182
internal_value=0.0027794 -0.508899 0.510878 0.526847 -0.137589 -0.20228 0.412794 -0.533554 0.185744 0.246275 -0.00344174 -0.127942 0.532547 0.496742 -0.406173 -0.187704 0.03898 0.364423 -0.149043 0.298536 -0.0686197 -0.348272 0.356394 0.0966585 0.00915007 -0.112224 0.087488 0.471603 0.460253 -0.308125
internal_weight=52699 26257 26442 25204 1635 1103 1200 24622 1238 737 532 731 24004 1833 413 364 412 266 120 408 367 372 193 501 335 225 480 792 1001 242
internal_count=52699 26257 26442 25204 1635 1103 1200 24622 1238 737 532 731 24004 1833 413 364 412 266 120 408 367 372 193 501 335 225 480 792 1001 242
is_linear=0
shrinkage=0.05


Tree=31
num_leaves=31
num_cat=0
split_feature=8 8 8 8 8 8 8 8 8 8 8 8 8 35 1 33 11 8 20 8 8 20 8 8 8 37 4 8 20 8
split_gain=4.9681e+06 93147.2 44813.3 5958.77 4276.51 2871.37 1318.38 705.306 413.161 387.18 356.505 319.92 234.098 140.972 117.173 111.231 102.199 101.977 82.8779 69.0493 66.234 57.955 56.8858 56.4802 55.2803 54.3562 52.0437 51.6731 48.0446 46.4138
threshold=0.47350000000000003 0.97350000000000014 0.16150000000000003 1.7605000000000002 0.69850000000000001 0.32050000000000006 0.060500000000000005 0.81650000000000011 1.3395000000000004 0.24250000000000002 0.58750000000000002 0.40150000000000008 1.0225000000000002 0.61850000000000016 42.31450000000001 1.8850000000000002 -1.9054999999999997 0.89450000000000018 25.878500000000006 1.5745000000000002 0.74150000000000016 17.659000000000002 0.28350000000000003 0.36350000000000005 1.9615000000000002 0.76600000000000013 1.1575000000000002 0.20150000000000004 34.801500000000004 0.65750000000000008
decision_type=2 2 2 2 2 2 2 2 2 2 2 2 2 2 2 2 2 2 2 2 2 2 2 2 2 2 2 2 2 2
left_child=2 4 6 8 10 9 -1 18 12 27 -2 23 15 -9 19 -3 -17 25 -6 -10 -20 -8 -11 -7 26 -15 -5 -4 -26 -12
right_child=1 3 5 24 7 11 21 13 14 22 29 -13 -14 17 -16 16 -18 -19 20 -21 -22 -23 -24 -25 28 -27 -28 -29 -30 -31
leaf_value=-0.50875974470072727 0.019448838337645789 0.270424553670912 -0.32783866775027531 0.5381349538350938 0.21246139923870669 -0.16669704878955846 -0.44456166358484028 0.34089487864474749 0.44977232739900064 -0.24682568662500151 0.072357009898451063 -0.068135977935672803 0.42235154200740288 0.22617359816999541 0.42824823558404285 0.44346870295424712 0.34018057920981815 0.25749737827525893 0.11486409011401506 0.47493906082804727 0.16139105097054024 -0.38871667405136501 -0.20196157471276208 -0.12083113585803372 0.52602570554849848 0.1734914589908505 0.49152760448315758 -0.28366027500741259 0.5120001208443975 0.10733086716697325
leaf_weight=24350 420 33 143 83 57 139 69 34 744 145 281 281 1125 209 404 40 71 262 113 541 253 226 152 136 800 68 640 147 20587 146
leaf_count=24350 420 33 143 83 57 139 69 34 744 145 281 281 1125 209 404 40 71 262 113 541 253 226 152 136 800 68 640 147 20587 146
internal_value=0.0026407 0.477875 -0.493288 0.503097 0.134789 -0.1872 -0.507483 0.205023 0.436381 -0.26433 0.0521793 -0.105729 0.414564 0.24121 0.452744 0.353442 0.377812 0.23485 0.155946 0.460408 0.147075 -0.401942 -0.223957 -0.144085 0.512021 0.213326 0.496959 -0.305568 0.512527 0.0843493
internal_weight=52699 26911 25788 25068 1843 1143 24645 996 2958 587 847 556 1269 573 1689 144 111 539 423 1285 366 295 297 275 22110 277 723 290 21387 427
internal_count=52699 26911 25788 25068 1843 1143 24645 996 2958 587 847 556 1269 573 1689 144 111 539 423 1285 366 295 297 275 22110 277 723 290 21387 427
is_linear=0
shrinkage=0.05


Tree=32
num_leaves=31
num_cat=0
split_feature=20 9 20 1 20 20 7 20 7 1 20 1 20 7 20 1 6 20 20 20 38 20 6 7 20 6 20 20 7 7
split_gain=4.46366e+06 78395.1 44736.6 5426.28 5304.8 3265.1 2659.68 2182.3 1930.97 1601.98 1084.09 944.755 833.039 1420.83 529.305 524.12 514.496 513.786 492.385 450.836 422.062 391.424 313.818 313.336 294.836 291 280.712 279.777 271.964 249.995
threshold=24.976500000000005 0.043500000000000004 27.669500000000003 16.234000000000005 30.038500000000003 21.963500000000003 17.855500000000003 26.141500000000004 10.036500000000002 3.5530000000000004 17.659000000000002 1.0000000180025095e-35 36.169500000000006 17.855500000000003 24.123500000000003 45.75950000000001 1.0535000000000003 26.653000000000002 23.874500000000005 28.874500000000001 57.915500000000002 13.766000000000002 1.3605000000000003 22.602500000000003 22.962500000000002 1.0915000000000001 23.391500000000004 25.258500000000002 11.974500000000001 10.8055
decision_type=2 2 2 2 2 2 2 2 2 2 2 2 2 2 2 2 2 2 2 2 2 2 2 2 2 2 2 2 2 2
left_child=1 11 7 5 6 16 28 22 17 18 20 -1 13 29 25 26 -3 -9 -7 -8 -5 -18 27 -21 -13 -11 -12 -2 -4 -6
right_child=2 3 4 10 12 9 19 8 -10 14 15 24 -14 -15 -16 -17 21 -19 -20 23 -22 -23 -24 -25 -26 -27 -28 -29 -30 -31
leaf_value=-0.48350390322413256 0.010636376261045197 -0.39437559260878458 0.43992825141282499 -0.18091564599606796 0.49385290199408943 -0.29250135432946295 0.20269648131615867 0.23574188467615229 0.16088931058378106 -0.15908582739230961 -0.022797350932662417 -0.44167222846581078 0.48427301829889546 0.40080386711856708 -0.0092582734462655619 0.16345615501330971 -0.37053650713154901 0.38070647387336548 -0.15842677490912221 0.40290405739287627 0.071088234957919189 -0.2401214156534458 0.27592692759364706 0.26239926587512874 -0.34019998566776433 -0.066897437019022704 0.071574933639991456 0.10012747635036885 0.3773088140067587 0.46045323507978941
leaf_weight=24205 115 116 589 96 1140 149 183 96 468 188 222 152 20819 844 170 67 76 173 128 65 20 246 21 106 142 158 122 365 257 1201
leaf_count=24205 115 116 589 96 1140 149 183 96 468 188 222 152 20819 844 170 67 76 173 128 65 20 246 21 106 142 158 122 365 257 1201
internal_value=0.00250907 -0.459274 0.461061 -0.136741 0.475475 -0.194213 0.372778 0.167592 0.222327 -0.133655 -0.0024724 -0.482417 0.480608 0.456633 -0.081545 0.0356213 -0.303786 0.329097 -0.230644 0.257536 -0.1374 -0.271024 0.0870342 0.316041 -0.392811 -0.117034 0.0106684 0.078704 0.420958 0.47674
internal_weight=52699 26257 26442 1758 25204 1231 1200 1238 737 793 527 24499 24004 3185 516 411 438 269 277 354 116 322 501 171 294 346 344 480 846 2341
internal_count=52699 26257 26442 1758 25204 1231 1200 1238 737 793 527 24499 24004 3185 516 411 438 269 277 354 116 322 501 171 294 346 344 480 846 2341
is_linear=0
shrinkage=0.05


Tree=33
num_leaves=31
num_cat=0
split_feature=8 8 8 8 8 8 8 8 8 8 8 8 8 1 3 38 8 23 20 1 8 4 11 12 20 14 8 8 8 1
split_gain=4.04703e+06 75878.9 36475 4970.8 3485.35 2348.56 1058.62 467.088 334.752 330.991 313.003 259.139 235.177 102.185 95.2797 126.69 81.0022 75.7105 72.1274 61.1092 57.9489 56.5157 53.8523 52.6567 52.2527 51.3104 48.8826 46.9787 46.4758 49.0023
threshold=0.47350000000000003 0.97350000000000014 0.16150000000000003 1.7605000000000002 0.74150000000000016 0.32050000000000006 0.060500000000000005 0.62350000000000005 0.85250000000000015 1.0225000000000002 0.24250000000000002 0.40150000000000008 1.5375000000000003 70.28700000000002 1.0175000000000003 70.20650000000002 0.5505000000000001 0.018500000000000003 26.653000000000002 34.14050000000001 0.77750000000000019 1.3265000000000002 14.199500000000002 1.9465000000000001 17.659000000000002 107.50000000000001 0.28350000000000003 0.36350000000000005 1.9615000000000002 15.699500000000002
decision_type=2 2 2 2 2 2 2 2 2 2 2 2 2 2 2 2 2 2 2 2 2 2 2 2 2 2 2 2 2 2
left_child=2 4 6 9 7 10 -1 16 18 14 -4 27 22 25 23 17 -2 -16 -6 -9 -20 -14 -11 -3 -8 -10 -12 -7 29 -5
right_child=1 3 5 28 8 11 24 19 13 12 26 -13 21 -15 15 -17 -18 -19 20 -21 -22 -23 -24 -25 -26 -27 -28 -29 -30 -31
leaf_value=-0.45916881074280752 0.0087684970999911925 0.39563304756233753 -0.27591043723447289 0.48848990323952191 0.19081047099948584 -0.15053676445650421 -0.40372653697575578 0.088737451225992234 0.18514076960807077 0.39080693809186279 -0.22370906073335611 -0.061550033157933219 0.43067766408051256 0.33142240924752642 0.29568505743479828 0.37491563844990422 0.046708312236743411 0.17032552081163818 0.10891995606878474 0.13892130838875508 0.16261379395112324 0.40215591971012304 0.36494534025548409 0.30166475385757391 -0.35094050281293521 0.23088614626699444 -0.1821379341865981 -0.10869565160286768 0.4626867824410521 0.44329213066796164
leaf_weight=24350 274 44 290 81 164 139 69 359 81 1710 145 281 508 23 24 23 290 26 71 74 187 331 265 27 226 320 152 136 21387 642
leaf_count=24350 274 44 290 81 164 139 69 359 81 1710 145 281 508 23 24 23 290 26 71 74 187 331 265 27 226 320 152 136 21387 642
internal_value=0.00238382 0.431308 -0.445218 0.454073 0.121652 -0.169071 -0.458025 0.0582973 0.196293 0.393138 -0.238826 -0.0953873 0.396952 0.227747 0.318352 0.276909 0.0282902 0.231068 0.164632 0.0973555 0.147905 0.419481 0.387358 0.360443 -0.363437 0.221707 -0.202519 -0.12991 0.462223 0.44843
internal_weight=52699 26911 25788 25068 1843 1143 24645 997 846 2958 587 556 2814 424 144 73 564 50 422 433 258 839 1975 71 295 401 297 275 22110 723
internal_count=52699 26911 25788 25068 1843 1143 24645 997 846 2958 587 556 2814 424 144 73 564 50 422 433 258 839 1975 71 295 401 297 275 22110 723
is_linear=0
shrinkage=0.05


Tree=34
num_leaves=31
num_cat=0
split_feature=8 8 8 8 8 8 8 8 8 8 8 8 8 35 33 38 7 20 8 19 19 8 20 37 8 8 8 8 7 20
split_gain=3.65246e+06 68478.7 32917.3 4485.29 3154.76 2119.63 955.029 522.382 303.064 282.416 248.046 233.887 205.827 118.601 98.2207 89.2401 81.6761 75.7143 73.8053 54.629 59.699 51.2661 47.1341 46.7755 44.082 42.3935 42.3767 41.8057 44.53 43.2658
threshold=0.47350000000000003 0.97350000000000014 0.16150000000000003 1.7605000000000002 0.69850000000000001 0.32050000000000006 0.060500000000000005 0.81650000000000011 1.4675000000000002 0.24250000000000002 0.58750000000000002 0.40150000000000008 1.0225000000000002 0.61850000000000016 1.8850000000000002 66.509500000000017 20.572500000000002 25.878500000000006 0.89450000000000018 92.674500000000009 77.802500000000023 0.77750000000000019 17.659000000000002 0.76600000000000013 0.28350000000000003 0.20150000000000004 0.36350000000000005 1.9615000000000002 8.4515000000000011 34.801500000000004
decision_type=2 2 2 2 2 2 2 2 2 2 2 2 2 2 2 2 2 2 2 2 2 2 2 2 2 2 2 2 2 2
left_child=2 4 6 8 10 9 -1 17 12 25 -2 26 14 -9 -3 -16 -10 -6 23 20 -14 -19 -8 -15 -11 -4 -7 28 -5 -29
right_child=1 3 5 27 7 11 22 13 16 24 -12 -13 19 18 15 -17 -18 21 -20 -21 -22 -23 -24 -25 -26 -27 -28 29 -30 -31
leaf_value=-0.43621048321266243 0.017316506515713519 0.22479859308713876 -0.28223656105212114 0.46154543496627892 0.18760585118926765 -0.14301533737600836 -0.38356942578438569 0.29839354756990139 0.40540521837745924 -0.212531315105525 0.071455975256300278 -0.058473625895509251 0.37085781514664379 0.19478036416084332 0.28895926069139399 0.38412428246611935 0.37649424600047365 0.11085507832579428 0.22050098259455375 0.39266012550224216 0.34937727652169454 0.15017455324564188 -0.33340123698332841 0.14602499598098398 -0.17303702394716214 -0.242337624658783 -0.1032648617154005 0.45214641354349522 0.42075425783289416 0.43906069152181049
