tree
version=v4
num_class=4
num_tree_per_iteration=4
label_index=0
max_feature_idx=16
objective=multiclass num_class:4
feature_names=Real_Return_3Y Real_Return_5Y Real_Return_10Y PP_Multiplier_1Y PP_Multiplier_5Y PP_Multiplier_10Y Volatility_90D Sharpe_Ratio_5Y Max_Drawdown Distance_From_ATH_Pct Distance_From_MA_200D_Pct Market_Cap_Saturation_Pct Composite_Score_5Y PP_Stability_Index Return_Consistency Recovery_Strength Days_Since_ATH
feature_infos=[-157.548:11369.893] [-184.06399999999999:6983.4979999999996] [-140.01499999999999:28256.989000000001] [0:10] [0:10] [0:10] [0:573.87] [-6.6970000000000001:27.183] [0:133.029] [-133.029:0] [-177.58500000000001:459.85700000000003] [0:100] [0:200] none none none none
tree_sizes=3317 3344 3365 3336 3392 3417 3450 3388 3390 3448 3415 3380 3412 3421 3430 3388 3421 3432 3449 3385 3403 3445 3448 3391 3430 3433 3431 3403 3428 3428 3447 3408 3429 3436 3436 3411 3418 3431 3438 3401 3417 3430 3437 3416 3430 3450 3440 3415 3394 3465 3457 3428 3416 3436 3435 3430 3406 3453 3449 3409 3422 3449 3445 3412 3409 3439 3464 3439 3404 3451 3453 3405 3411 3452 3459 3435 3424 3439 3462 3430 3422 3456 3448 3414 3423 3430 3464 3402 3429 3454 3457 3421 3437 3427 3430 3419 3407 3448 3448 3423 3419 3428 3442 3405 3417 3445 3466 3420 3424 3445 3454 3431 3424 3442 3456 3438 3427 3449 3466 3438 3427 3456 3448 3418 3416 3445 3458 3426 3436 3458 3472 3425 3423 3469 3443 3434 3424 3434 3444 3437 3432 3435 3459 3431 3431 3466 3454 3423 3420 3451 3462 3425 3421 3464 3460 3403 3431 3451 3442 3418 3423 3436 3437 3409 3438 3467 3436 3427 3439 3454 3464 3430 3424 3454 3462 3428 3435 3469 3460 3426 3440 3453 3454 3439 3418 3448 3438 3424 3445 3441 3444 3417 3440 3450 3424 3419 3431 3435 3461 3447 3407 3436 3444 3411 3417 3463 3431 3428 3433 3451 3431 3426 3430 3452 3435 3445 3441 3461 3456 3425 3404 3457 3441 3432 3432 3457 3427 3434 3435 3437 3447 3442 3430 3443 3428 3431 3434 3460 3449 3444 3434 3444 3462 3426 3450 3454 3439 3434 3432 3422 3449 3435 3452 3447 3463 3425 3433 3463 3456 3422 3430 3455 3449 3427 3424 3460 3439 3435 3435 3450 3453 3426 3436 3442 3466 3442 3422 3447 3444 3450 3413 3457 3446 3433 3438 3448 3458 3421 3451 3456 3434 3454 3429 3466 3452 3419 3444 3441 3439 3444 3432 3470 3452 3429 3420 3438 3444 3441 3421 3450 3428 3440 3438 3447 3447 3464 3442 3472 3434 3428 3430 3441 3459 3432 3443 3450 3449 3432 3448 3460 3448 3437 3437 3443 3426 3458 3427 3468 3444 3438 3446 3441 3452 3461 3430 3429 3441 3428 3431 3437 3425 3452 3437 3448 3458 3442 3424 3418 3440 3439 3433 3430 3439 3424 3446 3438 3456 3444 3447 3430 3461 3447 3451 3428 3442 3438 3422 3427 3456 3440 3446 3468 3454 3459 3417 3450 3436 3436 3434 3438 3455 3440 3433 3439 3469 3449 3454 3435 3449 3439 3431 3482 3450 3445 3437 3421 3439 3456 3437 3410 3450 3456 3441 3422 3442 3430 3432 3421 3433 3467 3435 3442 3437 3439 3437 3432 3449 3435 3442 3448 3441 3419 3442 3441 3434 3457 3448 3449 3437 3441 3435 3443 3442 3454 3443 3452 3428 3450 3435 3456 3461 3459 3458 3437 3468 3440 3435 3421 3464 3444 3421 3444 3464 3437 3434 3429 3444 3446 3442 3441 3450 3454 3434 3451 3468 3445 3427 3445 3450 3441 3439 3425 3443 3441 3432 3419 3422 3448 3459 3439 3431 3445 3428 3424 3478 3452 3435 3455 3468 3445 3447 3431 3444 3441 3453 3445 3435 3440 3411 3432 3466 3450 3445 3474 3440 3437 3440 3440 3456 3445 3448 3428 3452 3457 3411 3444 3439 3447 3442 3417 3458 3441 3410 3452 3442 3464 3435 3465 3433 3462 3451 3464 3456 3453 3425 3450 3470 3440 3443 3433 3431 3423 3434 3462 3465 3467 3430 3449 3460 3427 3429 3435 3438 3449 3451 3432 3449 3451 3430 3441 3456 3448 3437 3436 3451 3455 3450 3435 3439 3439 3467 3435 3447 3448 3445 3452 3443 3445 3438 3454 3456 3441 3448 3435 3455 3438 3461 3440 3445 3454 3436 3436 3453 3462 3450 3440 3465 3454 3438 3432 3445 3451 3438 3427 3462 3437 3433 3423 3469 3458 3431 3429 3453 3441 3434 3467 3429 3461 3430 3442 3454 3429 3449 3442 3464 3447 3454 3428 3437 3449 3431 3420 3471 3481 3456 3450 3456 3482 3439 3454 3466 3466 3452 3443 3441 3452 3454 3438 3457 3444 3445 3439 3441 3459 3452 3435 3447 3440 3458 3444 3448 3464 3458 3436 3453 3451 3462 3424 3432 3456 3440 3412 3433 3440 3451 3462 3449 3460 3458 3453 3451 3466 3453 3467 3449 3464 3449 3434 3454 3464 3461 3464 3460 3463 3440 3454 3473 3480 3444 3458 3475 3462 3455 3437 3448 3491 3451 3444 3453 3469 3449 3466 3451 3484 3449 3458 3458 3444 3457 3459 3453 3447 3459 3465 3467 3469 3456 3456 3452 3460 3453 3449 3440 3466 3459 3476 3456 3460 3440 3466 3447 3488 3447 3432 3442 3469 3454 3450 3433 3474 3444 3444 3436 3479 3431 3408 3465 3485 3428 3444 3456 3490 3438 3457 3455 3447 3425 3470 3465 3460 3457 3437 3436 3473 3454 3452 3481 3454 3447 3450 3478 3483 3439 3441 3443 3499 3458 3444 3451 3468 3431 3441 3443 3457 3462 3457 3466 3461 3437 3454 3451 3507 3455 3478 3463 3467 3434 3452 3470 3480 3431 3438 3432 3451 3443 3435 3457 3498 3454 3475 3469 3498 3439 3452 3437 3492 3453 3449 3444 3461 3467 3476 3453 3483 3452 3457 3484 3483 3451 3433 3467 3490 3465 3471 3462 3483 3462 3459 3468 3477 3445 3460 3496 3490 3470 3454 3471 3484 3462 3450 3480 3477 3460 3454 3459 3475 3471 3453 3476 3472 3471 3470 3488 3500 3455 3453 3473 3472 3458 3447 3464 3485 3455 3493 3462 3468 3459 3504 3493 3475 3484 3462 3460 3462 3420 3467 3471 3500 3477 3463 3478 3490 3463 3462 3488 3493 3446 3485 3479 3493 3470 3481 3460 3503 3467 3498 3473 3499 3479 3448 3442 3487 3462 3481 3467 3490 3471 3445 3472 3498 3463 3460 3475 3490 3471 3503 3474 3507 3494 3477 3475 3492 3468 3467 3457 3534 3481 3458 3460 3468 3470 3456 3432 3486 3466 3438 3446 3494 3468 3456 3476 3498 3464 3486 3445 3476 3488 3473 3465 3474 3477 3454 3450 3481 3478 3489 3476 3492 3464 3489 3442 3519 3459 3430 3457 3495

Tree=0
num_leaves=31
num_cat=0
split_feature=12 7 12 7 12 11 7 11 11 6 7 12 11 6 0 11 12 6 7 12 11 11 12 12 0 12 8 7 8 12
split_gain=21881.7 2137.38 1869.45 1008.16 1221.25 957.616 535.378 745.872 524.075 592.302 429.231 371.11 330.923 233.919 166.912 142.304 139.977 220.764 119.055 139.817 335.241 158.875 144.568 100.806 146.919 98.3813 97.3526 94.1795 139.293 92.118
threshold=99.735500000000016 0.91350000000000009 135.54000000000005 1.4815000000000003 56.933500000000002 89.867000000000019 1.0000000180025095e-35 22.869500000000006 7.5245000000000006 10.036500000000002 1.4985000000000002 92.972500000000011 89.867000000000019 9.9725000000000019 69.251500000000007 44.938500000000005 112.76850000000002 10.145500000000002 0.9385 52.517500000000005 2.9585000000000004 56.244500000000009 92.674500000000009 111.25500000000001 45.511500000000005 68.960000000000022 70.902000000000015 0.50750000000000017 5.0385000000000009 79.153500000000022
decision_type=2 2 2 2 2 2 2 2 2 2 2 2 2 2 2 2 2 2 2 2 2 2 2 2 2 2 2 2 2 2
left_child=3 2 6 18 26 -3 -2 16 -6 11 -7 12 25 -12 -15 29 17 -8 -1 -20 -21 22 -22 -9 -25 -10 -5 -19 -29 -11
right_child=1 5 -4 4 8 10 7 23 9 15 13 -13 -14 14 -16 -17 -18 27 19 20 21 -23 -24 24 -26 -27 -28 28 -30 -31
leaf_value=-1.4313692524215553 -1.4213036810418525 -1.2355767433660394 -1.2464748408384563 -1.4310084504182798 -1.2337140377129765 -1.4272126245724253 -1.245730907703783 -1.4204356946831 -1.4327859594474699 -1.4262441434302044 -1.2332605709208706 -1.2533426717141321 -1.4189371535600195 -1.4300896704133268 -1.2808295377219141 -1.4325209854919234 -1.256876626012031 -1.3986852566811057 -1.4326843163560148 -1.2654063279612671 -1.4002439273813523 -1.4312667306008207 -1.3079764610925333 -1.3012602549030299 -1.40646819347617 -1.2413631247696664 -1.2700152477547177 -1.4046176693025383 -1.2350420476041437 -1.2707950499506269
leaf_weight=7164.5017737150192 300.46301597356796 1942.8605194687843 495.67626821994781 675.10205590724945 110.26165723800659 89.712893843650818 64.152236938476562 182.1823291182518 7.7684349417686454 15.286275207996367 84.199810981750488 154.36632013320923 97.481328785419464 37.088011980056763 37.839796006679535 188.69779068231583 165.14189118146896 68.91353577375412 491.91734808683395 45.107041597366333 152.11096805334091 296.20290648937225 58.889748752117157 55.882612645626068 81.693864226341248 49.367151081562042 9.522597670555113 21.300547420978546 28.066603660583496 25.310062229633331
leaf_count=28590 1199 7753 1978 2694 440 358 256 727 31 61 336 616 389 148 151 753 659 275 1963 180 607 1182 235 223 326 197 38 85 112 101
internal_value=-1.38267 -1.27865 -1.32544 -1.42252 -1.38219 -1.2474 -1.36588 -1.34093 -1.33302 -1.35337 -1.33975 -1.30818 -1.36294 -1.29045 -1.35471 -1.41425 -1.29023 -1.32042 -1.42907 -1.4133 -1.39603 -1.40765 -1.37449 -1.39604 -1.36373 -1.26739 -1.42877 -1.36092 -1.30821 -1.32933
internal_weight=13197.1 3655.17 1463.47 9541.89 1333.16 2191.7 967.797 667.334 648.539 538.277 248.841 308.983 154.617 159.128 74.9278 229.294 347.575 182.433 8208.73 1044.23 552.311 507.204 211.001 319.759 137.576 57.1356 684.625 118.281 49.3672 40.5963
internal_count=52663 14586 5840 38077 5320 8746 3862 2663 2588 2148 993 1233 617 635 299 915 1387 728 32757 4167 2204 2024 842 1276 549 228 2732 472 197 162
is_linear=0
shrinkage=1


Tree=1
num_leaves=31
num_cat=0
split_feature=12 12 1 7 11 12 7 7 11 11 7 12 12 7 12 7 7 4 11 12 7 4 11 11 1 3 3 11 3 11
split_gain=5631.84 5666.77 1979.26 987.745 705.433 561.502 598.413 579.697 1276.03 527.536 417.26 686.962 408.548 363.3 318.818 301.674 299.442 294.102 286.807 268.647 255.924 503.149 237.183 227.035 211.209 217.514 193.901 374.511 172.565 166.775
threshold=69.32350000000001 115.90900000000002 20.094500000000004 1.4815000000000003 19.477500000000003 84.417500000000018 0.81050000000000011 1.2085000000000001 71.004000000000005 2.9585000000000004 0.57650000000000012 141.68950000000004 93.521500000000017 1.4985000000000002 89.208500000000015 1.9155000000000002 1.0000000180025095e-35 0.96750000000000014 7.5245000000000006 50.806500000000007 0.46950000000000003 0.74950000000000017 26.955000000000002 56.244500000000009 28.256500000000006 1.0005000000000002 0.99950000000000017 50.070000000000007 1.2245000000000001 2.6195000000000008
decision_type=2 2 2 2 2 2 2 2 2 2 2 2 2 2 2 2 2 2 2 2 2 2 2 2 2 2 2 2 2 2
left_child=3 2 9 20 17 6 -4 14 -9 -2 11 16 -10 -14 -7 26 -3 -5 -8 -6 -1 29 -18 -23 25 -16 27 -11 -15 -22
right_child=1 10 5 4 19 7 18 8 12 15 -12 -13 13 28 24 -17 22 -19 -20 -21 21 23 -24 -25 -26 -27 -28 -29 -30 -31
leaf_value=-1.4071397795960032 -1.2151677615858554 -1.2240381040626767 -1.3857140195078648 -1.2379212327978457 -1.3850389426812373 -1.3383696316568248 -1.4015729543940156 -1.3889632528075428 -1.227872600835141 -1.2646871030401958 -1.4039707455344199 -1.4014329699818542 -1.2241085115595693 -1.373667636644849 -1.2555166783137515 -1.4085610415652781 -1.3864219871805525 -1.3902426007572044 -1.2566578339428565 -1.2804312672896467 -1.3583498324162862 -1.2953769816107437 -1.2577121118852028 -1.3965734235721596 -1.2706872687031769 -1.3774356958260425 -1.2466691440770825 -1.409758999366066 -1.2896677444409754 -1.4087472706022206
leaf_weight=4237.9032591581345 693.76196759939194 97.727291107177734 511.54128938913345 180.69368928670883 463.18664014339447 259.8426151573658 42.755689859390259 548.1890235543251 216.06893268227577 153.71688497066498 1788.1040294766426 342.30001702904701 83.220896333456039 171.78625389933586 58.02557909488678 41.737697243690491 92.12833172082901 38.429221242666245 169.49577051401138 70.750486791133881 207.1614972949028 205.88900652527809 58.534575402736664 75.840449869632721 1190.0333677530289 98.999781876802444 356.55191364884377 62.606545865535736 94.927811414003372 790.72576424479485
leaf_count=16652 2726 384 2010 710 1820 1021 168 2154 849 604 7026 1345 327 675 228 164 362 151 666 278 814 809 230 298 4676 389 1401 246 373 3107
internal_value=-1.35932 -1.32893 -1.2974 -1.39389 -1.34018 -1.31729 -1.35643 -1.30688 -1.33459 -1.24505 -1.39193 -1.3555 -1.28193 -1.31531 -1.28766 -1.27878 -1.2922 -1.26463 -1.28585 -1.37118 -1.40122 -1.38163 -1.33642 -1.32262 -1.27788 -1.33238 -1.26933 -1.30667 -1.34377 -1.39828
internal_weight=13402.6 7132.06 4753.26 6270.58 753.06 3444.89 723.793 2721.09 1114.19 1308.38 2378.79 590.69 566.004 349.935 1606.9 614.613 248.39 219.123 212.251 533.937 5517.52 1279.62 150.663 281.729 1347.06 157.025 572.875 216.323 266.714 997.887
internal_count=52663 28024 18677 24639 2959 13536 2844 10692 4378 5141 9347 2321 2224 1375 6314 2415 976 861 834 2098 21680 5028 592 1107 5293 617 2251 850 1048 3921
is_linear=0
shrinkage=1


Tree=2
num_leaves=31
num_cat=0
split_feature=4 11 11 7 6 7 6 7 11 6 4 7 11 4 6 7 6 3 8 6 11 7 4 6 7 6 6 11 9 6
split_gain=7979.79 3444.02 2697.48 2911.99 1099.46 1073.08 830.493 708.674 763.153 590.182 585.445 510.659 469.54 445.342 352.127 309.725 294.967 249.436 248.553 304.868 246.932 230.088 270.944 475.229 218.771 216.759 209.384 170.647 164.815 159.669
threshold=0.99650000000000005 62.994000000000007 48.023000000000003 0.55650000000000011 6.1605000000000016 1.0835000000000001 19.985000000000003 -1.0000000180025095e-35 3.9400000000000004 25.388500000000004 1.5005000000000002 1.4985000000000002 19.477500000000003 0.47050000000000003 10.036500000000002 0.43150000000000005 9.9725000000000019 0.80150000000000021 5.0385000000000009 9.020500000000002 44.944500000000005 0.96550000000000014 1.5005000000000002 9.9725000000000019 1.0000000180025095e-35 21.215500000000002 29.133500000000005 50.070000000000007 -4.9619999999999989 23.272500000000004
decision_type=2 2 2 2 2 2 2 2 2 2 2 2 2 2 2 2 2 2 2 2 2 2 2 2 2 2 2 2 2 2
left_child=1 4 7 16 -1 14 21 8 -2 11 29 17 -13 15 28 -11 24 20 19 -14 -6 22 23 -5 27 -7 -18 -4 -3 -10
right_child=2 5 3 6 9 25 -8 -9 10 13 -12 12 18 -15 -16 -17 26 -19 -20 -21 -22 -23 -24 -25 -26 -27 -28 -29 -30 -31
leaf_value=-0.92470926955445731 -1.0816610774845503 -0.94529842329190894 -1.0777118753029797 -1.0868955385359991 -0.97039729794943819 -0.95474286736115288 -0.96046542509982935 -1.0854763153347042 -1.000785722542338 -1.0572100551134629 -1.0756826708599443 -1.079687741441232 -1.085457180956487 -0.97686678612778799 -1.0804882168257703 -0.96392947483775737 -0.93396565779216589 -0.95315249354654175 -1.067333517932167 -0.93268855269830109 -1.0656403529723757 -1.0843906202124578 -1.0880498892049069 -0.93057509291207019 -1.0644153944001795 -1.0852577418604548 -1.0121017029980099 -0.92707652491171022 -1.0497669314743328 -0.94135055525552191
leaf_weight=1124.949849396944 704.35635468363762 72.853895008563995 24.182595402002335 86.628791123628616 211.21507376432419 284.68118637800217 184.58360794186592 5226.1955860555172 268.15131103992462 497.7329129576683 214.2761617898941 179.37975829839706 38.569709122180939 502.32454499602318 1176.9883458316326 108.36251610517502 794.04623383283615 2104.1919087767601 62.752304524183273 213.05172657966614 100.40368723869324 1093.1145339310169 151.52385726571083 110.81138652563095 95.19983759522438 35.814729899168015 96.118164002895355 84.486029505729675 78.363853454589844 195.29741603136063
leaf_count=3675 2301 238 79 283 690 930 603 17073 876 1626 700 586 126 1641 3845 354 2594 6874 205 696 328 3571 495 362 311 117 314 276 256 638
internal_value=-1.02979 -0.98856 -1.0598 -1.0179 -0.9684 -1.05145 -1.06032 -1.07706 -1.04522 -0.980633 -1.00734 -0.968805 -1.01514 -1.01168 -1.07126 -1.04053 -0.954827 -0.959335 -0.978308 -0.956106 -1.00108 -1.07311 -1.03776 -0.999162 -1.00908 -0.969328 -0.942403 -0.960598 -0.999436 -0.97574
internal_weight=16120.6 6791.64 9328.97 2720.7 5142.93 1648.7 1626.66 6608.28 1382.08 4017.98 677.725 2909.56 493.753 1108.42 1328.21 606.095 1094.03 2415.81 314.374 251.621 311.619 1442.08 348.964 197.44 203.868 320.496 890.164 108.669 151.218 463.449
internal_count=52663 22187 30476 8888 16801 5386 5314 21588 4515 13126 2214 9505 1613 3621 4339 1980 3574 7892 1027 822 1018 4711 1140 645 666 1047 2908 355 494 1514
is_linear=0
shrinkage=1


Tree=3
num_leaves=31
num_cat=0
split_feature=4 11 7 3 10 4 11 8 7 11 7 11 0 3 10 11 7 7 3 3 7 8 8 0 8 11 11 1 3 2
split_gain=8928.29 8475.65 2855.69 1463.47 811.797 406.699 664.674 376.541 314.883 667.674 298.111 254.356 243.33 557.292 219.384 212.69 246.177 210.81 189.166 178.349 167.237 162.76 158.893 156.74 174.052 141.927 140.227 352.143 160.479 128.823
threshold=0.78050000000000008 49.802000000000007 1.0205000000000002 0.99850000000000005 -9.7059999999999977 0.44050000000000006 7.5245000000000006 22.506000000000004 1.0000000180025095e-35 58.790000000000006 1.4985000000000002 69.855500000000021 -1.0000000180025095e-35 0.65450000000000019 1.0000000180025095e-35 26.967000000000002 0.46950000000000003 -1.1034999999999997 1.4765000000000004 0.58750000000000002 -0.35449999999999993 10.693000000000003 21.780000000000005 1.6110000000000004 5.2285000000000013 74.443000000000012 89.90300000000002 4.4240000000000004 1.3325000000000002 -56.369499999999995
decision_type=2 2 2 2 2 2 2 2 2 2 2 2 2 2 2 2 2 2 2 2 2 2 2 2 2 2 2 2 2 2
left_child=1 3 8 4 12 6 -6 14 -3 -10 11 -4 13 17 -8 -5 -17 -1 -12 -14 -16 -18 -23 -13 -25 -11 29 28 -28 -2
right_child=26 2 10 15 5 -7 7 -9 9 25 18 23 19 -15 20 16 21 -19 -20 -21 -22 22 -24 24 -26 -27 27 -29 -30 -31
leaf_value=-2.0288895077725844 -1.9340421831285262 -1.737535904840241 -2.0426989951974464 -2.0371791685652321 -2.0165042438091314 -2.0323390053527577 -1.9479499906596509 -1.7751444749902616 -2.0209618155188065 -1.8370069994227218 -2.0336339370087022 -1.7663933773499454 -2.0446671698070644 -2.0309669935208969 -2.0182990222973856 -1.8710932634700292 -2.0421006701161226 -1.7776871849499931 -1.723854708439303 -1.7361936492611398 -1.8075049490824728 -1.7396323704737831 -1.988652295599995 -1.8466537367140443 -2.0446671698070644 -1.7581524770364381 -1.7483234554927762 -2.025105434357811 -2.0446671698070644 -2.0433162106975682
leaf_weight=9.5071122795343381 27.118648141622543 431.24884717166424 25.404250845313072 981.57037928700447 204.16913256049156 178.45317311584949 221.78066842257977 49.717521592974663 31.638422831892967 77.77129553258419 117.82585054636002 28.209628239274025 5.1431918889284125 43.795058205723763 11.377363875508307 41.768952310085297 97.40893729031086 68.731746152043343 5.1431918889284125 52.678753286600113 54.393150582909584 9.5071122795343417 19.637641757726669 32.573548629879951 16.832264363765717 214.29966203868389 18.390807360410694 166.1406834423542 6.0783176869153968 4959.439669623971
leaf_count=61 174 2767 163 6298 1310 1145 1423 319 203 499 756 181 33 281 73 268 625 441 33 338 349 61 126 209 108 1375 118 1066 39 31821
internal_value=-2.00121 -1.93306 -1.81219 -1.9909 -1.94314 -1.96688 -1.9453 -1.9022 -1.76551 -1.80278 -1.96811 -1.90537 -1.84812 -1.88815 -1.92417 -2.02827 -1.97635 -1.80821 -2.02068 -1.76363 -1.84397 -2.01108 -1.90742 -1.86043 -1.91412 -1.77915 -2.04111 -1.99902 -1.82194 -2.04272
internal_weight=8207.75 3030.59 980.947 2049.64 899.747 719.891 541.438 337.269 754.958 323.709 225.989 103.02 179.856 122.034 287.551 1149.89 168.323 78.2389 122.969 57.8219 65.7705 126.554 29.1448 77.6154 49.4058 292.071 5177.17 190.61 24.4691 4986.56
internal_count=52663 19445 6294 13151 5773 4619 3474 2164 4844 2077 1450 661 1154 783 1845 7378 1080 502 789 371 422 812 187 498 317 1874 33218 1223 157 31995
is_linear=0
shrinkage=1


Tree=4
num_leaves=31
num_cat=0
split_feature=12 3 12 4 3 11 6 11 3 11 6 4 6 11 3 3 6 4 12 6 3 6 3 12 3 9 6 12 11 3
split_gain=18941.6 1577.17 1038.19 697.559 949.436 664.488 654.433 1028.75 547.555 529.469 348.843 210.165 196.936 195.769 246.706 165.022 155.769 382.401 127.8 101.328 113.179 100.504 93.1107 83.9815 71.543 77.2597 61.6773 246.802 236.784 64.7523
threshold=99.735500000000016 1.0965000000000003 141.68950000000004 1.0805000000000002 1.1445000000000001 89.867000000000019 9.9725000000000019 16.369500000000006 1.0005000000000002 22.869500000000006 9.7715000000000014 2.0075000000000007 9.020500000000002 50.632000000000012 1.0385000000000002 1.5525000000000002 10.036500000000002 1.5005000000000002 92.398500000000027 9.9725000000000019 1.0605000000000002 19.985000000000003 1.1285000000000001 103.84350000000002 1.0665000000000002 -4.7624999999999984 20.142500000000002 128.96350000000004 26.955000000000002 1.2305000000000004
decision_type=2 2 2 2 2 2 2 2 2 2 2 2 2 2 2 2 2 2 2 2 2 2 2 2 2 2 2 2 2 2
left_child=3 2 8 -1 12 26 -6 15 -2 16 22 -12 13 14 -5 18 -10 24 -8 20 -11 -19 -7 -22 -18 -26 -3 28 -28 -30
right_child=1 5 -4 4 6 10 7 -9 9 19 11 -13 -14 -15 -16 -17 17 21 -20 -21 23 -23 -24 -25 25 -27 27 -29 29 -31
leaf_value=-0.048469504781597936 -0.036856815523107017 0.12809520428085597 0.12491741551181267 -0.045107760311704929 0.102292301717528 -0.0084242277246816839 0.010256651644968534 -0.042249055005052716 0.1269534214698369 -0.030003671385594913 -0.044556298338728942 0.084660215273302405 -0.04543242757898952 -0.031500713653197919 0.098104959786035131 0.11839146112907395 -0.045219767904691011 0.1346912037598986 0.11668750421955593 -0.036596772819834693 0.0066768608225937958 -0.020644359323039388 0.12854115444283329 0.13050351958947773 0.12501444309581797 -0.050012266905023417 0.12567854782258001 0.12469762916209744 -0.033533602824467261 0.044800207693530311
leaf_weight=6216.1913925856352 303.51671342551708 1501.1390341967344 302.24541765451431 48.006577879190445 199.70694182813168 14.428969666361807 99.179980173707008 495.08813394606113 137.8163874745369 45.534359157085419 114.18320009112358 43.43899217247963 1714.7020916193724 246.83973500132561 80.492275327444077 133.66031974554062 66.102336212992668 103.63604688644409 39.414541006088257 146.64225339889526 24.354240864515305 11.576358586549757 88.611953109502792 31.279384061694145 15.256049737334253 10.746119916439055 81.042892292141914 747.09850358963013 44.515602871775627 64.760354518890381
leaf_count=25691 1238 5493 1108 198 749 58 394 2023 510 184 461 167 7065 1001 312 497 260 387 147 590 95 45 325 118 57 43 297 2729 176 245
internal_value=2.19679e-05 0.0925057 0.0447797 -0.0388526 -0.0192979 0.113701 0.0216661 0.000682451 0.0177609 0.0457188 0.0378216 -0.00894561 -0.0382516 -0.00544683 0.0446013 0.0787522 0.0857547 0.0583673 0.0405242 -0.0100406 0.0284525 0.119083 0.109362 0.076297 -0.0175816 0.0526798 0.121811 0.111749 0.0609181 0.0128895
internal_weight=13171.2 3897.93 1198.71 9273.28 3057.09 2699.22 967.05 767.343 896.46 592.944 260.663 157.622 2090.04 375.339 128.499 272.255 345.133 207.317 138.595 247.81 101.168 115.212 103.041 55.6336 92.1045 26.0022 2438.56 937.417 190.319 109.276
internal_count=52663 14586 4635 38077 12386 9951 3810 3061 3527 2289 1011 628 8576 1511 510 1038 1302 792 541 987 397 432 383 213 360 100 8940 3447 718 421
is_linear=0
shrinkage=0.05


Tree=5
num_leaves=31
num_cat=0
split_feature=12 12 1 3 11 12 3 11 3 12 3 3 11 6 4 6 4 6 11 12 12 0 3 11 11 6 1 6 5 5
split_gain=5083.76 4915.19 1558.25 837.595 634.247 474.793 452.833 383.514 349.515 437.844 385.835 336.79 701.333 499.371 529.271 272.776 253.42 241.745 237.606 215.459 211.556 206.322 276.423 190.862 175.146 423.133 182.61 261.835 164.991 144.799
threshold=69.32350000000001 115.90900000000002 20.094500000000004 1.1305000000000003 23.986000000000004 84.417500000000018 1.1285000000000001 2.9585000000000004 1.1245000000000003 141.68950000000004 1.0005000000000002 1.1205000000000003 70.528000000000006 9.9725000000000019 1.5005000000000002 9.020500000000002 1.9305000000000001 19.046500000000005 7.5245000000000006 27.644500000000004 49.789000000000009 24.931500000000003 0.96250000000000002 20.450500000000005 26.955000000000002 10.036500000000002 50.180000000000007 20.142500000000002 2.0645000000000002 0.68050000000000022
decision_type=2 2 2 2 2 2 2 2 2 2 2 2 2 2 2 2 2 2 2 2 2 2 2 2 2 2 2 2 2 2
left_child=3 2 7 -1 17 6 23 -2 9 10 -3 21 24 14 -14 -6 -12 -5 -8 -19 -17 22 -7 -4 -13 -26 -27 -28 -24 -22
right_child=1 8 5 4 15 11 18 -9 -10 -11 16 12 13 -15 -16 20 -18 19 -20 -21 29 -23 28 -25 25 26 27 -29 -30 -31
leaf_value=-0.044178273027065736 0.12528923958926194 0.11842013255475362 0.1102775926692937 0.082083662405331534 0.095264344692604447 0.097389763903026061 -0.03857165044558486 0.072809261666441555 -0.043728725228398727 -0.042464866737596106 -0.03171072040014588 -0.035259051862050673 0.1313097640616093 0.10544566832817998 -0.030916737944840806 -0.043734721895528968 0.084503288813466221 -0.035106532105439292 0.085911430857359569 0.043050394872846398 0.074294053573626451 0.081179835898803551 0.016303468189205375 -0.031730502079309178 -0.049489982749128567 0.14161137944459487 -0.048568289521706054 0.10992787297298189 0.083481230280890467 -0.033018662212849929
leaf_weight=4607.5441154241562 756.29310178756714 105.93661957979202 24.926436603069305 209.82087843120098 43.149800568819046 192.9740229845047 48.362888976931572 645.0359772592783 1675.899323284626 317.27561931312084 158.42580130696297 317.46655347943306 69.068309426307678 347.91927161812782 184.80327799916267 742.38067635893822 66.642859816551208 136.46947783231735 184.84363582730293 249.20364113152027 69.977682650089264 798.41884848475456 495.41398234665394 466.07906138896942 128.61549718677998 59.469513744115829 51.38023179769516 52.870569437742233 112.0787288248539 57.07026706635952
leaf_count=18698 2726 385 99 790 168 718 194 2415 6789 1284 634 1261 254 1286 723 2995 255 537 690 961 266 2992 1893 1861 517 230 202 199 417 224
internal_value=-6.13096e-06 0.0282849 0.056515 -0.033592 -0.00124823 0.0388263 0.00272662 0.101133 -0.0316693 -0.000494066 0.0397358 0.0481286 0.0282452 0.0665387 0.0132186 -0.0274416 0.00270026 0.0388924 0.0600959 0.0153948 -0.0335315 0.0631957 0.0452575 -0.0245213 -0.00954521 0.0183791 0.0716958 0.0318127 0.0286974 0.0260889
internal_weight=13375.8 7260.2 4936.02 6115.62 1508.07 3534.69 724.212 1401.33 2324.18 648.281 331.005 2810.48 1211.59 601.791 253.872 912.578 225.069 595.494 233.207 385.673 869.429 1598.89 800.467 491.005 609.802 292.336 163.72 104.251 607.493 127.048
internal_count=52663 28024 18677 24639 5941 13536 2844 5141 9347 2558 1274 10692 4672 2263 977 3653 889 2288 884 1498 3485 6020 3028 1960 2409 1148 631 401 2310 490
is_linear=0
shrinkage=0.05


Tree=6
num_leaves=31
num_cat=0
split_feature=12 11 12 7 7 12 7 11 8 7 11 12 12 7 11 10 0 3 8 1 3 11 7 2 11 12 12 11 3 12
split_gain=11771.3 1227.73 1199.5 1415.95 897.768 812.924 576.727 522.468 509.801 450.409 395.62 348.76 340.51 337.484 586.2 286.059 255.881 254.014 250.245 411.498 172.27 157.482 148.621 116.607 153.51 144.888 102.266 102.101 89.4676 88.2127
threshold=85.990000000000009 54.921500000000002 46.691500000000012 1.0205000000000002 1.0065000000000002 69.81750000000001 1.4985000000000002 19.477500000000003 1.0000000180025095e-35 -1.0000000180025095e-35 21.322000000000006 60.32200000000001 94.854500000000016 0.50750000000000017 44.938500000000005 -36.034499999999994 -1.0000000180025095e-35 1.2965000000000002 22.506000000000004 -1.0000000180025095e-35 1.0365000000000002 47.701000000000008 1.4985000000000002 -3.1579999999999995 58.790000000000006 57.681500000000007 58.452500000000008 69.855500000000021 1.4055000000000002 23.203500000000002
decision_type=2 2 2 2 2 2 2 2 2 2 2 2 2 2 2 2 2 2 2 2 2 2 2 2 2 2 2 2 2 2
left_child=1 5 3 -3 23 6 8 -8 -1 10 -7 -6 13 14 -2 -10 29 -9 21 20 -20 28 27 24 -4 -25 -22 -5 -18 -17
right_child=12 2 4 22 11 9 7 17 15 -11 -12 -13 -14 -15 -16 16 18 -19 19 -21 26 -23 -24 25 -26 -27 -28 -29 -30 -31
leaf_value=0.091862826381893636 -0.042276970546752973 -0.040976004338012587 -0.036419595795032372 0.096179223462168117 0.060390784800577184 -0.024664794682013297 -0.044585591875625545 -0.007364099602193086 -0.025661042598348512 -0.041179537822569015 0.08067584696656549 -0.048318754222054131 -0.054999795420694601 -0.048157608427166772 0.067087332229176871 0.039678866993846332 0.061267336602381983 0.088378654897488584 0.088187096963092709 -0.01740385120643757 0.054906945395684928 -0.010816237477213823 0.086708729957937158 -0.022052187764494358 0.065958443121369142 0.085962704076343349 -0.04129804132501317 0.0097537081398664689 -0.035718127170014567 0.076936560056812778
leaf_weight=1094.3474259078503 278.3227858543396 1350.6509626209736 51.26996847987175 43.894324213266373 101.52087503671646 149.63774284720421 255.10931545495987 109.95467883348465 111.87047764658928 347.60590851306915 220.42453813552856 269.9911000430584 5631.352068811655 690.42542433738708 218.89188799262047 182.34083610773087 1460.8742893636227 187.25680574774742 204.83532878756523 355.98231726884842 60.400934755802155 83.663372129201889 253.12017449736595 32.402970790863037 128.10112133622169 741.31907084584236 50.903129279613495 154.30440214276314 24.172405242919922 1234.1760708391666
leaf_count=3448 923 4488 169 139 326 487 849 356 366 1159 705 900 18885 2303 706 589 4658 594 649 1166 193 273 805 105 408 2349 163 499 79 3924
internal_value=-1.46922e-05 0.0366969 0.0111972 -0.0153553 0.0473187 0.0496953 0.0563216 0.00790408 0.06182 -0.000309472 0.0380805 -0.0186123 -0.0498687 -0.0255389 0.00586915 0.0530974 0.0555065 0.0529582 0.0449914 0.0194646 0.0609796 0.0559285 0.0613191 0.0730184 0.0366955 0.0814391 0.0109091 0.028894 0.0596887 0.0721406
internal_weight=16079.1 9260.13 3126.57 1801.97 1324.61 6133.56 5415.89 552.321 4863.57 717.668 370.062 371.512 6818.99 1187.64 497.215 3769.22 3657.35 297.211 2240.83 672.122 316.139 1568.71 451.319 953.093 179.371 773.722 111.304 198.199 1485.05 1416.52
internal_count=52663 29846 10188 5931 4257 19658 17307 1799 15508 2351 1192 1226 22817 3932 1629 12060 11694 950 7181 2171 1005 5010 1443 3031 577 2454 356 638 4737 4513
is_linear=0
shrinkage=0.05


Tree=7
num_leaves=31
num_cat=0
split_feature=12 6 6 3 3 12 2 3 7 9 2 8 6 2 6 6 6 3 6 8 3 6 6 3 8 12 6 3 1 12
split_gain=8532.55 4757.79 1527.72 1293.15 985.121 539.738 386.071 251.21 235.316 259.82 242.531 189.626 177.118 169.065 165.7 161.918 198.342 136.962 110.063 88.8054 177.551 98.4629 81.5694 76.8291 67.2406 62.6977 73.0751 62.6369 58.6487 50.9493
threshold=27.644500000000004 19.985000000000003 9.9725000000000019 1.1545000000000003 1.1005000000000003 54.617000000000012 -52.973999999999997 1.5525000000000002 0.095500000000000015 -39.718499999999999 -33.435499999999998 5.1445000000000007 51.688000000000009 38.597000000000008 25.717500000000005 51.688000000000009 29.462500000000002 1.0545000000000002 15.731000000000002 15.289500000000002 1.0000000180025095e-35 29.951500000000006 16.612500000000001 1.0945000000000003 30.617500000000003 51.561500000000002 37.793500000000002 0.99850000000000005 -45.333499999999994 25.360000000000003
decision_type=2 2 2 2 2 2 2 2 2 2 2 2 2 2 2 2 2 2 2 2 2 2 2 2 2 2 2 2 2 2
left_child=1 2 27 11 19 6 -2 15 9 10 25 17 13 14 18 16 -6 -4 -11 -3 21 -21 -19 24 -13 26 -8 -1 -9 -22
right_child=5 4 3 -5 7 -7 8 28 -10 12 -12 23 -14 -15 -16 -17 -18 22 -20 20 29 -23 -24 -25 -26 -27 -28 -29 -30 -31
leaf_value=-0.010430061015813386 0.23552780709282525 0.20985909722050478 0.1652107101631306 -0.0294815466868255 0.077661391129458746 -0.04277130671198074 0.2192073779632745 0.13824305161693326 -0.037457853635664021 0.080917779766502509 -0.034984765737418148 0.089790042239077439 -0.034898874140772411 0.27571114386262158 -0.040969815466372975 -0.043157553912534376 0.19077924129975732 0.10777797967946197 0.21131874777811219 0.026140105926197733 0.18464424880418173 0.24177451389973986 -0.020892866049860473 0.02992760281004006 -0.031416166648686482 -0.00039568274878018359 0.044096707800197289 -0.040144562171515852 -0.038219418262141633 0.11065609138748611
leaf_weight=265.88648225367069 17.856076017022133 239.88908933103085 134.65425585210323 277.36878079175949 127.88559930026531 4743.3757055401802 15.374374836683275 5.1886192113161078 252.04647606611252 69.950242415070534 174.54627777636051 338.56680400669575 29.998283192515373 12.385486274957655 22.309758007526398 18.527349203824997 55.599501252174377 154.61808235943317 21.051341876387596 29.126098603010178 468.10504798591137 6.4698617011308661 13.383173137903212 74.97826936841011 11.842766210436819 9.3398991972208005 9.7272031456232053 532.6117570400238 50.898097038269043 24.484764128923416
leaf_count=1652 102 1356 765 1825 780 31574 91 29 1654 416 1134 1954 196 81 146 122 308 917 112 171 2546 38 87 450 71 61 63 3485 337 140
internal_value=3.52234e-06 0.0702782 0.0213819 0.062388 0.156233 -0.0369776 0.00632868 0.0717221 -0.000307294 0.0253689 -0.0110583 0.0973883 0.0742647 0.100317 0.0811458 0.0977138 0.111938 0.127641 0.111083 0.184631 0.173174 0.0653335 0.0975279 0.0758644 0.0856936 0.110199 0.15135 -0.0302501 -0.0218948 0.180967
internal_weight=8208.05 2830.08 1803.91 1005.41 1026.17 5377.96 634.585 258.099 616.729 364.683 208.988 728.043 155.695 125.697 113.311 202.012 183.485 302.656 91.0016 768.075 528.186 35.596 168.001 425.388 350.41 34.4415 25.1016 798.498 56.0867 492.59
internal_count=52663 17033 11206 6069 5827 35630 4056 1576 3954 2300 1349 4244 951 755 674 1210 1088 1769 528 4251 2895 209 1004 2475 2025 215 154 5137 366 2686
is_linear=0
shrinkage=0.05


Tree=8
num_leaves=31
num_cat=0
split_feature=12 7 12 7 12 11 7 11 11 12 7 4 6 4 6 4 11 6 12 0 4 7 12 4 12 6 6 4 7 8
split_gain=16554.4 1289.62 1235.12 928.184 1010.06 483.704 408.448 595.786 389.407 373.704 297.605 228.978 227.501 149.419 143.502 223.23 116.264 263.501 94.5178 126.515 94.319 88.6939 113.026 204.633 85.7817 125.702 84.15 265.081 103.034 145.942
threshold=99.735500000000016 1.0065000000000002 130.04700000000003 1.4815000000000003 56.933500000000002 89.867000000000019 0.068500000000000019 22.869500000000006 70.528000000000006 92.972500000000011 1.4985000000000002 1.9965000000000004 10.036500000000002 1.5005000000000002 9.9725000000000019 1.9965000000000004 7.5245000000000006 10.036500000000002 107.03950000000002 38.686000000000007 1.5005000000000002 0.9385 95.407500000000013 1.4205000000000003 168.23950000000002 19.985000000000003 10.036500000000002 1.5005000000000002 0.51750000000000018 5.0385000000000009
decision_type=2 2 2 2 2 2 2 2 2 2 2 2 2 2 2 2 2 2 2 2 2 2 2 2 2 2 2 2 2 2
left_child=3 2 6 11 -5 -3 -2 26 16 -10 -7 21 13 -11 -12 -16 -6 -18 -9 -20 -19 -1 -23 -24 25 -4 -8 28 -28 -30
right_child=1 5 24 4 8 10 7 18 9 12 14 -13 -14 -15 15 -17 17 20 19 -21 -22 22 23 -25 -26 -27 27 -29 29 -31
leaf_value=-0.047215345791102835 -0.033630959191072715 0.11439997973178269 0.10324684178993988 -0.044290231448006118 0.11914514159619234 -0.043955028132945398 0.11349354033835296 -0.045333063335082503 -0.04185394646109148 -0.043483979418354836 0.11627978207208717 0.096678998968044924 -0.048878791456281018 0.11933469183398178 -0.049436801694997638 0.12252286457567946 0.10755957724296057 -0.031542934868429552 0.058754878553081369 -0.022015387236152643 0.089085918071802328 -0.036916152489880005 0.096320413311379804 -0.045582763075078088 0.11574383066502114 0.028970184935809669 -0.046293763690802937 0.10961308240999729 -0.044861840334690511 0.11995371447387629
leaf_weight=6663.5078149884939 305.40081046521664 2158.9836589992046 176.19566364586353 640.19691786170006 126.23866373300552 73.221698194742203 123.40248331427574 131.83219979703426 187.53603112697601 16.36487028002739 97.871835172176361 28.566393882036209 34.751077830791473 101.40223103761673 43.599518656730652 33.277934402227402 120.07643790543079 72.277490168809891 78.590059831738472 126.55102342367172 20.887493342161179 883.10686548054218 46.346724569797516 56.228215843439102 421.10370314121246 84.172096729278564 52.052729144692421 134.1369731426239 22.926712408661842 32.43086177110672
leaf_count=28534 1268 7375 616 2732 440 301 430 540 783 60 336 108 146 357 179 120 427 297 297 501 78 3710 171 234 1442 299 208 472 88 114
internal_value=-2.65182e-05 0.0833026 0.0498077 -0.0379588 0.000775948 0.106804 0.0146375 0.0356387 0.0432333 0.00541526 0.0406658 -0.0446169 0.0635374 0.0967095 0.0761228 0.0249994 0.0811153 0.0586017 -0.0123003 0.0089279 -0.00449807 -0.0451446 -0.0311458 0.0185337 0.101795 0.0792346 0.0799028 0.0627418 0.00420771 0.0516942
internal_weight=13093.2 4095.75 1688.8 8997.49 1319.73 2406.95 1007.32 701.923 679.534 340.054 247.971 7677.76 152.518 117.767 174.749 76.8775 339.48 213.241 336.973 205.141 93.165 7649.19 985.682 102.575 681.471 260.368 364.95 241.547 107.41 55.3576
internal_count=52663 14586 6275 38077 5320 8311 3918 2650 2588 1346 936 32757 563 417 635 299 1242 802 1338 798 375 32649 4115 405 2357 915 1312 882 410 202
is_linear=0
shrinkage=0.05


Tree=9
num_leaves=31
num_cat=0
split_feature=1 1 11 1 9 7 7 11 7 11 11 0 1 1 11 7 7 7 11 7 0 1 1 3 7 11 11 10 10 11
split_gain=1487.11 2211.69 1438.5 1848.4 1661 792.377 504.583 916.408 417.491 387.535 379.329 297.026 476.661 284.937 348.814 350.02 277.879 273.206 204.537 472.507 236.876 204.361 258.188 389.076 172.064 375.134 162.268 322.84 143.428 141.48
threshold=1.0000000180025095e-35 99.722000000000008 3.0025000000000004 -1.0000000180025095e-35 -16.162499999999998 1.4985000000000002 1.4815000000000003 56.244500000000009 1.4815000000000003 89.90300000000002 19.477500000000003 -14.370999999999997 20.094500000000004 44.07200000000001 66.647000000000006 0.82350000000000001 0.97950000000000015 0.49550000000000005 20.450500000000005 0.068500000000000019 20.388000000000002 19.444000000000006 50.180000000000007 1.2245000000000001 1.0205000000000002 26.955000000000002 58.790000000000006 10.595500000000003 -11.563499999999999 21.322000000000006
decision_type=2 2 2 2 2 2 2 2 2 2 2 2 2 2 2 2 2 2 2 2 2 2 2 2 2 2 2 2 2 2
left_child=2 6 3 4 17 -5 9 -8 -4 11 -10 -2 28 14 16 -16 -14 -1 19 -15 -20 -9 -23 -24 25 -3 27 -12 -13 -18
right_child=1 24 8 5 -6 -7 7 21 10 -11 26 12 13 18 15 -17 29 -19 20 -21 -22 22 23 -25 -26 -27 -28 -29 -30 -31
leaf_value=-0.043878331694635557 -0.024166971876254509 -0.045740930783631312 -0.044618685790733248 -0.041729929636761962 0.10873676049338005 0.10529797864749352 -0.035875082277893211 -0.021517489052096508 0.11890135720928151 -0.029757123167573986 0.066123050694655211 -0.022510778032753108 0.048718049765735447 0.096612010272922461 -0.042424650945006637 0.079263615223957112 -0.046910955330771817 0.046552785603883803 0.0078866931266187035 -0.010226158624475006 0.069143414392009481 0.10592084000185852 -0.016611979804164772 0.092555889160217938 -0.046808094283084467 0.034655794964911481 -0.049181300075390108 -0.043141561085008211 0.082740501179768111 0.035040108875246383
leaf_weight=298.83355174958706 164.07313299179077 362.36007413268089 3171.3996775448322 1120.2123108208179 669.36411994695663 99.801467657089233 702.74307337403297 90.551032736897469 63.046359896659851 198.60247990489006 137.26133018732071 33.756941393017769 776.84414093196392 147.95968827605247 329.00656415522099 72.030348151922226 134.48784904181957 115.9186909198761 185.58799546957016 344.32493834197521 1054.6412152051926 192.11577586829662 179.66702410578728 149.55807146430016 1090.6667866408825 241.99055786430836 177.83658050000668 133.21295128762722 786.83697810769081 86.563672140240669
leaf_count=1246 676 1504 13252 4712 2276 349 2874 354 219 812 531 133 2886 521 1344 260 542 443 707 1366 3829 676 710 529 4551 952 737 553 2801 318
internal_value=1.22307e-05 0.0151216 -0.0184726 0.0125128 0.0600199 -0.0297025 0.0301983 0.00307882 -0.0378587 0.0384612 0.00406602 0.0417527 0.0444894 0.0356004 0.0188158 -0.0205682 0.0346435 -0.0186038 0.0491533 0.0218848 0.059977 0.0478164 0.059859 0.03298 -0.0349497 -0.0135489 -0.0120834 0.0123085 0.0784108 -0.014819
internal_weight=13311.3 7324.37 5986.89 2304.13 1084.12 1220.01 5629.35 1314.63 3682.76 4314.72 511.357 4116.11 3952.04 3131.45 1398.93 401.037 997.896 414.752 1732.51 492.285 1240.23 611.892 521.341 329.225 1695.02 604.351 448.311 270.474 820.594 221.052
internal_count=52663 28345 24318 9026 3965 5061 21338 5143 15292 16195 2040 15383 14707 11773 5350 1604 3746 1689 6423 1887 4536 2269 1915 1239 7007 2456 1821 1084 2934 860
is_linear=0
shrinkage=0.05


Tree=10
num_leaves=31
num_cat=0
split_feature=4 11 11 7 7 7 11 8 4 11 7 11 7 3 4 3 4 11 7 0 2 11 2 2 3 8 1 7 3 2
split_gain=6300.27 2658.51 2292.51 2289.48 872.139 630.489 654.378 492.117 471.65 422.031 232.217 323.467 231.518 226.273 182.868 252.381 175.553 159.479 146.362 140.468 146.236 132.504 126.312 121.979 120.908 93.7727 85.4948 102.11 82.3078 81.5138
threshold=0.99650000000000005 62.994000000000007 48.023000000000003 0.55650000000000011 1.0205000000000002 -1.0000000180025095e-35 3.9400000000000004 1.0000000180025095e-35 1.5005000000000002 89.90300000000002 1.4985000000000002 21.322000000000006 0.96550000000000014 0.8135 1.5005000000000002 1.0825000000000002 0.80850000000000011 50.070000000000007 1.5305000000000002 12.197500000000002 -51.345499999999994 1.8245000000000002 -14.968499999999999 -3.1579999999999995 1.1625000000000003 65.386500000000026 20.094500000000004 1.0065000000000002 1.1605000000000001 -25.202499999999997
decision_type=2 2 2 2 2 2 2 2 2 2 2 2 2 2 2 2 2 2 2 2 2 2 2 2 2 2 2 2 2 2
left_child=1 7 5 23 -3 6 -2 21 22 12 13 -12 14 17 15 -5 24 19 -6 20 -9 -1 -8 29 -13 -15 -11 -28 -16 -4
right_child=2 4 3 9 18 -7 8 10 -10 26 11 16 -14 25 28 -17 -18 -19 -20 -21 -22 -23 -24 -25 -26 -27 27 -29 -30 -31
leaf_value=0.088276487254684163 -0.04889079678723128 -0.040086842854804419 0.055420638080364015 -0.02754736201785847 0.01460082006008722 -0.052395660627214562 -0.045069326768291111 -0.040055718865788292 -0.042795547649027509 0.081011350115624506 -0.040138043077734664 -0.050251871468240839 -0.048891088327431109 0.052532041915659203 -0.052931475707670622 0.083993744126323155 -0.057606566757059191 -0.042429152615998451 0.078113741317564933 -0.043268512888192751 0.044666830066973806 0.046668071294346733 0.055001789917225929 0.0734342139666639 0.070568051229302001 0.080730072798615118 0.075139352717062804 -0.045159357120684897 0.074514582006305563 -0.003629999575020942
leaf_weight=1004.4121311903 672.56493002176285 1256.6920648813248 161.92179426550865 100.07404437661171 173.32186603546143 4945.8833128809929 33.949643075466156 54.640503972768784 205.07667583227158 89.533354312181473 184.97170159220695 22.777410566806793 1050.1930283606052 2358.9974163174629 149.33926749229431 102.8181828558445 36.626534909009933 74.959634065628052 190.3014280796051 55.579213172197342 750.52916270494461 236.36860954761505 443.01194581389427 889.059994161129 227.80557328462601 336.94768819212914 31.473141014575958 40.132185339927673 13.842892765998839 91.447147160768509
leaf_count=3083 2301 4241 507 333 554 17073 111 181 700 280 624 74 3599 7398 505 321 121 250 591 184 2382 745 1403 2768 709 1050 98 133 45 299
internal_value=2.61596e-05 0.0357487 -0.0275566 0.010808 -0.0203547 -0.044118 -0.013895 0.0527574 0.0206147 -0.028232 0.0444149 0.0114296 -0.0369556 0.0487036 -0.00271514 0.0289775 0.0446408 0.027519 0.0478402 0.0336106 0.0389174 0.0803501 0.0478788 0.0647124 0.0595858 0.0560563 0.0484412 0.00771629 -0.0421201 0.0341078
internal_weight=15985.3 6964.93 9020.32 2719.84 1620.32 6300.49 1354.6 5344.62 682.038 1577.41 4103.83 472.181 1416.27 3631.65 366.074 202.892 287.21 935.709 363.623 860.749 805.17 1240.78 476.962 1142.43 250.583 2695.95 161.139 71.6053 163.182 253.369
internal_count=52663 22187 30476 8888 5386 21588 4515 16801 2214 5314 12973 1528 4803 11445 1204 654 904 2997 1145 2747 2563 3828 1514 3574 783 8448 511 231 550 806
is_linear=0
shrinkage=0.05


Tree=11
num_leaves=31
num_cat=0
split_feature=12 6 3 6 12 7 7 1 6 8 0 0 6 6 5 12 6 0 9 0 8 9 6 8 0 10 8 7 0 8
split_gain=7589.25 3647.62 2043.09 586.47 526.684 408.847 280.021 267.975 184.465 165.6 362.176 209.532 156.783 293.414 106.018 119.728 163.599 102.294 89.5369 88.7802 77.1039 83.5447 76.3372 76.2829 73.4942 73.1469 66.0281 98.5134 65.4044 90.3935
threshold=27.644500000000004 9.9725000000000019 1.1225000000000003 19.985000000000003 54.617000000000012 1.4985000000000002 0.095500000000000015 -31.783999999999995 53.26250000000001 5.1445000000000007 15.059500000000002 26.744500000000006 23.272500000000004 51.688000000000009 1.3905000000000001 45.25650000000001 38.895000000000003 -41.643999999999998 -39.034999999999989 3.1575000000000002 27.734000000000005 -11.727499999999997 16.806500000000003 52.526500000000006 -5.6009999999999991 -1.2714999999999999 8.0925000000000029 0.87350000000000005 -5.6009999999999991 9.2940000000000023
decision_type=2 2 2 2 2 2 2 2 2 2 2 2 2 2 2 2 2 2 2 2 2 2 2 2 2 2 2 2 2 2
left_child=1 -1 3 9 6 12 7 18 14 11 22 -3 -4 19 15 16 -9 -7 -2 26 21 -12 28 24 -17 -23 27 -14 -11 -30
right_child=4 2 5 -5 -6 17 -8 8 -10 10 20 -13 13 -15 -16 23 -18 -19 -20 -21 -22 25 -24 -25 -26 -27 -28 -29 29 -31
leaf_value=-0.029701886808110076 -0.04050803106170995 0.14201329718991296 0.025378983072113878 0.15264656468727389 -0.042475957320650654 0.19220385555764519 -0.035816035920012167 0.15918986146654077 -0.026255260573109781 0.14161101198564491 0.17544901283311901 0.027090147146990835 -0.035152121794392435 -0.042911418833604463 0.20405225693121887 0.035774028040123411 -0.014723288522515952 -0.035738750200498083 0.076684785577038908 -0.026488627858135324 -0.044885532343733499 0.0090581759377850006 0.065544824379326197 -0.030879948900443818 0.1423778976192048 0.12420547749541505 0.16445790008167074 0.15340847748324382 0.055044134919285573 -0.030145001448238506
leaf_weight=776.86878411471844 117.19400568306446 225.06025305390358 220.09737074375153 902.79153271019459 4560.7489135116339 5.0245260894298545 244.65864785015583 60.334294348955154 47.399207726120949 8.7961577177047712 70.795130759477615 48.146962478756905 11.768232986330988 31.709992811083794 16.658235818147659 61.921173334121704 17.428726673126221 241.20296065509319 18.930955708026886 8.544071435928343 6.2166432291269293 16.836632207036018 105.63777005672455 28.667668610811234 21.880716398358345 76.270297333598137 79.230277791619301 16.837272509932518 48.977096870541573 85.498978391289711
leaf_count=5137 785 1145 1356 4379 31574 24 1662 301 315 45 346 277 73 216 90 370 114 1628 107 51 34 98 572 191 121 398 391 88 270 505
internal_value=-2.857e-05 0.0634893 0.0962565 0.126098 -0.0365356 0.018788 0.00612469 0.0324074 0.0627155 0.0914741 0.0717272 0.121761 0.0521424 0.0919192 0.0830989 0.0725073 0.120211 -0.0310873 -0.02421 0.128657 0.127955 0.134511 0.0332979 0.039524 0.0636084 0.103383 0.140949 0.0758351 0.00952151 0.000881459
internal_weight=8182.13 2986.31 2209.44 1595.03 5195.82 614.415 635.074 390.415 254.29 692.236 419.029 273.207 368.187 148.09 206.891 190.233 77.763 246.227 136.125 116.38 170.119 163.902 248.91 112.47 83.8019 93.1069 107.836 28.6055 143.272 134.476
internal_count=52663 17033 11896 8069 35630 3827 4056 2394 1502 3690 2268 1422 2175 819 1187 1097 415 1652 892 603 876 842 1392 682 491 496 552 161 820 775
is_linear=0
shrinkage=0.05


Tree=12
num_leaves=31
num_cat=0
split_feature=12 7 12 7 12 11 7 11 12 7 11 1 6 4 6 1 1 6 11 6 7 11 4 6 1 1 8 7 5 6
split_gain=14628.5 1061.31 998.969 883.599 910.35 550.841 350.023 323.439 335.375 298.285 424.537 205.552 198.231 125.227 120.662 195.184 107.166 251.263 95.7203 226.373 86.891 137.223 362.11 85.4188 89.6025 83.0459 81.3889 75.3569 74.7242 71.6356
threshold=99.735500000000016 0.72550000000000014 135.54000000000005 1.4815000000000003 56.933500000000002 89.867000000000019 1.4985000000000002 70.528000000000006 92.972500000000011 1.0000000180025095e-35 22.869500000000006 99.722000000000008 10.036500000000002 1.5005000000000002 9.9725000000000019 99.722000000000008 50.180000000000007 10.036500000000002 7.5245000000000006 10.036500000000002 0.62150000000000005 16.151500000000002 1.1995000000000002 9.9175000000000022 4.4240000000000004 50.180000000000007 70.902000000000015 0.51750000000000018 1.6885000000000001 19.985000000000003
decision_type=2 2 2 2 2 2 2 2 2 2 2 2 2 2 2 2 2 2 2 2 2 2 2 2 2 2 2 2 2 2
left_child=3 2 9 11 26 -3 -7 18 -9 -2 16 20 13 -10 -8 -16 17 -11 -6 -20 -1 22 23 24 -22 -21 -5 -19 -24 -18
right_child=1 5 -4 4 7 6 14 8 12 10 -12 -13 -14 -15 15 -17 29 27 19 25 21 -23 28 -25 -26 -27 -28 -29 -30 -31
leaf_value=-0.04731218735759278 -0.036386945375033675 0.10027377994666985 0.094029005789822706 -0.045820990186673058 0.1069930717001672 -0.044333583266540841 0.10542262208099945 -0.041010444118972034 -0.04237042691674902 0.10202084879165961 -0.024699088065712062 0.086260281954820633 -0.048347773250368015 0.10784306801389254 -0.048893308978933951 0.11014071337517849 0.10931402976409002 -0.04668807654309888 0.097037774006509592 -0.031426470155133966 -0.047854546853246006 -0.043146751367904218 0.10105213029063467 -0.044318077533512738 0.098775803973248935 0.079438528629249494 0.094722767388309703 0.04883865927258281 0.013009948917710562 -0.010111704479431742
leaf_weight=5700.19767819345 281.89593051373959 2612.7019775956869 515.32269150018692 606.57492856681347 133.22374421358109 106.93556018173695 102.64787501096725 181.94464680552483 15.945678383111952 83.790673494338989 231.12652163207531 30.239796444773674 33.839660003781319 106.82292801141739 42.739978611469269 35.168724358081818 124.91232374310493 65.489334240555763 126.31758084893227 71.995478704571724 19.215950042009354 1221.4962481111288 68.557938113808632 312.66106535494328 22.757561296224594 22.06946474313736 10.479021549224852 30.149144858121872 37.164598718285561 13.959935218095778
leaf_count=25404 1199 8549 1692 2694 440 448 336 783 60 281 940 108 146 357 180 119 416 266 427 297 85 5285 254 1389 90 78 38 109 142 51
internal_value=-8.76737e-05 0.0760132 0.0393319 -0.0371442 0.000723884 0.0930455 0.0273551 0.0400905 0.00515956 0.00542608 0.0268792 -0.0438327 0.058799 0.0883327 0.0698131 0.0228962 0.0643314 0.0388079 0.0735343 0.0533081 -0.0443656 -0.034379 -0.0111148 -0.0353271 0.0316468 -0.00541539 -0.0434342 -0.0165742 0.0701027 0.0973089
internal_weight=12968.3 4246.84 1346.65 8721.5 1309.21 2900.19 287.492 692.159 338.553 831.324 549.428 7412.29 156.608 122.769 180.557 77.9087 318.301 179.429 353.606 220.383 7382.05 1681.85 460.357 354.635 41.9735 94.0649 617.054 95.6385 105.723 138.872
internal_count=52663 14586 4954 38077 5320 9632 1083 2588 1346 3262 2063 32757 563 417 635 299 1123 656 1242 802 32649 7245 1960 1564 175 375 2732 375 396 467
is_linear=0
shrinkage=0.05


Tree=13
num_leaves=31
num_cat=0
split_feature=12 12 4 3 12 3 3 12 3 6 12 3 3 12 12 6 4 3 3 4 4 3 10 0 4 2 4 8 6 3
split_gain=4188.8 3814.88 1037.08 765.764 357.074 370.223 316.349 365.107 280.11 262.108 404.143 316.246 290.678 253.027 251.733 235.059 210.001 158.177 184.436 146.853 141.997 142.286 140.883 242.968 127.951 125.322 122.022 121.253 126.016 117.81
threshold=69.32350000000001 115.90900000000002 1.1995000000000002 1.1145000000000003 84.417500000000018 1.1285000000000001 1.1245000000000003 141.68950000000004 1.0005000000000002 9.8435000000000006 96.241000000000014 1.0745000000000002 1.5145000000000002 36.787000000000006 81.726000000000013 9.020500000000002 1.9305000000000001 0.99950000000000017 1.1645000000000001 1.3085000000000002 1.3455000000000001 1.0005000000000002 -2.6834999999999996 24.562500000000004 1.6355000000000002 77.075500000000019 1.3265000000000002 53.333000000000006 10.036500000000002 1.2065000000000003
decision_type=2 2 2 2 2 2 2 2 2 2 2 2 2 2 2 2 2 2 2 2 2 2 2 2 2 2 2 2 2 2
left_child=3 2 14 -1 5 27 7 8 -3 10 19 20 22 15 17 -5 -10 -2 -19 -6 21 -12 -11 25 -7 -24 -25 28 -4 -21
right_child=1 6 4 13 9 24 -8 -9 16 12 11 -13 -14 -15 -16 -17 -18 18 -20 29 -22 -23 23 26 -26 -27 -28 -29 -30 -31
leaf_value=-0.043234947061256107 0.011236289749799001 0.097798318184765448 0.083149729931063301 0.077290377541397837 -0.017421427154741719 0.065275922446086293 -0.042037762868113615 -0.040726424380783603 -0.030543362901091609 0.089600844268089855 0.066166042482376647 -0.029226732256481931 -0.034900866461262087 0.028232051504401164 0.095210840702587826 -0.020599049233429402 0.073327298295259621 0.096700697890727993 -0.0093937396479131085 0.086614019987399635 0.08380285614144016 -0.04425532386089643 0.0049843783794142381 -0.024196715523943622 -0.045620421693861553 0.059453415180510207 0.066935484842190279 0.12127626331084318 -0.033740472182592171 -0.050435878480349798
leaf_weight=4151.5441551208496 163.16382986307144 116.70752370357513 24.334684640169144 64.871254235506058 46.251518532633781 218.53595580160618 1575.2227139025927 298.82943321764469 153.73657415807247 273.27343118190765 53.073365896940231 408.61089538037777 91.387746393680573 465.88318733870983 1119.8316009789705 1122.2083516865969 71.194714680314064 196.67916858196259 51.740130573511124 268.80916224420071 113.62417724728584 64.786390036344528 344.10982628166676 38.039301037788391 29.524543911218643 152.3570549339056 1068.2096793502569 14.091373920440672 439.29009352624416 16.652064666152
leaf_count=18010 595 385 91 239 181 767 6789 1284 634 943 179 1638 383 1774 3671 4616 255 664 192 929 392 249 1293 152 124 555 3743 52 1818 66
internal_value=3.28792e-05 0.0249426 0.0483657 -0.0317756 0.0339267 0.00251969 -0.0299908 -0.000361565 0.0349453 0.0416821 0.0204374 -0.00277431 0.0521761 -0.00299442 0.082921 -0.0152496 0.00233353 0.0494829 0.0746036 0.0652282 0.043919 0.00546846 0.056418 0.0507601 0.0520769 0.0217 0.0638018 -0.0232135 -0.0276052 0.0786194
internal_weight=13216.6 7412.07 5196.38 5804.51 3664.96 725.777 2215.69 640.468 341.639 2939.18 971.808 640.095 1967.38 1652.96 1531.41 1187.08 224.931 411.583 248.419 331.713 231.484 117.86 1875.99 1602.72 248.06 496.467 1106.25 477.716 463.625 285.461
internal_count=52663 28024 18677 24639 13555 2852 9347 2558 1274 10703 3634 2458 7069 6629 5122 4855 889 1451 856 1176 820 428 6686 5743 891 1848 3895 1961 1909 995
is_linear=0
shrinkage=0.05


Tree=14
num_leaves=31
num_cat=0
split_feature=4 11 11 3 6 6 3 11 6 3 6 4 4 6 6 1 6 3 6 3 6 3 6 3 11 3 11 8 3 11
split_gain=5629.72 2378.09 2113.69 1559.01 761.597 760.299 596.696 611.226 472.854 490.533 382.849 363.931 343.713 312.645 267.689 261.326 452.067 314.754 259.093 245.098 211.615 204.107 146.483 214.716 141.661 122.269 201.645 161.134 143.214 257.688
threshold=0.99650000000000005 62.994000000000007 48.023000000000003 1.0525000000000002 19.985000000000003 25.388500000000004 0.99850000000000005 3.6380000000000003 19.985000000000003 1.1365000000000001 6.1605000000000016 1.5005000000000002 0.44050000000000006 10.036500000000002 11.606500000000002 49.747500000000009 9.9725000000000019 1.1145000000000003 9.9725000000000019 1.1265000000000003 32.093500000000013 1.0005000000000002 8.5355000000000008 1.0425000000000002 50.070000000000007 0.80150000000000021 15.782000000000002 5.0385000000000009 1.1795000000000002 19.477500000000003
decision_type=2 2 2 2 2 2 2 2 2 2 2 2 2 2 2 2 2 2 2 2 2 2 2 2 2 2 2 2 2 2
left_child=1 5 6 18 15 10 7 -2 9 13 -1 14 19 -3 -9 16 -5 -18 21 -7 -20 24 23 -12 -4 26 -24 -28 -27 -30
right_child=2 8 3 4 -6 12 -8 11 -10 -11 22 -13 -14 -15 -16 -17 17 -19 20 -21 -22 -23 25 -25 -26 28 27 -29 29 -31
leaf_value=0.082848877769159307 -0.051278173642873737 0.037999191537222379 -0.048956908505838392 -0.054131327208374491 0.061795140357618565 -0.029018151117307781 -0.050909019838369929 -0.045082795546124682 -0.052807827511897013 0.060239533210819089 0.062185001273185818 -0.041153036227605272 0.041755612610240474 -0.039368590790995667 0.052859110342304255 -0.053109489667432723 0.082452799478068717 -0.014656593720746267 0.079153275045922802 0.052373663764008961 -0.012448914503195727 -0.037386542168545207 0.091444165238424135 -0.036044312749439332 0.08683101543432864 0.063067956487326368 -0.045541793047548573 0.037225535373833801 -0.0043503378243701426 0.062667792282095888
leaf_weight=1213.6381481587887 584.6338999569416 174.94779738783836 24.432932257652283 304.66028797626495 244.76781755685806 477.93410032987595 4806.1653743088245 82.130639880895615 649.84319379925728 265.43553867936134 106.01734870672226 197.14522963762283 544.7275695502758 514.86873272061348 463.3412446975708 780.97296985983849 154.40365925431252 181.56351578235626 747.1566968858242 114.69118303060532 68.859219491481781 111.12304842472076 81.567759722471237 117.05587294697762 89.807865113019943 1917.6639910042286 106.05380603671074 131.98866260051727 244.77981662750244 346.42892709374428
leaf_count=3675 2056 567 79 1069 764 1565 17111 277 2244 821 327 689 1700 1754 1455 2738 475 619 2281 356 217 369 253 373 277 5903 345 420 814 1070
internal_value=6.08146e-05 0.033533 -0.0264697 0.0103247 -0.0196675 0.0494093 -0.0427136 -0.0130367 -0.0199047 0.00247885 0.0590952 0.0170694 0.0130861 -0.019747 0.0381122 -0.0336936 -0.0100242 0.0299729 0.058317 -0.0132663 0.0714235 0.01086 0.0496481 0.01064 0.0577898 0.0527246 0.0235986 0.000350644 0.056435 0.0349201
internal_weight=15848.8 7007.64 8841.16 2707.75 1666.37 5402.55 6133.42 1327.25 1605.1 955.252 4265.19 742.617 1137.35 689.817 545.472 1421.6 640.627 335.967 1041.38 592.625 816.016 225.364 3051.56 223.073 114.241 2828.48 319.61 238.042 2508.87 591.209
internal_count=52663 22187 30476 8888 5665 16801 21588 4477 5386 3142 13180 2421 3621 2321 1732 4901 2163 1094 3223 1921 2498 725 9505 700 356 8805 1018 765 7787 1884
is_linear=0
shrinkage=0.05


Tree=15
num_leaves=31
num_cat=0
split_feature=12 11 6 7 12 3 6 8 3 7 11 7 11 11 6 8 11 6 12 6 8 6 7 3 8 7 6 2 6 3
split_gain=6871.49 4734.68 1861.39 1248.96 1100.13 817.693 219.849 224.831 212.59 208.822 178.745 175.444 144.322 128.803 127.703 209.996 121.644 431.775 174.812 214.272 120.743 310.818 410.056 113.452 99.2349 213.002 90.0622 179.004 88.729 87.7709
threshold=49.789000000000009 49.802000000000007 19.985000000000003 1.0835000000000001 23.203500000000002 1.1005000000000003 10.036500000000002 5.0385000000000009 0.33350000000000007 0.50750000000000017 44.938500000000005 1.4985000000000002 69.855500000000021 32.38450000000001 9.9725000000000019 5.2285000000000013 14.977000000000002 29.951500000000006 14.030500000000002 72.355500000000021 5.0385000000000009 9.9725000000000019 0.53150000000000019 1.6395000000000002 15.044500000000001 -1.0000000180025095e-35 19.985000000000003 -1.0000000180025095e-35 29.133500000000005 1.0005000000000002
decision_type=2 2 2 2 2 2 2 2 2 2 2 2 2 2 2 2 2 2 2 2 2 2 2 2 2 2 2 2 2 2
left_child=1 2 10 6 5 16 7 9 -6 -3 -1 12 -5 -7 -14 -16 17 -4 -19 -20 21 -12 -23 -15 -18 -26 -13 -28 -27 -21
right_child=-2 3 4 11 8 13 -8 -9 -10 -11 20 26 14 23 15 -17 24 18 19 29 -22 22 -24 -25 25 28 27 -29 -30 -31
leaf_value=-0.043048205341568585 -0.041487347761504409 0.19595109803946381 -0.010777698197766146 -0.041312682729891054 0.18274555425551611 -0.027844983228124662 0.14963637677403135 -0.0092555099691410021 -0.034650201690174166 -0.045254700736039884 -0.043063864844108526 -0.042587780547866133 -0.044150467651809078 0.17155386897563982 0.20264185248656141 0.020291259268096596 0.18735652859158852 0.17347025591023857 -0.046596243012561572 0.17584891369300726 -0.038636291589262496 0.19146354199575319 -0.04401011554070286 -0.042672023625704679 0.15181905039117138 -0.026011821420138845 -0.042693121837057223 0.21055921351864049 0.17675706667620583 -0.045482447613770009
leaf_weight=1031.6685767322779 4484.3409649953246 40.531334981322289 66.555306255817413 23.844354227185249 11.744484215974806 129.3652431666851 1086.8104448467493 45.892107531428337 264.70872654020786 11.524374991655348 71.144977167248726 103.90982863306999 12.958853915333746 16.844000265002254 38.414571642875671 26.805196091532707 96.256866663694382 119.28090143203735 24.090767621994019 31.965645745396614 98.958371087908745 48.30425825715065 29.952769070863724 9.762114539742468 138.00999568402767 27.947322607040405 17.775359317660332 11.486124411225321 6.6858239471912375 5.2091889530420294
leaf_count=6977 32251 205 331 153 55 813 4747 245 1788 61 476 741 76 74 194 155 452 533 116 143 619 231 180 69 593 144 125 59 30 27
internal_value=-3.21421e-05 0.0509214 0.00545415 0.122277 0.0585419 0.0930821 0.14317 0.0714245 -0.0254146 0.142552 -0.0338808 0.0170303 0.0663684 -0.00723908 0.0992109 0.127696 0.123406 0.0980812 0.13821 0.0695604 0.00420002 0.0325732 0.101336 0.0929517 0.146678 0.123998 -0.0207677 0.056717 0.0131321 0.144834
internal_weight=8132.75 3648.41 2228.46 1419.95 948.426 671.973 1184.76 97.9478 276.453 52.0557 1280.03 235.194 102.023 155.971 78.1786 65.2198 516.002 247.102 180.547 61.2656 248.36 149.402 78.257 26.6061 268.9 172.643 133.171 29.2615 34.6331 37.1748
internal_count=52663 20412 13651 6761 5168 3325 5258 511 1843 266 8483 1503 578 956 425 349 2369 1150 819 286 1506 887 411 143 1219 767 925 184 174 170
is_linear=0
shrinkage=0.05


Tree=16
num_leaves=31
num_cat=0
split_feature=1 11 1 3 11 6 3 11 3 6 11 1 6 6 4 1 3 4 6 3 11 3 11 6 6 0 10 8 6 11
split_gain=9535.77 1743.16 1588.98 997.004 1163.21 701.127 439.488 428.217 360.55 352.001 512.263 196.64 150.771 139.715 136.555 133.224 315.004 131.417 138.697 113.32 199.856 106.221 103.374 96.1972 92.1722 88.4852 81.5853 75.6146 67.4649 162.277
threshold=49.747500000000009 67.376500000000007 14.667000000000002 1.0425000000000002 56.842500000000008 9.9725000000000019 1.0965000000000003 22.869500000000006 1.1305000000000003 9.9725000000000019 21.322000000000006 99.722000000000008 10.036500000000002 9.8435000000000006 1.1995000000000002 98.526500000000013 1.0005000000000002 2.0325000000000002 20.142500000000002 1.0885000000000002 4.3305000000000016 1.1005000000000003 3.7275000000000005 19.985000000000003 29.133500000000005 14.424500000000002 22.315500000000004 5.0385000000000009 20.142500000000002 7.5245000000000006
decision_type=2 2 2 2 2 2 2 2 2 2 2 2 2 2 2 2 2 2 2 2 2 2 2 2 2 2 2 2 2 2
left_child=2 6 -1 13 9 8 7 15 -3 19 14 -7 -9 22 -11 16 -2 -14 -19 20 -5 27 25 -18 -23 -4 -26 -16 -8 -30
right_child=1 5 3 4 -6 11 28 12 -10 10 -12 -13 17 -15 21 -17 23 18 -20 -21 -22 24 -24 -25 26 -27 -28 -29 29 -31
leaf_value=-0.045125348377437056 -0.036853858597536107 -0.022974726022162644 -0.0019773545564491005 0.096940836063394764 -0.03884725937880204 -0.047004178027482801 0.095221517563845642 0.086704505808391744 0.092703192848942961 -0.016311005916662413 -0.047689132301703213 0.049738909620297242 -0.040928639859285111 -0.047019890434939704 -0.049758416571321469 0.093713495597323421 0.098818762807612759 0.10013412432796126 -0.028972247377468827 0.097646310797671221 -0.015776108214233028 0.090356127444015055 -0.044616575071322273 -0.051168406414614044 -0.014180983310263582 0.089085336023435241 0.089306255877932977 0.061575764556424696 0.093674139163402115 0.05668790327920098
leaf_weight=5880.7242030054331 79.55800074338913 97.502104058861732 76.808099344372749 89.312507584691048 494.93978822231293 489.45043222606182 1322.5317512899637 41.103082701563835 217.89602914452553 59.170439779758453 167.01285263895988 58.840110629796982 175.45513577759266 808.40452167391777 31.369734317064285 309.25751383602619 134.05588911473751 41.466486990451813 41.743723288178444 373.50837618112564 70.264943972229958 260.07650247216225 77.85459104180336 11.616796806454657 46.116598233580589 40.87194912135601 32.442939549684525 29.679676085710526 746.60333001613617 491.98903402686119
leaf_count=27138 348 409 320 292 2209 2219 4166 144 705 244 707 208 750 3704 128 980 431 133 159 1200 283 848 349 45 181 140 107 107 2360 1649
internal_value=-0.000142425 0.0609684 -0.0306248 0.00145923 0.0253184 -0.00245459 0.0771014 0.045583 0.0569425 0.0527207 0.0272896 -0.0366221 -0.00225013 -0.0378464 0.0545801 0.0724102 0.0431593 -0.0163854 0.0353659 0.0825781 0.0473095 0.065075 7.98287e-05 0.0868579 0.0760193 0.02965 0.0285564 0.00436762 0.0873682 0.0789826
internal_weight=12797.6 4259.07 8538.56 2657.83 1653.89 863.689 3395.38 834.257 315.398 1158.95 625.869 548.291 299.768 1003.94 458.856 534.488 225.231 258.665 83.2102 533.086 159.577 399.685 195.535 145.673 338.636 117.68 78.5595 61.0494 2561.12 1238.59
internal_count=52663 14706 37957 10819 6306 3541 11165 2990 1114 4097 2322 2427 1186 4513 1615 1804 824 1042 292 1775 575 1371 809 476 1136 460 288 235 8175 4009
is_linear=0
shrinkage=0.05


Tree=17
num_leaves=31
num_cat=0
split_feature=4 4 6 7 11 0 7 11 11 6 4 6 6 9 4 4 6 3 0 11 7 11 6 9 7 7 11 6 0 5
split_gain=3493.55 2096.61 1146.07 698.727 651.272 373.909 288.18 773.631 342.102 306.445 449.902 221.276 206.937 198.462 184.258 326.923 303.918 265.561 219.442 219.139 166.684 361.79 182.874 151.77 138.24 137.378 520.944 127.914 111.174 169.971
threshold=0.80850000000000011 1.9965000000000004 1.0000000180025095e-35 1.4985000000000002 19.477500000000003 -14.370999999999997 1.4815000000000003 51.278500000000008 89.90300000000002 9.9725000000000019 1.5005000000000002 23.079500000000003 9.020500000000002 -4.0919999999999996 0.99750000000000016 1.1995000000000002 24.569500000000001 1.0365000000000002 37.668000000000006 20.450500000000005 0.92650000000000021 26.955000000000002 21.049500000000005 -17.299999999999997 0.59850000000000014 -0.35449999999999993 44.938500000000005 20.287500000000005 22.489500000000003 2.2575000000000007
decision_type=2 2 2 2 2 2 2 2 2 2 2 2 2 2 2 2 2 2 2 2 2 2 2 2 2 2 2 2 2 2
left_child=3 2 -2 -1 -5 -4 8 -8 14 10 13 -11 -6 -9 17 16 -16 23 25 24 21 -3 -23 -7 -20 26 -17 -19 29 -27
right_child=1 20 5 4 12 6 7 9 -10 11 -12 -13 -14 -15 15 18 -18 27 19 -21 -22 22 -24 -25 -26 28 -28 -29 -30 -31
leaf_value=-0.043414823559456195 0.092947701073317915 -0.044054114594867667 -0.028141803946099022 0.092583366907343465 0.075905278820103408 -0.039940044264608773 -0.030426807084204779 -0.018043298056468204 -0.029956215975622563 0.095478264011791325 -0.048111500283001617 -0.025008280288264347 -0.034934540767328021 0.098334072209552134 0.074989057893945985 0.084047593893522052 -0.025345833752233832 0.11614668623868052 0.048687018375113397 0.063283037003990752 -0.044540242028360065 -0.023277483554541786 0.072439828236162629 0.097066122336727609 -0.025411123105337958 -0.0023380821862586539 -0.04356402073366538 0.0015917803168173093 0.02893086777043772 0.077582000050046257
leaf_weight=3891.598058655858 663.95185813307762 324.07930293679237 327.23577637970448 186.05911332368851 48.064435169100761 222.98887845873833 695.51174916327 50.748924285173416 208.35758255422115 284.33260926604271 164.22057674825191 44.003684639930725 339.91748434305191 131.71041798591614 799.067466750741 288.92302848398685 83.345230028033257 59.151761516928673 119.5920567214489 779.69510139524937 1057.1107018738985 76.624413356184959 143.08406542241573 22.228743702173233 132.8866181075573 836.26218278706074 110.58413989841938 41.440950632095337 883.33165042102337 72.277690261602402
leaf_count=17454 2069 1439 1413 621 171 983 2945 195 889 943 682 177 1472 421 2633 962 320 235 430 2676 4737 314 533 77 530 3230 468 159 3233 252
internal_value=7.68872e-05 0.0186669 0.0304392 -0.0358187 0.0156774 0.0239115 0.026736 0.00658138 0.0326634 0.0447133 0.0119276 0.0793306 -0.0212034 0.0659651 0.0355942 0.0385463 0.0655123 0.000542836 0.0311646 0.050173 -0.0329688 -0.0104741 0.0390579 -0.0275206 0.00968709 0.0222114 0.0487245 0.0689538 0.0163001 0.00401985
internal_weight=13088.4 8622.75 7021.85 4465.64 574.041 6357.9 6030.66 1370.53 4660.13 675.016 346.68 328.336 387.982 182.459 4451.78 4105.97 882.413 345.81 3223.55 1032.17 1600.9 543.788 219.708 245.218 252.479 2191.38 399.507 100.593 1791.87 908.54
internal_count=52663 32945 25922 19718 2264 23853 22440 5363 17077 2418 1298 1120 1643 616 16188 14734 2953 1454 11781 3636 7023 2286 847 1060 960 8145 1430 394 6715 3482
is_linear=0
shrinkage=0.05


Tree=18
num_leaves=31
num_cat=0
split_feature=12 6 6 12 6 7 11 12 7 7 12 7 11 11 11 11 3 3 6 7 12 11 11 3 8 12 3 11 12 7
split_gain=8730.85 1125.44 412.185 440.928 368.984 368.595 300.873 679.446 760.435 472.214 454.006 303.141 311.38 289.075 284.639 277.352 257.974 257.143 253.086 251.151 249.076 205.098 194.097 234.212 189.891 164.29 151.642 180.897 143.899 191.664
threshold=88.571000000000012 1.0000000180025095e-35 25.388500000000004 23.783000000000005 8.3705000000000016 0.48250000000000004 57.841000000000008 26.285000000000004 1.0205000000000002 0.99250000000000005 72.808000000000007 1.4985000000000002 19.477500000000003 26.955000000000002 26.955000000000002 55.866500000000009 1.0325000000000002 1.4885000000000004 9.9725000000000019 0.15150000000000002 60.32200000000001 89.867000000000019 26.967000000000002 1.0205000000000002 5.0385000000000009 47.87850000000001 0.70450000000000002 47.701000000000008 94.854500000000016 0.49550000000000005
decision_type=2 2 2 2 2 2 2 2 2 2 2 2 2 2 2 2 2 2 2 2 2 2 2 2 2 2 2 2 2 2
left_child=1 21 4 17 16 15 10 8 18 -9 11 26 -13 -12 -7 -5 -3 22 -8 -15 -11 -1 23 -4 -14 -17 27 -6 29 -2
right_child=28 2 3 5 6 14 7 9 -10 20 13 12 24 19 -16 25 -18 -19 -20 -21 -22 -23 -24 -25 -26 -27 -28 -29 -30 -31
leaf_value=0.077428033229817769 0.00070478552696917368 0.033878810143907027 -0.025196514804904022 0.06230628588093709 0.04208343257186925 -0.032825938164456191 0.058170182575176414 0.064598922094465688 0.052704127099511333 0.067704993726663706 -0.046712071942905171 -0.045643993047534463 0.065995157218862205 0.073108409715211417 0.061485080038729038 -0.054867424998314089 -0.041313177252341085 0.062747188437890136 -0.044772993127847466 -0.03909360008761243 -0.038010758582241719 -0.012732361538315862 -0.053805044057103728 0.057273242361584209 -0.037742554152133768 0.039909069429993158 0.059607155776932874 -0.054148838310217606 -0.050746924914790804 -0.048474961135058184
leaf_weight=1223.3483451008797 337.6104379594326 184.24428871273994 402.72311842441559 584.43351325392723 222.34237423539162 350.95325118303299 65.134577214717865 850.9820653796196 347.57036074995995 76.008879154920578 215.72888976335526 158.8427032828331 201.8255250453949 145.40431818366051 103.62655636668205 92.937495321035385 299.49684798717499 85.191382348537445 716.27376475930214 75.911937117576599 208.71184532344341 66.505894750356674 407.54308661818504 109.49914452433586 56.452236384153366 90.007349252700806 2311.1061685085297 62.579683482646942 5128.5083564817905 479.45941063761711
leaf_count=3675 1131 585 1330 1812 691 1196 207 2604 1068 232 748 549 613 451 323 322 1036 263 2513 264 736 217 1435 339 181 277 7043 214 18885 1723
internal_value=8.02727e-05 0.0292852 0.0226267 0.00417603 0.0292553 0.0243526 0.0328045 0.0186441 -0.00882429 0.0459499 0.0420993 0.049007 0.00944245 -0.00552468 -0.0113267 0.0454883 -0.0126745 -0.0203573 -0.0361921 0.0346229 -0.00978894 0.0727793 -0.0280547 -0.00756673 0.043321 -0.00823817 0.0553641 0.0209472 -0.0476421 -0.0281541
internal_weight=15661 9715.39 8425.53 2226.91 6198.62 1221.96 5714.88 2264.68 1128.98 1135.7 3450.19 3013.15 417.12 437.045 454.58 767.378 483.741 1004.96 781.408 221.316 284.721 1289.85 919.765 512.222 258.278 182.945 2596.03 284.922 5945.58 817.07
internal_count=52663 30924 27032 7297 19735 3930 18114 7360 3788 3572 10754 9291 1343 1463 1519 2411 1621 3367 2720 715 968 3892 3104 1669 794 599 7948 905 21739 2854
is_linear=0
shrinkage=0.05


Tree=19
num_leaves=31
num_cat=0
split_feature=12 11 6 7 12 3 6 3 11 7 9 7 11 6 11 8 6 7 8 6 3 11 6 12 6 6 12 3 8 7
split_gain=6249.2 3809.22 1647.23 977.038 947.482 644.906 220.421 183.926 172.135 131.678 138.503 122.941 374.494 138.905 116.903 112.361 269.372 319.021 101.395 145.426 93.1103 91.6258 340.578 123.645 181.174 83.1853 162.58 69.0324 66.9827 163.198
threshold=50.806500000000007 49.802000000000007 19.985000000000003 1.4505000000000001 23.203500000000002 1.1005000000000003 10.036500000000002 0.33350000000000007 44.938500000000005 1.0000000180025095e-35 -4.9619999999999989 0.49550000000000005 69.855500000000021 18.553500000000003 32.38450000000001 5.0385000000000009 9.9725000000000019 0.53150000000000019 14.812500000000002 20.287500000000005 1.6395000000000002 14.977000000000002 29.951500000000006 14.030500000000002 72.355500000000021 19.985000000000003 39.595000000000006 1.0005000000000002 15.044500000000001 -1.0000000180025095e-35
decision_type=2 2 2 2 2 2 2 2 2 2 2 2 2 2 2 2 2 2 2 2 2 2 2 2 2 2 2 2 2 2
left_child=1 2 8 6 5 21 9 -6 -1 10 -3 -8 13 -13 -7 16 -10 -18 -14 -20 -16 22 -4 -24 -25 -5 -27 -26 -23 -30
right_child=-2 3 4 25 7 14 11 -9 15 -11 -12 12 18 -15 20 -17 17 -19 19 -21 -22 28 23 24 27 26 -28 -29 29 -31
leaf_value=-0.042744769519812542 -0.041396071324680567 0.011042567355138325 -0.010712560202132619 -0.038249283495762815 0.15793018709665685 -0.027302395674950526 0.13557839230917967 -0.034428874830993973 -0.042792367144175815 -0.001847296341637431 0.16566504420609054 -0.017862521317171105 0.14487362512810009 0.15632425000431435 0.15145858695805864 -0.03825864216171701 0.16209746706924549 -0.043657620914898894 -0.046567017748964615 0.12641530713852545 -0.042387600826540486 0.15901988311375476 0.14755788209091078 -0.046418138948538419 0.15226035756839928 0.17020015195538013 -0.04240274222423418 -0.045143163358649832 0.13207429634122939 0.012205751459952776
leaf_weight=990.00986443459988 4282.2964890226722 23.879611536860466 66.460302293300629 108.57100695371628 13.040800660848616 126.47182022035122 925.04163739085197 263.91025168448687 68.54827181994915 55.297118008136749 36.804533764719963 71.983251914381981 218.96720078587532 13.609115585684775 18.367800250649456 97.028968840837479 54.53800605237484 28.780668914318085 18.22479285299778 36.451643526554108 9.3471730798482877 108.3428131043911 133.44486087560654 23.77375116944313 35.35371308028698 15.75019036233425 20.957573652267456 5.0630191266536704 151.28050582110882 34.956338420510292
leaf_count=6989 32117 124 331 802 55 813 3584 1833 476 300 165 412 922 56 74 628 231 180 92 149 69 452 533 116 143 69 154 27 593 174
internal_value=-5.47088e-05 0.0468515 0.00502182 0.107171 0.0531126 0.083604 0.119976 -0.0253713 -0.0333999 0.0539636 0.10482 0.125938 0.101113 0.00983303 -0.00692165 0.0037704 0.0306231 0.0910237 0.129665 0.0687567 0.0860819 0.108588 0.0872023 0.120129 0.0631071 -0.0162497 0.0488187 0.127532 0.12776 0.109575
internal_weight=8056.55 3774.26 2228.72 1545.54 989.813 712.862 1400.26 276.951 1238.91 115.981 60.6841 1284.28 359.236 85.5924 154.187 248.896 151.867 83.3187 273.644 54.6764 27.715 558.675 264.096 197.635 64.1905 145.279 36.7078 40.4167 294.58 186.237
internal_count=52663 20546 13717 6829 5213 3325 5804 1888 8504 589 289 5215 1631 468 956 1515 887 411 1163 241 143 2369 1150 819 286 1025 223 170 1219 767
is_linear=0
shrinkage=0.05


Tree=20
num_leaves=31
num_cat=0
split_feature=12 3 1 3 12 6 11 3 11 11 6 11 6 3 1 6 4 3 6 3 6 3 0 6 10 12 4 10 0 3
split_gain=11557.3 765.231 606.155 705.406 577.232 424.166 705.229 330.852 330.898 282.875 180.329 184.457 170.311 164.919 142.326 84.5593 236.997 80.761 96.2736 68.7873 61.1654 73.653 58.7466 54.7517 51.5182 51.2018 48.5351 46.0984 41.4416 37.9885
threshold=99.735500000000016 1.0925000000000002 8.4220000000000024 1.1445000000000001 138.55450000000002 10.036500000000002 21.322000000000006 1.0005000000000002 22.869500000000006 89.867000000000019 9.020500000000002 50.632000000000012 9.8435000000000006 1.0345000000000002 99.722000000000008 10.085500000000001 1.5005000000000002 1.5145000000000002 19.825000000000006 1.1225000000000003 9.9725000000000019 1.0605000000000002 -3.1054999999999997 19.985000000000003 23.668500000000005 104.12350000000002 1.1995000000000002 8.4645000000000028 18.004500000000004 1.0585000000000002
decision_type=2 2 2 2 2 2 2 2 2 2 2 2 2 2 2 2 2 2 2 2 2 2 2 2 2 2 2 2 2 2
left_child=2 4 -1 10 7 -5 17 22 15 -3 11 13 19 -4 -14 -9 29 18 26 -11 21 -10 -2 -18 -20 -23 27 -7 -22 -17
right_child=1 9 3 5 -6 6 -8 8 20 12 -12 -13 14 -15 -16 16 23 -19 24 -21 28 25 -24 -25 -26 -27 -28 -29 -30 -31
leaf_value=-0.0455576109291497 0.06670383295176284 0.082180029777779828 -0.044100727300171644 0.076605606251405639 0.084104127770942949 -0.012031281747478665 -0.042129728327758742 0.089839730204140308 -0.032158894091074641 -0.037628205633066375 -0.042645649454450929 -0.030684326115162114 -0.045583935253343331 0.080856598071143204 0.058118833985767074 -0.046561596989271668 0.093503175122692475 0.082676768037533349 -0.03350857739260691 0.084529984718992202 0.073884753838192638 -0.0058049111601714319 -0.040402934456063383 -0.031556323740678009 0.084589751376727154 0.096045206065217339 0.10052868470722337 0.13006692347735804 -0.043643599231848802 0.023708596939200213
leaf_weight=5356.5625255703926 13.444326490163801 2914.6830961406231 37.087252244353294 232.7235716432333 366.3499992787838 24.725424557924271 428.48668149113655 146.7411285340786 44.455182626843452 12.877021759748457 1481.982405424118 216.86716222763062 92.513899326324463 91.674826249480247 51.506049275398254 57.822197452187538 117.04816243052483 156.07171791791916 54.988626912236214 109.67606918513775 7.9568042010068885 20.446457117795944 268.09841439127922 9.4592328965663892 11.09828335046768 31.122131541371346 46.906243830919266 7.4204461276531211 130.79630102217197 28.819024950265884
leaf_count=25797 58 9029 175 764 1130 101 1951 460 187 54 7014 969 415 324 173 242 366 500 217 341 30 78 1190 35 39 101 151 29 560 106
internal_value=-0.000385265 0.0646745 -0.0357144 -0.0168166 0.0314002 0.0178287 -0.00091711 0.00936435 0.030505 0.077671 -0.0350608 -0.0025388 0.0283701 0.0448652 -0.00849657 0.0606297 0.0405203 0.0577098 0.0308622 0.0716945 -0.0156733 0.0150047 -0.0352883 0.0841522 -0.0136758 0.0556626 0.0680956 0.0207702 -0.0369039 -0.023188
internal_weight=12570.4 4423.82 8146.6 2790.03 1242.56 962.421 729.697 876.209 594.667 3181.26 1827.61 345.629 266.573 128.762 144.02 359.89 213.149 301.211 145.139 122.553 234.777 96.0238 281.543 126.507 66.0869 51.5686 79.0521 32.1459 138.753 86.6412
internal_count=52586 14555 38031 12234 4543 3752 2988 3413 2165 10012 8482 1468 983 499 588 1209 749 1037 537 395 956 366 1248 401 256 179 281 130 590 348
is_linear=0
shrinkage=0.05


Tree=21
num_leaves=31
num_cat=0
split_feature=4 1 6 7 11 7 11 11 1 7 7 11 6 4 6 11 7 6 4 11 7 7 11 6 7 11 6 7 6 6
split_gain=3230.4 1913.81 947.203 643.806 548.294 220.585 273.325 206.088 178.744 489.867 178.192 513.925 190.096 279.302 189.808 363.296 482.519 210.925 181.183 228.84 351.172 316.963 310.473 174.824 164.618 334.624 161.848 158.002 292.697 240.122
threshold=0.80850000000000011 99.722000000000008 1.0000000180025095e-35 1.4985000000000002 19.477500000000003 2.2295000000000003 89.90300000000002 75.25500000000001 -0.24849999999999997 0.50750000000000017 1.4815000000000003 56.574000000000005 10.036500000000002 1.5005000000000002 13.139500000000002 44.938500000000005 0.48250000000000004 19.985000000000003 1.1995000000000002 89.867000000000019 0.99250000000000005 0.50750000000000017 54.401500000000006 8.4515000000000011 1.0205000000000002 26.955000000000002 21.049500000000005 0.62150000000000005 19.985000000000003 29.951500000000006
decision_type=2 2 2 2 2 2 2 2 2 2 2 2 2 2 2 2 2 2 2 2 2 2 2 2 2 2 2 2 2 2
left_child=3 2 -2 -1 -5 6 8 -7 9 -4 14 -12 13 -13 18 27 -17 -18 -10 20 22 -21 -20 -6 25 -3 -27 29 -29 -16
right_child=1 24 5 4 23 7 -8 -9 10 -11 11 12 -14 -15 15 16 17 -19 19 21 -22 -23 -24 -25 -26 26 -28 28 -30 -31
leaf_value=-0.042519875430625194 0.085703887202466023 -0.044291986593899692 -0.028137496451455246 0.083716912991481929 0.087510613613104665 -0.036770524243945897 -0.025179458451490073 0.028972348186332791 0.067197451843669959 0.07517684370343769 -0.030815061306657666 0.075501815489904645 0.093505848206373254 -0.044939696511495208 0.061671353408368414 -0.035754076196908131 0.067769465072910956 -0.042464395913655868 0.052076359045156256 -0.014611525191808226 -0.030125431672293802 0.083285116581343341 -0.040997662131753591 -0.030720696903368302 -0.044885902906118338 -0.020592695777127495 0.06318720978513398 -0.021102039157402778 0.061324309408440573 -0.0026810334613217917
leaf_weight=3747.2497341781855 668.73650372028351 328.4544328302145 401.77759613096714 190.4040721654892 34.348611116409302 283.32295590639114 251.34836672246456 205.78888332843781 664.13541877269745 160.59681701660156 392.70224502682686 103.2927603572607 156.40567836165428 90.141881540417671 818.17243553698063 456.40527504682541 231.89069969952106 53.385038316249847 635.02333104610443 104.11524103581905 245.01762215793133 401.64851546287537 104.3188636302948 348.41825146973133 970.62053222954273 90.806847259402275 157.85518176853657 250.95213989913464 188.67914980649948 176.17065313458443
leaf_count=17463 2038 1520 1787 612 116 1235 1081 754 2137 577 1709 328 492 386 2780 1936 781 196 2182 392 990 1312 436 1539 4535 379 578 985 652 678
internal_value=0.000296439 0.018031 0.0290925 -0.0349712 0.0143801 0.0231543 0.0258353 -0.00910987 0.0281108 0.0013659 0.031076 0.00844604 0.0525174 0.0193752 0.0349569 0.0245399 -0.00386986 0.0471409 0.0454773 0.0357968 0.0217518 0.0631324 0.0389439 -0.0201109 -0.0323121 -0.0111649 0.0325923 0.039234 0.0142734 0.0502699
internal_weight=12912.2 8591.77 7044.03 4320.42 573.171 6375.29 5886.18 489.112 5634.83 562.374 5072.46 742.543 349.84 193.435 4329.91 2175.66 741.681 285.276 2154.26 1490.12 984.36 505.764 739.342 382.767 1547.74 577.116 248.662 1433.97 439.631 994.343
internal_count=52586 32856 25844 19730 2267 23806 21817 1989 20736 2364 18372 2915 1206 714 15457 8008 2913 977 7449 5312 3608 1704 2618 1655 7012 2477 957 5095 1637 3458
is_linear=0
shrinkage=0.05


Tree=22
num_leaves=31
num_cat=0
split_feature=12 6 6 12 11 4 12 12 11 11 6 11 6 0 0 10 10 6 4 12 4 6 0 6 11 5 4 8 6 8
split_gain=7913.83 965.946 391.534 393.066 273.482 406.795 315.322 271.442 246.869 209.366 177.742 171.723 193.677 172.789 156.372 155.178 151.445 149.543 195.053 193.715 146.802 319.537 174.342 182.664 139.146 131.097 128.633 121.363 159.656 121.044
threshold=85.990000000000009 5.3795000000000011 25.388500000000004 23.783000000000005 53.937500000000007 1.2475000000000003 71.307000000000016 94.854500000000016 28.463000000000005 26.955000000000002 9.9725000000000019 26.955000000000002 9.9725000000000019 25.223500000000005 49.221000000000011 10.754500000000002 -0.97649999999999981 20.869500000000006 0.85550000000000004 72.259000000000015 0.51250000000000007 9.9725000000000019 10.275500000000003 15.190500000000002 89.867000000000019 0.99450000000000005 1.5005000000000002 49.928500000000007 72.355500000000021 5.0385000000000009
decision_type=2 2 2 2 2 2 2 2 2 2 2 2 2 2 2 2 2 2 2 2 2 2 2 2 2 2 2 2 2 2
left_child=1 24 4 8 6 17 16 11 15 -8 -7 -2 -13 -14 -5 27 -3 19 -19 20 21 -6 23 -23 -1 -16 -12 -4 -29 -26
right_child=7 2 3 14 5 10 9 -9 -10 -11 26 12 13 -15 25 -17 -18 18 -20 -21 -22 22 -24 -25 29 -27 -28 28 -30 -31
leaf_value=0.072844492651038636 -0.049942908989823315 0.05976234517272732 -0.027500987126172823 0.031509561276692674 0.069863321673653125 -0.029904820815975387 -0.042595027908680888 -0.049691860528682394 -0.048333438298552932 0.028118094506358011 0.064593538000947484 -0.045824643442030605 0.047317109401743142 -0.013373233547997524 0.077723138651890164 0.058801516159766004 0.035955126730823031 -0.052841397502194756 0.059466612046419731 -0.040454502489098647 0.041686022341860716 0.032965576570804039 -0.033408907754541375 -0.033940019942258086 -0.05430349440324244 -0.034349352915789576 -0.0010128238890290508 0.080479497145831802 -0.018664939580865941 0.095950234993284103
leaf_weight=1217.1049363017082 373.2617409825325 1036.2872802913189 320.31741082668304 1015.3117846548557 162.9202693104744 66.03230494260788 179.83574491739273 4919.842463567853 413.82831794023514 250.45873162150383 577.90686240792274 234.51205106079578 186.80566808581352 315.09873738884926 30.886538416147232 100.11569046974182 1879.6231809556484 204.40674823522568 47.678625971078873 170.33412535488605 398.43121790885925 338.45073679089546 352.76828643679619 146.03310635685921 40.647474646568298 168.1523659825325 85.807433903217316 73.004761606454849 91.497200816869736 19.998836606740952
leaf_count=3656 1358 3131 1062 3197 501 229 628 18781 1496 808 1773 859 594 1101 95 306 5832 748 145 610 1244 1083 1229 510 136 600 270 233 308 63
internal_value=4.57232e-05 0.0287546 0.0223885 0.00445547 0.0291188 0.016786 0.0385199 -0.0446535 -0.0187795 -0.0014355 0.0483284 -0.0223155 -0.00831217 0.00921533 0.0235654 0.00212931 0.044416 0.0041459 -0.0315998 0.00988926 0.0160206 0.00579641 -0.00667033 0.0127989 0.0691613 -0.0169581 0.0561117 -0.00957356 0.0253346 -0.00475555
internal_weight=15417.4 9387.84 8110.09 2213.11 5896.97 2550.77 3346.2 6029.52 998.763 430.294 729.747 1109.68 736.416 501.904 1214.35 584.935 2915.91 1821.02 252.085 1568.94 1398.6 1000.17 837.252 484.484 1277.75 199.039 663.714 484.819 164.502 60.6463
internal_count=52586 29893 26038 7297 18741 8342 10399 22693 3405 1436 2272 3912 2554 1695 3892 1909 8963 6070 893 5177 4567 3323 2822 1593 3855 695 2043 1603 541 199
is_linear=0
shrinkage=0.05


Tree=23
num_leaves=31
num_cat=0
split_feature=12 11 6 12 10 6 10 11 11 5 10 12 6 9 8 6 6 11 0 12 6 6 11 8 0 12 11 8 0 10
split_gain=5689.01 3078.65 1454.6 793.54 299.746 273.63 188.995 389.724 180.433 145.736 133.213 127.483 126.211 132.575 120.628 253.541 95.3757 312.668 127.45 123.072 90.7757 75.8358 69.5873 68.8508 58.8698 49.6009 86.3201 88.6165 43.6992 36.5756
threshold=49.789000000000009 49.802000000000007 19.985000000000003 23.203500000000002 11.295500000000002 9.9725000000000019 4.9345000000000008 68.362500000000011 44.938500000000005 0.44850000000000007 -44.841999999999992 27.644500000000004 7.4675000000000002 -4.9619999999999989 5.0385000000000009 9.9725000000000019 29.951500000000006 15.782000000000002 -1.0000000180025095e-35 14.030500000000002 72.355500000000021 115.70350000000001 14.746 12.566500000000003 21.268500000000003 55.800000000000004 89.867000000000019 26.941500000000005 93.844000000000008 3.9625000000000008
decision_type=2 2 2 2 2 2 2 2 2 2 2 2 2 2 2 2 2 2 2 2 2 2 2 2 2 2 2 2 2 2
left_child=1 2 8 4 16 12 -7 -8 -1 -9 -5 -11 13 -3 15 -10 17 29 -19 -18 22 -22 -21 -6 -17 26 -2 -28 -20 -4
right_child=25 5 3 10 23 6 7 9 14 11 -12 -13 -14 -15 -16 24 19 18 28 20 21 -23 -24 -25 -26 -27 27 -29 -30 -31
leaf_value=-0.042460230153122475 -0.035773019573323149 -0.045802098132936467 -0.039610741307839328 0.10689346883612767 -0.037751041770818179 0.11360342291660692 -0.020095229106465801 0.11162111758033846 -0.042536736193184856 0.10008167952980498 -0.03420538778327064 -0.037173941007394205 -0.010254831925842102 0.14203602478625996 -0.038907946902433134 0.10639277964399041 0.12450401125951208 -0.048844697997949646 0.10940369563242469 -0.04599842752580513 0.12723566895500846 -0.031937150045434202 0.1299757556731333 0.050983879115453747 -0.0035859406152155926 -0.04176705399137344 0.20217707279071484 0.012457656516223768 -0.0017794841379080344 0.035082933684508932
leaf_weight=938.89775638282299 81.791060619056225 12.849565103650091 56.323137491941452 17.92501537501812 62.898607790470123 1039.807376101613 87.079615876078606 311.89263767004013 64.069669008255005 33.457075849175453 250.46121476590633 34.220920778810978 84.071400918066502 34.926630482077599 93.965160831809044 73.506690174341202 244.07539866864681 14.283686906099318 223.97945238649845 26.724441632628441 39.936053961515427 9.2084472477436048 7.1131679862737647 33.505259186029434 14.581663578748701 3997.2603547722101 8.2422336190938932 24.305965803563595 9.2006593346595746 23.115920752286911
leaf_count=6927 602 65 287 81 422 3903 568 1249 462 120 1782 243 515 141 628 325 915 61 926 137 146 66 26 170 86 31335 41 171 57 129
internal_value=3.90178e-05 0.0437838 0.00519327 0.0490047 0.0753963 0.0956941 0.101739 0.0753032 -0.032471 0.0971891 -0.0247817 0.0306793 0.0266229 0.0915163 0.00563533 0.033143 0.0875296 0.0684304 0.0961358 0.10662 0.0540171 0.0974107 -0.00900604 -0.00691113 0.0881875 -0.0408382 -0.00836744 0.0605006 0.105017 -0.0178757
internal_weight=7953.68 3842.08 2203.77 1018.75 750.364 1638.31 1506.46 466.65 1185.02 379.571 268.386 67.678 131.848 47.7762 246.123 152.158 653.96 326.903 247.464 327.058 82.9821 49.1445 33.8376 96.4039 88.0884 4111.6 114.339 32.5482 233.18 79.4391
internal_count=52586 20437 13633 5205 3342 6804 6083 2180 8428 1612 1863 363 721 206 1501 873 2750 1460 1044 1290 375 212 163 592 411 32149 814 212 983 416
is_linear=0
shrinkage=0.05


Tree=24
num_leaves=31
num_cat=0
split_feature=12 7 4 7 12 7 11 11 12 11 7 6 1 12 0 4 7 12 4 9 7 4 6 7 8 6 1 11 12 11
split_gain=10385.7 771.85 732.334 702.245 706.771 295.942 377.481 291.115 301.116 223.587 202.174 154.287 151.084 88.4269 137.061 86.873 83.5391 144.338 273.93 100.557 107.894 72.8038 220.124 75.5874 111.467 64.598 134.013 55.2634 125.362 54.3542
threshold=99.735500000000016 1.4815000000000003 0.94750000000000012 0.97950000000000015 135.54000000000005 1.0000000180025095e-35 22.869500000000006 70.528000000000006 92.398500000000027 89.867000000000019 1.4985000000000002 10.036500000000002 99.722000000000008 110.22700000000002 45.511500000000005 1.5005000000000002 0.50750000000000017 92.674500000000009 1.3865000000000001 -4.8744999999999985 0.99250000000000005 1.5005000000000002 10.085500000000001 0.51750000000000018 4.9385000000000003 9.9725000000000019 99.722000000000008 0.11850000000000001 50.806500000000007 7.5245000000000006
decision_type=2 2 2 2 2 2 2 2 2 2 2 2 2 2 2 2 2 2 2 2 2 2 2 2 2 2 2 2 2 2
left_child=1 12 -3 4 5 -2 21 29 -9 -5 -11 15 16 -8 -15 -10 -1 27 19 -19 -21 22 -7 -24 -25 -12 -27 28 -18 -4
right_child=3 2 7 9 -6 6 13 8 11 10 25 -13 -14 14 -16 -17 17 18 -20 20 -22 -23 23 24 -26 26 -28 -29 -30 -31
leaf_value=-0.045745728434394624 -0.035199021454334109 -0.045316101418720299 0.086503264125819768 0.080975037669611782 0.07530536393755248 0.085039759201789591 -0.037714543150003589 -0.042668502715056462 -0.043248899388708045 -0.04139469417545566 0.083301420500920154 -0.046555596209508193 0.069587206453090397 0.061890953748770787 -0.02495167879916534 0.086501294594499817 -0.045281958357117 0.11229591918980382 -0.040669252804288306 -0.049383446889139516 0.081237381138618281 0.079891634163709424 -0.046409263365325956 -0.04975296005860793 0.090640985419777845 -0.047117214481931617 0.089502820840349231 -0.042020354879226035 0.059517040766603829 0.047862175705160083
leaf_weight=4789.8847486823797 267.2371207177639 500.36249659955502 156.35157436132431 2459.7960447967052 689.12693724036217 126.74359521269798 175.70027096569538 188.02669955790043 14.424818471074103 69.099536687135696 109.43259879946709 33.781681969761848 30.318319842219353 78.669704109430313 107.54796925187111 122.08445701003075 78.324751749634743 50.474887430667877 169.27068373560905 30.794241636991501 32.488362938165665 190.9594708532095 64.155955702066422 24.196456879377365 34.010523706674576 35.340471148490906 36.476198077201843 1408.1140643060207 44.891163036227226 217.75430963933468
leaf_count=24162 1219 2495 495 7440 2100 392 756 905 58 302 332 162 100 268 407 377 382 181 765 129 112 593 274 88 107 164 113 6782 166 760
internal_value=-0.000447045 -0.0350226 0.00130899 0.0604276 0.0358196 0.0103704 0.0255551 0.0331614 0.000951842 0.0763934 0.0313767 0.0491152 -0.0417735 -0.0122708 0.0117359 0.0727907 -0.0422847 -0.0331477 -0.000344293 0.0596591 0.0176754 0.0566637 0.0388577 -0.00897763 0.0322797 0.0591201 0.0222731 -0.0392106 -0.00710062 0.0640116
internal_weight=12335.8 7867.35 1232.79 4468.49 1758.35 1069.22 801.984 732.424 358.318 2710.14 250.349 170.291 6634.56 361.918 186.218 136.509 6604.24 1814.36 283.028 113.757 63.2826 440.066 249.107 122.363 58.207 181.249 71.8167 1531.33 123.216 374.106
internal_count=52586 38031 5252 14555 6204 4104 2885 2757 1502 8351 911 597 32779 1431 675 435 32679 8517 1187 422 241 1454 861 469 195 609 277 7330 548 1255
is_linear=0
shrinkage=0.05


Tree=25
num_leaves=31
num_cat=0
split_feature=12 12 7 11 4 12 7 12 12 7 7 11 7 7 1 12 12 0 7 4 11 7 11 3 7 12 4 0 12 1
split_gain=3201.2 2791.82 767.662 611.898 581.416 323.827 307.168 362.699 250.909 337.928 276.403 514.68 238.251 173.25 188.971 161.335 145.3 142.203 179.246 138.616 133.89 132.346 127.698 123.109 107.968 196.306 142.834 107.772 107.638 129.337
threshold=69.32350000000001 116.44300000000001 0.46950000000000003 23.986000000000004 1.1995000000000002 50.806500000000007 1.0065000000000002 143.20800000000003 84.417500000000018 0.81050000000000011 1.3125000000000002 71.426500000000019 1.9155000000000002 1.0000000180025095e-35 93.754500000000021 96.008000000000024 73.843000000000004 24.931500000000003 -0.28249999999999992 1.0255000000000003 7.5245000000000006 1.5145000000000002 21.322000000000006 1.0005000000000002 1.4985000000000002 39.595000000000006 0.94750000000000012 46.045000000000009 99.647000000000006 37.073000000000008
decision_type=2 2 2 2 2 2 2 2 2 2 2 2 2 2 2 2 2 2 2 2 2 2 2 2 2 2 2 2 2 2
left_child=2 4 -1 24 12 -5 7 13 9 22 17 28 16 -3 -15 -13 23 18 -10 -7 -11 -17 -6 -2 25 -4 -26 -16 29 -12
right_child=1 6 3 5 8 19 -8 -9 10 20 11 15 -14 14 27 21 -18 -19 -20 -21 -22 -23 -24 -25 26 -27 -28 -29 -30 -31
leaf_value=-0.043214043420075558 -0.0068330066677179252 0.0765789900230857 -0.0049572447068626652 -0.036360932331836876 0.064853221001955202 0.081454718945111207 -0.044944397197786715 -0.039253509601447072 0.068896135797952562 -0.038498199018255547 -0.044973182075748727 0.069712564506992203 -0.048820807174263403 -0.031626554468379552 -0.0055270774815616396 0.090083865396496252 0.074121920364266888 0.057985663218448946 0.017457310510655924 -0.0048439377309673626 0.065491174526930915 -0.001811391570105083 -0.030083034184030324 0.071716226971153443 0.075202088678937143 0.06652525852932005 -0.027123611295878255 0.084348734437702771 -0.045221055601245327 0.042162957287804205
leaf_weight=3445.7770472466946 110.30785049498081 125.244688808918 292.3223018348217 1013.8055925965309 38.620958805084229 86.882343322038651 1187.770567342639 399.19592532515526 230.95679801702499 36.300386771559715 74.129969120025635 318.09786002337933 44.564156785607338 154.95380525290966 55.355738043785095 48.631357178092003 1395.1857891976833 1153.5510747134686 634.98947133123875 100.18973556160927 210.14912079274654 201.59579513967037 427.48753234744072 91.060749292373657 219.0949605256319 143.04232896864414 40.390811040997505 83.923003003001213 272.9178956001997 100.0793991535902
leaf_count=16689 398 389 1284 4641 138 309 5757 1885 735 163 325 1009 180 648 214 155 4276 3759 2292 399 681 801 1855 286 701 514 162 298 1245 398
internal_value=0.000339748 0.0216437 -0.0291546 -0.00359945 0.0403901 -0.0252076 -0.0287026 -0.00513824 0.0295215 0.0028208 0.0357904 0.0145111 0.0652086 0.0273276 0.00636296 0.0460848 0.0683914 0.0464901 0.0311766 0.035236 0.0501742 0.0160483 -0.0222168 0.0286877 0.0337449 0.0185289 0.0592744 0.048628 -0.025621 0.00508459
internal_weight=12736.6 7395.07 5341.51 1895.73 5388.63 1200.88 2006.44 818.673 3747.51 712.558 3034.95 1015.45 1641.12 419.477 294.233 568.325 1596.55 2019.5 865.946 187.072 246.45 250.227 466.108 201.369 694.85 435.365 259.486 139.279 447.127 174.209
internal_count=52586 27887 24699 8010 18696 5349 9191 3434 13556 2837 10719 3933 5140 1549 1160 1965 4960 6786 3027 708 844 956 1993 684 2661 1798 863 512 1968 723
is_linear=0
shrinkage=0.05


Tree=26
num_leaves=31
num_cat=0
split_feature=12 6 6 12 6 7 3 7 2 0 1 12 7 6 7 12 2 2 12 7 1 1 3 0 3 8 3 6 6 6
split_gain=7194.33 913.382 303.241 342.743 330.402 308.342 218.78 218.642 211.347 187.813 159.296 358.053 326.542 159.593 195.949 129.254 120.515 118.804 113.662 166.598 203.912 104.344 124.346 100.982 102.927 97.8606 94.8141 86.8705 84.5457 83.8018
threshold=88.900500000000008 1.0000000180025095e-35 25.388500000000004 23.783000000000005 8.3705000000000016 0.48250000000000004 1.1385000000000003 0.13750000000000004 -3.1579999999999995 -14.370999999999997 27.687000000000005 72.808000000000007 1.0065000000000002 19.985000000000003 0.37850000000000006 44.871500000000005 8.6095000000000024 -50.354499999999994 95.700500000000019 0.49550000000000005 29.883500000000002 50.180000000000007 1.0025000000000002 11.414500000000002 0.8135 12.566500000000003 1.0005000000000002 16.710500000000003 76.83850000000001 10.036500000000002
decision_type=2 2 2 2 2 2 2 2 2 2 2 2 2 2 2 2 2 2 2 2 2 2 2 2 2 2 2 2 2 2
left_child=1 -1 4 6 7 17 -4 16 -7 -6 11 13 21 23 15 -15 -3 -5 19 20 -2 -12 -23 24 -11 -22 -13 29 -19 -25
right_child=18 2 3 5 9 8 -8 -9 -10 10 12 26 -14 14 -16 -17 -18 28 -20 -21 25 22 -24 27 -26 -27 -28 -29 -30 -31
leaf_value=0.065486388650841207 -0.051884507316210193 0.059383808477701611 -0.030814912643483496 -0.047260243626053494 0.052765550222402424 0.051608948210929574 0.025300672455833076 -0.036982569658359353 -0.029905184801323783 0.0072691337615532012 0.063707037220703422 0.0054858848655588086 -0.029662616927324994 -0.024588417455789609 0.035445202214537029 0.068621625382932303 -0.047002055782852929 0.048744881067591339 -0.048821615877936674 -0.047292193256308707 0.045972928541291508 0.058742482210125971 -0.050610439120121031 0.037294117990832758 0.043078582142479775 -0.03294412235437396 -0.045057991236899582 0.047265348903805321 -0.024189726680104301 0.0027802086969848927
leaf_weight=1268.8619158864021 129.82715451717377 118.164342045784 756.50712728500366 36.853045701980591 726.68038684129715 102.95382040739059 225.45609000325203 329.67436361312866 349.33962674438953 229.36213222146034 679.04850473999977 156.08849668502808 127.80445697903633 399.75197914242744 320.89644405245781 41.008027970790863 34.361169785261154 712.74786666035652 4628.6560086160898 504.62714296579361 166.03730893135071 58.584954082965851 46.733708441257477 243.37400123476982 1603.8684695959091 51.457600295543671 228.77892433106899 223.56637382507324 42.080046951770782 634.13784784078598
leaf_count=3855 487 362 2671 132 2210 313 734 1165 1214 753 2067 521 458 1359 1018 124 120 2199 18379 1911 530 176 150 749 4974 174 847 703 136 2095
internal_value=5.70341e-05 0.0259374 0.0199831 0.00415195 0.0256651 0.0215836 -0.0179309 -0.0140817 -0.0113504 0.0290159 0.0255594 0.0213371 0.0444493 0.0261163 0.00572306 -0.0159162 0.035417 0.0403991 -0.0457324 -0.0289488 -0.00229764 0.056525 0.0102186 0.0314098 0.0385983 0.0273018 -0.0245592 0.0194413 0.0446789 0.0123525
internal_weight=15177.3 9696.68 8427.82 2225.94 6201.88 1243.97 981.963 482.2 452.293 5719.68 4993 4080.83 912.172 3695.97 761.656 440.76 152.526 791.681 5480.61 851.949 347.322 784.367 105.319 2934.31 1833.23 217.495 384.867 1101.08 754.828 877.512
internal_count=52586 31105 27250 7399 19851 3994 3405 1647 1527 18204 15994 13143 2851 11775 2501 1483 482 2467 21481 3102 1191 2393 326 9274 5727 704 1368 3547 2335 2844
is_linear=0
shrinkage=0.05


Tree=27
num_leaves=31
num_cat=0
split_feature=12 11 6 12 7 7 11 6 10 9 7 6 7 11 6 11 7 9 12 11 6 12 6 7 6 2 7 7 9 9
split_gain=5215.55 2568.76 1298.42 702.273 669.653 488.689 174.507 157.794 120.847 113.519 234.522 224.699 105.769 255.318 104.43 103.309 102.642 171.447 94.5346 82.4677 241.846 99.6078 128.103 91.9211 74.9482 103.529 64.0892 58.4322 120.848 55.211
threshold=50.806500000000007 49.802000000000007 19.985000000000003 23.203500000000002 1.4985000000000002 0.49550000000000005 44.938500000000005 9.9725000000000019 -44.841999999999992 -5.4624999999999995 0.50750000000000017 9.9725000000000019 0.49550000000000005 69.855500000000021 18.553500000000003 32.38450000000001 0.50750000000000017 -4.9619999999999989 26.285000000000004 14.746 29.951500000000006 14.030500000000002 72.355500000000021 1.0000000180025095e-35 19.985000000000003 -1.0000000180025095e-35 1.6125000000000003 -1.0000000180025095e-35 -14.935499999999999 -14.935499999999999
decision_type=2 2 2 2 2 2 2 2 2 2 2 2 2 2 2 2 2 2 2 2 2 2 2 2 2 2 2 2 2 2
left_child=1 2 6 5 7 19 -1 16 -5 -8 11 -11 -9 14 -14 -7 17 -3 -15 20 27 -22 -23 -24 -6 -26 -17 28 -4 -21
right_child=-2 4 3 8 24 15 9 12 -10 10 -12 -13 13 18 -16 26 -18 -19 -20 29 21 22 23 -25 25 -27 -28 -29 -30 -31
leaf_value=-0.042185999589456707 -0.040756352656492412 -0.011215715021355219 -0.042572099653904488 0.096957423399132769 -0.042215150249346502 -0.040404521079288859 -0.040566107827551545 0.10823730630630755 -0.033960721929757819 -0.042526661488364634 -0.042769873755370384 0.12932118975047235 -0.017581126828502127 0.10634977518781674 0.12060906322398324 0.11863409879893227 -0.044224736679382148 0.13255870548050802 -0.0045725058631069021 0.088201809395998129 0.11681656736246204 -0.045700141034073632 0.12055421251206462 -0.04373668537549192 -0.041969685890377778 0.13253569316883021 -0.042301353100332527 -0.045628111616981298 0.18775494778264473 0.1295186169577619
