tree
version=v4
num_class=1
num_tree_per_iteration=1
label_index=0
max_feature_idx=38
objective=regression
feature_names=Real_Return_3Y Real_Return_5Y Real_Return_10Y PP_Multiplier_1Y PP_Multiplier_5Y PP_Multiplier_10Y PP_vs_Cash_5Y Volatility_90D Sharpe_Ratio_5Y Calmar_Ratio_5Y Max_Drawdown Distance_From_MA_200D_Pct Distance_From_MA_50D_Pct Distance_From_ATH_Pct Days_Since_ATH Momentum_50D Momentum_200D Market_Cap_Saturation_Pct Growth_Potential_Multiplier Composite_Score_5Y Vol_Adj_PP_Score_5Y Correlation_With_SP500 Correlation_With_Gold CPI_Correlation Scarcity_Score Days_Since_Bitcoin_Halving Bitcoin_Cycle_Year Real_PP_Index Eggs_Per_100USD Milk_Gallons_Per_100USD Real_Return_Eggs_1Y Real_Return_Milk_1Y Real_Commodity_Basket_Return_1Y Recession_Risk Yield_Curve_Inverted PP_Stability_Index Return_Consistency Recovery_Strength PPP_Q_Composite_Score
feature_infos=[-157.548:11369.893] [-184.06399999999999:6983.4979999999996] [-140.01499999999999:28256.989000000001] [0:10] [0:10] [0:10] [0:10.053000000000001] [0:573.87] [-4.5650000000000004:94.445999999999998] [-1.373:2095.9229999999998] [0:133.029] [-177.58500000000001:459.85700000000003] [-244.77199999999999:278.21800000000002] [-133.029:0] [0:3897] [-244.77199999999999:278.21800000000002] [-177.58500000000001:459.86099999999999] [0:100] [0.70699999999999996:1] [0:200] [0:100] [-0.254:0.52900000000000003] none [-0.28100000000000003:0.26700000000000002] [0:89.085999999999999] [0:1401] [0:3.8380000000000001] [87.852999999999994:118.702] [33.715000000000003:83.126000000000005] [25.920000000000002:35.223999999999997] [-66.733000000000004:1248.9839999999999] [-63.124000000000002:1732.317] [-64.322999999999993:1490.6500000000001] [0:50] [0:1] [0:1] [0:1] [0.085999999999999993:1] [25.094999999999999:82.114999999999995]
tree_sizes=2761 2839 2881 2849 2852 2875 2865 2860 2882 2867 2856 2870 2879 2873 2869 2869 2873 2869 2875 2867 2868 2858 2849 2878 2869 2863 2860 2871 2879 2878 2885 2890 2856 2877 2892 2889 2889 2892 2891 2900 2877 2918 2910 2909 2916 2907 2915 2931 2914 2941 2927 2935 2931 2915 2946 2924 2919 2939 2947 2925 2927 2944 2946 2909 2937 2931 2932 2942 2947 2946 2962 2935 2961 2944 2926 2949 2927 2944 2964 2966 2924 2941 2936 2938 2949 2921 2916 2897 2929 2913 2940 2932 2949 2955 2925 2930 2929 2925 2958 2929 2938 2941 2930 2918 2944 2913 2925 2918 2916 2948 2902 2897 2945 2928 2931 2938 2925 2935 2874 2927 2907 2955 2934 2912 2927 2921 2929 2913 2895 2967 2987 2989 2916 2920 2913 2895 2905 2905 2909 2909 2941 2910 2946 2909 2924 2904 2927 2946 2940 2939 2900 2902 2948 2926 2908

Tree=0
num_leaves=31
num_cat=0
split_feature=10 10 11 13 11 11 11 11 11 11 11 11 32 32 26 26 26 26 10 26 31 26 13 21 26 26 9 26 26 21
split_gain=7.2566e+06 1.8394e+06 170957 175732 169471 160518 155715 117326 99053.5 121720 82237.9 68052.1 47358.1 29512.4 24739 23254.3 21570.5 15657.7 15475.8 18236.8 13428.7 13254.7 12779 12078.8 11071.7 9737.04 9478.36 8346.54 8297.26 6891.79
threshold=5.0385000000000009 19.884500000000006 -19.765999999999995 -50.037499999999994 1.0000000180025095e-35 20.101500000000005 1.0000000180025095e-35 20.101500000000005 20.101500000000005 1.0000000180025095e-35 20.101500000000005 1.0000000180025095e-35 -1.0000000180025095e-35 0.17150000000000001 2.4945000000000004 2.9220000000000002 2.6095000000000006 2.5765000000000007 46.812500000000007 2.4945000000000004 1.3860000000000003 2.7245000000000004 -4.9619999999999989 1.0000000180025095e-35 2.5275000000000003 2.7740000000000005 -0.33049999999999996 3.0205000000000006 0.056500000000000009 -1.0000000180025095e-35
decision_type=2 2 2 2 2 2 2 2 2 2 2 2 2 2 2 2 2 2 2 2 2 2 2 2 2 2 2 2 2 2
left_child=5 4 18 10 -2 6 12 26 9 24 11 14 -1 -14 -4 20 28 -11 -3 -20 -9 -13 -8 27 -5 -12 -6 29 -10 -7
right_child=1 2 3 8 7 23 22 15 16 17 25 21 13 -15 -16 -17 -18 -19 19 -21 -22 -23 -24 -25 -26 -27 -28 -29 -30 -31
leaf_value=60.735893253281432 61.186019179874222 61.41002263867 62.397432486746787 61.940849541903724 60.81569366453995 60.398050838500893 61.231281065792402 60.793181316078503 61.535527709031321 62.3507314073481 61.987473636351439 62.798065693755113 60.30435209947742 60.759826851523478 61.634096908267701 60.036241684565759 60.785079038684259 61.583921591479594 61.813988412314089 61.071110977708976 61.283375947801886 62.033073458735245 60.682868000306456 60.380215939707774 61.184719635922967 61.234626067020216 61.586690030437502 59.140651286314146 61.980042193489467 59.888055327747509
leaf_weight=860 7041 383 2502 3857 40 73 107 351 546 3478 644 1642 5050 383 111 72 87 68 1337 88 232 59 15121 154 49 46 7144 35 130 797
leaf_count=860 7041 383 2502 3857 40 73 107 351 546 3478 644 1642 5050 383 111 72 87 68 1337 88 232 59 15121 154 49 46 7144 35 130 797
internal_value=61.2473 61.7581 62.1483 62.2107 61.3641 60.5707 60.6003 61.524 62.0684 62.1239 62.4443 62.5254 60.391 60.3365 62.365 60.8834 61.5257 62.336 61.6923 61.7681 60.9882 62.7716 60.6867 59.9697 61.9314 61.9373 61.5824 59.8999 61.6211 59.9307
internal_weight=52487 29907 15027 13219 14880 22580 21521 7839 8215 7452 5004 4314 6293 5433 2613 655 763 3546 1808 1425 583 1701 15228 1059 3906 690 7184 905 676 870
internal_count=52487 29907 15027 13219 14880 22580 21521 7839 8215 7452 5004 4314 6293 5433 2613 655 763 3546 1808 1425 583 1701 15228 1059 3906 690 7184 905 676 870
is_linear=0
shrinkage=1


Tree=1
num_leaves=31
num_cat=0
split_feature=10 10 11 13 11 16 11 11 24 16 11 11 11 25 25 25 24 25 10 25 24 25 13 25 25 1 24 24 25 31
split_gain=6.54912e+06 1.66007e+06 154290 158601 152946 145081 140584 105890 91806.8 89538.9 109966 74219.4 61418 22325.8 20990.7 19463.5 17977.3 14139 13966.7 16459.4 12179.4 11960.1 11530.6 9992.52 8787.98 8555.55 7494.47 6709.51 5764.74 3756.64
threshold=5.0385000000000009 19.884500000000006 -19.765999999999995 -50.037499999999994 1.0000000180025095e-35 20.099500000000003 1.0000000180025095e-35 20.101500000000005 1.0000000180025095e-35 20.099500000000003 1.0000000180025095e-35 20.101500000000005 1.0000000180025095e-35 910.50000000000011 1066.5000000000002 952.50000000000011 74.002500000000012 940.50000000000011 46.812500000000007 910.50000000000011 71.96250000000002 994.50000000000011 -4.9619999999999989 922.50000000000011 1012.5000000000001 -3.5129999999999995 72.254500000000021 68.174500000000009 1234.5000000000002 43.560500000000012
decision_type=2 2 2 2 2 2 2 2 2 2 2 2 2 2 2 2 2 2 2 2 2 2 2 2 2 2 2 2 2 2
left_child=5 4 18 11 -2 6 8 25 -1 10 23 12 13 -4 20 26 27 -12 -3 -20 -9 -14 -8 -5 -13 -6 -11 -7 -24 -27
right_child=1 2 3 9 7 16 22 14 -10 15 17 24 21 -15 -16 -17 -18 -19 19 -21 -22 -23 28 -25 -26 29 -28 -29 -30 -31
leaf_value=-0.91381121607807758 -0.05777265670070595 0.15503280194550639 1.0930723056066742 0.65931715832805937 -0.40963560256577491 -1.2909010988177401 -0.014774555095882755 -0.439514671360557 -0.45110694691055192 0.27418672447120923 1.0489403333968657 0.70361489442689984 1.473676297528308 0.36791864175393063 -1.1501452082238484 -0.43869223490648235 -0.81825429968033958 0.32025942921463441 0.53880028249652023 -0.16694539434928765 0.023686728793448575 0.74699548892361667 -0.53442440966851035 -0.059013507540988344 -0.011597396100420756 0.32020293284687318 0.69657743294178576 -2.001172093448476 -1.2790316921541061 0.81838024369687856
leaf_weight=4922 7041 383 2502 3857 40 798 107 339 1371 547 3477 644 1642 111 72 87 227 68 1337 88 244 59 15094 49 46 7106 130 35 26 38
leaf_count=4922 7041 383 2502 3857 40 798 107 339 1371 547 3477 644 1642 111 72 87 227 68 1337 88 244 59 15094 49 46 7106 130 35 26 38
internal_value=0.000422819 0.485723 0.856412 0.915666 0.111368 -0.642352 -0.614218 0.26329 -0.813016 0.780473 0.833332 1.13759 1.21461 1.06229 -0.345265 0.264916 -1.21342 1.03497 0.42316 0.495205 -0.245674 1.44852 -0.532053 0.650303 0.655932 0.31878 0.355394 -1.32099 -0.535714 0.322865
internal_weight=52487 29907 15027 13219 14880 22580 21520 7839 6293 8215 7451 5004 4314 2613 655 764 1060 3545 1808 1425 583 1701 15227 3906 690 7184 677 833 15120 7144
internal_count=52487 29907 15027 13219 14880 22580 21520 7839 6293 8215 7451 5004 4314 2613 655 764 1060 3545 1808 1425 583 1701 15227 3906 690 7184 677 833 15120 7144
is_linear=0
shrinkage=0.05


Tree=2
num_leaves=31
num_cat=0
split_feature=37 37 12 7 14 7 7 7 14 25 16 11 24 14 18 17 17 7 11 11 35 25 37 3 11 7 11 36 16 11
split_gain=3.96377e+06 1.05724e+06 642541 289683 160639 80542.4 77428 70723.5 68127.7 67169.4 51721.6 77992.1 79176.9 49223.5 49191.2 46741.3 40879.1 38606 38222 36056.5 30070.1 28090.9 26003.8 25529.4 24984.7 24083.8 24071.8 22809.7 21481.1 25243.4
threshold=0.79950000000000021 0.29550000000000004 -1.3394999999999999 29.133500000000005 6.5000000000000009 38.895000000000003 23.935500000000001 18.211500000000004 225.50000000000003 910.50000000000011 20.099500000000003 1.3685000000000003 1.0000000180025095e-35 1465.5000000000002 0.90450000000000019 4.9120000000000008 99.967000000000013 11.464500000000003 -19.765999999999995 20.101500000000005 0.95450000000000002 1114.5000000000002 0.61050000000000015 3.4770000000000008 1.7645000000000002 40.281000000000006 20.101500000000005 0.098500000000000018 20.099500000000003 1.0000000180025095e-35
decision_type=2 2 2 2 2 2 2 2 2 2 2 2 2 2 2 2 2 2 2 2 2 2 2 2 2 2 2 2 2 2
left_child=1 13 5 7 10 17 -6 22 -9 15 11 12 -4 16 28 18 20 -2 -5 -20 23 -8 -3 -1 -24 -12 27 -10 29 -15
right_child=2 3 4 9 6 -7 21 8 26 -11 25 -13 -14 14 -16 -17 -18 -19 19 -21 -22 -23 24 -25 -26 -27 -28 -29 -30 -31
leaf_value=0.87978869441908802 -0.2967476119591157 0.057205131466044605 -0.8654915676049465 0.50792243713197394 -0.44588297172543234 0.59153375581022394 -0.022631723474339158 0.014316863010279053 0.54374177947852098 0.034621145580491397 -1.2065878327968629 -0.50275680224332042 -0.42838122287324537 0.72712634632453599 1.1714495049326241 0.37774561152973557 0.21402700998056032 0.10403948580828455 1.0439748603638888 0.45745915971680956 0.32342417876680113 -1.1425687543701593 -0.033876029776772933 0.17807938633935216 -0.34518910255345531 -0.70886627024808946 -0.9827628633112605 0.19740236947427667 0.41080829994263973 0.96621171010924134
leaf_weight=1936 753 4963 4254 953 7598 748 1543 1843 1598 543 581 6292 1370 1726 1643 1224 397 2972 1170 338 337 58 2125 139 925 419 30 677 257 3075
leaf_count=1936 753 4963 4254 953 7598 748 1543 1843 1598 543 581 6292 1370 1726 1643 1224 397 2972 1170 338 337 58 2125 139 925 419 30 677 257 3075
internal_value=0.000401594 0.440651 -0.428439 0.197299 -0.538982 0.118097 -0.379296 0.0733496 0.240936 0.553805 -0.65271 -0.623712 -0.759022 0.860022 0.933687 0.630305 0.684262 0.0230142 0.755895 0.912557 0.761646 -0.063276 -0.0134043 0.832796 -0.128301 -0.998139 0.422122 0.440693 0.856432 0.880276
internal_weight=52487 25899 26588 16389 22115 4473 9199 12161 4148 4228 12916 11916 5624 9510 6701 3685 2809 3725 2461 1508 2412 1601 8013 2075 3050 1000 2305 2275 5058 4801
internal_count=52487 25899 26588 16389 22115 4473 9199 12161 4148 4228 12916 11916 5624 9510 6701 3685 2809 3725 2461 1508 2412 1601 8013 2075 3050 1000 2305 2275 5058 4801
is_linear=0
shrinkage=0.05


Tree=3
num_leaves=31
num_cat=0
split_feature=10 10 11 11 10 16 11 11 24 16 11 11 11 26 26 26 24 10 26 26 31 26 26 1 26 10 24 21 17 31
split_gain=5.43137e+06 1.35684e+06 135760 132025 131998 122148 111906 92197.5 76041.9 74521.8 90204.8 63081 55112.2 18150.1 17708.7 16659.7 14977.7 12175.1 13567 11265.6 10913.2 9341.17 8002.71 7709.9 7594.27 7206.62 6498.28 6010.67 5178.31 3345.48
threshold=5.0385000000000009 19.884500000000006 1.0000000180025095e-35 -19.765999999999995 49.928500000000007 20.099500000000003 1.0000000180025095e-35 20.101500000000005 1.0000000180025095e-35 20.099500000000003 1.0000000180025095e-35 20.101500000000005 1.0000000180025095e-35 2.4945000000000004 2.9220000000000002 2.6095000000000006 74.002500000000012 44.857000000000006 2.4945000000000004 2.5765000000000007 1.3860000000000003 2.7245000000000004 2.5275000000000003 -3.5129999999999995 2.7740000000000005 4.9385000000000003 72.254500000000021 -1.0000000180025095e-35 0.058500000000000003 43.560500000000012
decision_type=2 2 2 2 2 2 2 2 2 2 2 2 2 2 2 2 2 2 2 2 2 2 2 2 2 2 2 2 2 2
left_child=5 2 -2 17 9 6 8 23 -1 10 22 12 13 -6 20 26 27 -3 -19 -12 -9 -14 -5 -4 -13 28 -11 -7 -8 -25
right_child=1 3 7 4 11 16 25 14 -10 15 19 24 21 -15 -16 -17 -18 18 -20 -21 -22 -23 -24 29 -26 -27 -28 -29 -30 -31
leaf_value=-0.82826260297031917 -0.055464523085667662 0.11550247309195266 -0.39267349171816857 0.59841066892677997 0.98886244036125293 -1.8507287419419685 -1.193663926690931 -0.40518394825092519 -0.4071551703822473 0.24374119488213519 0.9518129880749655 0.63662498679789659 1.3481891070493077 0.34063335866869077 -1.0601109759982847 -0.41905548619614807 -0.74826853460070852 0.48003215903131702 -0.1603366824744373 0.30131476524117762 0.036717254514711681 0.70583570822443054 -0.057787031656617575 0.30016624195679792 -0.02137250463674023 -0.13365764617919923 0.63862717249520895 -1.1786936846640965 -0.4879917124912454 0.77029238898610197
leaf_weight=4922 7041 358 40 3847 2512 35 26 351 1371 542 3470 650 1649 113 72 86 227 1362 88 68 232 59 47 7106 47 144 129 798 15057 38
leaf_count=4922 7041 358 40 3847 2512 35 26 351 1371 542 3470 650 1649 113 72 86 227 1362 88 68 232 59 47 7106 47 144 129 798 15057 38
internal_value=0.000381712 0.442332 0.10389 0.77746 0.832272 -0.584977 -0.559162 0.247023 -0.736528 0.708422 0.756561 1.03388 1.10491 0.960974 -0.320824 0.235766 -1.10897 0.376687 0.441157 0.939321 -0.229348 1.32605 0.590488 0.298801 0.592251 -0.485855 0.319749 -1.20716 -0.489216 0.302678
internal_weight=52487 29907 14880 15027 13219 22580 21520 7839 6293 8189 7432 5030 4333 2625 655 757 1060 1808 1450 3538 583 1708 3894 7184 697 15227 671 833 15083 7144
internal_count=52487 29907 14880 15027 13219 22580 21520 7839 6293 8189 7432 5030 4333 2625 655 757 1060 1808 1450 3538 583 1708 3894 7184 697 15227 671 833 15083 7144
is_linear=0
shrinkage=0.05


Tree=4
num_leaves=31
num_cat=0
split_feature=13 13 11 11 13 16 11 11 24 16 11 11 11 25 25 25 24 10 25 25 32 25 25 1 25 24 24 25 32 10
split_gain=4.90242e+06 1.23584e+06 121528 120783 116637 109977 98673.8 81189.8 69110.6 68163.6 80522.2 56203.2 49074.5 16533.5 15776.1 15191.5 13379.7 11022.7 12377.2 10302.6 10250 8430.37 7656.05 6908.1 6548.21 5461.2 5371.37 4675.5 3907.08 3469.88
threshold=-4.9619999999999989 -20.244499999999995 1.0000000180025095e-35 -19.765999999999995 -50.037499999999994 20.099500000000003 1.0000000180025095e-35 20.101500000000005 1.0000000180025095e-35 20.099500000000003 1.0000000180025095e-35 20.101500000000005 1.0000000180025095e-35 1066.5000000000002 910.50000000000011 952.50000000000011 74.002500000000012 46.812500000000007 910.50000000000011 940.50000000000011 1.0000000180025095e-35 994.50000000000011 922.50000000000011 -3.5129999999999995 1012.5000000000001 72.254500000000021 68.174500000000009 1234.5000000000002 75.546500000000009 5.0385000000000009
decision_type=2 2 2 2 2 2 2 2 2 2 2 2 2 2 2 2 2 2 2 2 2 2 2 2 2 2 2 2 2 2
left_child=1 3 -3 17 11 6 8 23 -2 10 22 12 14 20 -5 25 26 -1 -19 -12 -9 -14 -6 -4 -13 -11 -7 -8 29 -25
right_child=5 2 7 4 9 16 27 13 -10 15 19 24 21 -15 -16 -17 -18 18 -20 -21 -22 -23 -24 28 -26 -27 -28 -29 -30 -31
leaf_value=0.11966141926436347 -0.78840725668873934 -0.050848743277173682 -0.37308877887868519 0.94041012752199549 0.57308043310008339 -1.1230322277586462 -0.46366697864592299 -0.37409835567760125 -0.38679889065198086 0.23510635838042471 0.90840245519468654 0.60568115510956844 1.2808921119602132 -1.0071789100001491 0.3307934317687522 -0.39835500218975017 -0.7146070545591392 0.45966141177056469 -0.15232894499104355 0.28627114667066217 0.046695297328528902 0.67060361126352686 -0.055724351469222493 -0.00016243224050484456 -0.011679779125656327 0.60315995727403826 -1.758455888362352 -1.1342094289845432 0.79035735368102866 0.28664564420238364
leaf_weight=383 4905 7113 40 2502 3802 794 15094 362 1371 539 3437 644 1642 72 111 87 225 1337 88 68 241 59 49 107 46 124 35 26 38 7146
leaf_count=383 4905 7113 40 2502 3802 794 15094 362 1371 539 3437 644 1642 72 111 87 225 1337 88 68 241 59 49 107 46 124 35 26 38 7146
internal_value=0.000362528 0.418124 0.0995433 0.740994 0.79383 -0.558581 -0.534014 0.23316 -0.700684 0.676632 0.72293 0.98366 1.05068 -0.291543 0.914529 0.222505 -1.0572 0.357854 0.421857 0.896343 -0.205932 1.25977 0.565077 0.281476 0.564521 0.304031 -1.15007 -0.464828 0.285073 0.282414
internal_weight=52487 30037 15119 14918 13110 22450 21396 8006 6276 8106 7356 5004 4314 675 2613 750 1054 1808 1425 3505 603 1701 3851 7331 690 663 829 15120 7291 7253
internal_count=52487 30037 15119 14918 13110 22450 21396 8006 6276 8106 7356 5004 4314 675 2613 750 1054 1808 1425 3505 603 1701 3851 7331 690 663 829 15120 7291 7253
is_linear=0
shrinkage=0.05


Tree=5
num_leaves=31
num_cat=0
split_feature=37 14 12 17 14 9 25 12 3 9 11 24 16 11 24 4 37 16 17 11 11 4 12 14 9 35 24 4 17 11
split_gain=2.87712e+06 768866 470900 206730 112681 89411.3 57128.6 50327.9 48683.3 48349 42555.2 40841.5 39231.5 56842.5 57833.5 37028.6 33701.7 33687.9 31079.1 28980.4 34262.2 27410.7 24284.6 22399.4 21195 19011.9 17495.2 17203 16798 16433.4
threshold=0.79600000000000015 879.50000000000011 -1.0134999999999998 0.85450000000000015 6.5000000000000009 6.6855000000000002 910.50000000000011 -9.9944999999999968 0.84150000000000003 0.87650000000000017 1.0000000180025095e-35 83.827000000000012 20.099500000000003 1.5255000000000003 1.0000000180025095e-35 7.1545000000000014 0.87200000000000011 20.099500000000003 22.122000000000003 -19.765999999999995 20.101500000000005 1.8725000000000003 -2.5134999999999992 176.50000000000003 1.7875000000000003 0.82150000000000001 74.294500000000014 1.6115000000000002 44.938500000000005 1.0000000180025095e-35
decision_type=2 2 2 2 2 2 2 2 2 2 2 2 2 2 2 2 2 2 2 2 2 2 2 2 2 2 2 2 2 2
left_child=1 3 7 6 12 8 19 -2 23 10 18 27 13 14 -4 24 25 -12 -3 -1 -21 -10 29 -5 -11 -6 -14 -7 -24 -9
right_child=2 9 4 5 16 11 -8 22 21 15 17 -13 26 -15 -16 -17 -18 -19 -20 20 -22 -23 28 -25 -26 -27 -28 -29 -30 -31
leaf_value=0.43258609361665529 0.47450678521830164 0.86939809457644823 -0.7419136633915685 0.074996412113848152 0.18027517874893306 -0.37789839296751282 0.058592547797921279 -0.013652745633257097 0.090196945757575586 0.5600512007181967 0.94821445743587796 0.817387759666514 -0.98113039225048682 -0.43075069886270978 -0.36650945890293263 1.0842950530385826 -0.3875824631640355 0.44779305076444925 0.56536958284226746 0.9229454766117865 0.36371728174925444 0.67168590946510653 0.0095947242668676953 0.51603001452540354 0.17484568483454002 -0.22509310121066206 -0.47781065177091336 -0.093612768361783671 -0.29674215649710989 0.238870913738017
leaf_weight=941 672 1267 4210 384 335 1155 491 1335 9475 872 3629 94 747 6256 1357 230 6436 371 2502 1128 362 207 975 1151 605 2114 225 987 827 1245
leaf_count=941 672 1267 4210 384 335 1155 491 1335 9475 872 3629 94 747 6256 1357 230 6436 371 2502 1128 362 207 975 1151 605 2114 225 987 827 1245
internal_value=0.00069167 0.376798 -0.362992 0.169363 -0.464311 0.0865637 0.550554 0.0716303 0.144115 0.735251 0.788197 -0.202137 -0.559301 -0.534187 -0.650415 0.494245 -0.327512 0.901814 0.667595 0.649909 0.787116 0.102636 0.00983678 0.405715 0.402292 -0.169635 -0.864687 -0.246917 -0.131 0.108207
internal_weight=52585 25851 26734 16375 21680 13453 2922 5054 11217 9476 7769 2236 12795 11823 5567 1707 8885 4000 3769 2431 1490 9682 4382 1535 1477 2449 972 2142 1802 2580
internal_count=52585 25851 26734 16375 21680 13453 2922 5054 11217 9476 7769 2236 12795 11823 5567 1707 8885 4000 3769 2431 1490 9682 4382 1535 1477 2449 972 2142 1802 2580
is_linear=0
shrinkage=0.05


Tree=6
num_leaves=31
num_cat=0
split_feature=10 13 16 16 13 16 16 16 16 16 24 16 16 24 25 25 24 24 10 25 25 13 1 25 25 25 24 21 25 31
split_gain=4.05125e+06 1.00145e+06 111164 106746 99832.1 93089.4 80519.1 68543.5 59465.2 64336.6 56778.3 46236.7 42898.3 15571.4 14293.4 12766.1 10482.5 9845.45 9709.24 11256.9 8808.14 7826.45 7697.64 7082.51 6752.27 5875.19 4871.21 4398.64 3964.84 2980.7
threshold=5.0385000000000009 -20.244499999999995 1.0000000180025095e-35 -19.765999999999995 -50.037499999999994 20.099500000000003 1.0000000180025095e-35 20.099500000000003 20.099500000000003 1.0000000180025095e-35 1.0000000180025095e-35 20.099500000000003 1.0000000180025095e-35 72.254500000000021 952.50000000000011 910.50000000000011 74.002500000000012 72.254500000000021 44.857000000000006 916.50000000000011 1066.5000000000002 -4.9619999999999989 -3.5129999999999995 994.50000000000011 922.50000000000011 1012.5000000000001 72.254500000000021 -1.0000000180025095e-35 1234.5000000000002 43.560500000000012
decision_type=2 2 2 2 2 2 2 2 2 2 2 2 2 2 2 2 2 2 2 2 2 2 2 2 2 2 2 2 2 2
left_child=5 3 -3 18 11 6 10 22 9 24 -1 12 15 20 26 -5 27 -11 -2 -20 -9 -8 -4 -14 -6 -13 -10 -7 -23 -24
right_child=1 2 7 4 8 16 21 13 14 17 -12 25 23 -15 -16 -17 -18 -19 19 -21 -22 28 29 -25 -26 -27 -28 -29 -30 -31
leaf_value=-0.71391476572519741 0.082169975099312148 -0.04983701827924894 -0.35115908710304611 0.85274579802458494 0.523127547159283 -1.6323134038992633 -0.0029193242963212341 -0.34249402112176786 0.21155627397943944 0.79373330140911902 -0.34839215247377053 0.55465922533313239 1.1710150118425602 0.054553493074592035 -0.37635179161405219 0.31135023001721823 -0.65983481630583218 1.196998308590566 0.40690553413457198 -0.15848197536691469 -0.94641293996662201 -0.42332435688172487 0.26833281965912004 0.62905603082357608 -0.055844100627413934 -0.013408851623535157 0.55850099687322707 -1.0229548528301273 -1.0658747297104958 0.68566524943730123
leaf_weight=4887 364 7133 50 2515 3804 31 111 349 550 3313 1358 636 1648 244 96 114 224 159 1374 94 73 15120 7183 63 51 49 124 801 24 43
leaf_count=4887 364 7133 50 2515 3804 31 111 349 550 3313 1358 636 1648 244 96 114 224 159 1374 94 73 15120 7183 63 51 49 124 801 24 43
internal_value=0.000657613 0.381017 0.0934314 0.670926 0.720842 -0.505717 -0.483201 0.222106 0.612178 0.656104 -0.634438 0.895919 0.956182 -0.26337 0.194156 0.829284 -0.96405 0.812236 0.313375 0.370691 -0.447175 -0.421284 0.266547 1.1511 0.515465 0.51402 0.275467 -1.04586 -0.42435 0.270826
internal_weight=52585 30029 15075 14954 13122 22556 21500 7942 8097 7327 6245 5025 4340 666 770 2629 1056 3472 1832 1468 422 15255 7276 1711 3855 685 674 832 15144 7226
internal_count=52585 30029 15075 14954 13122 22556 21500 7942 8097 7327 6245 5025 4340 666 770 2629 1056 3472 1832 1468 422 15255 7276 1711 3855 685 674 832 15144 7226
is_linear=0
shrinkage=0.05


Tree=7
num_leaves=31
num_cat=0
split_feature=10 10 16 16 10 16 16 16 16 16 24 16 16 25 25 25 24 24 10 25 31 17 25 25 25 10 24 24 17 24
split_gain=3.65627e+06 903789 99754 95135.4 91804.5 84018.8 72668.6 63946.5 52544.1 58599.1 51242.2 42542.5 39287.5 13194.7 12732.8 11964.1 9460.32 9278.34 8762.5 10159.8 8193.51 6913.44 6388.99 5782.77 5761.46 4890.11 4846.86 3973.12 3581.99 2459.21
threshold=5.0385000000000009 19.884500000000006 1.0000000180025095e-35 -19.765999999999995 49.928500000000007 20.099500000000003 1.0000000180025095e-35 20.099500000000003 20.099500000000003 1.0000000180025095e-35 1.0000000180025095e-35 20.099500000000003 1.0000000180025095e-35 1066.5000000000002 952.50000000000011 910.50000000000011 74.002500000000012 72.254500000000021 44.857000000000006 916.50000000000011 1.3860000000000003 0.052500000000000005 994.50000000000011 1012.5000000000001 922.50000000000011 4.9385000000000003 72.254500000000021 68.174500000000009 0.058500000000000003 78.873000000000005
decision_type=2 2 2 2 2 2 2 2 2 2 2 2 2 2 2 2 2 2 2 2 2 2 2 2 2 2 2 2 2 2
left_child=5 2 -2 18 8 6 10 21 9 24 -1 12 15 20 26 -6 27 -11 -3 29 -9 -4 -14 -13 -5 28 -10 -7 -8 -20
right_child=1 3 7 4 11 16 25 13 14 17 -12 23 22 -15 -16 -17 -18 -19 19 -21 -22 -23 -24 -25 -26 -27 -28 -29 -30 -31
leaf_value=-0.67821975295118397 -0.049415847700019722 0.078062603807967465 -0.33363617718100785 0.4931539436790594 0.80915761046622736 -0.97181349083690094 -1.0128020852433199 -0.34022650455468223 0.19809048849631467 0.75029953790065773 -0.33097382669692521 0.52614469903806982 1.1123523208559924 -0.89915702470187142 -0.35719220868839341 0.28945362450848566 -0.62685779595364433 1.1393532909568538 0.36413883539756792 -0.15056630498417886 0.044485745302226987 0.2558240520692267 0.59765303939722603 -0.02690126298691662 -0.052269504803504091 -0.11504137744686094 0.53526239333777248 -1.5509601764740284 -0.40205468501590103 0.58694761215475155
leaf_weight=4887 7081 364 50 3845 2526 801 24 345 554 3340 1358 641 1657 73 94 116 224 161 1236 94 231 7188 63 51 49 149 132 31 15082 138
leaf_count=4887 7081 364 50 3845 2526 801 24 345 554 3340 1358 641 1657 73 94 116 224 161 1236 94 231 7188 63 51 49 149 132 31 15082 138
internal_value=0.000624735 0.361967 0.08681 0.635422 0.682187 -0.480432 -0.459041 0.209114 0.578605 0.619774 -0.602717 0.849718 0.907504 -0.266307 0.188256 0.786353 -0.915864 0.768224 0.297707 0.352157 -0.185951 0.251747 1.09354 0.48538 0.486288 -0.40022 0.263045 -0.993582 -0.403032 0.386562
internal_weight=52585 30029 14968 15061 13229 22556 21500 7887 8175 7395 6245 5054 4362 649 780 2642 1056 3501 1832 1468 576 7238 1720 692 3894 15255 686 832 15106 1374
internal_count=52585 30029 14968 15061 13229 22556 21500 7887 8175 7395 6245 5054 4362 649 780 2642 1056 3501 1832 1468 576 7238 1720 692 3894 15255 686 832 15106 1374
is_linear=0
shrinkage=0.05


Tree=8
num_leaves=31
num_cat=0
split_feature=13 13 25 10 17 3 25 32 3 3 38 17 13 18 25 32 3 3 17 15 7 3 15 21 17 9 7 3 37 15
split_gain=3.30042e+06 823391 67353.2 50430.4 36684.5 30242.5 25763.6 21651.9 19903 21065.4 16989.8 16776.4 16503.3 13347.3 9185.47 11963.7 8927.39 8390.13 7715.52 6246.55 6652.55 6181.02 5861.51 5077.48 5011.62 4758.75 4639.55 4660.26 5575.13 4248.03
threshold=-4.9619999999999989 -20.244499999999995 910.50000000000011 49.928500000000007 1.7850000000000004 0.53250000000000008 1066.5000000000002 -1.0000000180025095e-35 1.4525000000000003 0.95450000000000002 64.100000000000009 0.16250000000000003 -9.9029999999999969 0.88350000000000006 1102.5000000000002 0.17150000000000001 0.91750000000000009 0.98250000000000004 0.040500000000000008 1.0000000180025095e-35 67.870500000000007 1.3275000000000003 8.4775000000000009 0.21750000000000003 0.075500000000000012 43.214500000000008 64.866500000000016 1.1045000000000003 0.66300000000000014 10.499500000000001
decision_type=2 2 2 2 2 2 2 2 2 2 2 2 2 2 2 2 2 2 2 2 2 2 2 2 2 2 2 2 2 2
left_child=1 2 3 10 7 -5 12 -2 9 -6 13 18 19 17 15 21 -13 -1 -7 -3 -21 -9 -10 -15 -12 -4 27 28 -14 -11
right_child=4 6 25 5 8 11 -8 14 22 29 24 16 26 23 -16 -17 -18 -19 -20 20 -22 -23 -24 -25 -26 -27 -28 -29 -30 -31
leaf_value=0.49653003570789767 -0.32875399573386765 0.0021385765161953305 0.1177793089018864 0.44984248067140431 -0.62669093641998463 0.79486145158222787 -0.63439665078924712 -0.61948445103545591 -0.54807143664875813 -0.3913198977865171 1.2168542040178296 0.74362443789635224 0.18611948260352337 0.38602143716488396 -1.2527956818928521 -0.38030689283441066 0.90213142664442048 0.63205313793988038 0.56562523372647655 0.10854658847304402 -0.20983276345149965 -0.94364555341445266 -0.81387869862957152 0.78096915630560237 0.67534672433056064 -0.31103263460149305 -0.1838492963585957 0.19725913594230973 0.066720448296658838 -0.63789012778081311
leaf_weight=2568 797 4648 467 808 1043 561 124 4028 513 14772 44 1508 1633 1931 55 536 2180 2063 1069 3146 173 153 350 85 1595 75 106 2940 2437 177
leaf_count=2568 797 4648 467 808 1043 561 124 4028 513 14772 44 1508 1633 1931 55 536 2180 2063 1069 3146 173 153 350 85 1595 75 106 2940 2437 177
internal_value=0.000593477 0.342145 0.605591 0.626169 -0.458804 0.73496 0.0830799 -0.570074 -0.422036 -0.409408 0.545729 0.77827 0.0889829 0.510155 -0.610369 -0.602851 0.837342 0.556916 0.644569 0.0395522 0.091944 -0.63137 -0.65596 0.402714 0.68996 0.0583862 0.144323 0.149289 0.114631 -0.394244
internal_weight=52585 30161 14954 14412 22424 6126 15207 5569 16855 15992 8286 5318 15083 6647 4772 4717 3688 4631 1630 7967 3319 4181 863 2016 1639 542 7116 7010 4070 14949
internal_count=52585 30161 14954 14412 22424 6126 15207 5569 16855 15992 8286 5318 15083 6647 4772 4717 3688 4631 1630 7967 3319 4181 863 2016 1639 542 7116 7010 4070 14949
is_linear=0
shrinkage=0.05


Tree=9
num_leaves=31
num_cat=0
split_feature=10 10 11 11 13 16 11 11 16 11 11 11 32 32 26 26 26 26 10 26 31 13 1 26 26 30 26 26 19 17
split_gain=2.97888e+06 736532 87922.5 83261.8 76607.2 72135.5 60115.6 55050.4 46299.9 51081.9 36000.3 34165.3 17839.3 12310.8 10877.3 10469.4 9026.91 7614.04 7558.46 8414.64 7263.07 5645.53 5413.7 5057.04 4942.47 4687.59 4253.55 4108.35 4074.56 2778.22
threshold=5.0385000000000009 19.884500000000006 1.0000000180025095e-35 -19.765999999999995 -50.037499999999994 20.099500000000003 1.0000000180025095e-35 20.101500000000005 20.099500000000003 1.0000000180025095e-35 20.101500000000005 1.0000000180025095e-35 -1.0000000180025095e-35 0.17150000000000001 2.9220000000000002 2.6095000000000006 2.4945000000000004 2.5765000000000007 44.857000000000006 2.4945000000000004 1.3860000000000003 -4.9619999999999989 -3.5129999999999995 2.5275000000000003 2.7245000000000004 77.891500000000022 2.7740000000000005 0.056500000000000009 108.85900000000002 0.058500000000000003
decision_type=2 2 2 2 2 2 2 2 2 2 2 2 2 2 2 2 2 2 2 2 2 2 2 2 2 2 2 2 2 2
left_child=5 2 -2 18 10 6 12 22 9 23 11 16 -1 -14 20 27 -5 -11 -3 -20 -9 -8 -4 -6 -13 -7 -12 -10 -27 -23
right_child=1 3 7 4 8 25 21 14 15 17 26 24 13 -15 -16 -17 -18 -19 19 -21 -22 29 -24 -25 -26 28 -28 -29 -30 -31
leaf_value=-0.32962158680987491 -0.049583961021071613 0.053652533996554556 -0.285331145398869 0.7307392467917242 0.44398401288310296 -0.89172223564986342 -0.0049961692250386543 -0.32027398446994187 0.16685664695643371 0.71056088133640205 0.46867919852009843 1.0148397554233595 -0.59867717084751526 -0.30550435353239347 -0.82258422815033261 -0.33054489692465699 0.27545256384833666 0.17198648530928817 0.34057844832368556 -0.13439654108289475 0.041935702456521666 -0.89999223131361838 0.23629070827084148 -0.05699517526271991 0.56193812063492232 -1.3131170282316444 -0.014654390431955731 0.47611182145298558 -0.56513621369234635 -0.36207520177571373
leaf_weight=837 7080 364 50 2515 3856 833 111 345 558 3443 636 1648 5022 386 73 96 114 67 1368 100 231 24 7189 51 63 20 49 133 203 15120
leaf_count=837 7080 364 50 2515 3856 833 111 345 558 3443 636 1648 5022 386 73 96 114 67 1368 100 231 24 7189 51 63 20 49 133 203 15120
internal_value=0.000563853 0.32672 0.0783254 0.573579 0.617328 -0.43365 -0.41383 0.193132 0.523146 0.561838 0.771079 0.824253 -0.544508 -0.577759 -0.247984 0.158465 0.71101 0.700287 0.257643 0.308213 -0.175022 -0.36033 0.232683 0.437442 0.9982 -0.837114 0.434101 0.226448 -0.632801 -0.362934
internal_weight=52585 30029 14968 15061 13229 22556 21500 7888 8204 7417 5025 4340 6245 5408 649 787 2629 3510 1832 1468 576 15255 7239 3907 1711 1056 685 691 223 15144
internal_count=52585 30029 14968 15061 13229 22556 21500 7888 8204 7417 5025 4340 6245 5408 649 787 2629 3510 1832 1468 576 15255 7239 3907 1711 1056 685 691 223 15144
is_linear=0
shrinkage=0.05


Tree=10
num_leaves=31
num_cat=0
split_feature=13 13 11 11 13 16 11 11 11 11 24 11 11 24 24 25 25 24 25 13 24 0 9 25 25 24 21 24 31 17
split_gain=2.71191e+06 679320 78012.1 76063 66672.6 64195.5 53793.1 49841.8 40535 45209.5 40222.9 32560.8 31273.6 10744.2 8542.35 8435.44 8234.58 7364.98 6724.95 8218.55 5576.72 4706.92 4509.9 4464.97 4050.24 3344.71 3004.45 2923.36 2827.1 2800.03
threshold=-4.9619999999999989 -20.244499999999995 1.0000000180025095e-35 -19.765999999999995 -50.037499999999994 20.099500000000003 1.0000000180025095e-35 20.101500000000005 20.101500000000005 1.0000000180025095e-35 1.0000000180025095e-35 20.101500000000005 1.0000000180025095e-35 71.96250000000002 72.254500000000021 1060.5000000000002 910.50000000000011 74.002500000000012 910.50000000000011 -49.29699999999999 67.591500000000011 193.89700000000002 -0.33049999999999996 994.50000000000011 1012.5000000000001 74.877500000000012 -1.0000000180025095e-35 62.63750000000001 43.560500000000012 0.058500000000000003
decision_type=2 2 2 2 2 2 2 2 2 2 2 2 2 2 2 2 2 2 2 2 2 2 2 2 2 2 2 2 2 2
left_child=1 3 -3 18 11 6 10 22 9 21 -2 12 16 20 -11 25 -5 26 19 27 -9 -6 -4 -14 -13 -10 -7 -1 -24 -8
right_child=5 2 7 4 8 17 29 13 15 14 -12 24 23 -15 -16 -17 -18 -19 -20 -21 -22 -23 28 -25 -26 -27 -28 -29 -30 -31
leaf_value=0.30533342704147159 -0.58494690069282274 -0.045534942202151797 -0.27367791219285154 0.69450801802183348 0.41125507213283607 -1.3572057685978784 -0.85301250443687293 -0.29924378353113856 0.16193424601718354 0.65053159058607757 -0.27723935900001423 0.44534572269113903 0.96427200526869683 0.021989066155419797 1.0204452562884252 -0.3139981233549175 0.26169437927126782 -0.54165740276743291 -0.13843592637949853 0.074378602360232013 -0.78245983203141956 0.84715631034597172 0.22011303019585499 0.5338857346971515 -0.013825479781902225 0.43853966473306838 -0.84553081656618179 0.54593288165259579 0.63122963101167295 -0.34376382166350483
leaf_weight=1152 4931 7102 46 2575 3708 30 27 350 557 3353 1354 624 1667 270 164 84 115 226 107 408 72 63 7321 63 52 136 799 142 42 15135
leaf_count=1152 4931 7102 46 2575 3708 30 27 350 557 3353 1354 624 1667 270 164 84 115 226 107 408 72 63 7321 63 52 136 799 142 42 15135
internal_value=0.00103481 0.310853 0.0754308 0.549936 0.591722 -0.4144 -0.395665 0.181479 0.50225 0.538851 -0.518663 0.733308 0.78274 -0.224305 0.667811 0.158913 0.676017 -0.79518 0.245915 0.270087 -0.381866 0.418561 0.219383 0.948634 0.410021 0.21628 -0.864215 0.33178 0.222467 -0.344677
internal_weight=52675 30173 15203 14970 13161 22502 21447 8101 8065 7288 6285 5096 4420 692 3517 777 2690 1055 1809 1702 422 3771 7409 1730 676 693 829 1294 7363 15162
internal_count=52675 30173 15203 14970 13161 22502 21447 8101 8065 7288 6285 5096 4420 692 3517 777 2690 1055 1809 1702 422 3771 7409 1730 676 693 829 1294 7363 15162
is_linear=0
shrinkage=0.05


Tree=11
num_leaves=31
num_cat=0
split_feature=10 10 11 11 13 16 11 11 11 11 24 11 11 24 24 26 26 24 26 10 24 26 9 26 13 26 24 24 21 17
split_gain=2.44878e+06 608203 71071.1 67852.9 61708.3 57954.5 49597.6 46018.1 36338.9 41612 36052.1 29386 28224.9 9549.63 8125.82 7666.99 7431.22 6712.83 6069.61 7506.69 4791.16 4370.52 4101.66 4028.67 3981.5 3655.51 3168.54 2760.6 2744.9 2528.61
threshold=5.0385000000000009 19.884500000000006 1.0000000180025095e-35 -19.765999999999995 -50.037499999999994 20.099500000000003 1.0000000180025095e-35 20.101500000000005 20.101500000000005 1.0000000180025095e-35 1.0000000180025095e-35 20.101500000000005 1.0000000180025095e-35 71.96250000000002 72.254500000000021 2.9055000000000004 2.4945000000000004 74.002500000000012 2.4945000000000004 49.928500000000007 67.591500000000011 2.5275000000000003 -0.33049999999999996 2.7245000000000004 -4.9619999999999989 2.7740000000000005 74.877500000000012 62.63750000000001 -1.0000000180025095e-35 0.058500000000000003
decision_type=2 2 2 2 2 2 2 2 2 2 2 2 2 2 2 2 2 2 2 2 2 2 2 2 2 2 2 2 2 2
left_child=5 2 -2 18 11 6 10 22 9 21 -1 12 16 20 -11 26 -5 28 19 -3 -9 -6 -4 -14 -8 -13 -10 -21 -7 -26
right_child=1 3 7 4 8 17 24 13 15 14 -12 25 23 -15 -16 -17 -18 -19 -20 27 -22 -23 -24 -25 29 -27 -28 -29 -30 -31
leaf_value=-0.55458265374398641 -0.044803815920965107 0.070742510444647591 -0.2600237013719604 0.65978396019701002 0.40107211451309466 -1.2895709516202096 -0.019867876764741516 -0.29411020625875184 0.15337301687822158 0.61571489852527295 -0.26337841502074766 0.42308200193777079 0.9160613119090929 0.014142257109805743 0.97327497093924364 -0.29831689739340694 0.24862102583944024 -0.51215330129729153 -0.13152059838662741 0.29044974144985403 -0.74339108420807198 -0.073968951085434428 0.21316187709623224 0.50723378095309435 -0.81051925785867052 -0.013135532780251896 0.41686570611889762 0.52649365780938029 -0.80057518901872804 -0.32657574374383808
leaf_weight=4949 7028 412 46 2575 3778 30 106 338 565 3393 1354 624 1667 260 167 84 115 229 107 1151 72 49 7214 63 27 52 143 139 803 15135
leaf_count=4949 7028 412 46 2575 3778 30 106 338 565 3393 1354 624 1667 260 167 84 115 229 107 1151 72 49 7214 63 27 52 143 139 803 15135
internal_value=0.000983227 0.296886 0.0709665 0.520916 0.560064 -0.391784 -0.374027 0.173568 0.474957 0.509467 -0.492033 0.696645 0.743606 -0.22289 0.632516 0.153057 0.642218 -0.75238 0.233621 0.256586 -0.373183 0.394987 0.21016 0.901206 -0.325308 0.389522 0.206651 0.315927 -0.818345 -0.327443
internal_weight=52675 30042 14958 15084 13275 22633 21571 7930 8179 7387 6303 5096 4420 670 3560 792 2690 1062 1809 1702 410 3827 7260 1730 15268 676 708 1290 833 15162
internal_count=52675 30042 14958 15084 13275 22633 21571 7930 8179 7387 6303 5096 4420 670 3560 792 2690 1062 1809 1702 410 3827 7260 1730 15268 676 708 1290 833 15162
is_linear=0
shrinkage=0.05


Tree=12
num_leaves=31
num_cat=0
split_feature=10 10 25 10 17 13 25 32 3 3 13 32 14 21 12 25 32 37 29 12 17 3 37 38 10 13 7 29 3 37
split_gain=2.21004e+06 548909 45646.7 34726.6 25720.6 20648.1 17869 14783.9 13675.6 13288.8 12253.3 11363.7 11259.4 7699.04 7157.82 6086.65 7797.86 5350.94 4997.55 4656.46 4458.96 4100.91 3968.08 3959.89 3226.44 3204.71 3033.79 2921.84 2856.45 3259.07
threshold=5.0385000000000009 19.884500000000006 910.50000000000011 49.928500000000007 1.7850000000000004 -70.625999999999991 1066.5000000000002 -1.0000000180025095e-35 1.4125000000000003 0.95250000000000001 -9.9029999999999969 5.8895000000000008 230.50000000000003 0.23450000000000001 -3.1749999999999994 1102.5000000000002 0.17150000000000001 0.46750000000000008 30.646500000000007 8.480500000000001 0.075500000000000012 1.3275000000000003 0.57250000000000012 41.287500000000001 28.490500000000001 -12.636999999999999 64.866500000000016 29.006500000000003 1.1045000000000003 0.66300000000000014
decision_type=2 2 2 2 2 2 2 2 2 2 2 2 2 2 2 2 2 2 2 2 2 2 2 2 2 2 2 2 2 2
left_child=4 6 3 11 7 17 10 -1 9 -6 22 12 24 14 -7 16 21 23 -14 -10 -13 -9 25 -5 -3 -2 28 -22 29 -12
right_child=1 2 -4 5 8 13 -8 15 19 -11 26 20 18 -15 -16 -17 -18 -19 -20 -21 27 -23 -24 -25 -26 -27 -28 -29 -30 -31
leaf_value=-0.26782216854186491 0.032527175302258703 0.37579630597909391 0.044318265147236434 0.32818432254631108 -0.50251577359147126 0.55989415388196873 -0.53497767825286768 -0.50436172959852255 -0.43159146184051944 -0.31751589395436697 0.15237169123627395 1.0346126526850639 0.42109478767479402 1.1405556060235982 0.69412271474517739 -1.0115166390213575 -0.30840076022892704 0.30417070048120642 0.51685613217230786 -0.64393472006417785 0.79484275012748551 -0.76506725565253531 -0.00085064237430227275 0.55175622219057663 0.230286888922834 0.13315548989428153 -0.1420737736650797 0.54208753170870139 0.16307441809021839 0.060308148329174471
leaf_weight=817 2075 767 542 250 1039 1512 122 4102 685 14842 1615 58 3761 81 2917 57 518 452 2143 416 136 157 4527 966 759 1279 108 740 2856 2376
leaf_count=817 2075 767 542 250 1039 1512 122 4102 685 14842 1615 58 3761 81 2917 57 518 452 2143 416 136 157 4527 966 759 1279 108 740 2856 2376
internal_value=0.000934055 0.282043 0.494872 0.511664 -0.372196 0.601578 0.0674178 -0.464605 -0.341442 -0.329623 0.0723753 0.445243 0.424564 0.657181 0.648314 -0.497857 -0.491706 0.451206 0.455863 -0.511879 0.609676 -0.513991 0.0296869 0.505826 0.303446 0.0709047 0.120746 0.58142 0.124894 0.0975668
internal_weight=52675 30042 15084 14542 22633 6178 14958 5651 16982 15881 14836 8364 7430 4510 4429 4834 4777 1668 5904 1101 934 4259 7881 1216 1526 3354 6955 876 6847 3991
internal_count=52675 30042 15084 14542 22633 6178 14958 5651 16982 15881 14836 8364 7430 4510 4429 4834 4777 1668 5904 1101 934 4259 7881 1216 1526 3354 6955 876 6847 3991
is_linear=0
shrinkage=0.05


Tree=13
num_leaves=31
num_cat=0
split_feature=13 10 11 11 11 11 11 11 11 13 24 10 25 24 24 25 24 10 25 10 2 24 1 25 24 24 21 25 24 17
split_gain=1.99469e+06 499822 61625.6 59023.1 51749.8 51438 49880.1 40238.5 39910.9 32202.6 30613.6 28543.9 10025.9 8269.07 6785.37 5741.64 5636.13 5147.95 4938.13 6346.17 4057.87 3813.52 3146.46 3062.16 2668.05 2444.38 2213.35 2193.44 2034.83 1956.43
threshold=-4.9619999999999989 19.884500000000006 1.0000000180025095e-35 -19.765999999999995 20.101500000000005 1.0000000180025095e-35 20.101500000000005 1.0000000180025095e-35 20.101500000000005 -50.037499999999994 1.0000000180025095e-35 49.928500000000007 1012.5000000000001 71.96250000000002 72.254500000000021 910.50000000000011 74.002500000000012 49.928500000000007 910.50000000000011 49.928500000000007 1938.9285000000002 67.591500000000011 -3.5129999999999995 994.50000000000011 74.877500000000012 62.63750000000001 -1.0000000180025095e-35 546.50000000000011 60.888500000000008 0.058500000000000003
decision_type=2 2 2 2 2 2 2 2 2 2 2 2 2 2 2 2 2 2 2 2 2 2 2 2 2 2 2 2 2 2
left_child=1 2 -1 18 5 9 7 10 22 15 -2 14 17 21 -7 -5 26 24 19 28 -11 -10 -4 -13 -6 -21 -8 -12 -3 -9
right_child=6 3 8 4 12 11 16 29 13 20 27 23 -14 -15 -16 -17 -18 -19 -20 25 -22 -23 -24 -25 -26 -27 -28 -29 -30 -31
leaf_value=-0.044830633202363801 -0.50310233700933227 -0.012133443579788792 -0.22035985644623929 0.59543114398818398 0.12608843284341995 0.56062395671376886 -1.1748988104024993 -0.71975362855130021 -0.27910955135401005 0.34752456220023986 -0.21773469642767013 0.83626950037846981 -0.18216085719501685 0.0095698058208735989 0.88738440484397074 0.2339867919553994 -0.46946421104002617 0.37232305951744549 -0.12716455236981675 0.25348750127406777 0.75215497100032069 -0.67956130574050466 0.19406171636492442 0.47969985529662318 0.36808604444347842 0.47558036282455052 -0.73561150186746849 -0.47458692801119107 0.24437332634319966 -0.29403576966334971
leaf_weight=7046 4931 309 46 2575 560 3385 30 27 342 3764 1265 1675 136 263 167 115 226 629 107 1151 63 72 7320 63 143 139 798 89 103 15136
leaf_count=7046 4931 309 46 2575 560 3385 30 27 342 3764 1265 1675 136 263 167 115 226 629 107 1151 63 72 7320 63 143 139 798 89 103 15136
internal_value=0.000887633 0.266597 0.0631273 0.470131 0.506643 0.541453 -0.355402 -0.338896 0.157703 0.447411 -0.445275 0.657297 0.226644 -0.209662 0.576013 0.57999 -0.691217 0.268399 0.202182 0.222897 0.354206 -0.348913 0.19147 0.823376 0.175367 0.277457 -0.751674 -0.234655 0.0520249 -0.294799
internal_weight=52675 30173 15089 15084 13275 11807 22502 21448 8043 6517 6285 5290 1468 677 3552 2690 1054 1332 1809 1702 3827 414 7366 1738 703 1290 828 1354 412 15163
internal_count=52675 30173 15089 15084 13275 11807 22502 21448 8043 6517 6285 5290 1468 677 3552 2690 1054 1332 1809 1702 3827 414 7366 1738 703 1290 828 1354 412 15163
is_linear=0
shrinkage=0.05


Tree=14
num_leaves=31
num_cat=0
split_feature=10 13 11 11 11 11 16 11 11 13 24 10 25 24 25 25 24 10 25 10 25 24 13 1 25 32 24 24 21 24
split_gain=1.80069e+06 446953 56697.9 53941.8 46896 45863.3 45066.3 37101.6 35385.1 28182.9 27428.7 25237.4 9059.73 7819.62 6612.13 5181.45 5131.45 4647.99 4456.94 5727.41 3658.05 3581.84 3022.59 2899.12 2762.85 2315.59 2291.9 2206.34 2023.98 1980.29
threshold=5.0385000000000009 -20.244499999999995 1.0000000180025095e-35 -19.765999999999995 20.101500000000005 1.0000000180025095e-35 20.099500000000003 1.0000000180025095e-35 20.101500000000005 -50.037499999999994 1.0000000180025095e-35 49.928500000000007 1012.5000000000001 71.96250000000002 940.50000000000011 910.50000000000011 74.002500000000012 49.928500000000007 910.50000000000011 49.928500000000007 922.50000000000011 67.591500000000011 -4.9619999999999989 -3.5129999999999995 994.50000000000011 75.546500000000009 74.877500000000012 62.63750000000001 -1.0000000180025095e-35 58.848500000000008
decision_type=2 2 2 2 2 2 2 2 2 2 2 2 2 2 2 2 2 2 2 2 2 2 2 2 2 2 2 2 2 2
left_child=6 3 -3 18 5 9 7 10 23 15 -1 14 17 21 -7 -5 28 26 19 -2 -11 -10 -9 -4 -13 -25 -6 -21 -8 -12
right_child=1 2 8 4 12 11 16 22 13 20 29 24 -14 -15 -16 -17 -18 -19 -20 27 -22 -23 -24 25 -26 -27 -28 -29 -30 -31
leaf_value=-0.47692565733269143 0.049425822619100848 -0.040597142752828191 -0.209365766012229 0.56566074306231318 0.12024747427337695 0.55886636454089955 -1.1163490339767101 -0.012037250211393912 -0.25794338634406094 0.344772324613701 -0.20704125514695418 0.79445854640296676 -0.17305950664892564 0.021476296123182761 0.064341711730584408 0.22229761373054246 -0.44390841456596014 0.35370986687276762 -0.12081226053692046 0.24081422503221753 -0.089830278524798926 -0.64563035726877926 -0.28002709942057863 0.18636136439151596 0.45575290126770307 0.57236325881060424 0.34941555195919827 0.45181843290047885 -0.69635457855945815 -0.45368849637177178
leaf_weight=4949 412 7084 46 2575 552 3440 30 106 346 3722 1267 1675 136 267 69 115 229 629 107 1151 49 72 15162 7218 63 39 136 139 803 87
leaf_count=4949 412 7084 46 2575 552 3440 30 106 346 3722 1267 1675 136 267 69 115 229 629 107 1151 49 72 15162 7218 63 39 136 139 803 87
internal_value=0.000843308 0.254586 0.0623809 0.448098 0.483287 0.516537 -0.335962 -0.320304 0.153705 0.427341 -0.422367 0.62636 0.215343 -0.189882 0.549146 0.550992 -0.653944 0.255465 0.192075 0.211755 0.339122 -0.324872 -0.278167 0.185935 0.782211 0.188444 0.1656 0.263587 -0.711619 -0.222925
internal_weight=52675 30042 15072 14970 13161 11708 22633 21571 7988 6461 6303 5247 1453 685 3509 2690 1062 1317 1809 1702 3771 418 15268 7303 1738 7257 688 1290 833 1354
internal_count=52675 30042 15072 14970 13161 11708 22633 21571 7988 6461 6303 5247 1453 685 3509 2690 1062 1317 1809 1702 3771 418 15268 7303 1738 7257 688 1290 833 1354
is_linear=0
shrinkage=0.05


Tree=15
num_leaves=31
num_cat=0
split_feature=13 10 11 11 16 11 16 11 11 13 24 10 26 24 24 24 26 13 26 10 26 26 24 17 24 24 24 26 17 10
split_gain=1.62432e+06 404921 50057.4 47806.3 42348.8 42643.3 41126.3 32759.9 30581 26123.7 25459.3 22896.6 8872.11 6624.6 6488.04 4610.66 4515.02 4267.53 4857.17 4246.98 3599.74 3410.96 2856.84 2606.27 2125.52 2039.8 1912.12 1771.77 1678.54 1598.36
threshold=-4.9619999999999989 19.884500000000006 1.0000000180025095e-35 -19.765999999999995 20.099500000000003 1.0000000180025095e-35 20.099500000000003 1.0000000180025095e-35 20.101500000000005 -50.037499999999994 1.0000000180025095e-35 49.928500000000007 2.6095000000000006 72.254500000000021 72.254500000000021 74.002500000000012 2.4945000000000004 -49.29699999999999 2.5110000000000006 49.928500000000007 2.5275000000000003 2.9220000000000002 85.575500000000019 0.052500000000000005 72.254500000000021 68.174500000000009 62.63750000000001 1.4975000000000003 0.058500000000000003 5.0385000000000009
decision_type=2 2 2 2 2 2 2 2 2 2 2 2 2 2 2 2 2 2 2 2 2 2 2 2 2 2 2 2 2 2
left_child=1 2 -1 17 5 9 7 10 23 16 -2 14 19 21 -7 25 -5 18 26 24 -11 -10 -13 -4 -6 -8 -3 -12 -9 -25
right_child=6 3 8 4 12 11 15 28 13 20 27 22 -14 -15 -16 -17 -18 -19 -20 -21 -22 -23 -24 29 -26 -27 -28 -29 -30 -31
leaf_value=-0.040393295637337373 -0.45400657423305185 0.22689226532489562 -0.1986504172063937 0.53735802936012167 0.11252183233113369 0.50582013568634865 -0.6641092134506289 -0.66717157583127074 -0.24159088414772112 0.32491796784513632 -0.19617724325795419 0.7317727110605885 -0.16983267355446577 0.022104072331372793 0.81994109399603821 -0.42462918661578009 0.21118420975150343 0.039609536564546799 -0.11380316049131207 0.33595056649576682 -0.085987691209408801 -0.62276791748282956 1.1129643804173182 -0.020958303087088348 0.33476790277749902 -1.0556504752221609 0.41306066426557014 -0.42811044236723328 -0.2653883931249838 0.1773647618999793
leaf_weight=7067 4973 1147 47 2517 546 3399 792 26 339 3804 1289 1670 144 242 173 224 111 406 99 639 54 71 51 103 134 35 157 88 15168 7115
leaf_count=7067 4973 1147 47 2517 546 3399 792 26 339 3804 1289 1670 144 242 173 224 111 406 99 639 54 71 51 103 134 35 157 88 15168 7115
internal_value=-0.000592238 0.240332 0.0563341 0.423509 0.456445 0.487958 -0.320847 -0.305945 0.142677 0.402001 -0.401323 0.593279 0.202706 -0.185326 0.521058 -0.626262 0.523592 0.182396 0.223706 0.243391 0.319163 -0.307748 0.743136 0.172116 0.156368 -0.680812 0.249341 -0.211033 -0.266081 0.174534
internal_weight=52630 30035 14984 15051 13242 11779 22595 21544 7917 6486 6350 5293 1463 652 3572 1051 2628 1809 1403 1319 3858 410 1721 7265 680 827 1304 1377 15194 7218
internal_count=52630 30035 14984 15051 13242 11779 22595 21544 7917 6486 6350 5293 1463 652 3572 1051 2628 1809 1403 1319 3858 410 1721 7265 680 827 1304 1377 15194 7218
is_linear=0
shrinkage=0.05


Tree=16
num_leaves=31
num_cat=0
split_feature=10 10 16 16 16 16 16 16 16 13 24 10 25 24 24 24 25 10 25 10 2 25 24 1 13 24 21 25 17 24
split_gain=1.46597e+06 362209 46003 43145.2 38219.6 38486.5 37071.4 29996.5 27703.9 23576.8 22732.6 20664.8 8007.49 6105.88 5856.26 4187.63 4074.49 3878.02 4252.22 3832.8 3553.63 3053.76 2579.69 2306.67 2187.93 1918.46 1867.74 1599.33 1515.84 1507.07
threshold=5.0385000000000009 19.884500000000006 1.0000000180025095e-35 -19.765999999999995 20.099500000000003 1.0000000180025095e-35 20.099500000000003 1.0000000180025095e-35 20.099500000000003 -50.037499999999994 1.0000000180025095e-35 49.928500000000007 952.50000000000011 72.254500000000021 72.254500000000021 74.002500000000012 910.50000000000011 43.959500000000006 916.50000000000011 49.928500000000007 1938.9285000000002 1066.5000000000002 85.575500000000019 -3.5129999999999995 -4.9619999999999989 72.254500000000021 -1.0000000180025095e-35 546.50000000000011 0.058500000000000003 78.873000000000005
decision_type=2 2 2 2 2 2 2 2 2 2 2 2 2 2 2 2 2 2 2 2 2 2 2 2 2 2 2 2 2 2
left_child=6 2 -2 17 5 9 7 10 23 16 -1 14 19 21 -7 26 -5 -3 29 25 -11 -10 -13 -4 -9 -6 -8 -12 -26 -19
right_child=1 3 8 4 12 11 15 24 13 20 27 22 -14 -15 -16 -17 -18 18 -20 -21 -22 -23 -24 -25 28 -27 -28 -29 -30 -31
leaf_value=-0.42998854293363897 -0.03826915099631395 0.019973500480537868 -0.18636813484407042 0.51049119382842145 0.1068967709500282 0.48052987114503787 -1.0030183172633504 -0.022583102813486178 -0.23062584538205066 0.29700434560226191 -0.1863691352334961 0.69518627760246288 -0.16134693174520193 0.02458875247595551 0.77896774356451992 -0.40157985884625713 0.20063448892210542 0.21329386865326053 -0.10811874551320776 0.31915567038839288 0.67559590347217491 -0.59167332548632412 1.0574250495597108 0.16849154781308925 -0.63394081254571788 0.31804199263197908 -0.62842352188512496 -0.40672923292664481 -0.25211905653911909 0.38597266303994493
leaf_weight=4991 7050 336 46 2517 546 3399 35 104 335 3795 1289 1670 144 239 173 227 111 1233 99 639 63 71 51 7114 26 134 796 88 15168 141
leaf_count=4991 7050 336 46 2517 546 3399 35 104 335 3795 1289 1670 144 239 173 227 111 1233 99 639 63 71 51 7114 26 134 796 88 15168 141
internal_value=-0.000562601 0.229464 0.0543104 0.402335 0.433625 0.463562 -0.30329 -0.289175 0.137935 0.381902 -0.380366 0.563618 0.192573 -0.175898 0.495007 -0.592291 0.497414 0.173278 0.20824 0.231224 0.303205 -0.293907 0.705985 0.166208 -0.251212 0.148553 -0.644325 -0.200484 -0.252777 0.231045
internal_weight=52630 29906 14855 15051 13242 11779 22724 21666 7805 6486 6368 5293 1463 645 3572 1058 2628 1809 1473 1319 3858 406 1721 7160 15298 680 831 1377 15194 1374
internal_count=52630 29906 14855 15051 13242 11779 22724 21666 7805 6486 6368 5293 1463 645 3572 1058 2628 1809 1473 1319 3858 406 1721 7160 15298 680 831 1377 15194 1374
is_linear=0
shrinkage=0.05


Tree=17
num_leaves=31
num_cat=0
split_feature=13 13 11 11 16 11 16 11 11 24 13 10 26 24 26 24 26 13 26 10 26 26 26 9 31 21 24 24 26 17
split_gain=1.32322e+06 329792 41027.8 39391.2 34736.4 34435.3 33524.7 26706.1 24168.3 20748.3 20705.7 18258.2 7214.83 5839.34 5752.91 3756.16 3676.93 3541.53 3965.74 3505.83 3278.4 2863.28 2488.81 2138.2 1785.71 1662.65 1598.67 1552.81 1443.66 1368.92
threshold=-4.9619999999999989 -20.244499999999995 1.0000000180025095e-35 -19.765999999999995 20.099500000000003 1.0000000180025095e-35 20.099500000000003 1.0000000180025095e-35 20.101500000000005 1.0000000180025095e-35 -50.037499999999994 49.928500000000007 2.6095000000000006 72.254500000000021 2.5765000000000007 74.002500000000012 2.4945000000000004 -49.29699999999999 2.5110000000000006 49.928500000000007 2.5275000000000003 2.9220000000000002 2.7245000000000004 -0.33049999999999996 43.560500000000012 -1.0000000180025095e-35 62.63750000000001 72.254500000000021 1.4975000000000003 0.058500000000000003
decision_type=2 2 2 2 2 2 2 2 2 2 2 2 2 2 2 2 2 2 2 2 2 2 2 2 2 2 2 2 2 2
left_child=1 3 -3 17 5 10 7 9 23 -2 16 14 19 21 -7 25 -5 18 26 27 -12 -10 -13 -4 -25 -8 -1 -6 -11 -9
right_child=6 2 8 4 12 11 15 29 13 28 20 22 -14 -15 -16 -17 -18 -19 -20 -21 -22 -23 -24 24 -26 -27 -28 -29 -30 -31
leaf_value=0.2048848795148803 -0.4098077099719894 -0.035259338767728687 -0.17961423022478756 0.48496765191504543 0.10233767251133191 0.4807476015589634 -0.95301032052760104 -0.60236522228781741 -0.21342906016814334 -0.1770514057879396 0.29563305553134467 0.68242626372223991 -0.15328518416342185 0.032255465104992012 0.0058829273450576045 -0.38333716043559962 0.19061180631069319 0.034539761619387356 -0.10271827262778338 0.30320038347153982 -0.096519021494331295 -0.56213126497764965 0.36116521211131442 0.15665877483721924 0.51432177470280571 -0.59949072691064154 0.3751129269068747 0.297917984429595 -0.38641583169900334 -0.23951318641281102
leaf_weight=1147 4973 7116 47 2517 540 3467 35 26 345 1289 3755 1658 144 251 65 224 111 406 99 639 54 71 63 7223 35 792 157 125 88 15168
leaf_count=1147 4973 7116 47 2517 540 3467 35 26 345 1289 3755 1658 144 251 65 224 111 406 99 639 54 71 63 7223 35 792 157 125 88 15168
internal_value=-0.000534369 0.216916 0.0520088 0.383377 0.413497 0.442111 -0.289586 -0.276131 0.129906 -0.362247 0.364575 0.537115 0.18247 -0.158181 0.47201 -0.565335 0.472544 0.164616 0.202248 0.219559 0.29007 -0.273076 0.670691 0.156213 0.158391 -0.614572 0.225411 0.139148 -0.190462 -0.240138
internal_weight=52630 30035 15088 14947 13138 11690 22595 21544 7972 6350 6437 5253 1448 667 3532 1051 2628 1809 1403 1304 3809 416 1721 7305 7258 827 1304 665 1377 15194
internal_count=52630 30035 15088 14947 13138 11690 22595 21544 7972 6350 6437 5253 1448 667 3532 1051 2628 1809 1403 1304 3809 416 1721 7305 7258 827 1304 665 1377 15194
is_linear=0
shrinkage=0.05


Tree=18
num_leaves=31
num_cat=0
split_feature=10 10 11 11 16 11 16 11 11 13 10 17 17 25 25 25 25 32 2 10 25 10 25 21 25 13 1 25 29 25
split_gain=1.19442e+06 295139 37541.1 35162.5 31106.1 31344.6 30193.6 24408.3 22626.7 19180.5 16818.4 7237.86 11300.2 6529.01 5153.71 4825.29 3318.16 3268.65 3200.12 3199.35 3525.68 3108.49 2245.63 2052.08 1697.57 1635.01 1591.21 1578.82 1479.65 1303.15
threshold=5.0385000000000009 19.884500000000006 1.0000000180025095e-35 -19.765999999999995 20.099500000000003 1.0000000180025095e-35 20.099500000000003 1.0000000180025095e-35 19.343000000000004 -50.037499999999994 49.928500000000007 0.055500000000000008 0.040500000000000008 952.50000000000011 940.50000000000011 1066.5000000000002 910.50000000000011 1.0000000180025095e-35 6188.1215000000011 46.812500000000007 916.50000000000011 49.928500000000007 994.50000000000011 0.0075000000000000006 1108.5000000000002 -4.9619999999999989 -3.5129999999999995 20.500000000000004 31.323500000000006 546.50000000000011
decision_type=2 2 2 2 2 2 2 2 2 2 2 2 2 2 2 2 2 2 2 2 2 2 2 2 2 2 2 2 2 2
left_child=6 2 -2 19 5 9 7 11 26 16 14 12 -1 21 -7 17 -5 -10 -11 -3 -21 27 -12 24 -8 28 -4 -6 -9 -14
right_child=1 3 8 4 13 10 23 25 15 18 22 -13 29 -15 -16 -17 -18 -19 -20 20 -22 -23 -24 -25 -26 -27 -28 -29 -30 -31
leaf_value=-0.38189203726601162 -0.034627257331846829 0.025673596864060372 -0.14870103946348437 0.46072023088317976 0.096610431314453377 0.45500117346135821 -0.54928143931754403 0.076994492884080126 -0.20035436972831699 0.26791330059644708 0.64830702528232598 -0.39051770950652664 -0.16819951713487441 -0.14562624879879391 0.0055892327826143964 -0.53576010026944809 0.1810897927365788 0.037557475388621059 0.6299964720500264 0.21152095789065162 -0.09758753752491911 0.2880427317446973 0.34313557370906778 -0.3640199470645421 -0.90549554906339724 -0.22813176475031083 0.15260181455899749 0.2881584453369414 -0.36360737603024185 -0.36711696485114564
leaf_weight=1423 7049 372 44 2517 546 3507 871 79 362 3796 1658 3568 1289 144 65 73 111 240 62 1338 99 639 63 152 35 15194 7087 134 25 88
leaf_count=1423 7049 372 44 2517 546 3507 871 79 362 3796 1658 3568 1289 144 65 73 111 240 62 1338 99 639 63 152 35 15194 7087 134 25 88
internal_value=-0.000507697 0.207124 0.0490166 0.363171 0.391419 0.418427 -0.273762 -0.261023 0.124549 0.344731 0.508723 -0.343283 -0.283079 0.173952 0.446825 -0.152118 0.448919 -0.105507 0.27375 0.156386 0.190217 0.208854 0.637159 -0.53458 -0.563146 -0.226779 0.15074 0.134401 -0.0291189 -0.180941
internal_weight=52630 29906 14855 15051 13242 11779 22724 21666 7806 6486 5293 6368 2800 1463 3572 675 2628 602 3858 1809 1437 1319 1721 1058 906 15298 7131 680 104 1377
internal_count=52630 29906 14855 15051 13242 11779 22724 21666 7806 6486 5293 6368 2800 1463 3572 675 2628 602 3858 1809 1437 1319 1721 1058 906 15298 7131 680 104 1377
is_linear=0
shrinkage=0.05


Tree=19
num_leaves=31
num_cat=0
split_feature=10 10 11 11 16 11 16 11 11 13 24 10 25 24 24 24 25 25 13 25 10 24 25 1 24 13 24 21 29 24
split_gain=1.07797e+06 266366 33880.6 31734.4 28073.1 28288.5 27251.5 22028.8 20484.8 17310.4 16709.8 15178.9 5921.2 5353.29 4494.7 3191.53 2994.39 2924.42 2905.32 3237.69 2453.81 2318.63 2231.02 1697.83 1601.34 1475.38 1437.73 1368.37 1335.88 1325.56
threshold=5.0385000000000009 19.884500000000006 1.0000000180025095e-35 -19.765999999999995 20.099500000000003 1.0000000180025095e-35 20.099500000000003 1.0000000180025095e-35 20.101500000000005 -50.037499999999994 1.0000000180025095e-35 49.928500000000007 1060.5000000000002 72.254500000000021 72.254500000000021 74.002500000000012 910.50000000000011 922.50000000000011 -49.29699999999999 910.50000000000011 49.928500000000007 85.575500000000019 1066.5000000000002 -3.5129999999999995 62.63750000000001 -4.9619999999999989 72.254500000000021 -1.0000000180025095e-35 31.323500000000006 60.888500000000008
decision_type=2 2 2 2 2 2 2 2 2 2 2 2 2 2 2 2 2 2 2 2 2 2 2 2 2 2 2 2 2 2
left_child=6 2 -2 18 5 9 7 10 23 16 -1 13 20 -7 22 27 -5 -11 19 24 26 -13 -10 -4 -3 28 -6 -8 -9 -20
right_child=1 3 8 4 12 11 15 25 14 17 -12 21 -14 -15 -16 -17 -18 -19 29 -21 -22 -23 -24 -25 -26 -27 -28 -29 -30 -31
leaf_value=-0.36866458281305908 -0.032895918858720501 0.18406640270117758 -0.15985018314870475 0.4376851340091526 0.091005125533421022 0.41064696214348545 -0.86034976709262601 0.073149637928804787 -0.1986989831113346 0.26525064132049453 -0.17189618161141715 0.59507787757687625 -0.18737385522550501 0.69593182246441243 0.02046765991455838 -0.34137366992794227 0.1720434486919647 -0.10507289794809056 -0.017808080687161307 -0.084301302662131691 0.26173391173042332 0.93825078467800194 -0.50731390632489903 0.1445889754093693 0.3573617793003272 -0.21672525216910771 0.27376126430534237 -0.53967187679857631 -0.34549943745373729 0.19873383102772921
leaf_weight=4991 7049 1147 46 2517 547 3399 35 79 335 3804 1377 1670 110 173 239 227 111 54 315 105 672 51 71 7115 151 15194 134 796 25 91
leaf_count=4991 7049 1147 46 2517 547 3399 35 79 335 3804 1377 1670 110 173 239 227 111 54 315 105 672 51 71 7115 151 15194 134 796 25 91
internal_value=-0.00048237 0.196769 0.0465654 0.345014 0.371849 0.397507 -0.260075 -0.247973 0.118321 0.327496 -0.32612 0.483289 0.165257 0.424484 -0.151543 -0.50786 0.426474 0.260063 0.148567 0.182653 0.193941 0.605304 -0.252793 0.14263 0.204256 -0.215441 0.127008 -0.553286 -0.0276743 0.0307518
internal_weight=52630 29906 14855 15051 13242 11779 22724 21666 7806 6486 6368 5293 1463 3572 645 1058 2628 3858 1809 1403 1353 1721 406 7161 1298 15298 681 831 104 406
internal_count=52630 29906 14855 15051 13242 11779 22724 21666 7806 6486 6368 5293 1463 3572 645 1058 2628 3858 1809 1403 1353 1721 406 7161 1298 15298 681 831 104 406
is_linear=0
shrinkage=0.05


Tree=20
num_leaves=31
num_cat=0
split_feature=10 10 11 11 16 11 16 11 11 24 13 10 25 25 24 2 24 25 13 13 25 24 24 1 24 24 24 17 13 21
split_gain=970827 240506 31070.7 28409.3 26540.6 24986 24255.1 19570.7 18547.1 15170 15125.2 14211.7 5799.04 4634.69 3832.44 2996.95 2855.35 2773.48 2568.03 2547.97 3068.28 2257.83 1615.34 1595.42 1537.12 1470.84 1456.97 1361.83 1323.05 1301.34
threshold=5.0385000000000009 19.884500000000006 1.0000000180025095e-35 -19.765999999999995 20.099500000000003 1.0000000180025095e-35 20.099500000000003 1.0000000180025095e-35 20.101500000000005 1.0000000180025095e-35 -50.037499999999994 49.928500000000007 952.50000000000011 940.50000000000011 71.96250000000002 1938.9285000000002 74.002500000000012 910.50000000000011 -50.037499999999994 -49.29699999999999 910.50000000000011 85.575500000000019 67.591500000000011 -3.5129999999999995 72.83750000000002 62.63750000000001 60.888500000000008 0.058500000000000003 -4.9619999999999989 -1.0000000180025095e-35
decision_type=2 2 2 2 2 2 2 2 2 2 2 2 2 2 2 2 2 2 2 2 2 2 2 2 2 2 2 2 2 2
left_child=6 2 -2 19 5 10 7 9 23 -1 17 13 18 -7 22 -12 29 -5 -6 20 25 -13 -10 -4 -25 -3 -21 -9 -29 -8
right_child=1 3 8 4 12 11 16 27 14 -11 15 21 -14 -15 -16 -17 -18 -19 -20 26 -22 -23 -24 24 -26 -27 -28 28 -30 -31
leaf_value=-0.3506603176551053 -0.031080290504290765 0.17674741157057094 -0.15380530463662118 0.41584411304687263 0.26032816878233472 0.40946495073892381 -0.81952795546470902 -0.55283849078141067 -0.19663687155511486 -0.16328540590231272 0.24350014456335134 0.56517999409638253 -0.13798504455427499 -0.013402256202769894 0.012809781567514916 0.58849070589181607 -0.32566155146443093 0.16345408123695049 0.12023827591667627 -0.016167321037057335 -0.091025772342434197 0.89148506573021091 -0.47275438958604821 0.13643123469816054 0.44699728209478895 0.34087073870968781 0.20399239420526252 -0.025444962883550606 -0.20534125650747881 -0.51099494357719999
leaf_weight=4927 7055 1154 47 2526 627 3470 36 28 334 1384 3756 1708 153 66 239 64 232 114 685 321 100 55 63 7135 40 155 98 103 15014 789
leaf_count=4927 7055 1154 47 2526 627 3470 36 28 334 1384 3756 1708 153 66 239 64 232 114 685 321 100 55 63 7135 40 155 98 103 15014 789
internal_value=0.000992499 0.187399 0.0450867 0.328396 0.353936 0.378938 -0.247116 -0.235594 0.11347 -0.309573 0.312915 0.459419 0.153233 0.40157 -0.145361 0.249297 -0.480945 0.404954 0.187205 0.143626 0.175815 0.575412 -0.240575 0.136267 0.13817 0.19621 0.0353503 -0.204765 -0.204116 -0.524562
internal_weight=52478 29965 14913 15052 13224 11759 22513 21456 7858 6311 6460 5299 1465 3536 636 3820 1057 2640 1312 1828 1409 1763 397 7222 7175 1309 419 15145 15117 825
internal_count=52478 29965 14913 15052 13224 11759 22513 21456 7858 6311 6460 5299 1465 3536 636 3820 1057 2640 1312 1828 1409 1763 397 7222 7175 1309 419 15145 15117 825
is_linear=0
shrinkage=0.05


Tree=21
num_leaves=31
num_cat=0
split_feature=10 10 11 11 16 11 16 11 11 13 10 17 17 25 25 25 2 25 30 13 13 25 25 21 1 25 25 25 25 25
split_gain=876178 217059 28041.3 25639.3 23953 22550 21891.7 17662.6 16739.5 13650.4 12826.6 5618.42 8115.29 5233.87 4182.92 2968.85 2705.45 2502.85 2444.14 2317.66 2299.51 2769.29 2132.8 1666.25 1440.07 1387.74 1327.57 1315.06 1296.38 1259.32
threshold=5.0385000000000009 19.884500000000006 1.0000000180025095e-35 -19.765999999999995 20.099500000000003 1.0000000180025095e-35 20.099500000000003 1.0000000180025095e-35 20.101500000000005 -50.037499999999994 49.928500000000007 0.052500000000000005 0.040500000000000008 952.50000000000011 940.50000000000011 1066.5000000000002 1938.9285000000002 910.50000000000011 2.6505000000000005 -50.037499999999994 -49.29699999999999 910.50000000000011 994.50000000000011 1.0000000180025095e-35 -3.5129999999999995 55.500000000000007 405.50000000000006 390.50000000000006 1102.5000000000002 20.500000000000004
decision_type=2 2 2 2 2 2 2 2 2 2 2 2 2 2 2 2 2 2 2 2 2 2 2 2 2 2 2 2 2 2
left_child=6 2 -2 20 5 9 7 11 24 17 14 12 -1 19 -7 18 -11 -5 -10 -6 21 26 -12 28 -4 -26 -3 -22 -8 -21
right_child=1 3 8 4 13 10 23 -9 15 16 22 -13 -14 -15 -16 -17 -18 -19 -20 29 27 -23 -24 -25 25 -27 -28 -29 -30 -31
leaf_value=-0.32687169536363786 -0.029526298371161865 0.16791080894611521 -0.14613136911088495 0.39505272976817285 0.24731383365110393 0.38899229270491714 -0.47145444188297891 -0.19452678258419465 -0.18335280233844628 0.23132546122584913 0.55758629555649086 -0.33552398127888211 -0.15496028017889144 -0.13109029646327805 -0.012733157477292279 -0.45534562083488156 0.5591120588984021 0.1552885412020604 0.029285483355416003 0.080288674522111761 -0.015359206725322629 -0.086479026906854758 0.2692207447285091 -0.31050021482337109 0.12960976904401686 0.42470316328015412 0.32383819064503716 0.1938031726352544 -0.77866508742778917 0.2497874504975556
leaf_weight=1364 7055 1154 47 2526 627 3470 856 15145 350 3756 1696 3564 1383 153 66 66 64 114 220 548 321 100 67 165 7135 40 155 98 36 137
leaf_count=1364 7055 1154 47 2526 627 3470 856 15145 350 3756 1696 3564 1383 153 66 66 64 114 220 548 321 100 67 165 7135 40 155 98 36 137
internal_value=0.000942951 0.17803 0.0428322 0.311978 0.33624 0.359993 -0.234761 -0.223815 0.107797 0.29727 0.43645 -0.294095 -0.240332 0.145572 0.381492 -0.138098 0.236833 0.384707 -0.101282 0.177847 0.136446 0.167026 0.546646 -0.456906 0.129454 0.131261 0.186401 0.0335845 -0.483945 0.114227
internal_weight=52478 29965 14913 15052 13224 11759 22513 21456 7858 6460 5299 6311 2747 1465 3536 636 3820 2640 570 1312 1828 1409 1763 1057 7222 7175 1309 419 892 685
internal_count=52478 29965 14913 15052 13224 11759 22513 21456 7858 6460 5299 6311 2747 1465 3536 636 3820 2640 570 1312 1828 1409 1763 1057 7222 7175 1309 419 892 685
is_linear=0
shrinkage=0.05


Tree=22
num_leaves=31
num_cat=0
split_feature=10 10 11 11 11 11 11 11 11 24 10 10 25 24 24 0 24 2 10 25 24 10 24 1 24 24 25 24 24 24
split_gain=790755 195898 25307.2 23139.3 21564.5 20324.5 19721 15933.1 15108 12355.6 12257.4 11596 4785.08 4457.15 3129.08 2463.99 2402.95 2350.84 2054.91 2501.8 2033.07 1850.2 1311.22 1299.85 1255.77 1252.89 1230.02 1229.48 1203.96 1146.53
threshold=5.0385000000000009 19.884500000000006 1.0000000180025095e-35 -19.765999999999995 20.101500000000005 1.0000000180025095e-35 20.101500000000005 1.0000000180025095e-35 20.101500000000005 1.0000000180025095e-35 49.928500000000007 49.928500000000007 1060.5000000000002 72.254500000000021 71.96250000000002 737.40250000000003 74.002500000000012 6188.1215000000011 49.928500000000007 910.50000000000011 85.575500000000019 49.928500000000007 67.591500000000011 -3.5129999999999995 62.63750000000001 72.83750000000002 1234.5000000000002 58.848500000000008 60.888500000000008 72.254500000000021
decision_type=2 2 2 2 2 2 2 2 2 2 2 2 2 2 2 2 2 2 2 2 2 2 2 2 2 2 2 2 2 2
left_child=6 2 -2 18 5 10 7 9 23 -1 17 13 21 -7 22 -12 -8 -5 28 24 -13 29 -10 -4 -20 -25 -9 -11 -3 -6
right_child=1 3 8 4 12 11 16 26 14 27 15 20 -14 -15 -16 -17 -18 -19 19 -21 -22 -23 -24 25 -26 -27 -28 -29 -30 -31
leaf_value=-0.31647147686756183 -0.028050004068031643 -0.014591485447775571 -0.13884031635940455 0.21984828979931287 0.075237075694451719 0.35013077089083505 -0.47402782046726905 -0.1842072803335876 -0.17764307660137385 -0.1349864781680655 0.35225755298715677 0.5096105216656488 -0.16123944092343617 0.62195499297714485 0.011721395244662208 0.54870334203866133 -0.29154405022735796 0.53021525791493784 0.15951599622245846 -0.082159398866819222 0.81916304932748352 0.22521447116488547 -0.42642291895750017 0.1231293696951755 0.31337571486403831 0.4035209514256427 -0.51560318834841035 -0.32711724876420933 0.18178775887484694 0.23756054024938097
leaf_weight=4927 7055 321 47 3746 544 3379 824 15118 334 1295 2481 1708 122 158 239 171 232 62 1154 100 55 662 63 7135 150 40 28 89 103 136
leaf_count=4927 7055 321 47 3746 544 3379 824 15118 334 1295 2481 1708 122 158 239 171 232 62 1154 100 55 662 63 7135 150 40 28 89 103 136
internal_value=0.000895877 0.169129 0.0406905 0.29638 0.31943 0.341958 -0.223023 -0.212639 0.102407 -0.279391 0.282408 0.414535 0.138447 0.362292 -0.131198 0.364946 -0.433973 0.224917 0.129625 0.158757 0.519316 0.165705 -0.217232 0.122981 0.177241 0.124699 -0.184824 -0.147368 0.0331337 0.107739
internal_weight=52478 29965 14913 15052 13224 11760 22513 21457 7858 6311 6460 5300 1464 3537 636 2652 1056 3808 1828 1404 1763 1342 397 7222 1304 7175 15146 1384 424 680
internal_count=52478 29965 14913 15052 13224 11760 22513 21457 7858 6311 6460 5300 1464 3537 636 2652 1056 3808 1828 1404 1763 1342 397 7222 1304 7175 15146 1384 424 680
is_linear=0
shrinkage=0.05


Tree=23
num_leaves=31
num_cat=0
split_feature=13 10 11 11 16 11 16 11 11 13 10 17 17 26 26 26 26 26 26 32 13 13 26 21 1 26 26 17 26 26
split_gain=714344 178119 22423.9 20883.2 19513.1 18368.5 17815.6 14204.6 13580.8 11126 10446.9 4760.79 6584.64 4332.55 3800.24 2437.51 2367.41 2245.8 1918.03 1912.1 1903.73 1871.81 2255.73 1400.47 1157.03 1148.95 1146.09 1102.62 1093.35 1080.4
threshold=-4.9619999999999989 19.884500000000006 1.0000000180025095e-35 -19.765999999999995 20.099500000000003 1.0000000180025095e-35 20.099500000000003 1.0000000180025095e-35 20.101500000000005 -50.037499999999994 49.928500000000007 0.052500000000000005 0.040500000000000008 2.6095000000000006 2.5765000000000007 2.9220000000000002 2.4945000000000004 2.4945000000000004 2.7245000000000004 0.39000000000000007 -50.037499999999994 -49.29699999999999 2.4945000000000004 1.0000000180025095e-35 -3.5129999999999995 3.0205000000000006 0.15200000000000002 0.058500000000000003 1.5085000000000002 1.1110000000000004
decision_type=2 2 2 2 2 2 2 2 2 2 2 2 2 2 2 2 2 2 2 2 2 2 2 2 2 2 2 2 2 2
left_child=1 2 -1 21 5 9 7 11 24 17 14 12 -2 20 -7 19 -11 -5 -12 -10 -6 22 29 25 -4 -8 -26 -9 -14 -3
right_child=6 3 8 4 13 10 23 27 15 16 18 -13 28 -15 -16 -17 -18 -19 -20 -21 -22 -23 -24 -25 26 -27 -28 -29 -30 -31
leaf_value=-0.026536371028327593 -0.29470651468025716 0.15154088501624083 -0.13191303619660139 0.35702767817803549 0.22369119236674956 0.35145362112275547 -0.42702419512729328 -0.48991477939157718 -0.16406256968561161 0.21825910609981586 0.50372770326288385 -0.30447083089918348 -0.1282376750879109 -0.12034687398696242 -0.031428058344008525 -0.41231817081007044 -0.12779471536358436 0.12993347316745288 0.23033722566243614 0.022923989205924672 0.10307140563060169 0.030340163917542951 -0.078055527493670285 -0.27935902521713418 0.11523287999089933 -0.71620392257817234 0.38339522877833487 -0.17613768479010727 -0.31038313442407756 0.29221014286301966
leaf_weight=7072 1364 1154 47 2526 627 3470 851 28 353 3770 1696 3547 1295 153 66 66 50 114 67 223 685 419 100 164 7238 36 40 15014 88 155
leaf_count=7072 1364 1154 47 2526 627 3470 851 28 353 3770 1696 3547 1295 153 66 66 50 114 67 223 685 419 100 164 7238 36 40 15014 88 155
internal_value=0.000851322 0.159967 0.0382656 0.281563 0.30346 0.324899 -0.213021 -0.203119 0.095788 0.268289 0.393904 -0.266192 -0.216754 0.131367 0.344305 -0.124701 0.213725 0.347229 0.493354 -0.0916701 0.160732 0.123146 0.150736 -0.413993 0.115115 -0.438846 0.116713 -0.176725 -0.139853 0.168223
internal_weight=52478 30091 15039 15052 13224 11759 22387 21336 7967 6460 5299 6294 2747 1465 3536 642 3820 2640 1763 576 1312 1828 1409 1051 7325 887 7278 15042 1383 1309
internal_count=52478 30091 15039 15052 13224 11759 22387 21336 7967 6460 5299 6294 2747 1465 3536 642 3820 2640 1763 576 1312 1828 1409 1051 7325 887 7278 15042 1383 1309
is_linear=0
shrinkage=0.05


Tree=24
num_leaves=31
num_cat=0
split_feature=13 13 11 11 11 11 11 11 11 24 13 10 25 24 24 5 24 9 21 13 25 10 24 24 21 24 1 24 17 24
split_gain=644699 160790 20237.2 19082.6 17623.9 16583.8 16045.7 12813.4 11898.6 10194.6 9828.51 9170.71 3946.32 3800.59 2614.11 2191.31 2103.4 2095.83 1866.43 1689.31 2035.92 1525.74 1376.23 1133.1 1098.91 1072.69 1033.66 1002.09 995.516 975.153
threshold=-4.9619999999999989 -20.244499999999995 1.0000000180025095e-35 -19.765999999999995 20.101500000000005 1.0000000180025095e-35 20.101500000000005 1.0000000180025095e-35 20.101500000000005 1.0000000180025095e-35 -50.037499999999994 49.928500000000007 1060.5000000000002 72.254500000000021 71.96250000000002 9.9910000000000014 74.002500000000012 33.21050000000001 0.15650000000000003 -49.29699999999999 910.50000000000011 49.928500000000007 72.83750000000002 67.591500000000011 -1.0000000180025095e-35 60.888500000000008 -3.5129999999999995 58.848500000000008 0.058500000000000003 62.63750000000001
decision_type=2 2 2 2 2 2 2 2 2 2 2 2 2 2 2 2 2 2 2 2 2 2 2 2 2 2 2 2 2 2
left_child=1 3 24 19 5 10 7 9 22 -2 17 13 21 -7 23 -12 -8 -5 -13 20 29 -6 26 -10 -3 -21 -4 -11 -9 -1
right_child=6 2 8 4 12 11 16 28 14 27 15 18 -14 -15 -16 -17 -18 -19 -20 25 -22 -23 -24 -25 -26 -27 -28 -29 -30 -31
leaf_value=0.14396450025102997 -0.28666927035487438 0.23360707336388656 -0.12533138957499446 0.31870950199239412 0.096244745712225632 0.31749083213752538 -0.43070302240413333 -0.46550620815507876 -0.15399463636941782 -0.12182628396542117 0.19903539820558122 0.45733168221109655 -0.14717165493359827 0.57087151014289883 0.015839563589505719 0.49406242623530022 -0.25931740561447575 0.50841284271673115 0.70361065917479582 -0.015378674834575685 -0.074156657275143686 0.20359754228570315 0.39161576406031912 -0.38455233248969073 -0.025674862848422915 0.17352730521550602 0.10966273822276543 -0.29528680602308077 -0.16735333491997353 0.27760904989728308
leaf_weight=1154 4910 41 47 2485 663 3338 820 28 347 1295 3707 1682 122 155 249 64 230 155 81 321 100 662 43 63 7080 98 7279 89 15015 155
leaf_count=1154 4910 41 47 2485 663 3338 820 28 347 1295 3707 1682 122 155 249 64 230 155 81 321 100 662 43 63 7080 98 7279 89 15015 155
internal_value=0.000808632 0.151969 0.0371815 0.268346 0.289443 0.309857 -0.20237 -0.192978 0.0916089 -0.252883 0.25587 0.375699 0.124837 0.328752 -0.111927 0.204057 -0.393194 0.329868 0.468689 0.116989 0.1432 0.149896 0.109813 -0.189519 -0.0241781 0.0288235 0.108153 -0.133005 -0.167912 0.159813
internal_weight=52478 30091 15149 14942 13114 11667 22387 21337 8028 6294 6411 5256 1447 3493 659 3771 1050 2640 1763 1828 1409 1325 7369 410 7121 419 7326 1384 15043 1309
internal_count=52478 30091 15149 14942 13114 11667 22387 21337 8028 6294 6411 5256 1447 3493 659 3771 1050 2640 1763 1828 1409 1325 7369 410 7121 419 7326 1384 15043 1309
is_linear=0
shrinkage=0.05


Tree=25
num_leaves=31
num_cat=0
split_feature=13 13 11 11 16 11 16 11 11 13 24 10 24 25 24 25 0 24 10 25 25 10 24 24 24 24 25 21 17 9
split_gain=584447 146222 18362 17217.4 15187.7 15325.3 14816.9 11633 11183.8 9208.67 9139.34 8081.37 3735.32 3127.63 2761.4 2446.02 2098.43 1937.73 1682.77 1766.3 1639.41 1475.09 1209.12 1137.85 1005.11 886.702 878.26 871.232 823.696 815.347
threshold=-4.9619999999999989 -20.244499999999995 1.0000000180025095e-35 -19.765999999999995 20.099500000000003 1.0000000180025095e-35 20.099500000000003 1.0000000180025095e-35 19.343000000000004 -50.037499999999994 1.0000000180025095e-35 49.928500000000007 72.254500000000021 1060.5000000000002 71.96250000000002 910.50000000000011 737.40250000000003 74.002500000000012 49.928500000000007 916.50000000000011 994.50000000000011 49.928500000000007 67.591500000000011 72.83750000000002 60.888500000000008 62.63750000000001 546.50000000000011 -1.0000000180025095e-35 0.058500000000000003 -0.33049999999999996
decision_type=2 2 2 2 2 2 2 2 2 2 2 2 2 2 2 2 2 2 2 2 2 2 2 2 2 2 2 2 2 2
left_child=1 3 27 18 5 9 7 10 23 16 -2 12 -7 21 22 -11 -5 -8 24 25 -13 -6 -10 29 -1 -20 -12 -3 -9 -4
right_child=6 2 8 4 13 11 17 28 14 15 26 20 -14 -15 -16 -17 -18 -19 19 -21 -22 -23 -24 -25 -26 -27 -28 -29 -30 -31
leaf_value=-0.019387245312873107 -0.27223186101285396 0.21469455178328387 -0.10618004897152784 0.30208610154058202 0.08876084883419956 0.30249659528071887 -0.4090691366549144 -0.44027827507691364 -0.1434672838889301 0.19788363598385533 -0.11587010194775332 0.4550706867367289 0.54918908981119607 -0.14455237919329209 0.026451842125687811 -0.13773443772442329 0.47769792138521039 -0.24470152461544392 0.13823481312766447 -0.072413304387306685 0.19471271264760884 0.19500045596065663 -0.37111876870029747 0.37398447453823236 0.16077514506227009 0.26786022954423666 -0.2791575989171135 -0.025040174318707076 -0.15886635387143128 0.10476307834603445
leaf_weight=320 4903 38 46 2484 659 3327 839 26 378 3762 1287 1684 161 103 259 55 183 229 1163 93 63 649 69 39 102 149 88 7024 15150 7280
leaf_count=320 4903 38 46 2484 659 3327 839 26 378 3762 1287 1684 161 103 259 55 183 229 1163 93 63 649 69 39 102 149 88 7024 15150 7280
internal_value=0.000536166 0.144712 0.0351328 0.255579 0.275591 0.294251 -0.192086 -0.183036 0.0866515 0.242864 -0.240283 0.357891 0.3139 0.120596 -0.103435 0.193043 0.314155 -0.373856 0.111754 0.138052 0.445696 0.141489 -0.178694 0.104875 0.024175 0.152979 -0.126344 -0.0237465 -0.159352 0.103436
internal_weight=52612 30090 15133 14957 13130 11719 22522 21454 8071 6484 6278 5235 3488 1411 706 3817 2667 1068 1827 1405 1747 1308 447 7365 422 1312 1375 7062 15176 7326
internal_count=52612 30090 15133 14957 13130 11719 22522 21454 8071 6484 6278 5235 3488 1411 706 3817 2667 1068 1827 1405 1747 1308 447 7365 422 1312 1375 7062 15176 7326
is_linear=0
shrinkage=0.05


Tree=26
num_leaves=31
num_cat=0
split_feature=13 13 11 11 16 11 16 11 11 13 10 25 25 31 25 25 25 31 31 10 25 10 25 30 7 25 8 25 25 25
split_gain=527467 131967 16571.6 15538.6 13707 13831.3 13372.7 10498.8 10093.8 8311 7293.45 3306.61 2827.37 2748.94 2209.83 2207.75 2018.7 1858.66 1791.49 1518.69 1594.2 1511.14 1479.31 1141.82 1105.86 907.202 885.204 800.328 793.431 786.486
threshold=-4.9619999999999989 -20.244499999999995 1.0000000180025095e-35 -19.765999999999995 20.099500000000003 1.0000000180025095e-35 20.099500000000003 1.0000000180025095e-35 19.343000000000004 -50.037499999999994 49.928500000000007 940.50000000000011 1012.5000000000001 -1.0000000180025095e-35 1066.5000000000002 910.50000000000011 910.50000000000011 1.3860000000000003 0.19250000000000003 49.928500000000007 916.50000000000011 49.928500000000007 994.50000000000011 64.765000000000015 8.0015000000000018 390.50000000000006 2.5605000000000007 405.50000000000006 20.500000000000004 658.50000000000011
decision_type=2 2 2 2 2 2 2 2 2 2 2 2 2 2 2 2 2 2 2 2 2 2 2 2 2 2 2 2 2 2
left_child=1 3 29 19 5 9 7 13 -4 16 11 -7 21 -2 17 -11 -5 -10 -15 25 27 28 -12 -8 -20 -1 -25 -21 -6 -3
right_child=6 2 8 4 12 10 23 -9 14 15 22 -13 -14 18 -16 -17 -18 -19 24 20 -22 -23 -24 26 -26 -27 -28 -29 -30 -31
leaf_value=-0.01841818583073512 -0.13913864830197775 -0.023788183620310009 0.09963133625873416 0.3076425828168341 0.058269959015266708 0.30475584823993868 -0.38259269495745557 -0.15138433194561229 -0.13657341729240055 0.18798971580504004 0.43231850110127579 -0.06351841760142414 -0.10752530120295987 -0.24921777211187932 -0.36059112168548846 -0.13086021565265968 0.092429916823150618 0.039075529947120075 -0.11871389102310961 0.13132366605539253 -0.068796526873534283 0.19301907959100884 0.18499249864115769 -0.57505716352320435 -0.35931128882656699 0.1527442604449307 -0.22729815704028555 0.25447620145931571 0.19997968987110329 0.20398800222892463
leaf_weight=320 761 7024 7365 2553 538 3426 834 15176 388 3762 1684 62 130 5051 72 55 114 246 412 1163 93 622 63 20 54 102 214 149 121 38
leaf_count=320 761 7024 7365 2553 538 3426 834 15176 388 3762 1684 62 130 5051 72 55 114 246 412 1163 93 622 63 20 54 102 214 149 121 38
internal_value=0.000509463 0.137477 0.0333762 0.242801 0.261812 0.279539 -0.182482 -0.173884 0.0823188 0.230721 0.339998 0.298207 0.114567 -0.228269 -0.0982669 0.183391 0.298449 -0.0684161 -0.24056 0.106168 0.131151 0.137116 0.423413 -0.355167 -0.146676 0.0229674 -0.257275 0.145332 0.0843235 -0.022559
internal_weight=52612 30090 15133 14957 13130 11719 22522 21454 8071 6484 5235 3488 1411 6278 706 3817 2667 634 5517 1827 1405 1281 1747 1068 466 422 234 1312 659 7062
internal_count=52612 30090 15133 14957 13130 11719 22522 21454 8071 6484 5235 3488 1411 6278 706 3817 2667 634 5517 1827 1405 1281 1747 1068 466 422 234 1312 659 7062
is_linear=0
shrinkage=0.05


Tree=27
num_leaves=31
num_cat=0
split_feature=13 13 11 11 16 11 16 11 11 24 13 10 24 26 24 26 0 21 24 10 26 10 24 24 24 26 21 17 17 24
split_gain=476042 119101 14955.8 14023.5 12370.4 12482.8 12069.6 9475.36 9109.96 7660.66 7500.75 6582.46 3389.97 2579.65 2244.67 1992.69 1883.41 1649.39 1587.21 1370.6 1438.87 1207.36 1027.43 981.529 818.832 798.749 755.683 744.107 735.895 722.367
threshold=-4.9619999999999989 -20.244499999999995 1.0000000180025095e-35 -19.765999999999995 20.099500000000003 1.0000000180025095e-35 20.099500000000003 1.0000000180025095e-35 19.343000000000004 1.0000000180025095e-35 -50.037499999999994 49.928500000000007 72.254500000000021 2.9055000000000004 71.96250000000002 2.4945000000000004 737.40250000000003 0.15650000000000003 74.002500000000012 49.928500000000007 2.5110000000000006 49.928500000000007 72.83750000000002 67.591500000000011 60.888500000000008 1.4975000000000003 -1.0000000180025095e-35 0.058500000000000003 0.64150000000000007 62.63750000000001
decision_type=2 2 2 2 2 2 2 2 2 2 2 2 2 2 2 2 2 2 2 2 2 2 2 2 2 2 2 2 2 2
left_child=1 3 -3 19 5 10 7 9 22 -2 16 12 -7 21 23 -12 -5 -13 26 24 29 -6 28 -10 -1 -11 -8 -9 -4 -21
right_child=6 2 8 4 13 11 18 27 14 25 15 17 -14 -15 -16 -17 -18 -19 -20 20 -22 -23 -24 -25 -26 -27 -28 -29 -30 -31
leaf_value=-0.01749756414075497 -0.24610714677356038 -0.021430849711681854 -0.10585332514148474 0.27209471814332292 0.080109644341072719 0.2724337505232256 -0.61219846995313831 -0.41080850001952662 -0.12946895097053041 -0.10255381213128452 0.1785904794109929 0.39175527484236661 0.50743275067585747 -0.1319607215408673 0.023747075064699422 -0.12432908483944874 0.43845234065678262 0.62887395318843975 -0.22051944953289057 0.12475804966607701 -0.065360396633086737 0.17622754442142682 0.35036425444171249 -0.33458623149460548 0.14511452682104681 -0.25826652249602539 -0.35988381220819099 -0.14335391979112219 0.094543497451077013 0.24176092347958439
leaf_weight=320 4903 7062 46 2484 659 3327 31 26 378 1287 3762 1670 161 103 259 55 183 77 229 1163 93 649 39 69 102 88 808 15150 7280 149
leaf_count=320 4903 7062 46 2484 659 3327 31 26 378 1287 3762 1670 161 103 259 55 183 77 229 1163 93 649 39 69 102 88 808 15150 7280 149
internal_value=0.000483955 0.130603 0.0317073 0.230662 0.248722 0.265563 -0.173359 -0.16519 0.0782026 -0.216857 0.219186 0.322999 0.283297 0.10884 -0.0933568 0.174221 0.283527 0.402245 -0.337415 0.100861 0.124594 0.127815 0.0946498 -0.16121 0.02182 -0.112541 -0.369284 -0.143815 0.0932831 0.138067
internal_weight=52612 30090 15133 14957 13130 11719 22522 21454 8071 6278 6484 5235 3488 1411 706 3817 2667 1747 1068 1827 1405 1308 7365 447 422 1375 839 15176 7326 1312
internal_count=52612 30090 15133 14957 13130 11719 22522 21454 8071 6278 6484 5235 3488 1411 706 3817 2667 1747 1068 1827 1405 1308 7365 447 422 1375 839 15176 7326 1312
is_linear=0
shrinkage=0.05


Tree=28
num_leaves=31
num_cat=0
split_feature=13 10 11 11 10 16 25 11 11 24 24 11 11 16 11 25 24 21 24 10 25 24 24 25 21 37 21 14 25 31
split_gain=429631 107563 13280.5 12497.1 11477.5 10893.5 8685.05 8668.36 8551.57 6913.57 5492.96 5122.95 5406.94 5008 2799.74 1915.61 1813.69 1489.02 1432.42 1236.95 1298.67 838.365 739.071 720.989 713.74 711.901 682.486 679.127 668.693 684.615
threshold=-4.9619999999999989 19.884500000000006 1.0000000180025095e-35 -19.765999999999995 49.928500000000007 20.099500000000003 910.50000000000011 19.343000000000004 1.0000000180025095e-35 1.0000000180025095e-35 60.888500000000008 20.101500000000005 1.0000000180025095e-35 20.099500000000003 20.101500000000005 910.50000000000011 71.96250000000002 0.15650000000000003 74.002500000000012 49.928500000000007 916.50000000000011 67.591500000000011 60.888500000000008 546.50000000000011 -1.0000000180025095e-35 0.79950000000000021 -1.0000000180025095e-35 6.5000000000000009 1156.5000000000002 24.314500000000006
decision_type=2 2 2 2 2 2 2 2 2 2 2 2 2 2 2 2 2 2 2 2 2 2 2 2 2 2 2 2 2 2
left_child=1 2 24 19 6 8 10 28 9 27 13 12 15 -5 -12 -6 21 -14 26 22 -21 -9 -3 -11 -1 -10 -7 -2 29 -4
right_child=5 3 7 4 11 18 -8 16 25 23 14 -13 17 -15 -16 -17 -18 -19 -20 20 -22 -23 -24 -25 -26 -27 -28 -29 -30 -31
leaf_value=0.19488410173751552 -0.22634995818766712 -0.016622959176978629 0.089368219403868868 0.20843969281481331 0.27802686064216642 -0.5816869542529729 -0.12766921089738534 -0.12789304176286262 -0.16260254334663848 -0.097426526440985803 0.47649015636714492 0.16506715898357849 0.37216869043979839 0.051459286086121263 0.1953437054687493 0.070167419070523956 0.011075000770596415 0.59747101555538551 -0.20949828502966403 0.13116518397418822 -0.062095884234513433 -0.31788111933750979 0.13786590952831199 -0.24536785704594333 -0.022106801145138875 -0.13210107317449357 -0.34189184318304561 -0.28051198658153048 -0.10057213691723839 0.30776082234369423
leaf_weight=38 4229 320 7241 6999 2565 31 199 368 2250 1287 275 668 1670 548 131 116 249 77 229 1312 93 69 102 88 6968 12926 808 674 46 36
leaf_count=38 4229 320 7241 6999 2565 31 199 368 2250 1287 275 668 1670 548 131 116 249 77 229 1312 93 69 102 88 6968 12926 808 674 46 36
internal_value=0.00045981 0.124074 0.0293499 0.21842 0.235326 -0.164691 0.198523 0.0733302 -0.156931 -0.206014 0.206687 0.294193 0.313668 0.197043 0.385858 0.269038 -0.0966102 0.382136 -0.32055 0.095819 0.118366 -0.157968 0.0207299 -0.106916 -0.0209264 -0.136625 -0.350826 -0.233802 0.0892515 0.0904535
internal_weight=52612 30090 15015 15075 13248 22522 8152 8009 21454 6278 7953 5096 4428 7547 406 2681 686 1747 1068 1827 1405 437 422 1375 7006 15176 839 4903 7323 7277
internal_count=52612 30090 15015 15075 13248 22522 8152 8009 21454 6278 7953 5096 4428 7547 406 2681 686 1747 1068 1827 1405 437 422 1375 7006 15176 839 4903 7323 7277
is_linear=0
shrinkage=0.05


Tree=29
num_leaves=31
num_cat=0
split_feature=10 10 11 25 11 10 16 11 11 24 24 16 24 11 11 24 10 24 10 24 24 24 17 25 21 21 37 11 24 1
split_gain=387705 96234 12239.7 11407.2 10679.6 10320.8 9730.15 8000.68 7790.85 6161.53 4957.84 4519.66 4472.99 3742.64 2526.71 1668.3 1406.34 1297.79 1265.26 737.365 681.742 667.079 666.036 650.798 644.599 627.368 613.016 609.321 587.311 578.604
threshold=5.0385000000000009 19.884500000000006 1.0000000180025095e-35 910.50000000000011 -19.765999999999995 49.928500000000007 20.099500000000003 19.343000000000004 1.0000000180025095e-35 1.0000000180025095e-35 60.888500000000008 20.099500000000003 78.290000000000006 20.101500000000005 20.101500000000005 71.96250000000002 49.928500000000007 74.002500000000012 49.928500000000007 67.591500000000011 62.63750000000001 60.888500000000008 0.058500000000000003 546.50000000000011 -1.0000000180025095e-35 -1.0000000180025095e-35 0.81400000000000006 -21.302499999999995 72.83750000000002 -3.5129999999999995
decision_type=2 2 2 2 2 2 2 2 2 2 2 2 2 2 2 2 2 2 2 2 2 2 2 2 2 2 2 2 2 2
left_child=6 2 24 4 16 10 8 28 9 -1 11 -6 13 -7 -12 19 21 25 -5 -9 -18 -3 -10 -11 -2 -8 -24 -20 29 -4
right_child=1 3 7 18 5 12 17 15 22 23 14 -13 -14 -15 -16 -17 20 -19 27 -21 -22 -23 26 -25 -26 -27 -28 -29 -30 -31
leaf_value=-0.22131047039737775 0.18516547085419102 -0.015792070612106537 -0.093164836514551208 -0.12128895225385994 0.19801785561886873 0.29597929305928844 -0.55269612438042448 -0.12366647240684046 -0.37693982089137679 -0.092555574403943922 0.45267431086862964 0.048886791482782563 0.51126659013561937 0.1636956306702313 0.1855839708435664 0.010653010472950787 0.11196298694048937 -0.19735509266021808 -0.07407065217995891 -0.30201005721747792 0.22735271589736158 0.13097936275189817 -0.15143064677095902 -0.23311338301887577 -0.021048508454743202 -0.32282674965226077 -0.12420916315425655 0.080646233515926757 0.28764653721014216 0.086482782811717729
leaf_weight=4921 38 320 45 199 6999 4038 31 364 27 1287 275 548 216 617 131 247 1163 231 87 69 144 102 2473 88 6950 812 12781 236 36 7137
leaf_count=4921 38 320 45 199 6999 4038 31 364 27 1287 275 548 216 617 131 247 1163 231 87 69 144 102 2473 88 6950 812 12781 236 36 7137
internal_value=0.000436832 0.118454 0.0282758 0.2075 0.215737 0.231465 -0.155666 0.0709221 -0.148353 -0.195163 0.196353 0.187191 0.288786 0.278451 0.366574 -0.0930209 0.0990739 -0.302556 -0.0221406 -0.152161 0.124696 0.0196943 -0.129065 -0.101571 -0.0199238 -0.33135 -0.128624 0.0389478 0.0863688 0.0853552
internal_weight=52612 29961 14886 15075 14553 12824 22651 7898 21577 6296 7953 7547 4871 4655 406 680 1729 1074 522 433 1307 422 15281 1375 6988 843 15254 323 7218 7182
internal_count=52612 29961 14886 15075 14553 12824 22651 7898 21577 6296 7953 7547 4871 4655 406 680 1729 1074 522 433 1307 422 15281 1375 6988 843 15254 323 7218 7182
is_linear=0
shrinkage=0.05


Tree=30
num_leaves=31
num_cat=0
split_feature=13 13 11 25 11 11 11 11 11 24 11 13 10 24 24 24 24 24 10 13 24 13 24 24 24 24 25 37 14 11
split_gain=349103 86182.8 11032.2 10795.9 9722.57 12716.2 8815.2 6969.75 6677.7 5521.67 5011.66 6067.43 4691.53 3128.63 2360.02 1935.36 1746.1 1468.34 1418.93 1196.54 1150.91 983.557 748.822 713.698 655.868 649.792 605.224 601.653 582.232 564.411
threshold=-4.9619999999999989 -20.244499999999995 1.0000000180025095e-35 910.50000000000011 1.0000000180025095e-35 20.101500000000005 20.101500000000005 1.0000000180025095e-35 19.343000000000004 1.0000000180025095e-35 -21.302499999999995 -50.037499999999994 49.928500000000007 72.254500000000021 60.888500000000008 78.435500000000005 71.96250000000002 78.290000000000006 49.928500000000007 -50.037499999999994 74.002500000000012 -50.037499999999994 67.591500000000011 60.597500000000004 72.254500000000021 72.83750000000002 546.50000000000011 0.79950000000000021 6.5000000000000009 -21.302499999999995
decision_type=2 2 2 2 2 2 2 2 2 2 2 2 2 2 2 2 2 2 2 2 2 2 2 2 2 2 2 2 2 2
left_child=1 3 23 4 10 12 7 9 25 28 18 15 13 -6 -13 -12 22 -14 -1 29 -8 -7 -10 -3 -23 -4 -11 -9 -2 -5
right_child=6 2 8 19 5 21 20 27 16 26 11 14 17 -15 -16 -17 -18 -19 -20 -21 -22 24 -24 -25 -26 -27 -28 -29 -30 -31
leaf_value=-0.0039124366330845345 -0.20396688118503345 -0.019151331011805255 0.080617866747966463 -0.073013605306177981 0.24315691983193075 0.15824646577759571 -0.31629443907506483 -0.14712890805921394 -0.11265991948823791 -0.088012212948032895 0.23605516740001145 0.13986609001945477 0.34638627932755339 0.4774818469660943 0.34756848000876089 0.42662589577053733 0.019709932623192081 0.59099513945081117 0.11241323457027148 -0.11870842666417024 -0.18975497901258342 0.048700222922291876 -0.29228187359535229 0.18261212572759511 0.17144071153502261 0.29336771661224786 -0.22151329767134792 -0.11920538175275308 -0.25437401221188999 0.07368443892373043
leaf_weight=334 4228 7059 7326 89 3277 644 835 2271 366 1270 2465 3703 1594 149 142 141 275 64 1217 203 230 562 69 44 135 36 91 12966 666 248
leaf_count=334 4228 7059 7326 89 3277 644 835 2271 366 1270 2465 3703 1594 149 142 141 275 64 1217 203 230 562 69 44 135 36 91 12966 666 248
internal_value=0.000186952 0.111514 0.0275483 0.196645 0.204861 0.250672 -0.148574 -0.141615 0.0675395 -0.186058 0.168075 0.187478 0.286799 0.253363 0.147547 0.246384 -0.0788893 0.355866 0.0873612 -0.0228367 -0.288992 0.113692 -0.141224 -0.0178982 0.0725018 0.0816629 -0.0969577 -0.123369 -0.210833 0.0349172
internal_weight=52699 30142 15175 14967 14427 6425 22557 21492 8072 6255 8002 6451 5084 3426 3845 2606 710 1658 1551 540 1065 1341 435 7103 697 7362 1361 15237 4894 337
internal_count=52699 30142 15175 14967 14427 6425 22557 21492 8072 6255 8002 6451 5084 3426 3845 2606 710 1658 1551 540 1065 1341 435 7103 697 7362 1361 15237 4894 337
is_linear=0
shrinkage=0.05


Tree=31
num_leaves=31
num_cat=0
split_feature=13 10 11 26 11 16 16 11 11 24 11 13 10 24 24 24 24 21 10 13 24 13 24 24 21 17 21 26 37 24
split_gain=315068 77824.4 9837.3 9684.45 8861.08 11472.5 7977.81 6294.54 6294.1 4983.19 4426.71 5659.4 4316.3 2947.52 2205.1 1746.89 1481.77 1325.62 1280.61 1079.91 1040.93 863.234 681.377 636.784 579.898 573.162 563.086 546.298 539.517 535.344
threshold=-4.9619999999999989 19.884500000000006 1.0000000180025095e-35 2.4945000000000004 1.0000000180025095e-35 20.099500000000003 20.099500000000003 19.343000000000004 1.0000000180025095e-35 1.0000000180025095e-35 -21.302499999999995 -50.037499999999994 49.928500000000007 72.254500000000021 60.888500000000008 78.435500000000005 71.96250000000002 0.15650000000000003 49.928500000000007 -50.037499999999994 74.002500000000012 -50.037499999999994 72.254500000000021 67.591500000000011 -1.0000000180025095e-35 0.058500000000000003 -1.0000000180025095e-35 1.4975000000000003 0.79950000000000021 62.63750000000001
decision_type=2 2 2 2 2 2 2 2 2 2 2 2 2 2 2 2 2 2 2 2 2 2 2 2 2 2 2 2 2 2
left_child=1 2 24 4 10 12 8 -4 9 -2 18 15 13 -6 -13 -12 23 -14 -3 -5 26 -7 -23 -9 -1 -10 -8 -11 -27 -20
right_child=6 3 7 19 5 21 20 16 25 27 11 14 17 -15 -16 -17 -18 -19 29 -21 -22 22 -24 -25 -26 28 -28 -29 -30 -31
leaf_value=0.16526488350604915 -0.20029150892494135 -0.003716873266728329 0.077052242802978552 0.033170633934365291 0.23009287330541395 0.1503353700155132 -0.51020909336985498 -0.11165812360842019 -0.36104115490102173 -0.083611948964032845 0.22425288456476977 0.1315522074465921 0.32906804822722302 0.45602699099274996 0.33158823275882665 0.40530971265869903 0.011590030762178315 0.56149146069602551 0.094859575554099629 -0.11277592891486979 -0.18027135418167017 0.046122503847460999 0.16813353626962146 -0.27768893793936922 -0.018692820381734733 -0.13931482416736576 -0.29245975608929919 -0.21044979179022438 -0.11284885455927168 0.19917107315146176
leaf_weight=43 4894 334 7320 337 3316 644 31 356 24 1270 2465 3759 1594 151 143 141 267 64 1078 203 230 573 143 69 7003 2267 805 91 12945 139
leaf_count=43 4894 334 7320 337 3316 644 31 356 24 1270 2465 3759 1594 151 143 141 267 64 1078 203 230 573 143 69 7003 2267 805 91 12945 139
internal_value=0.000177781 0.105939 0.0255269 0.186211 0.193931 0.237441 -0.141146 0.0634255 -0.134522 -0.176756 0.158915 0.177007 0.2717 0.239947 0.138893 0.234066 -0.0807023 0.338076 0.0829934 -0.0216959 -0.274662 0.108326 0.0705177 -0.138684 -0.0175671 -0.117182 -0.3006 -0.0921112 -0.116794 0.106793
internal_weight=52699 30142 15058 15084 14544 6485 22557 8012 21491 6255 8059 6508 5125 3467 3902 2606 692 1658 1551 540 1066 1360 716 425 7046 15236 836 1361 15212 1217
internal_count=52699 30142 15058 15084 14544 6485 22557 8012 21491 6255 8059 6508 5125 3467 3902 2606 692 1658 1551 540 1066 1360 716 425 7046 15236 836 1361 15212 1217
is_linear=0
shrinkage=0.05


Tree=32
num_leaves=31
num_cat=0
split_feature=13 13 25 24 10 3 24 12 3 25 13 12 25 18 0 13 10 25 3 12 3 28 25 7 17 38 38 14 17 17
split_gain=284352 70240.5 8795.76 5691.8 4012.71 3006.39 3834.07 3722.4 2639.41 2427.82 2046.14 1558.18 1309.34 1173.7 1015.92 974.672 935.651 814.943 770.72 665.724 599.446 548.896 493.109 474.681 644.092 470.852 459.515 454.514 409.667 439.738
threshold=-4.9619999999999989 -20.244499999999995 910.50000000000011 64.677500000000023 49.928500000000007 1.0005000000000002 1.0000000180025095e-35 9.9865000000000013 0.62750000000000006 1066.5000000000002 -8.6839999999999993 -9.9944999999999968 75.500000000000014 0.93750000000000011 2234.8850000000007 -50.037499999999994 34.349000000000004 550.50000000000011 1.4055000000000002 -1.3394999999999999 0.84150000000000003 67.295500000000018 546.50000000000011 69.81450000000001 0.075500000000000012 67.745500000000007 63.249500000000005 56.500000000000007 0.064500000000000016 0.10650000000000001
decision_type=2 2 2 2 2 2 2 2 2 2 2 2 2 2 2 2 2 2 2 2 2 2 2 2 2 2 2 2 2 2
left_child=1 2 3 4 11 6 -2 18 21 10 19 20 -5 -10 26 -4 -13 -9 27 -3 -1 -6 -8 24 -21 -16 -14 -7 -20 -30
right_child=5 9 15 12 8 7 22 17 13 -11 -12 16 14 -15 25 -17 -18 -19 28 23 -22 -23 -24 -25 -26 -27 -28 -29 29 -31
leaf_value=0.016368309226872598 -0.18164242779322889 -0.0030599644430230927 0.031512593455641391 0.48731971755838538 0.12230047976844274 -0.10925450947489324 -0.079431680202690633 -0.2152487289371024 0.24360046478665162 -0.20492851929796255 0.050644281574623397 0.17783562062660904 0.23396476159971083 0.19319030177401811 -0.040886288972337911 -0.10713991095637054 0.14207071394741921 -0.47656194711421462 -0.35647446972200242 0.19205813866922963 0.12034821968652956 0.27629689598237067 -0.19993885717427298 -0.055614329767523396 0.024645571270393241 0.2695988218582685 0.34066662270512349 -0.1317854628026057 0.055673664338361177 -0.16090723376012317
leaf_weight=249 5280 3997 337 104 877 11359 1270 805 2989 114 5568 3827 135 1889 31 203 3514 31 26 58 313 62 91 182 5256 20 417 2795 24 876
leaf_count=249 5280 3997 337 104 877 11359 1270 805 2989 114 5568 3827 135 1889 31 203 3514 31 26 58 313 62 91 182 5256 20 417 2795 24 876
internal_value=0.000168999 0.100642 0.177498 0.184913 0.177781 -0.134089 -0.162353 -0.122295 0.209304 0.0248397 0.0265805 0.154575 0.323275 0.224085 0.294898 -0.0206114 0.160718 -0.225 -0.116599 0.0124653 0.0742988 0.132502 -0.0875069 0.023757 0.0264773 0.081064 0.314627 -0.113705 -0.160817 -0.155121
internal_weight=52699 30142 14967 14427 13720 22557 6641 15916 5817 15175 15061 7903 707 4878 603 540 7341 836 15080 9493 562 939 1361 5496 5314 51 552 14154 926 900
internal_count=52699 30142 14967 14427 13720 22557 6641 15916 5817 15175 15061 7903 707 4878 603 540 7341 836 15080 9493 562 939 1361 5496 5314 51 552 14154 926 900
is_linear=0
shrinkage=0.05


Tree=33
num_leaves=31
num_cat=0
split_feature=10 10 11 11 16 11 16 11 11 10 24 10 24 25 24 2 9 24 25 25 10 10 24 24 14 21 24 25 24 21
split_gain=256176 63024.5 8891.46 8224.37 7411.5 8822.59 6854.25 5549.64 5370.54 4393.06 4003.98 3532.57 1791.74 1741.3 1331.26 1174.12 1093.55 935.634 869.887 691.578 870.079 647.599 956.171 566.009 526.609 502.492 492.709 464.782 449.541 446.598
threshold=5.0385000000000009 19.884500000000006 1.0000000180025095e-35 -19.765999999999995 20.099500000000003 1.0000000180025095e-35 20.099500000000003 19.343000000000004 0.29450000000000004 49.928500000000007 1.0000000180025095e-35 49.928500000000007 72.254500000000021 550.50000000000011 71.96250000000002 6188.1215000000011 33.21050000000001 74.002500000000012 994.50000000000011 916.50000000000011 49.928500000000007 49.928500000000007 72.254500000000021 60.888500000000008 879.50000000000011 -1.0000000180025095e-35 67.591500000000011 1234.5000000000002 62.63750000000001 -1.0000000180025095e-35
decision_type=2 2 2 2 2 2 2 2 2 2 2 2 2 2 2 2 2 2 2 2 2 2 2 2 2 2 2 2 2 2
left_child=6 2 25 19 5 9 8 24 10 15 -1 12 -7 21 26 -5 -11 29 -13 20 23 22 -6 -3 -4 -2 -9 -10 -22 -8
right_child=1 3 7 4 13 11 17 14 27 16 -12 18 -14 -15 -16 -17 -18 -19 -20 -21 28 -23 -24 -25 -26 -27 -28 -29 -30 -31
leaf_value=-0.17990952186288392 0.15245945038762282 -0.019666889178484952 0.076400486900902342 0.11857302415116555 0.036273558626176122 0.2068946797916533 -0.46141533744296837 -0.10741845523119309 -0.10407619901911108 0.19758754038315676 -0.083132740959221865 0.30909097809087283 0.37821942814285503 -0.073032364643748779 0.011742295447239051 0.33785802722937053 0.33293981769413117 -0.16122270298331454 0.12224552948170911 -0.059250800592916 0.085502661869207297 0.13226959314436212 0.19662491971581611 0.11275968543227133 0.025560252913107713 -0.018781032468478912 -0.25359299069030589 -0.319609117982872 0.17680948788554429 -0.26744275501998488
leaf_weight=4986 43 318 6659 3791 571 3369 31 353 15245 2497 1361 1658 160 171 264 62 159 233 65 100 1144 647 111 108 552 6986 69 25 153 808
leaf_count=4986 43 318 6659 3791 571 3369 31 353 15245 2497 1361 1658 160 171 264 62 159 233 65 100 1144 647 111 108 552 6986 69 25 153 808
internal_value=0.000160619 0.0960151 0.0231731 0.168093 0.181782 0.195132 -0.126623 0.0595812 -0.120501 0.156225 -0.15916 0.243346 0.214674 0.0771026 -0.0763032 0.122112 0.205704 -0.250034 0.302053 0.0685072 0.0759279 0.096428 0.0624041 0.0139129 0.0725098 -0.0177306 -0.131385 -0.104431 0.0962903 -0.27467
internal_weight=52699 30010 14926 15084 13261 11761 22689 7897 21617 6509 6347 5252 3529 1500 686 3853 2656 1072 1723 1823 1723 1329 682 426 7211 7029 422 15270 1297 839
internal_count=52699 30010 14926 15084 13261 11761 22689 7897 21617 6509 6347 5252 3529 1500 686 3853 2656 1072 1723 1823 1723 1329 682 426 7211 7029 422 15270 1297 839
is_linear=0
shrinkage=0.05


