tree
version=v4
num_class=1
num_tree_per_iteration=1
label_index=0
max_feature_idx=38
objective=regression
feature_names=Real_Return_3Y Real_Return_5Y Real_Return_10Y PP_Multiplier_1Y PP_Multiplier_5Y PP_Multiplier_10Y PP_vs_Cash_5Y Volatility_90D Sharpe_Ratio_5Y Calmar_Ratio_5Y Max_Drawdown Distance_From_MA_200D_Pct Distance_From_MA_50D_Pct Distance_From_ATH_Pct Days_Since_ATH Momentum_50D Momentum_200D Market_Cap_Saturation_Pct Growth_Potential_Multiplier Composite_Score_5Y Vol_Adj_PP_Score_5Y Correlation_With_SP500 Correlation_With_Gold CPI_Correlation Scarcity_Score Days_Since_Bitcoin_Halving Bitcoin_Cycle_Year Real_PP_Index Eggs_Per_100USD Milk_Gallons_Per_100USD Real_Return_Eggs_1Y Real_Return_Milk_1Y Real_Commodity_Basket_Return_1Y Recession_Risk Yield_Curve_Inverted PP_Stability_Index Return_Consistency Recovery_Strength PPP_Q_Composite_Score
feature_infos=[-157.548:11369.893] [-184.06399999999999:6983.4979999999996] [-140.01499999999999:28256.989000000001] [0:10] [0:10] [0:10] [0:10.053000000000001] [0:573.87] [-4.5650000000000004:94.445999999999998] [-1.373:2095.9229999999998] [0:133.029] [-177.58500000000001:459.85700000000003] [-244.77199999999999:278.21800000000002] [-133.029:0] [0:3897] [-244.77199999999999:278.21800000000002] [-177.58500000000001:459.86099999999999] [0:100] [0.70699999999999996:1] [0:200] [0:100] [-0.254:0.52900000000000003] none [-0.28100000000000003:0.26700000000000002] [0:89.085999999999999] [0:1401] [0:3.8380000000000001] [87.852999999999994:118.702] [33.715000000000003:83.126000000000005] [25.920000000000002:35.223999999999997] [-66.733000000000004:1248.9839999999999] [-63.124000000000002:1732.317] [-64.322999999999993:1490.6500000000001] [0:50] [0:1] [0:1] [0:1] [0.085999999999999993:1] [25.094999999999999:82.114999999999995]
tree_sizes=2747 2848 2830 2836 2845 2865 2857 2844 2857 2863 2861 2851 2850 2859 2882 2852 2849 2849 2848 2845 2861 2853 2864 2853 2864 2853 2861 2871 2890 2857 2842 2871 2859 2898 2855 2870 2875 2891 2876 2874 2870 2871 2874 2852 2859 2862 2883 2892 2896 2905 2871 2889 2902 2921 2888 2883 2889 2871 2891 2875 2897 2893 2904 2909 2903 2896 2861 2914 2891 2892 2888 2902 2888 2887 2885 2915 2892 2894 2855 2905 2885 2886 2893 2886 2898 2905 2868 2862 2901 2877 2875 2890 2898 2919 2893 2863 2909 2865 2886 2855 2876 2894 2882 2864 2882 2866 2924 2862 2920 2893 2864 2865 2891 2891 2898 2945 2894 2898 2912 2919 2941 2924 2896 2885 2891 2905 2905 2897 2917 2936 2902 2932 2924 2934 2899 2930 2943 2932 2938 2883 2916 2910 2910 2908 2920 2913 2920 2908 2917 2887 2876 2863 2852 2893 2925 2917 2907 2885 2916 2890 2891 2885 2917 2884 2973 2935 2902 2862 2892 2873 2865 2857 2853 2887 2866 2883 2914 2885 2912 2882 2930 2891 2880 2862 2905 2841 2946 2871 2853 2957 2889 2849 2867 2913 2869 2894 2870 2891 2923 2923 2900 2906 2898 2920 2879 2891 2903 2928 2933 2913 2906 2875 2904 2900 2882 2918 2860 2872 2897 2944 2878 2873 2865 2864 2916 2921 2918 2907 2942 2924 2858 2871 2863 2871 2881 2907 2934 2897 2918 2908 2900 2894 2914 2869 2936 2875 2889 2855 2875 2873 2896 2908 2890 2914 2888 2912 2914 2902 2894 2899 2870 2890 2919 2881 2927 2882 2885 2884 2884 2868 2910 2898 2878 2898 2866 2919 2894 2923 2937 2896 2917 2867 2869 2900 2844 2939 2875 2934 2886 2924 2897 2848 2919 2862 2844 2870 2886 2893 2884 2889 2892 2868 2859 2868 2856 2903 2901 2928 2935 2903 2881 2861 2892 2864 2860 2883 2881 2895 2933 2875 2876 2907 2875 2893 2888 2933 2889 2894 2857 2897 2877 2888 2908 2926 2885 2871 2850 2883 2895 2936 2886 2916 2894 2887 2928 2877 2874 2906 2870 2918 2871 2879 2885 2932 2862 2907 2866 2877 2878 2899 2842 2903 2878 2893 2862 2876 2878 2916 2881 2927 2879 2880 2855 2846 2889 2860 2890 2872 2910 2882 2888 2864 2865 2900 2849 2918 2882 2858 2887 2877 2891 2918 2842 2919 2880 2853 2886 2893 2924 2891 2919 2860 2882 2865 2882 2906 2909 2924 2905 2876 2872 2853 2877 2907 2874 2918 2923 2904 2841 2938 2875 2860 2879 2858 2860 2847 2871 2849 2906 2913 2874 2861 2924 2875 2927 2902 2885 2912 2961 2899 2893 2918 2898 2912 2877 2889 2868 2877 2903 2910 2920 2888 2867 2855 2900 2896 2867 2891 2918 2911 2908 2908 2897 2958 2876 2886 2910 2904 2899 2903 2899 2893 2877 2882 2884 2897 2887 2893 2884 2908 2862 2910 2939 2901 2877 2824 2861 2900 2875 2820 2850 2867 2862 2870 2866 2873 2869 2887 2903

Tree=0
num_leaves=31
num_cat=0
split_feature=7 7 7 7 38 17 17 7 35 19 14 17 17 7 7 17 4 14 17 38 7 0 13 17 32 32 17 7 17 17
split_gain=3.73453e+07 6.00778e+06 4.16776e+06 912563 551060 539269 352782 232461 211130 197350 124619 157810 118789 114495 111677 92777.6 85581.4 79671 79315.5 68259.5 67264.5 64855.4 60321.4 45351.2 45070.3 40542.6 38349.8 37606.9 32569.2 32097
threshold=20.869500000000006 33.103000000000009 14.957500000000001 10.036500000000002 44.683500000000002 7.5245000000000006 89.90300000000002 26.739500000000003 0.88250000000000017 127.27200000000002 605.50000000000011 26.967000000000002 99.967000000000013 51.688000000000009 12.459500000000002 46.671500000000002 1.0000000180025095e-35 765.50000000000011 3.9400000000000004 51.618500000000004 16.710500000000003 -10.182499999999997 -39.718499999999999 94.640000000000015 0.74450000000000005 -1.0000000180025095e-35 26.967000000000002 62.494000000000007 89.867000000000019 1.4305000000000001
decision_type=2 2 2 2 2 2 2 2 2 2 2 2 2 2 2 2 2 2 2 2 2 2 2 2 2 2 2 2 2 2
left_child=2 4 3 -1 7 16 17 -2 18 12 11 29 25 15 -11 22 -3 24 -6 -19 -8 -20 -7 -12 -4 -5 -24 -18 -26 -10
right_child=1 5 6 9 8 13 20 -9 10 14 23 -13 -14 -15 -16 -17 27 19 21 -21 -22 -23 26 -25 28 -27 -28 -29 -30 -31
leaf_value=72.325702929899251 69.662621111395197 69.540270468933144 70.847499366013238 72.147647547658053 68.310283234726754 69.57766049877246 70.757769247239892 68.464331635734524 68.279152446162726 71.831455274279051 70.780939667987866 70.671721842180105 70.831703444407111 67.730940793778842 70.888366636699672 68.21059212789315 67.653336898603143 70.817085156654116 70.431283736046055 71.577301445821064 69.581892703014404 69.594741351827381 68.408325059080042 69.479513665271227 71.707267006427614 71.812060858183926 69.192365348325737 67.37373025575809 70.852874510703657 69.828051352111245
leaf_weight=14265 681 51 7377 987 110 278 152 999 34 464 936 711 299 450 970 743 1947 462 259 818 609 2210 420 72 272 10318 250 3251 189 1903
leaf_count=14265 681 51 7377 987 110 278 152 999 34 464 936 711 299 450 970 743 1947 462 259 818 609 2210 420 72 272 10318 250 3251 189 1903
internal_value=70.8752 68.7965 71.7309 72.0493 69.7537 67.7712 70.8509 68.95 69.9703 71.747 70.2147 70.0346 71.8154 68.4403 71.1936 68.6292 67.4984 70.9372 69.6238 71.3029 69.8167 69.6825 68.9576 70.6878 70.8775 71.8414 68.7006 67.4784 71.357 69.8007
internal_weight=52487 15305 37182 27303 7915 7390 9879 1680 6235 13038 3656 2648 11604 2141 1434 1691 5249 9118 2579 1280 761 2469 948 1008 7838 11305 670 5198 461 1937
internal_count=52487 15305 37182 27303 7915 7390 9879 1680 6235 13038 3656 2648 11604 2141 1434 1691 5249 9118 2579 1280 761 2469 948 1008 7838 11305 670 5198 461 1937
is_linear=0
shrinkage=1


Tree=1
num_leaves=31
num_cat=0
split_feature=7 7 7 7 18 7 18 18 18 35 19 18 7 7 7 18 6 18 10 14 18 14 7 7 13 9 7 18 18 18
split_gain=3.37044e+07 5.42205e+06 3.76295e+06 736836 486670 343801 339934 319346 166648 151759 144993 103458 103334 95297.2 93625.9 84021.5 77226.8 77042.6 76998.7 73796.2 118817 68424.8 67141.8 60453.8 52877.2 51490.5 47131 45963.2 42053.4 38412.8
threshold=20.869500000000006 33.103000000000009 14.598500000000003 10.036500000000002 0.96450000000000002 26.739500000000003 0.72450000000000003 0.83050000000000013 0.99650000000000005 0.85950000000000004 128.20700000000002 0.72450000000000003 51.688000000000009 15.032500000000001 12.459500000000002 0.84450000000000014 1.0000000180025095e-35 0.72450000000000003 31.447500000000002 605.50000000000011 0.88550000000000006 765.50000000000011 16.710500000000003 18.780500000000004 -39.718499999999999 -0.82549999999999979 31.125500000000006 0.99950000000000017 0.81250000000000011 0.87550000000000006
decision_type=2 2 2 2 2 2 2 2 2 2 2 2 2 2 2 2 2 2 2 2 2 2 2 2 2 2 2 2 2 2
left_child=2 5 3 -1 12 9 22 -7 18 27 11 -5 15 -8 -12 -3 -6 -11 -9 20 -19 -15 -4 28 -17 -21 -20 -2 -23 -26
right_child=1 4 6 10 16 7 13 8 -10 17 14 -13 -14 21 -16 24 -18 19 26 25 -22 23 -24 -25 29 -27 -28 -29 -30 -31
leaf_value=1.3777462178739504 -1.1657752173645275 -2.5173657338429449 -0.10436554344032596 -0.041552590229722457 -1.2685457539418441 -2.255064903318647 0.54956931406989773 -1.1872824498089496 -2.6501707144371416 -1.2369194260603331 0.90821142508032837 0.93040106032076642 -2.987313305359633 -0.0056344969493240969 -0.0029606947085505674 -1.2329179019646779 -3.2272017820905043 -0.19679956369591634 -0.096796708289913352 -1.2318618570661688 -0.98555428392709532 0.097286756810936473 -1.2288835637857765 -0.17853123281383543 -1.3586791514397305 -0.036478568841433558 -1.1833793934386205 -2.4123573146922643 0.83070849060842533 -2.2754176780499047
leaf_weight=14265 1428 775 170 281 51 938 1070 1385 167 453 444 10641 450 7680 772 278 5198 744 315 101 1333 283 606 338 150 827 146 78 632 488
leaf_count=14265 1428 775 170 281 51 938 1070 1385 167 453 444 10641 450 7680 772 278 5198 744 315 101 1333 283 606 338 150 827 146 78 632 488
internal_value=-0.000196617 -1.97505 0.812704 1.13409 -2.949 -1.06568 0.0254662 -1.49308 -1.13792 -0.811571 0.847732 0.905394 -2.31342 0.103677 0.32978 -2.13392 -3.2082 -0.629092 -1.00098 -0.537423 -0.703041 0.0502617 -0.982585 0.392843 -1.80925 -0.166704 -0.441113 -1.2305 0.60391 -2.06014
internal_weight=52487 15305 37182 26403 7390 7915 10779 2951 2013 4964 12138 10922 2141 10003 1216 1691 5249 3458 1846 3005 2077 8933 776 1253 916 928 461 1506 915 638
internal_count=52487 15305 37182 26403 7390 7915 10779 2951 2013 4964 12138 10922 2141 10003 1216 1691 5249 3458 1846 3005 2077 8933 776 1253 916 928 461 1506 915 638
is_linear=0
shrinkage=0.05


Tree=2
num_leaves=31
num_cat=0
split_feature=7 7 7 7 38 17 17 7 17 19 35 7 14 17 7 38 5 14 38 7 17 17 4 32 32 17 7 17 20 17
split_gain=3.04185e+07 4.89494e+06 3.40697e+06 599209 490525 406684 284498 277974 198758 175828 154296 151132 99649.9 119697 89168.7 71276.8 66732.9 62882.1 56319.6 53074.6 52425 44457.4 42740.1 41507.3 35610.2 33323.1 32836.6 32513.4 31102.3 28461.4
threshold=20.869500000000006 33.762000000000008 12.5265 15.032500000000001 43.071500000000007 7.5245000000000006 89.90300000000002 9.9725000000000019 1.4305000000000001 119.52550000000001 0.88250000000000017 26.739500000000003 605.50000000000011 26.967000000000002 51.688000000000009 48.463500000000003 1.3905000000000001 765.50000000000011 51.618500000000004 16.710500000000003 99.967000000000013 92.663000000000011 1.0000000180025095e-35 -1.3664999999999998 0.74450000000000005 99.967000000000013 64.866500000000016 7.5245000000000006 24.877500000000001 89.867000000000019
decision_type=2 2 2 2 2 2 2 2 2 2 2 2 2 2 2 2 2 2 2 2 2 2 2 2 2 2 2 2 2 2
left_child=2 4 7 9 11 22 17 -1 -6 20 28 -2 13 -12 15 -7 -17 24 -19 -8 -4 -14 -3 -9 -5 -25 -24 -11 -10 -26
right_child=1 5 3 6 8 14 19 23 10 27 12 -13 21 -15 -16 16 -18 18 -20 -21 -22 -23 26 25 29 -27 -28 -29 -30 -31
leaf_value=1.3121890850386813 -1.1735638724773407 -1.229899056455428 0.76841200686149325 -0.031640959576287687 -2.3928328695683287 -2.3687306520726006 -0.10909257261709321 1.3038075624862648 -0.49586097845311533 0.88649783784901148 -0.95417567711587348 -2.1922456734704352 -0.08259752538662303 -0.21692678519945569 -2.8379808168680345 -1.288790332147232 -2.2411105346319924 -0.066579742804644418 0.63091586455955795 -1.1677318105790009 -0.039033154534022618 -1.3082382987947501 -2.9152636750664427 0.90858613486520545 0.78012545094552721 -0.039412424440211626 -3.1731474183435484 -0.040511857438301678 -1.1459986405669531 -0.04231100098524615
leaf_weight=14075 571 32 4693 7248 200 794 147 686 200 104 1978 1007 970 763 450 438 318 455 795 609 210 80 2106 6599 251 94 3069 1035 2329 181
leaf_count=14075 571 32 4693 7248 200 794 147 686 200 104 1978 1007 970 763 450 438 318 455 795 609 210 80 2106 6599 251 94 3069 1035 2329 181
internal_value=-0.000189384 -1.87631 0.77207 0.213076 -1.03273 -2.82415 -0.030672 1.18187 -0.841262 0.603826 -0.792124 -1.82374 -0.59031 -0.748968 -2.21785 -2.03763 -1.68962 0.0481765 0.377038 -0.961934 0.733827 -0.1761 -3.05699 0.933269 -0.00535278 0.895271 -3.06826 0.0441977 -1.09461 0.435598
internal_weight=52487 15305 37182 15728 8098 7207 9686 21454 6520 6042 6320 1578 3791 2741 2000 1550 756 8930 1250 756 4903 1050 5207 7379 7680 6693 5175 1139 2529 432
internal_count=52487 15305 37182 15728 8098 7207 9686 21454 6520 6042 6320 1578 3791 2741 2000 1550 756 8930 1250 756 4903 1050 5207 7379 7680 6693 5175 1139 2529 432
is_linear=0
shrinkage=0.05


Tree=3
num_leaves=31
num_cat=0
split_feature=7 7 7 7 7 17 7 17 7 17 17 35 17 7 1 10 17 14 17 17 1 14 2 7 7 7 9 17 17 32
split_gain=2.74529e+07 4.42119e+06 3.0752e+06 449581 397806 308853 285725 259768 223700 138833 137115 125868 75011.8 74737.8 70934.6 64944.4 64020.7 60391.3 99129.6 60382.3 56955.6 56751.6 55099.9 51569 47123.8 41407.7 41141.2 37056.3 35308.1 32832.7
threshold=20.869500000000006 33.103000000000009 13.692500000000001 9.9725000000000019 50.812500000000007 89.90300000000002 26.739500000000003 59.508000000000003 15.032500000000001 1.4305000000000001 1.4305000000000001 0.85950000000000004 46.671500000000002 16.710500000000003 75.589500000000001 31.447500000000002 89.90300000000002 605.50000000000011 26.967000000000002 99.967000000000013 98.526500000000013 765.50000000000011 73.972500000000011 18.780500000000004 12.459500000000002 31.125500000000006 -0.82549999999999979 7.5245000000000006 51.469500000000004 -1.0000000180025095e-35
decision_type=2 2 2 2 2 2 2 2 2 2 2 2 2 2 2 2 2 2 2 2 2 2 2 2 2 2 2 2 2 2
left_child=2 6 3 -1 9 8 11 10 14 -3 -8 27 22 -7 -4 -12 17 18 -13 20 29 -10 -11 28 -22 -17 -19 -2 -23 -5
right_child=1 4 5 19 -6 13 7 -9 21 12 15 16 -14 -15 -16 25 -18 26 -20 -21 24 23 -24 -25 -26 -27 -28 -29 -30 -31
leaf_value=1.2465800960685041 -2.1724053933586873 -2.7117277482389981 0.65790417252278199 1.1530119625721944 -2.9239419208070028 -0.076688342070686089 -2.4023728266224613 -2.0382120871515927 -0.0050846774445134392 -1.4088024218405417 -1.0775335377445723 -0.88813394309076088 -2.2951510955570558 -1.1093548792411767 0.025714338554998484 -0.069532042767312244 -1.115481614637887 -1.1116743439685073 -0.16832111868381566 -0.037504504861510829 0.81692485871674814 0.76045266305545978 -2.2471027115973286 -0.17144177409730757 0.026121611408533221 -1.0879981942163766 -0.028694493413555219 -1.0530898012956997 0.087596701527689835 0.83264226475605951
leaf_weight=14075 78 760 2468 884 4895 246 167 938 7680 758 1385 1330 712 609 541 315 456 98 747 205 367 632 265 336 387 146 827 1428 282 8470
leaf_count=14075 78 760 2468 884 4895 246 167 938 7680 758 1385 1330 712 609 541 315 456 98 747 205 367 632 265 336 387 146 827 1428 282 8470
internal_value=-0.000181987 -1.7825 0.733467 1.06281 -2.66198 0.10566 -0.961339 -1.35097 0.171404 -2.14793 -1.03065 -0.729685 -1.90082 -0.812286 0.544247 -0.906434 -0.5635 -0.479619 -0.629274 0.812003 0.829232 0.0457683 -1.62616 0.358189 0.411099 -0.39226 -0.143545 -1.11121 0.552892 0.862931
internal_weight=52487 15305 37182 24388 7390 12794 7915 2951 11939 2495 2013 4964 1735 855 3009 1846 3458 3002 2077 10313 10108 8930 1023 1250 754 461 925 1506 914 9354
internal_count=52487 15305 37182 24388 7390 12794 7915 2951 11939 2495 2013 4964 1735 855 3009 1846 3458 3002 2077 10313 10108 8930 1023 1250 754 461 925 1506 914 9354
is_linear=0
shrinkage=0.05


Tree=4
num_leaves=31
num_cat=0
split_feature=7 7 7 7 18 7 18 18 7 19 18 18 19 18 7 18 10 4 14 14 7 7 13 18 7 32 18 32 18 7
split_gain=2.47764e+07 3.99012e+06 2.78419e+06 484458 361266 257871 234440 230340 224058 146212 123757 96592.2 89033.8 87556.8 73577.2 62706.9 58610.5 57592.8 50296.6 48171.3 47273.7 43123 42544.9 42473.5 37373.2 34318.6 32370.4 32139.4 31349.9 29499
threshold=20.869500000000006 33.103000000000009 12.5265 15.032500000000001 0.96450000000000002 26.739500000000003 0.83050000000000013 0.72450000000000003 9.9725000000000019 119.52550000000001 0.99650000000000005 0.99950000000000017 99.696500000000015 0.72450000000000003 51.688000000000009 0.84450000000000014 31.447500000000002 1.0000000180025095e-35 765.50000000000011 605.50000000000011 18.780500000000004 16.612500000000001 -39.718499999999999 0.72450000000000003 31.125500000000006 -1.3664999999999998 0.81250000000000011 0.74450000000000005 0.87550000000000006 64.866500000000016
decision_type=2 2 2 2 2 2 2 2 2 2 2 2 2 2 2 2 2 2 2 2 2 2 2 2 2 2 2 2 2 2
left_child=2 5 8 9 14 11 -7 21 -1 23 16 12 13 -2 15 -3 -8 -6 27 -15 26 -5 -17 -4 -18 -10 -20 -9 -24 -19
right_child=1 4 3 7 17 6 10 18 25 -11 -12 -13 -14 19 -16 22 24 29 20 -21 -22 -23 28 -25 -26 -27 -28 -29 -30 -31
leaf_value=1.1842515327051468 -1.0670304455667337 -2.161065606722723 -0.034284913051928413 -0.023322946523315468 -1.0772091594927466 -1.9363123595365115 -1.0236607819565384 -0.029804702493157323 1.1809844900091473 0.03248901221720981 -2.2823260455128676 -2.1313237777830323 -1.0482890987433722 -0.56922115556439923 -2.5499487046532252 -1.0324263067564403 -0.066056543239636167 -2.6247896957182459 0.078967894235292269 -0.14863997142421956 -0.16845307932101705 -1.0370538046344426 -1.1407975662556751 0.69249349536130878 -1.0336355141137743 0.80950593710519181 0.72243597725112496 0.41408044662196392 -1.9688184387247674 -2.8683028160443982
leaf_weight=14075 653 775 210 126 51 938 1385 7248 686 1139 167 114 1129 2048 450 278 315 2129 283 1020 338 627 150 4693 146 6693 632 432 488 3069
leaf_count=14075 653 775 210 126 51 938 1385 7248 686 1139 167 114 1129 2048 450 278 315 2129 283 1020 338 627 150 4693 146 6693 632 432 488 3069
internal_value=-0.000174905 -1.69339 0.696794 0.191467 -2.52889 -0.913281 -1.28344 -0.0277023 1.06725 0.542816 -0.979133 -0.693208 -0.659361 -0.541328 -1.98128 -1.82981 -0.861119 -2.75221 0.0430926 -0.429404 0.336808 -0.867458 -1.54933 0.661364 -0.37266 0.844057 0.523454 -0.00483045 -1.77436 -2.76862
internal_weight=52487 15305 37182 15728 7390 7915 2951 9686 21454 6042 2013 4964 4850 3721 2141 1691 1846 5249 8933 3068 1253 753 916 4903 461 7379 915 7680 638 5198
internal_count=52487 15305 37182 15728 7390 7915 2951 9686 21454 6042 2013 4964 4850 3721 2141 1691 1846 5249 8933 3068 1253 753 916 4903 461 7379 915 7680 638 5198
is_linear=0
shrinkage=0.05


Tree=5
num_leaves=31
num_cat=0
split_feature=5 38 35 3 38 18 27 38 35 17 35 17 17 17 36 4 38 18 5 38 17 38 17 38 5 38 36 14 12 18
split_gain=7.60342e+06 7.90491e+06 3.35572e+06 1.52956e+06 1.0668e+06 1.22549e+06 735436 707033 695822 617575 342482 244114 234524 234125 198299 171180 165671 163579 159141 155820 126153 119200 107656 96554.2 89154.6 85028.3 69177 68559.5 55833.8 40991
threshold=7.682500000000001 44.310500000000012 0.89850000000000019 1.4215000000000002 55.600500000000004 0.84450000000000014 103.63500000000002 63.700500000000012 0.97050000000000003 7.5245000000000006 0.92450000000000021 7.5245000000000006 44.938500000000005 26.955000000000002 0.29050000000000004 0.96750000000000014 71.193500000000014 0.72650000000000003 4.291500000000001 48.107500000000009 9.9090000000000025 53.570500000000003 0.058500000000000003 69.185500000000019 3.0515000000000003 37.898000000000003 0.27450000000000008 3269.5000000000005 5.9425000000000008 0.86850000000000016
decision_type=2 2 2 2 2 2 2 2 2 2 2 2 2 2 2 2 2 2 2 2 2 2 2 2 2 2 2 2 2 2
left_child=1 8 3 6 5 15 7 20 17 -5 24 28 -13 -2 19 26 -9 -1 22 -7 -3 -16 -12 -11 27 -10 -4 -6 -8 -27
right_child=13 2 4 9 10 14 11 16 25 23 18 12 -14 -15 21 -17 -18 -19 -20 -21 -22 -23 -24 -25 -26 29 -28 -29 -30 -31
leaf_value=-1.6114605911276596 -2.6537756871654561 -2.2838590758622122 0.87818968787890539 -2.5566048966038455 0.58571894612093256 -1.0745892399229038 0.85600448974879417 -0.54441925858244344 -1.3937386611647398 -1.1949494620811887 1.1260769810208833 -0.22523785938961216 0.51873918298699739 -0.44714350598752745 -1.1310465218512586 -0.8594314474900655 0.12064662038890715 -2.4788984888462209 -1.3676261758216781 0.024760168259934118 -1.2158621271290033 -0.293543814467499 0.84142509413744571 -0.14094613947966814 -0.0669932965198346 -0.56754862313721466 0.51891368975941743 -0.23934250439667434 -1.7977167260290969 -1.5456025770483321
leaf_weight=717 2637 376 3048 953 2760 384 1473 1756 799 480 4356 2582 1796 126 1220 177 2006 2257 77 2004 1047 652 14007 397 857 829 2392 277 20 123
leaf_count=717 2637 376 3048 953 2760 384 1473 1756 799 480 4356 2582 1796 126 1220 177 2006 2257 77 2004 1047 652 14007 397 857 829 2392 277 20 123
internal_value=-0.000141428 0.141448 0.34531 -0.336606 0.618111 0.185414 -0.114973 -0.548903 -1.80425 -1.67552 0.809465 0.268257 0.0799698 -2.55317 -0.454107 0.670435 -0.189793 -2.26983 0.899441 -0.152055 -1.4982 -0.839386 0.908955 -0.7179 0.383373 -1.0134 0.720227 0.510459 0.820334 -0.694069
internal_weight=52585 49822 45097 12886 32211 9877 11056 5185 4725 1830 22334 5871 4378 2763 4260 5617 3762 2974 18440 2388 1423 1872 18363 877 3894 1751 5440 3037 1493 952
internal_count=52585 49822 45097 12886 32211 9877 11056 5185 4725 1830 22334 5871 4378 2763 4260 5617 3762 2974 18440 2388 1423 1872 18363 877 3894 1751 5440 3037 1493 952
is_linear=0
shrinkage=0.05


Tree=6
num_leaves=31
num_cat=0
split_feature=7 7 7 7 38 18 7 18 7 35 19 18 18 18 0 14 0 13 32 18 7 18 7 18 32 7 7 38 31 18
split_gain=2.05325e+07 3.20031e+06 2.31895e+06 413628 368655 209054 190593 176452 139687 128576 122969 76466.6 67391.2 105620 53584.9 61104.2 51635.1 46708.7 42036.1 39109.5 37594 33167.1 32705.2 31792.5 30803.6 28787.2 27638.2 42429 27266.5 26321.9
threshold=20.869500000000006 35.635500000000008 12.5265 15.032500000000001 44.683500000000002 0.96450000000000002 9.9725000000000019 0.72450000000000003 26.739500000000003 0.88250000000000017 119.52550000000001 0.94300000000000006 0.88950000000000007 0.88550000000000006 -13.097999999999997 3225.5000000000005 -11.061499999999997 -59.472999999999992 0.17150000000000001 0.99450000000000005 16.710500000000003 0.72450000000000003 18.671000000000003 0.74550000000000016 -1.3664999999999998 62.494000000000007 24.814500000000006 55.233000000000011 -1.0000000180025095e-35 0.96450000000000002
decision_type=2 2 2 2 2 2 2 2 2 2 2 2 2 2 2 2 2 2 2 2 2 2 2 2 2 2 2 2 2 2
left_child=2 4 6 10 8 14 -1 20 -2 16 21 12 13 -11 -3 -16 -6 22 28 -18 -5 -4 -9 -20 -8 -7 27 -13 -19 -12
right_child=1 5 3 7 9 25 24 17 -10 11 29 26 -14 -15 15 -17 19 18 23 -21 -22 -23 -24 -25 -26 -27 -28 -29 -30 -31
leaf_value=1.0802500528174244 -0.91097908669147643 -2.3034954041584728 -0.027390832481845314 -0.066023939663749906 -0.32987757149778257 -2.3461760915279952 1.0842227946416529 0.75516394875929416 -1.8003774884982993 -0.20509231075097351 -0.04974947705318248 -1.0602204722245261 -0.045904522122260566 -0.97038597610019739 -1.8487190736458281 -0.93169659100063995 -0.99420313182191777 0.43853885147454746 -0.082352164464615796 -1.8762811000144723 -0.94486085679867227 0.62974048899256652 -0.012913902088246677 0.70831505918932502 0.73344293357583767 -2.5902123833128687 -1.0964576647434103 0.088578484965355531 -0.044322427888102527 0.76350151849377723
leaf_weight=14018 677 479 200 153 284 1945 691 366 1271 964 1033 173 966 847 969 224 2299 304 198 133 595 4798 223 355 6690 3268 627 150 7575 110
leaf_count=14018 677 479 200 153 284 1945 691 366 1271 964 1033 173 966 847 969 224 2299 304 198 133 595 4798 223 355 6690 3268 627 150 7575 110
internal_value=-0.000136323 -1.54418 0.632069 0.174904 -0.888615 -2.34312 0.971965 -0.0272281 -1.49134 -0.706362 0.496448 -0.515662 -0.38317 -0.563055 -1.85635 -1.67663 -0.968018 0.0339649 0.00389186 -1.04252 -0.765138 0.603444 0.464402 0.425246 0.766297 -2.49921 -0.90287 -0.526845 -0.0256859 0.0285717
internal_weight=52585 15276 37309 15910 8391 6885 21399 9769 1948 6443 6141 3727 2777 1811 1672 1193 2716 9021 8432 2432 748 4998 589 553 7381 5213 950 323 7879 1143
internal_count=52585 15276 37309 15910 8391 6885 21399 9769 1948 6443 6141 3727 2777 1811 1672 1193 2716 9021 8432 2432 748 4998 589 553 7381 5213 950 323 7879 1143
is_linear=0
shrinkage=0.05


Tree=7
num_leaves=31
num_cat=0
split_feature=7 7 7 7 7 38 17 17 19 35 17 7 17 7 10 17 38 2 10 32 0 7 7 17 17 17 31 7 2 7
split_gain=1.85307e+07 2.89604e+06 2.09387e+06 460490 271058 265975 162273 123632 98411.7 96426.3 94765.3 82233.4 60109.6 59195.7 56986 91735.9 50233 64037.2 43009.4 40912.6 40657.4 35076.6 34300.9 29224.6 28994.4 66400.6 25970.2 20735.5 20314.6 18686.8
threshold=20.869500000000006 33.103000000000009 14.957500000000001 10.036500000000002 50.812500000000007 43.071500000000007 89.90300000000002 1.4305000000000001 127.27200000000002 0.88250000000000017 1.4305000000000001 26.739500000000003 99.967000000000013 12.459500000000002 40.606000000000002 26.967000000000002 48.463500000000003 85.283000000000015 58.525000000000006 0.17150000000000001 -10.182499999999997 16.710500000000003 18.780500000000004 89.867000000000019 36.448 26.955000000000002 -1.0000000180025095e-35 67.870500000000007 -1.7704999999999997 18.671000000000003
decision_type=2 2 2 2 2 2 2 2 2 2 2 2 2 2 2 2 2 2 2 2 2 2 2 2 2 2 2 2 2 2
left_child=2 5 3 -1 10 11 18 -7 12 20 -3 -2 24 -10 15 -11 -12 -18 19 26 -9 -8 -20 29 25 -5 -4 -6 -28 -21
right_child=1 4 6 8 27 7 21 9 13 14 16 -13 -14 -15 -16 -17 17 -19 22 23 -22 -23 -24 -25 -26 -27 28 -29 -30 -31
leaf_value=1.0240072472716251 -0.92913330678207784 -2.2084287236245834 0.42411995243775702 0.62936691874454076 -2.2669569739627105 -1.8443283390403076 -0.060966780837354295 -0.28617085993225649 0.68651708679345591 -0.76796749392222352 -1.8304456044589206 -1.6985096229121277 -0.050624749371901138 0.0035148517602579341 -0.083169074319675518 -0.17585905067749155 -0.97529417005797259 -1.8453318581571094 0.70675377083706226 0.77006659626245699 -0.92778532730969043 -0.89852646967939287 -0.046460781101057946 -0.067823225750402158 0.74158340295346026 -0.1603439393021775 -1.2069233902059797 -2.4776445070891553 -0.03407016235941461 -0.64284936061418385
leaf_weight=14198 564 792 314 4021 1992 212 158 278 469 1847 829 906 289 980 810 1013 581 333 411 350 2217 599 239 204 7104 285 37 2902 7626 25
leaf_count=14198 564 792 314 4021 1992 212 158 278 469 1847 829 906 289 980 810 1013 581 333 411 350 2217 599 239 204 7104 285 37 2902 7626 25
internal_value=-0.000130927 -1.46698 0.600466 0.826558 -2.17452 -0.797108 -0.0201026 -0.657326 0.613334 -0.616478 -1.75471 -1.40341 0.661476 0.224619 -0.45341 -0.55826 -1.54842 -1.29245 0.0377643 0.00797371 -0.856311 -0.72375 0.42983 0.413766 0.679513 0.577095 -0.0214844 -2.39194 -0.0397495 0.675713
internal_weight=52585 15276 37309 27346 7429 7847 9963 6377 13148 6165 2535 1470 11699 1449 3670 2860 1743 914 9206 8556 2495 757 650 579 11410 4306 7977 4894 7663 375
internal_count=52585 15276 37309 27346 7429 7847 9963 6377 13148 6165 2535 1470 11699 1449 3670 2860 1743 914 9206 8556 2495 757 650 579 11410 4306 7977 4894 7663 375
is_linear=0
shrinkage=0.05


Tree=8
num_leaves=31
num_cat=0
split_feature=7 7 7 7 7 38 7 17 17 19 35 18 7 13 17 38 2 13 0 32 7 27 32 7 17 17 31 17 17 17
split_gain=1.67241e+07 2.61369e+06 1.89579e+06 334616 244622 240194 153795 145177 132594 100414 87024.2 85994.1 78759.4 52920.1 71239.6 45771.7 57031.8 38018.4 37096.6 34168.5 30722.4 28295.3 27361.9 26718.7 25943.3 23016.8 22138.1 21978.1 21803.7 28869.8
threshold=20.869500000000006 33.103000000000009 12.5265 15.032500000000001 50.812500000000007 40.927500000000002 9.9725000000000019 89.90300000000002 1.4305000000000001 119.52550000000001 0.88250000000000017 0.99250000000000005 26.739500000000003 -40.532499999999992 26.967000000000002 48.463500000000003 85.283000000000015 -59.472999999999992 -10.182499999999997 0.17150000000000001 16.710500000000003 110.65600000000002 -1.0000000180025095e-35 18.671000000000003 89.867000000000019 7.5245000000000006 -1.0000000180025095e-35 99.967000000000013 7.5245000000000006 44.938500000000005
decision_type=2 2 2 2 2 2 2 2 2 2 2 2 2 2 2 2 2 2 2 2 2 2 2 2 2 2 2 2 2 2
left_child=2 5 6 9 11 12 -1 17 -7 21 18 15 -2 -12 -15 -3 -17 23 -10 26 -9 -4 -8 -5 -21 -11 -19 -24 -23 -30
right_child=1 4 3 7 -6 8 22 20 10 25 13 -13 -14 14 -16 16 -18 19 -20 24 -22 28 27 -25 -26 -27 -28 -29 29 -31
leaf_value=0.97503792762232511 -0.89551239079429179 -1.7389343269655493 0.62669787075584393 0.6820880209999115 -2.2723456579191885 -1.7630588212463305 0.98258334424378602 -0.059678549588622037 -0.27824072518496273 0.71074152508180444 -0.084784793400503239 -2.0980113444366091 -1.7054553092308773 -0.7309168866135165 -0.2300777144425864 -0.92653785791562848 -1.7499820956242009 0.39542009318513882 -0.88794302245421353 0.63939045925134996 -0.85360763812777474 0.64731694892140101 0.6718678710996332 -0.012140983287687528 -0.074847185410134173 -0.049738524396806552 -0.039673796151440004 -0.097995194802248775 -0.058409773455150263 0.45481345508484544
leaf_weight=14018 493 829 3343 366 4894 251 735 153 281 110 819 795 769 1846 1154 581 330 304 2234 355 599 506 6552 223 198 1033 7571 94 451 698
leaf_count=14018 493 829 3343 366 4894 251 735 153 281 110 819 795 769 1846 1154 581 330 304 2234 355 599 506 6552 223 198 1033 7571 94 451 698
internal_value=-0.000126014 -1.39364 0.570443 0.157089 -2.0658 -0.757257 0.877766 -0.0247148 -0.636136 0.446296 -0.591451 -1.66699 -1.38915 -0.441029 -0.538277 -1.46994 -1.22499 0.0309514 -0.819837 0.0038073 -0.692113 0.542983 0.693016 0.419282 0.383683 0.0234999 -0.0228723 0.660977 0.373853 0.253374
internal_weight=52585 15276 37309 15910 7429 7847 21399 9769 6585 6141 6334 2535 1262 3819 3000 1740 911 9017 2515 8428 752 4998 7381 589 553 1143 7875 6646 1655 1149
internal_count=52585 15276 37309 15910 7429 7847 21399 9769 6585 6141 6334 2535 1262 3819 3000 1740 911 9017 2515 8428 752 4998 7381 589 553 1143 7875 6646 1655 1149
is_linear=0
shrinkage=0.05


Tree=9
num_leaves=31
num_cat=0
split_feature=7 7 7 38 7 7 17 17 17 6 19 7 7 7 0 13 14 14 13 32 7 27 7 32 17 17 17 1 17 17
split_gain=1.50936e+07 2.36258e+06 1.71122e+06 298716 284996 152147 149694 131025 92767.1 87808.8 85168.5 84203.5 42863.5 39681.3 38084.2 37883.6 35427.1 34712.4 34312.4 30837.7 27845.9 25509.5 24114.6 24066.1 23414.7 20652.8 20537.1 20480.8 19123.1 23657.6
threshold=20.869500000000006 38.895000000000003 12.668500000000002 43.071500000000007 15.032500000000001 9.9725000000000019 1.4305000000000001 89.90300000000002 7.5245000000000006 1.1595000000000002 119.52550000000001 26.739500000000003 30.372000000000003 31.603500000000004 -17.918499999999998 -40.532499999999992 3225.5000000000005 3025.5000000000005 -59.472999999999992 0.17150000000000001 16.612500000000001 110.65600000000002 18.780500000000004 -1.0000000180025095e-35 89.867000000000019 7.5245000000000006 99.967000000000013 -39.312499999999993 7.5245000000000006 44.938500000000005
decision_type=2 2 2 2 2 2 2 2 2 2 2 2 2 2 2 2 2 2 2 2 2 2 2 2 2 2 2 2 2 2
left_child=2 3 5 11 10 -1 -5 18 -3 12 21 -2 15 17 -10 -8 -16 -11 22 27 -9 -4 -6 -7 -21 -12 -25 -20 -23 -30
right_child=1 8 4 6 7 23 9 20 14 13 25 -13 -14 -15 16 -17 -18 -19 19 24 -22 28 -24 26 -26 -27 -28 -29 29 -31
leaf_value=0.9262863989172484 -0.8403900768460586 -2.1581619626027546 0.59440635331792702 -1.7462026128989665 0.63641735223816931 0.91408563652376851 -0.016832412714066682 -0.0010774928765759084 -2.1037057338972613 -0.77932382295752245 0.67611661292578107 -1.567883119251166 -0.81092482602724947 -1.1847847354662875 -1.6375905021354247 -0.44468634450901701 -0.77485393870472496 -0.27505835824862057 -1.1488315415798576 0.60742993625040897 -0.79852627807654386 0.61534881123282015 -0.031455895782708555 0.63119656668104884 -0.071106715898270681 -0.052256527364798994 -0.086880305692420889 -0.015959050015020723 -0.049980087847602876 0.42441341911563718
leaf_weight=14018 564 5076 3130 298 379 778 686 133 371 2439 108 1353 583 518 744 2105 142 397 40 355 619 464 210 6875 198 976 101 7835 442 648
leaf_count=14018 564 5076 3130 298 379 778 686 133 371 2439 108 1353 583 518 744 2105 142 397 40 355 619 464 210 6875 198 976 101 7835 442 648
internal_value=-0.000120687 -1.32396 0.541922 -0.800681 0.14107 0.827976 -0.649719 -0.0234787 -2.06287 -0.601127 0.419755 -1.35391 -0.421007 -0.782303 -1.67794 -0.33953 -1.49943 -0.708748 0.0294047 0.00361745 -0.657514 0.512181 0.398323 0.650237 0.364504 0.0203631 0.620798 -0.0217285 0.346535 0.232053
internal_weight=52585 15276 37309 8943 15537 21772 7026 9769 6333 6728 5768 1917 3374 3354 1257 2791 886 2836 9017 8428 752 4684 589 7754 553 1084 6976 7875 1554 1090
internal_count=52585 15276 37309 8943 15537 21772 7026 9769 6333 6728 5768 1917 3374 3354 1257 2791 886 2836 9017 8428 752 4684 589 7754 553 1084 6976 7875 1554 1090
is_linear=0
shrinkage=0.05


Tree=10
num_leaves=31
num_cat=0
split_feature=7 7 7 38 7 7 17 7 7 19 17 19 7 13 17 14 36 7 13 38 17 19 7 38 17 17 17 32 7 32
split_gain=1.37789e+07 2.13678e+06 1.56481e+06 236241 215130 164808 150282 115868 90054.3 71887.9 67877.9 50274.9 45605.9 41111.9 42703.4 37150.6 36032 35801 33247.1 36991.8 32161.6 31776 29319.6 23421.7 23180.7 22107.1 19881.2 23408.3 18066 17435.9
threshold=20.869500000000006 34.525000000000013 13.627500000000003 44.683500000000002 10.036500000000002 51.688000000000009 89.90300000000002 15.032500000000001 26.739500000000003 79.153500000000022 1.6985000000000003 105.05650000000001 31.125500000000006 -55.282999999999994 26.967000000000002 3663.5000000000005 0.41350000000000003 16.710500000000003 -31.389999999999997 51.76550000000001 99.967000000000013 131.02450000000002 12.459500000000002 48.623000000000012 7.5245000000000006 3.8330000000000006 1.4305000000000001 0.74450000000000005 18.780500000000004 -1.0000000180025095e-35
decision_type=2 2 2 2 2 2 2 2 2 2 2 2 2 2 2 2 2 2 2 2 2 2 2 2 2 2 2 2 2 2
left_child=2 3 4 8 -1 10 7 11 -2 12 -3 -4 13 -5 -15 25 -12 -8 19 -9 21 29 -23 -18 -13 -11 -20 -28 -21 -6
right_child=1 5 6 9 20 -7 17 18 -10 15 16 24 -14 14 -16 -17 23 -19 26 28 -22 22 -24 -25 -26 -27 27 -29 -30 -31
leaf_value=0.87804644186801184 -0.74554675935624948 -1.8952621868952169 0.49992458191569339 -0.0031472326676664853 0.82715710550392874 -2.0640507292183918 -0.058821898923131749 -0.058624147024774712 -1.4677397627251398 -1.5466611591012978 -1.5464121405065727 0.60694751235125211 -0.92301495776456943 -0.60844288009797753 -0.21763105695312018 0.016437449412999305 -1.4497492588643139 -0.7701419663027409 -1.5430513363878873 0.60475508593480221 -0.073748743535282768 0.59270293759049075 -0.020009177393141012 -0.79554889847417731 -0.070255815428455506 -0.79975801468506491 -0.028286372780739644 0.33539676515793149 -0.075515165306390311 0.59184706896615324
leaf_weight=14281 677 896 2322 607 872 4793 249 509 1193 104 868 154 430 1783 1150 136 218 611 21 614 187 385 396 369 702 2112 7275 471 116 8174
leaf_count=14281 677 896 2322 607 872 4793 249 509 1193 104 868 154 430 1783 1150 136 218 611 21 614 187 385 396 369 702 2112 7275 471 116 8174
internal_value=-0.00198382 -1.26381 0.516279 -0.712644 0.753452 -1.89581 0.0745318 0.119623 -1.20634 -0.566595 -1.55273 0.379182 -0.436797 -0.37771 -0.455224 -0.785655 -1.34168 -0.564227 0.0280269 0.268548 0.575759 0.58812 0.282063 -1.03872 0.0516283 -0.834882 -0.0103435 -0.00616772 0.496655 0.61454
internal_weight=52675 15336 37339 8192 24295 7144 13044 12184 1870 6322 2351 3178 3970 3540 2933 2352 1455 860 9006 1239 10014 9827 781 587 856 2216 7767 7746 730 9046
internal_count=52675 15336 37339 8192 24295 7144 13044 12184 1870 6322 2351 3178 3970 3540 2933 2352 1455 860 9006 1239 10014 9827 781 587 856 2216 7767 7746 730 9046
is_linear=0
shrinkage=0.05


Tree=11
num_leaves=31
num_cat=0
split_feature=7 7 7 38 7 7 17 7 7 35 17 17 17 17 19 19 17 36 7 10 38 0 7 7 17 38 7 38 38 17
split_gain=1.24355e+07 1.92845e+06 1.41247e+06 213209 211251 148733 131815 86526.4 81273.9 80396.8 61258.9 47535.5 49158.5 83358 37281.7 33439.8 34991.4 32517.2 30464.3 30106.4 33551.6 29360.4 29015.8 22020.7 21207.3 21152.6 20940.3 35418.7 20178.9 17951.1
threshold=20.869500000000006 34.525000000000013 13.847500000000002 44.683500000000002 10.036500000000002 51.688000000000009 89.90300000000002 15.032500000000001 26.739500000000003 0.87550000000000006 1.6985000000000003 9.9090000000000025 26.436500000000002 26.967000000000002 108.38850000000001 131.02450000000002 99.967000000000013 0.41350000000000003 16.612500000000001 31.447500000000002 51.76550000000001 -9.2484999999999982 12.459500000000002 31.603500000000004 3.9400000000000004 48.772500000000008 24.814500000000006 55.233000000000011 49.686000000000007 1.4305000000000001
decision_type=2 2 2 2 2 2 2 2 2 2 2 2 2 2 2 2 2 2 2 2 2 2 2 2 2 2 2 2 2 2
left_child=2 3 4 8 -1 10 7 14 -2 21 -3 26 23 -14 -4 16 -6 -12 -8 29 -21 -5 -17 -13 -23 -19 27 -11 -26 -9
right_child=1 5 6 9 15 -7 18 19 -10 11 17 12 13 -15 -16 22 -18 25 -20 20 -22 24 -24 -25 28 -27 -28 -29 -30 -31
leaf_value=0.83414443943656136 -0.70827491690112154 -1.8005096553146487 0.46394883721210861 -0.26052506209217191 0.57979001903702343 -1.9608503683024587 -0.021232154596667455 -1.4662644002109906 -1.3943589506779963 -0.8713226382280097 -1.469100443447066 0.0625863615289005 -0.80603778972564499 -0.12731759990017111 0.043017002675512103 0.56307548554152265 -0.071176629700031344 -1.3490871801579762 -0.72168486854648273 -0.055693514610854193 0.47343372023788355 -1.4516883227226698 -0.020656939408303911 -0.86941090722441161 -1.5316372239351557 -0.73766309293786936 -0.85926865438976086 0.17618185534529163 -0.74556652539435297 -0.0058869281896183267
leaf_weight=14281 677 896 1953 269 9471 4793 206 21 1193 167 868 914 841 979 720 385 211 239 630 509 728 123 476 68 85 348 642 156 2078 7748
leaf_count=14281 677 896 1953 269 9471 4793 206 21 1193 167 868 914 841 979 720 385 211 239 630 509 728 123 476 68 85 348 642 156 2078 7748
internal_value=-0.00188581 -1.20062 0.490465 -0.677016 0.708816 -1.80102 0.0573542 0.100771 -1.14603 -0.538269 -1.47511 -0.391403 -0.287148 -0.440976 0.350574 0.539047 0.565602 -1.27461 -0.549114 0.026625 0.255718 -0.754776 0.240391 -0.00202799 -0.81292 -0.986803 -0.694055 -0.365494 -0.776529 -0.00985387
internal_weight=52675 15336 37339 8192 24824 7144 12515 11679 1870 6322 2351 3767 2802 1820 2673 10543 9682 1455 836 9006 1237 2555 861 982 2286 587 965 323 2163 7769
internal_count=52675 15336 37339 8192 24824 7144 12515 11679 1870 6322 2351 3767 2802 1820 2673 10543 9682 1455 836 9006 1237 2555 861 982 2286 587 965 323 2163 7769
is_linear=0
shrinkage=0.05


Tree=12
num_leaves=31
num_cat=0
split_feature=7 7 7 7 38 17 7 17 7 19 17 1 38 14 13 17 17 10 38 36 7 38 17 32 33 7 38 32 17 4
split_gain=1.1224e+07 1.77907e+06 1.24411e+06 208014 195977 134529 100403 95696.8 74577.5 64638.3 58448.1 53847.1 35362.4 35194.8 33997.5 56464.5 30376.5 28083.7 29080.4 25919.2 21392.6 21301.7 21135.8 20849.9 20464.1 20249.9 18648.2 17594 18658.6 16337.6
threshold=20.729500000000005 34.525000000000013 12.5265 15.032500000000001 44.683500000000002 7.5245000000000006 9.9725000000000019 89.90300000000002 26.739500000000003 107.49450000000002 1.4305000000000001 15.699500000000002 36.106000000000002 3225.5000000000005 -39.718499999999999 26.967000000000002 7.5245000000000006 31.447500000000002 51.76550000000001 0.60550000000000004 62.494000000000007 49.686000000000007 99.967000000000013 -1.3664999999999998 1.2900000000000003 16.612500000000001 48.463500000000003 0.74450000000000005 89.867000000000019 1.0000000180025095e-35
decision_type=2 2 2 2 2 2 2 2 2 2 2 2 2 2 2 2 2 2 2 2 2 2 2 2 2 2 2 2 2 2
left_child=2 4 6 9 8 20 -1 17 -2 22 -6 14 -7 24 26 -16 -11 27 -19 21 29 -13 -4 -8 -14 -9 -12 -5 -29 -3
right_child=1 5 3 7 10 12 23 25 -10 16 11 19 13 -15 15 -17 -18 18 -20 -21 -22 -23 -24 -25 -26 -27 -28 28 -30 -31
leaf_value=0.79441669998227438 -0.67436282167671713 -0.60277826677996593 0.47306227296727832 -0.024444238855909042 -1.4434461530088862 -1.716980830788793 0.8281669107370645 0.0068653392568405113 -1.3246468231110691 0.56378814914723285 -0.89267610012997212 -1.3369898985855526 -0.74083132384600492 -0.71129790600912723 -0.59207536584012088 -0.06062185379637948 -0.045032868815990917 -0.043631026932122299 0.4567347371599767 -0.25084567353937887 -1.9159757480038331 -0.65301324093437108 -0.061438396581169369 0.54089916474703192 -1.4201847233135725 -0.68541098565696945 0.016409524240551424 0.5501396378941571 -0.08631942212153923 -1.7270822650578783
leaf_weight=14088 700 33 4415 7173 162 462 697 128 1193 249 61 119 126 281 1650 717 1154 487 719 398 3314 2634 193 6779 946 604 735 281 195 1982
leaf_count=14088 700 33 4415 7173 162 462 697 128 1193 249 61 119 126 281 1650 717 1154 487 719 398 3314 2634 193 6779 946 604 735 281 195 1982
internal_value=-0.00179311 -1.13144 0.46977 0.129611 -0.636712 -1.71098 0.715817 -0.0149711 -1.08423 0.360203 -0.505882 -0.481803 -1.33901 -1.20982 -0.336044 -0.431102 0.0630477 0.03045 0.254689 -0.628101 -1.83764 -0.682628 0.450673 0.567693 -1.34042 -0.564366 -0.0533537 -0.00490746 0.289431 -1.7087
internal_weight=52675 15513 37162 15598 8369 7144 21564 9587 1893 6011 6476 6314 1815 1353 3163 2367 1403 8855 1206 3151 5329 2753 4608 7476 1072 732 796 7649 476 2015
internal_count=52675 15513 37162 15598 8369 7144 21564 9587 1893 6011 6476 6314 1815 1353 3163 2367 1403 8855 1206 3151 5329 2753 4608 7476 1072 732 796 7649 476 2015
is_linear=0
shrinkage=0.05


Tree=13
num_leaves=31
num_cat=0
split_feature=7 7 7 7 7 38 17 7 35 17 7 37 19 38 17 17 13 7 10 7 17 17 19 7 4 38 17 17 17 31
split_gain=1.01308e+07 1.57465e+06 1.15232e+06 217448 157844 120096 110324 84448.7 55129 52490.5 51191.1 39941.2 35761.1 34793.5 28886.7 61647.2 26927 26578.3 25349.4 28701.8 25736.2 25229.6 23812.8 21702.7 21271.3 31789.1 19632 19145.9 16442.6 18970.2
threshold=20.869500000000006 40.281000000000006 13.627500000000003 26.739500000000003 9.9725000000000019 47.155000000000008 89.90300000000002 14.957500000000001 0.85950000000000004 1.4305000000000001 56.016500000000008 0.16550000000000004 105.05650000000001 43.50950000000001 26.967000000000002 26.955000000000002 -52.67949999999999 16.710500000000003 31.447500000000002 18.780500000000004 51.822500000000005 99.967000000000013 131.02450000000002 12.459500000000002 0.42050000000000004 37.898000000000003 7.5245000000000006 92.663000000000011 1.4305000000000001 5.799500000000001
decision_type=2 2 2 2 2 2 2 2 2 2 2 2 2 2 2 2 2 2 2 2 2 2 2 2 2 2 2 2 2 2
left_child=2 3 4 8 -1 24 7 12 -2 -7 11 -3 -4 -10 15 -15 -11 -8 28 20 -20 22 -6 -24 25 -5 -14 -16 -9 -30
right_child=1 10 6 5 21 9 17 18 13 16 -12 -13 26 14 27 -17 -18 -19 19 -21 -22 -23 23 -25 -26 -27 -28 -29 29 -31
leaf_value=0.75469615640133303 -0.68937831149579332 -0.71815630670238362 0.43902711453320908 -1.3655742440184808 0.52973361118361395 -1.5402739447605194 -0.048213410811795622 -1.3996122739891304 -0.67706442524151877 -0.14852296362729353 -1.7946503722027067 -1.5522409358241969 0.57210455952170436 -0.15437125320522971 0.032603967024313785 -0.75670034941390252 -0.69959553141336472 -0.6611035289867403 0.54034826855524976 -0.11799131455539585 -0.12501187388926568 -0.078888875698020666 0.50701130970617059 -0.017745414330927117 -1.3821063908241371 -0.66848324543530091 -0.06646917116658202 -0.82016659346310916 -0.018161285351365016 0.36790970270621492
leaf_weight=14088 1519 156 2174 331 9232 174 249 21 587 249 4237 1836 147 1192 886 660 2026 611 677 393 185 187 392 396 1088 324 662 71 7593 332
leaf_count=14088 1519 156 2174 331 9232 174 249 21 587 249 4237 1836 147 1192 886 660 2026 611 677 393 185 187 392 396 1088 324 662 71 7593 332
internal_value=-0.00170473 -1.08367 0.442686 -0.664647 0.646213 -0.9292 0.0636076 0.102242 -0.438994 -0.703368 -1.69628 -1.48696 0.333424 -0.326981 -0.253801 -0.369056 -0.639292 -0.483683 0.0272884 0.236107 0.397547 0.496474 0.507213 0.243326 -1.24644 -1.02092 0.0496136 -0.0307371 -0.00569455 -0.00198264
internal_weight=52675 15336 37339 9107 24295 4192 13044 12184 4915 2449 6229 1992 2983 3396 2809 1852 2275 860 9201 1255 862 10207 10020 788 1743 655 809 957 7946 7925
internal_count=52675 15336 37339 9107 24295 4192 13044 12184 4915 2449 6229 1992 2983 3396 2809 1852 2275 860 9201 1255 862 10207 10020 788 1743 655 809 957 7946 7925
is_linear=0
shrinkage=0.05


Tree=14
num_leaves=31
num_cat=0
split_feature=13 3 17 38 38 17 13 18 17 4 38 38 9 17 15 18 17 38 13 38 11 10 38 14 17 38 12 33 36 38
split_gain=3.33206e+06 1.7197e+06 1.589e+06 751837 701574 527984 470570 397835 581758 230484 212219 144532 138204 104406 71334.8 64602.6 54428.9 59770.7 54135.5 48555.7 45621.8 43799.8 42489.7 25535.8 24295.2 22780.9 22580.7 21293.6 21164 20171.8
threshold=-39.034999999999989 1.4055000000000002 9.9090000000000025 48.107500000000009 43.50950000000001 7.5245000000000006 -2.8934999999999995 0.84450000000000014 4.1415000000000015 1.6885000000000001 55.600500000000004 70.729500000000016 0.23650000000000002 79.517500000000027 3.7895000000000008 0.87550000000000006 44.938500000000005 69.798500000000018 -8.8104999999999993 37.898000000000003 -9.3099999999999969 7.838000000000001 33.911500000000004 2785.5000000000005 44.938500000000005 68.575500000000019 1.0000000180025095e-35 48.472000000000008 0.18650000000000003 52.098500000000008
decision_type=2 2 2 2 2 2 2 2 2 2 2 2 2 2 2 2 2 2 2 2 2 2 2 2 2 2 2 2 2 2
left_child=2 4 -1 22 15 -3 7 13 10 14 -9 -10 29 20 26 19 17 -11 -15 -2 -6 27 -4 -24 -16 -14 -8 -7 -21 -5
right_child=1 5 3 12 6 21 9 8 11 16 -12 -13 25 18 24 -17 -18 -19 -20 28 -22 -23 23 -25 -26 -27 -28 -29 -30 -31
leaf_value=-1.670055559466185 -0.92900407775310256 -1.6488633901407301 -1.4134511656240996 0.15913002725053682 -0.21540717673402768 -0.10750792881477622 0.70078136227272636 -0.82831087671253067 -0.49253150161738679 -0.72335629974778692 0.46439870271771411 -0.012879565232124336 -0.59494198792062158 -0.14966591536432336 0.13723771208197028 -1.4711705021800718 0.44061484088155611 0.069165526665769375 0.29246173407515125 -0.042816356406907348 0.50948416370811855 -0.79783099451388673 -0.64063020903224155 -1.1753176712051885 0.51015144180412042 0.013973451164810203 0.56469083708022261 -0.69318447196830579 -0.57218865269003405 0.44749826691353062
leaf_weight=3755 645 1466 824 1072 224 1051 5939 341 4715 273 4587 2355 587 1068 1044 257 850 1846 1968 336 6939 397 435 460 751 208 6272 182 431 1397
leaf_count=3755 645 1466 824 1072 224 1051 5939 341 4715 273 4587 2355 587 1068 1044 257 850 1846 1968 336 6939 397 435 460 751 208 6272 182 431 1397
internal_value=-0.00162067 0.175723 -0.893345 -0.308022 0.26185 -0.96039 0.304626 0.153076 -0.0420872 0.502795 0.374932 -0.332764 0.137687 0.382663 0.587622 -0.742085 0.102625 -0.0329655 0.136929 -0.609285 0.486812 -0.34112 -1.15429 -0.915548 0.293282 -0.43564 0.630886 -0.194011 -0.340329 0.322307
internal_weight=52675 43937 8738 4983 40841 3096 39172 22197 11998 16975 4928 7070 3264 10199 14006 1669 2969 2119 3036 1412 7163 1630 1719 895 1795 795 12211 1233 767 2469
internal_count=52675 43937 8738 4983 40841 3096 39172 22197 11998 16975 4928 7070 3264 10199 14006 1669 2969 2119 3036 1412 7163 1630 1719 895 1795 795 12211 1233 767 2469
is_linear=0
shrinkage=0.05


Tree=15
num_leaves=31
num_cat=0
split_feature=7 7 7 7 38 7 7 17 17 35 18 7 1 7 17 36 13 13 10 30 38 31 17 1 7 7 38 17 17 14
split_gain=8.26319e+06 1.2984e+06 970141 162180 123687 121190 76504.5 69119 69006 52683.3 39993.3 39474.6 39427.9 34591.9 29566.7 24997.9 22730.5 20349.8 18931.2 17007.2 16893.5 16293.4 16727.4 15019.3 14982.6 13931.9 13910.2 13766.9 13351.7 13192.7
threshold=20.869500000000006 33.103000000000009 12.5265 15.032500000000001 40.927500000000002 50.812500000000007 9.9725000000000019 89.90300000000002 1.4305000000000001 0.85950000000000004 0.99250000000000005 26.739500000000003 75.589500000000001 24.814500000000006 26.967000000000002 0.41350000000000003 -40.532499999999992 -59.472999999999992 56.889500000000005 -1.0000000180025095e-35 48.772500000000008 1.0000000180025095e-35 89.867000000000019 -39.312499999999993 16.612500000000001 18.780500000000004 50.161000000000008 89.867000000000019 99.967000000000013 1745.5000000000002
decision_type=2 2 2 2 2 2 2 2 2 2 2 2 2 2 2 2 2 2 2 2 2 2 2 2 2 2 2 2 2 2
left_child=2 4 6 12 11 10 -1 17 -6 18 15 -2 28 14 -11 -3 -15 25 26 -8 -17 23 -23 -19 -9 -5 -10 -14 -4 -21
right_child=1 5 3 7 8 -7 19 24 9 13 -12 -13 27 16 -16 20 -18 21 -20 29 -22 22 -24 -25 -26 -27 -28 -29 -30 -31
leaf_value=0.68880546324881242 -0.63115227194485701 -1.1875176085705492 0.38194729815552686 0.48291747153390152 -1.2833745033041193 -1.5981805272181437 0.70305238105655932 0.016860146142128107 -1.165250898821387 -0.31475312117765858 -1.4671216770868734 -1.2063562666071648 -0.028243245751782747 -0.12327346708848258 0.060584129296856963 -1.1239949515812466 -0.54827743650528304 -1.0399348800532375 0.026547605525890042 0.44299976622116577 -0.60386379034682069 0.4610039541590677 -0.081059188959067427 -0.017706618521615921 -0.58514370840223651 -0.027559038739469768 -0.61644050538662043 0.56932564805758334 -0.04638824831400834 0.71102413250584151
leaf_weight=14109 486 1071 4836 377 236 4890 834 124 123 1429 789 774 963 393 829 249 1579 36 109 6072 420 363 234 7782 620 207 1903 107 189 497
leaf_count=14109 486 1071 4836 377 236 4890 834 124 123 1429 789 774 963 393 829 249 1579 36 109 6072 420 363 234 7782 620 207 1903 107 189 497
internal_value=0.00112641 -0.978384 0.401849 0.104864 -0.530612 -1.45282 0.620499 -0.0216852 -0.443947 -0.412803 -1.1717 -0.984564 0.307154 -0.310591 -0.176953 -1.03766 -0.463591 0.0166088 -0.615285 0.49031 -0.797602 -0.00319981 0.248551 -0.0224276 -0.484814 0.301996 -0.649818 0.0315566 0.365835 0.463289
internal_weight=52630 15280 37350 15838 7861 7419 21512 9743 6601 6365 2529 1260 6095 4230 2258 1740 1972 8999 2135 7403 669 8415 597 7818 744 584 2026 1070 5025 6569
internal_count=52630 15280 37350 15838 7861 7419 21512 9743 6601 6365 2529 1260 6095 4230 2258 1740 1972 8999 2135 7403 669 8415 597 7818 744 584 2026 1070 5025 6569
is_linear=0
shrinkage=0.05


Tree=16
num_leaves=31
num_cat=0
split_feature=7 7 7 7 38 7 7 17 17 35 18 7 1 7 17 2 13 0 10 17 31 27 38 3 31 17 7 7 31 17
split_gain=7.45758e+06 1.17181e+06 875554 146728 111629 109370 69044.4 62907.8 62281.6 47653.1 36093.8 35625.8 35247.2 32472 22778 26836.8 21698.4 18966.8 18963.5 16424.5 19736.7 16252.4 15383.1 14869.1 14771.8 14400.2 14382.8 13675.4 13534.2 24371.2
threshold=20.869500000000006 33.103000000000009 12.5265 14.957500000000001 40.927500000000002 50.812500000000007 9.9725000000000019 89.90300000000002 1.4305000000000001 0.88250000000000017 0.99250000000000005 26.739500000000003 75.589500000000001 24.814500000000006 46.671500000000002 73.972500000000011 -40.532499999999992 -9.2484999999999982 58.525000000000006 1.4305000000000001 0.72800000000000009 115.10550000000002 49.431500000000007 0.83350000000000002 -0.13799999999999998 26.967000000000002 18.780500000000004 16.612500000000001 1.0000000180025095e-35 89.867000000000019
decision_type=2 2 2 2 2 2 2 2 2 2 2 2 2 2 2 2 2 2 2 2 2 2 2 2 2 2 2 2 2 2
left_child=2 4 6 12 11 10 -1 18 -6 17 14 -2 21 25 15 23 -15 -10 19 -5 -21 -4 -19 -3 -8 -11 -20 -9 -26 -30
right_child=1 5 3 7 8 -7 24 27 9 13 -12 -13 -14 16 -16 -17 -18 22 26 20 -22 -23 -24 -25 28 -27 -28 -29 29 -31
leaf_value=0.65436543740327957 -0.59960114501234285 -1.0357288008245471 0.38411327216871216 -1.3329872453367555 -1.2192329498833896 -1.5182731583933577 0.69643443237419411 0.015434214498767959 -0.17196648708996434 -0.24519503628452474 -1.3937748743786498 -1.1460462547522032 0.032622575284770951 -0.086081683359638339 -1.2056316571225656 -1.2697563587835254 -0.51487534920405553 -1.1784634722533427 0.46207634983332452 -0.018466302292270375 0.28412808008959828 0.083959986743743248 -0.57966568510110283 -0.54855825748592157 0.4102587637657738 0.033173815320730764 -0.033406676501051884 -0.55589123352787762 0.83671531187791504 0.39472018409977466
leaf_weight=14109 486 219 4371 23 236 4890 635 126 278 1234 789 774 1041 367 703 266 1506 113 403 7943 578 503 2122 552 5505 745 230 620 563 700
leaf_count=14109 486 219 4371 23 236 4890 635 126 278 1234 789 774 1041 367 703 266 1506 113 403 7943 578 503 2122 552 5505 745 230 620 563 700
internal_value=0.00106917 -0.929469 0.381757 0.0996207 -0.504085 -1.38018 0.589475 -0.0178778 -0.421753 -0.392165 -1.11312 -0.935343 0.296734 -0.281648 -0.985785 -0.83664 -0.430868 -0.561548 0.0180175 -0.00154694 0.00206191 0.353141 -0.609994 -0.68706 0.465796 -0.140403 0.282058 -0.459398 0.444146 0.5918
internal_weight=52630 15280 37350 15838 7861 7419 21512 9923 6601 6365 2529 1260 5915 3852 1740 1037 1873 2513 9177 8544 8521 4874 2235 771 7403 1979 633 746 6768 1263
internal_count=52630 15280 37350 15838 7861 7419 21512 9923 6601 6365 2529 1260 5915 3852 1740 1037 1873 2513 9177 8544 8521 4874 2235 771 7403 1979 633 746 6768 1263
is_linear=0
shrinkage=0.05


Tree=17
num_leaves=31
num_cat=0
split_feature=7 7 7 7 38 7 7 17 17 35 17 7 4 7 17 38 5 10 0 10 38 27 0 30 17 17 31 17 17 7
split_gain=6.73192e+06 1.08189e+06 770778 127428 102787 98851.8 62311.5 57692.5 55303.6 42721.4 35495.3 32496.1 31813.3 29045.5 24584 20126.6 36944.7 18573.3 18379.2 18088.3 20171.7 15363.9 14713.8 13705.5 13182.3 12667.5 12563.2 12429.3 12347.4 12257.5
threshold=20.729500000000005 33.103000000000009 12.5265 14.957500000000001 40.927500000000002 51.688000000000009 9.9725000000000019 1.4305000000000001 89.90300000000002 0.85950000000000004 1.4305000000000001 26.739500000000003 1.7555000000000003 24.814500000000006 26.967000000000002 48.623000000000012 1.8565000000000003 39.795500000000011 -10.182499999999997 31.447500000000002 51.76550000000001 111.02650000000001 49.221000000000011 -1.0000000180025095e-35 1.4305000000000001 89.867000000000019 6.8505000000000011 99.967000000000013 80.478000000000023 16.612500000000001
decision_type=2 2 2 2 2 2 2 2 2 2 2 2 2 2 2 2 2 2 2 2 2 2 2 2 2 2 2 2 2 2
left_child=2 4 6 12 11 10 -1 -6 19 18 -3 -2 21 14 -11 -12 -17 -15 -9 24 28 -4 -23 -8 -5 -14 -26 -25 -21 -10
right_child=1 5 3 8 7 -7 23 9 29 13 15 -13 25 17 -16 16 -18 -19 -20 20 -22 22 -24 27 26 -27 -28 -29 -30 -31
leaf_value=0.6216473987098099 -0.57261932129378446 -1.3270080350825912 0.39692116279965928 -1.2260366163642158 -1.162537385802991 -1.4500285270383964 0.63348832128145416 -0.16615896630226942 0.014663115897696706 -0.28163773658731983 -1.1131853349850884 -1.0887513504442883 -0.027658821893431107 -0.49613031822525439 0.053957152412940246 -0.52581259438155314 -1.1736546032239772 -0.11553800853065864 -0.60171399358959832 0.018979316769381596 0.36725279198083965 0.25808982455572077 -0.25047646291191111 0.42667122455615847 -0.015616045090665158 0.54638180719370277 0.32085434634087195 -0.14337471463284951 -0.99535123640874468 -0.52806909146314496
leaf_weight=14109 504 905 3297 22 237 4700 834 277 126 1481 890 774 936 1569 864 562 362 403 1935 459 729 1417 158 6472 7488 107 288 97 32 596
leaf_count=14109 504 905 3297 22 237 4700 834 277 126 1481 890 774 936 1569 864 562 362 403 1935 459 729 1417 158 6472 7488 107 288 97 32 596
internal_value=0.00101469 -0.875689 0.365761 0.0988467 -0.474025 -1.31118 0.560002 -0.396334 -0.0123195 -0.368503 -1.07112 -0.885271 0.281898 -0.276937 -0.157991 -0.943386 -0.779726 -0.418364 -0.547183 0.0213936 0.200415 0.335549 0.207056 0.442508 -0.00661594 0.0312732 -0.00314957 0.418251 -0.0473068 -0.433358
internal_weight=52630 15463 37167 15655 8044 7419 21512 6766 9740 6529 2719 1278 5915 4317 2345 1814 924 1972 2212 9018 1220 4872 1575 7403 7798 1043 7776 6569 491 722
internal_count=52630 15463 37167 15655 8044 7419 21512 6766 9740 6529 2719 1278 5915 4317 2345 1814 924 1972 2212 9018 1220 4872 1575 7403 7798 1043 7776 6569 491 722
is_linear=0
shrinkage=0.05


Tree=18
num_leaves=31
num_cat=0
split_feature=7 7 7 38 7 7 7 7 17 35 19 17 17 17 14 17 4 10 17 7 10 38 32 7 32 17 10 38 17 32
split_gain=6.0756e+06 977184 695630 116851 115005 56235.7 55154.3 51529 49912.1 48842 39144.4 36094.8 37837.5 59946.1 32072.3 22351.6 17362.7 16324.4 18544.2 20324.4 16034.3 15693.8 14544.9 13923 13266.6 13133.5 12807.3 17529.6 11902.7 15117.7
threshold=20.729500000000005 36.667500000000011 12.5265 46.419500000000006 14.957500000000001 9.9725000000000019 56.016500000000008 26.398000000000003 89.90300000000002 0.85950000000000004 107.49450000000002 9.9090000000000025 26.955000000000002 26.967000000000002 3225.5000000000005 7.5245000000000006 1.0000000180025095e-35 31.447500000000002 51.822500000000005 18.671000000000003 56.889500000000005 48.772500000000008 -6.2584999999999988 31.603500000000004 -1.3664999999999998 99.967000000000013 14.601500000000003 37.898000000000003 1.4305000000000001 0.9195000000000001
decision_type=2 2 2 2 2 2 2 2 2 2 2 2 2 2 2 2 2 2 2 2 2 2 2 2 2 2 2 2 2 2
left_child=2 3 5 7 10 -1 14 22 17 20 25 -11 23 -14 16 -12 21 28 19 -19 -5 -3 -2 -13 -7 -4 27 -9 -6 -30
right_child=1 6 4 9 8 24 -8 26 -10 11 15 12 13 -15 -16 -17 -18 18 -20 -21 -22 -23 -24 -25 -26 -27 -28 -29 29 -31
leaf_value=0.59056524894572626 0.077032531203824389 -1.1399156012526379 0.35824153991696206 -0.58096348716297974 -1.1650121835561897 0.63089079153991734 -1.3980311399874132 -1.1050161786356163 -0.41169352720870384 -0.52469453226312779 0.45139272973324901 0.11098114072448846 -0.61968240307296085 -0.061536246212464042 -0.5493843934256607 -0.05511606033683214 -1.2130205063273971 0.44660084293798524 -0.2321702678757035 -0.023365028600013094 0.026454795524804453 -0.42011299677388547 -0.55272608020239178 -0.57457603045021854 0.3990813774775917 -0.069742414293853527 -1.0292955306132019 -0.23483614549444778 -0.020596296045036308 0.27309796252243768
leaf_weight=14109 105 164 4299 2303 22 680 4165 105 722 1022 268 982 872 1073 238 1161 2001 650 214 356 114 141 721 80 6723 187 1248 129 7310 466
leaf_count=14109 105 164 4299 2303 22 680 4165 105 722 1022 268 982 872 1073 238 1161 2001 650 214 356 114 141 721 80 6723 187 1248 129 7310 466
internal_value=0.000962994 -0.831908 0.347473 -0.483933 0.093904 0.532002 -1.28594 -0.789222 -0.0117045 -0.374612 0.267804 -0.267998 -0.180737 -0.311791 -1.10237 0.0398979 -1.15941 0.0203231 0.190392 0.2803 -0.552312 -0.807418 -0.472666 0.0592845 0.420383 0.340399 -0.965608 -0.625628 -0.00628574 -0.00299186
internal_weight=52630 15463 37167 8754 15655 21512 6709 2308 9740 6446 5915 4029 3007 1945 2544 1429 2306 9018 1220 1006 2417 305 826 1062 7403 4486 1482 234 7798 7776
internal_count=52630 15463 37167 8754 15655 21512 6709 2308 9740 6446 5915 4029 3007 1945 2544 1429 2306 9018 1220 1006 2417 305 826 1062 7403 4486 1482 234 7798 7776
is_linear=0
shrinkage=0.05


Tree=19
num_leaves=31
num_cat=0
split_feature=7 7 7 7 17 17 17 7 17 7 19 17 35 7 17 17 29 7 10 30 17 37 31 17 7 7 3 1 17 17
split_gain=5.48414e+06 863291 643185 107786 80565.8 78999.4 65706.7 50752.3 45863.5 38137.6 36176.4 35092.3 28014.9 28495.7 22011.8 20027.8 19294.1 16484.6 13600.9 12506.5 12140.1 12931.7 11928.2 11671.2 11005.8 10769.2 10646.1 10545.3 10330 9676.4
threshold=20.869500000000006 33.103000000000009 12.5265 15.032500000000001 9.9090000000000025 89.90300000000002 1.4305000000000001 9.9725000000000019 89.90300000000002 26.739500000000003 107.49450000000002 26.955000000000002 0.85950000000000004 25.123500000000003 26.967000000000002 7.5245000000000006 27.991500000000006 69.81450000000001 58.525000000000006 -0.16349999999999998 99.967000000000013 0.44250000000000006 3.5945000000000005 99.967000000000013 16.612500000000001 18.780500000000004 1.3685000000000003 15.175500000000001 89.867000000000019 13.159500000000001
decision_type=2 2 2 2 2 2 2 2 2 2 2 2 2 2 2 2 2 2 2 2 2 2 2 2 2 2 2 2 2 2
left_child=2 5 7 10 17 6 -2 -1 18 -7 23 -6 -8 14 -14 -12 -13 -3 19 27 21 -9 -21 26 -10 -20 -4 -5 -17 -15
right_child=1 4 3 8 11 9 12 20 24 -11 15 16 13 29 -16 28 -18 -19 25 22 -22 -23 -24 -25 -26 -27 -28 -29 -30 -31
leaf_value=0.56103719381550288 -1.1122723739771108 -1.1978694125054905 0.3440106853099904 0.44581085742113596 -0.42975032046432748 -0.53374769379561315 -0.48757874128242551 0.5371543777951916 0.035082254571409406 -1.085908616889206 0.42088741173634203 -0.54761519001379999 -0.26115380073744104 -0.57509254772157092 0.05189625952608206 -0.088777415853253744 -1.0698234087951091 -1.3705204643111148 0.39847459593648604 -0.030149303189549226 -0.15614687286616602 0.37278614332655741 0.29226566055244108 -0.065574359838638532 -0.48086052792934697 -0.032445518496158537 -0.37506870061101932 -0.038129885098860179 0.5588979266206241 -0.33009149205534621
leaf_weight=14109 280 2969 4383 276 330 660 1945 1509 124 595 273 205 1490 562 901 1133 1307 2608 392 7613 97 5797 298 189 620 230 52 190 65 1428
leaf_count=14109 280 2969 4383 276 330 660 1945 1509 124 595 273 205 1490 562 901 1133 1307 2608 392 7613 97 5797 298 189 620 230 52 190 65 1428
internal_value=0.000913968 -0.797061 0.327369 0.0855535 -1.18392 -0.431944 -0.362846 0.505403 -0.0176137 -0.795599 0.250467 -0.897103 -0.329657 -0.259535 -0.143188 0.0344877 -0.999066 -1.27863 0.0135798 -0.00317059 0.399365 0.406743 -0.0180001 0.319172 -0.39487 0.239144 0.33557 0.248519 -0.0535885 -0.399311
internal_weight=52630 15280 37350 15838 7419 7861 6606 21512 9743 1255 6095 1842 6326 4381 2391 1471 1512 5577 8999 8377 7403 7306 7911 4624 744 622 4435 466 1198 1990
internal_count=52630 15280 37350 15838 7419 7861 6606 21512 9743 1255 6095 1842 6326 4381 2391 1471 1512 5577 8999 8377 7403 7306 7911 4624 744 622 4435 466 1198 1990
is_linear=0
shrinkage=0.05


Tree=20
num_leaves=31
num_cat=0
split_feature=7 7 7 7 7 38 7 17 35 27 7 10 17 17 14 38 7 10 17 17 10 7 4 17 17 14 17 7 38 38
split_gain=4.98686e+06 802969 569301 110663 78322.7 63218.9 51395.7 40972.7 26876.2 24977.8 24443.4 23423.2 24682.1 28992.5 22851 20403.5 17793.5 16087.5 28821.7 14735.9 13469.1 19568.1 12026.9 19362.3 12347.1 11679.3 10423.9 10263.8 9891.69 9713.64
threshold=20.729500000000005 40.281000000000006 13.627500000000003 26.739500000000003 10.036500000000002 47.417500000000004 16.258500000000002 89.90300000000002 0.85950000000000004 95.541500000000013 62.494000000000007 26.941500000000005 44.938500000000005 7.5245000000000006 3225.5000000000005 46.419500000000006 15.032500000000001 37.471000000000011 26.967000000000002 99.967000000000013 31.447500000000002 31.603500000000004 1.0000000180025095e-35 99.967000000000013 29.663500000000003 414.50000000000006 3.5435000000000003 14.957500000000001 39.692500000000003 47.83700000000001
decision_type=2 2 2 2 2 2 2 2 2 2 2 2 2 2 2 2 2 2 2 2 2 2 2 2 2 2 2 2 2 2
left_child=2 3 4 8 -1 22 11 28 -2 26 14 12 13 16 -3 -10 -4 18 -17 25 -11 -22 23 24 -5 -6 -7 -14 -8 -13
right_child=1 10 6 5 19 9 7 -9 15 20 -12 29 27 -15 -16 17 -18 -19 -20 -21 21 -23 -24 -25 -26 -27 -28 -29 -30 -31
leaf_value=0.53171425193149424 -0.4758925652488511 -1.1194464197128762 0.38100467464243637 -0.70443802760655805 0.32677191605090816 -1.0632151413706508 -0.88432625380817598 -0.42580640632851163 -0.44710071439020349 -0.4573531576560389 -1.2842801853525319 -0.062347591769882318 0.35159096259961259 -0.10000737395916187 -0.49389039690766623 -0.39170105920336784 -0.084211697031771005 0.047549087469796109 -0.0087708331731551747 -0.10356937851988196 0.12841310997821739 -0.54541345609384972 -0.9683558885465765 -0.98609350145952068 -0.067397309892217011 0.45714354548523323 -0.61296911058175674 0.11986066443386688 -0.0043628609219048065 0.4123026297582067
leaf_weight=14207 1593 2583 662 168 7486 154 32 650 819 1033 3458 121 1027 1917 155 1186 298 683 839 177 280 175 1194 290 139 2231 785 894 6258 984
leaf_count=14207 1593 2583 662 168 7486 154 32 650 819 1033 3458 121 1027 1917 155 1186 298 683 839 177 280 175 1194 290 139 2231 785 894 6258 984
internal_value=-0.00284357 -0.754507 0.313213 -0.461675 0.456492 -0.651314 0.0443349 -0.0479124 -0.305434 -0.48499 -1.19582 0.152787 0.104984 0.0123129 -1.08405 -0.228431 0.236595 -0.162282 -0.233056 0.348474 -0.35752 -0.130803 -0.87666 -0.693128 -0.416138 0.35671 -0.686922 0.243762 -0.0088544 0.360322
internal_weight=52478 15534 36944 9338 24101 4218 12843 6940 5120 2427 6196 5903 4798 2877 2738 3527 960 2708 2025 9894 1488 455 1791 597 307 9717 939 1921 6290 1105
internal_count=52478 15534 36944 9338 24101 4218 12843 6940 5120 2427 6196 5903 4798 2877 2738 3527 960 2708 2025 9894 1488 455 1791 597 307 9717 939 1921 6290 1105
is_linear=0
shrinkage=0.05


Tree=21
num_leaves=31
num_cat=0
split_feature=7 7 7 7 7 17 17 7 17 19 19 17 17 7 37 27 17 10 17 7 14 7 30 30 17 27 23 17 7 17
split_gain=4.50067e+06 724677 515638 99876.9 83215.4 46181.7 47484.9 39430.9 36634.3 27600.3 24797.1 22692.5 24789 22139.1 21435.7 17822.7 15891.4 13041.4 14788.9 16163.5 12484.9 12315.8 10713.2 10713.5 19194.6 10598.6 11422.1 12774.7 10344.6 9824.49
threshold=20.729500000000005 40.281000000000006 12.5265 26.739500000000003 14.957500000000001 89.90300000000002 1.4305000000000001 9.9725000000000019 89.90300000000002 107.49450000000002 99.696500000000015 1.4305000000000001 89.90300000000002 66.360500000000016 0.10050000000000002 95.541500000000013 7.5245000000000006 31.447500000000002 51.822500000000005 18.671000000000003 605.50000000000011 31.603500000000004 -1.0000000180025095e-35 0.32750000000000007 89.867000000000019 110.65600000000002 -0.009499999999999998 44.938500000000005 16.710500000000003 89.867000000000019
decision_type=2 2 2 2 2 2 2 2 2 2 2 2 2 2 2 2 2 2 2 2 2 2 2 2 2 2 2 2 2 2
left_child=2 3 7 10 9 6 -5 -1 17 25 11 -2 20 14 -3 -8 -11 -6 19 -19 -13 -17 -9 -24 -25 -4 -27 -28 -10 -18
right_child=1 13 4 5 8 -7 15 22 28 16 -12 12 -14 -15 -16 21 29 18 -20 -21 -22 -23 23 24 -26 26 27 -29 -30 -31
leaf_value=0.50622505233565773 -1.0773664185045295 -0.43627191122560149 0.33934751768886928 -1.0509413066980839 -0.0069591070439667616 -0.94908172817971881 -0.63141819577258074 0.53009902880973647 0.015412570148956231 0.38820278955786341 -0.48522418751009522 -0.22109851114731358 -0.4837233034169372 -1.2305531042846354 -1.0699359109807445 -0.27854714473557152 -0.086536967113343702 0.40014871249319772 -0.20278228813767818 -0.024449989640480625 -0.0082601449905885006 -0.5412496326733871 0.31380620732648573 0.751013351086946 0.30867057804932552 0.33051186125831178 -0.16746404259245451 0.23913424989502197 -0.44353866281397886 0.52881115866466477
leaf_weight=14016 77 140 3081 395 7750 846 1065 851 155 255 1236 2098 683 3101 2955 1202 1058 643 218 344 1026 710 5489 417 596 638 370 404 590 69
leaf_count=14016 77 140 3081 395 7750 846 1065 851 155 255 1236 2098 683 3101 2955 1202 1058 643 218 344 1026 710 5489 417 596 638 370 404 590 69
internal_value=-0.00270226 -0.716785 0.297552 -0.438595 0.0787504 -0.618755 -0.535853 0.457027 -0.0111942 0.227253 -0.290163 -0.228077 -0.21087 -1.13603 -1.04129 -0.467474 0.0318404 0.0168336 0.169849 0.25217 -0.151201 -0.376125 0.36324 0.341393 0.490821 0.287357 0.173894 0.0447626 -0.348056 -0.0488146
internal_weight=52478 15534 36944 9338 15575 4218 3372 21369 9700 5875 5120 3884 3807 6196 3095 2977 1382 8955 1205 987 3124 1912 7353 6502 1013 4493 1412 774 745 1127
internal_count=52478 15534 36944 9338 15575 4218 3372 21369 9700 5875 5120 3884 3807 6196 3095 2977 1382 8955 1205 987 3124 1912 7353 6502 1013 4493 1412 774 745 1127
is_linear=0
shrinkage=0.05


Tree=22
num_leaves=31
num_cat=0
split_feature=7 7 7 38 7 35 35 7 18 18 18 18 19 0 7 32 37 7 18 7 10 18 38 19 31 18 31 18 38 7
split_gain=4.06188e+06 654019 465364 90457.8 75102.9 41645.9 36870.7 35585.7 32727 28282.8 31009.6 47334.3 24908.8 20520.5 20088.2 19854.7 17597.7 15581.8 14342.4 12536.4 11544.4 14094.6 11404 24700.8 10332.8 9959.7 9793.58 18455 9646.05 9526.99
threshold=20.729500000000005 40.281000000000006 12.5265 46.419500000000006 14.957500000000001 0.85950000000000004 0.97550000000000014 9.9725000000000019 0.72450000000000003 0.95400000000000007 0.88750000000000007 0.88550000000000006 107.49450000000002 -11.061499999999997 57.331500000000013 -6.2584999999999988 0.10050000000000002 33.103000000000009 0.96450000000000002 31.603500000000004 31.447500000000002 0.7985000000000001 55.233000000000011 64.681500000000014 -1.0000000180025095e-35 0.72450000000000003 1.0000000180025095e-35 0.74250000000000005 36.728000000000002 31.603500000000004
decision_type=2 2 2 2 2 2 2 2 2 2 2 2 2 2 2 2 2 2 2 2 2 2 2 2 2 2 2 2 2 2
left_child=2 3 7 6 12 13 -2 -1 -6 10 11 -7 25 29 16 -8 -3 -15 -14 -12 -10 -22 -11 -24 -9 -4 -26 -28 -17 -5
right_child=1 14 4 5 8 9 15 24 20 22 19 -13 18 17 -16 28 -18 -19 -20 -21 21 -23 23 -25 26 -27 27 -29 -30 -31
leaf_value=0.48091398190822904 -0.85942103294824423 -0.41447388105610294 -0.082197606372871074 0.099705797615486036 -0.32972199998865259 -0.038178256808185873 0.059398388767936711 0.53561352130293638 -0.006611156206588544 -0.57842063520018272 0.1270863145622152 -0.52286095843489466 -0.046371668095775399 -0.47573839037543708 -1.1458641328771415 -0.7397339715010971 -0.99434626005816384 -0.85363115147203994 0.36880025811309403 -0.43143979994767911 -0.85799658824309832 0.18821489557239637 0.22047660111399622 -0.53234977704434516 0.29796512485807009 0.28859001673142298 0.27844478256560101 0.6677258145592273 -0.43522186864043794 -0.61158341268860961
leaf_weight=14016 1286 140 189 205 742 1088 151 649 7750 641 968 938 1127 2003 4006 422 2050 316 255 112 33 1175 173 294 5474 4304 675 555 680 61
leaf_count=14016 1286 140 189 205 742 1088 151 649 7750 641 968 938 1127 2003 4006 422 2050 316 255 112 33 1175 173 294 5474 4304 675 555 680 61
internal_value=-0.00256763 -0.680949 0.282675 -0.416668 0.0748133 -0.32156 -0.671327 0.434176 -0.0106347 -0.224628 -0.14725 -0.262594 0.215892 -0.479559 -1.07923 -0.478223 -0.9573 -0.527269 0.0302514 0.0691259 0.0157985 0.159562 -0.441499 -0.253467 0.34508 0.27299 0.326626 0.45414 -0.551893 -0.0635591
internal_weight=52478 15534 36944 9338 15575 6799 2539 21369 9700 4214 3106 2026 5875 2585 6196 1253 2190 2319 1382 1080 8958 1208 1108 467 7353 4493 6704 1230 1102 266
internal_count=52478 15534 36944 9338 15575 6799 2539 21369 9700 4214 3106 2026 5875 2585 6196 1253 2190 2319 1382 1080 8958 1208 1108 467 7353 4493 6704 1230 1102 266
is_linear=0
shrinkage=0.05


Tree=23
num_leaves=31
num_cat=0
split_feature=7 7 7 7 7 17 17 7 17 19 17 17 17 17 17 17 7 37 27 17 7 13 7 17 17 7 27 23 17 17
split_gain=3.66587e+06 590250 419993 82417 67796.6 38622.1 40491.9 32115.4 29659.9 23435.7 21093.7 21561.2 30123.6 29194.7 27634.2 28707.9 18670.6 17765.7 14649.4 12496.9 10330.8 9999.99 13506.9 12086 9393.58 9132.24 9106.57 10667.5 12241.9 8986.06
threshold=20.729500000000005 40.281000000000006 12.5265 26.739500000000003 15.032500000000001 89.90300000000002 1.4305000000000001 9.9725000000000019 89.90300000000002 107.49450000000002 1.4305000000000001 26.955000000000002 26.967000000000002 89.90300000000002 9.9090000000000025 7.5245000000000006 69.81450000000001 0.10050000000000002 95.541500000000013 7.5245000000000006 31.603500000000004 -28.349999999999998 18.780500000000004 51.822500000000005 99.967000000000013 16.710500000000003 110.65600000000002 -0.009499999999999998 44.938500000000005 1.4305000000000001
decision_type=2 2 2 2 2 2 2 2 2 2 2 2 2 2 2 2 2 2 2 2 2 2 2 2 2 2 2 2 2 2
left_child=2 3 7 10 9 6 -5 -1 21 26 -2 14 -13 -14 15 -12 17 -3 -8 -11 -20 22 23 -6 -9 -10 -4 -28 -29 -23
right_child=1 16 4 5 8 -7 18 24 25 19 11 12 13 -15 -16 -17 -18 -19 20 -21 -22 29 -24 -25 -26 -27 27 28 -30 -31
leaf_value=0.45686844912796509 -0.92440877274302324 -0.39785074347895488 0.30386651501353978 -0.95933042932721335 0.36403394001694855 -0.86157802032418407 -0.56917292276253428 0.33411853873736763 0.032114983027395134 0.33676146604049667 0.21464090752073892 -0.46744384046613291 -0.022788228601568455 -0.43410368356605589 0.11334463699530728 -0.51570401033313951 -1.1229797157844448 -0.97133662882689598 -0.24835167333140329 -0.045266628991961572 -0.48895255316186836 -1.0648413164698662 -0.089531366785781247 -0.050027650730120457 -0.17965216484503796 -0.40474789538962863 0.30188628108984344 -0.17586277568286846 0.21537099336935428 -0.0062112026393175458
leaf_weight=14016 117 141 3173 395 648 846 1065 7263 150 262 184 1663 1171 683 802 500 2736 3319 1202 1168 710 20 431 242 90 590 660 379 423 7429
leaf_count=14016 117 141 3173 395 648 846 1065 7263 150 262 184 1663 1171 683 802 500 2736 3319 1202 1168 710 20 431 242 90 590 660 379 423 7429
internal_value=-0.00243988 -0.646904 0.268542 -0.395838 0.0710725 -0.559495 -0.483681 0.412468 -0.012235 0.201699 -0.261003 -0.24547 -0.312939 -0.174332 -0.0857711 -0.319227 -1.02527 -0.94798 -0.420538 0.0247425 -0.33772 0.0134154 0.140195 0.251448 0.327827 -0.316195 0.256291 0.153019 0.0304811 -0.00906847
internal_weight=52478 15534 36944 9338 15575 4218 3372 21369 9510 6065 5120 5003 3517 1854 1486 684 6196 3460 2977 1430 1912 8770 1321 890 7353 740 4635 1462 802 7449
internal_count=52478 15534 36944 9338 15575 4218 3372 21369 9510 6065 5120 5003 3517 1854 1486 684 6196 3460 2977 1430 1912 8770 1321 890 7353 740 4635 1462 802 7449
is_linear=0
shrinkage=0.05


Tree=24
num_leaves=31
num_cat=0
split_feature=10 3 17 38 38 35 17 38 17 38 17 17 17 5 1 17 38 23 10 4 38 17 38 5 38 35 38 23 5 38
split_gain=1.20303e+06 659297 487203 284506 281645 250665 198296 144098 214026 91068.6 71533.7 67454.8 85261.9 40640.6 38090 33039.6 28880 21265.3 20951 19107.5 19074.3 18541.5 14501.5 14171.8 12278.6 9469.28 9017.45 8872.73 7665.4 6596.3
threshold=43.121500000000005 1.4055000000000002 9.9090000000000025 48.107500000000009 43.50950000000001 0.90250000000000019 7.5245000000000006 56.703500000000012 42.859000000000009 64.100000000000009 47.701000000000008 44.938500000000005 7.5245000000000006 3.3015000000000003 12.013500000000002 29.663500000000003 49.686000000000007 1.0000000180025095e-35 7.838000000000001 0.98450000000000004 53.484500000000004 99.967000000000013 33.911500000000004 1.7565000000000002 53.245500000000007 0.89250000000000018 61.573500000000003 0.10150000000000002 5.5915000000000008 67.853500000000011
decision_type=2 2 2 2 2 2 2 2 2 2 2 2 2 2 2 2 2 2 2 2 2 2 2 2 2 2 2 2 2 2
left_child=1 4 -2 22 15 9 -3 8 16 10 23 12 -11 17 24 -1 -7 -9 28 -10 -12 -17 -4 -6 -5 -24 -16 -20 -8 -13
right_child=2 6 3 14 5 7 18 13 19 11 20 29 -14 -15 26 21 -18 -19 27 -21 -22 -23 25 -25 -26 -27 -28 -29 -30 -31
leaf_value=-0.9404404519523587 -1.0084409201440063 -0.99762124057099977 -0.88632638492749971 0.049218941317377307 -0.49153437646060755 -0.49048625541166946 -0.035793994205777065 0.39122338319350086 0.28863233609096367 0.28231903421421889 -0.4086566964144801 0.22851022912909702 -0.12941258759004726 -0.037941254087693922 -0.49555965567233679 -0.074940944489178221 -0.14523983823077125 0.28403420783297001 -0.35437617933882964 -0.28287382576562503 0.014122220312703736 -0.47347611834000808 -0.75696209470381348 -0.92854508684381687 0.30099438631130221 -0.40863756489079839 -0.10516771400334386 -0.8256487288315093 -0.33196978763906171 0.42038944490720553
leaf_weight=301 3529 1547 840 793 359 797 935 11041 5727 1667 371 990 5116 714 215 400 2524 7969 332 150 949 1080 400 385 1244 382 474 143 285 819
leaf_count=301 3529 1547 840 793 359 797 935 11041 5727 1667 371 990 5116 714 215 400 2524 7969 332 150 949 1080 400 385 1244 382 474 143 285 819
internal_value=-0.00231863 0.0982886 -0.571969 -0.217696 0.152111 0.17979 -0.588321 0.256168 0.092735 -0.027513 -0.325734 0.0441289 -0.0282214 0.332382 0.0942896 -0.462951 -0.228109 0.346292 -0.214718 0.27404 -0.104722 -0.36578 -0.74201 -0.717777 0.202988 -0.586889 -0.22705 -0.496408 -0.105008 0.315402
internal_weight=52478 44601 7877 4348 41359 39578 3242 28922 9198 10656 2064 8592 6783 19724 2726 1781 3321 19010 1695 5877 1320 1480 1622 744 2037 782 689 475 1220 1809
internal_count=52478 44601 7877 4348 41359 39578 3242 28922 9198 10656 2064 8592 6783 19724 2726 1781 3321 19010 1695 5877 1320 1480 1622 744 2037 782 689 475 1220 1809
is_linear=0
shrinkage=0.05


Tree=25
num_leaves=31
num_cat=0
split_feature=7 7 7 7 38 17 9 17 17 7 17 17 37 7 17 35 10 17 7 14 38 32 17 38 7 17 17 17 7 38
split_gain=3.03034e+06 474882 342850 77449.6 60452.8 35781.5 34760.8 21196 19506.6 18467.5 18142.3 23034.2 29919.1 31262.1 19608.7 17725.6 17423.4 16830.5 16082.2 14703.7 14071 13518.3 16624.9 11989.4 11141.5 10265.8 9913.25 9486.8 8553.52 7339.93
threshold=22.746000000000006 14.957500000000001 40.281000000000006 10.036500000000002 47.590000000000011 89.90300000000002 0.52450000000000008 9.9090000000000025 26.436500000000002 18.780500000000004 36.448 7.5245000000000006 0.37350000000000005 12.459500000000002 99.967000000000013 0.97550000000000014 27.734000000000005 26.967000000000002 72.355500000000021 3225.5000000000005 36.728000000000002 0.74450000000000005 89.867000000000019 47.83700000000001 31.603500000000004 1.4305000000000001 89.867000000000019 3.8330000000000006 16.612500000000001 63.700500000000012
decision_type=2 2 2 2 2 2 2 2 2 2 2 2 2 2 2 2 2 2 2 2 2 2 2 2 2 2 2 2 2 2
left_child=1 3 4 -1 15 9 7 -6 24 16 11 -5 -13 -14 -12 -2 21 -10 19 -4 -17 -3 -23 -18 -9 -11 -22 -8 -7 -29
right_child=2 5 18 10 6 28 27 8 17 25 14 12 13 -15 -16 20 23 -19 -20 -21 26 22 -24 -25 -26 -27 -28 29 -30 -31
leaf_value=0.41566883119055231 -0.75439730334804689 -0.017423269093428662 -0.87974026271509398 0.26963566070386225 -0.41587204624467439 0.063814425950689396 -0.79248836604077511 0.16284287141302081 -0.44188433657536408 -1.0680787473587092 0.31490969974942873 0.36481538701295813 0.30936131911373899 -0.15493171648380905 -0.10868139430129523 -0.75360085649141773 -0.15652543984674649 -0.025458644832643401 -1.0224674763123682 -0.38001769884386138 -0.53180432586410675 0.50800503178190548 -0.13287585285154266 0.31904112107102678 -0.46719235549663002 -0.091668060385665717 -0.16637111252011108 -0.59266314188623104 -0.3634518126644648 -0.37204091739809897
leaf_weight=14280 1245 5398 3460 3165 695 133 189 691 496 27 7149 630 491 1385 284 320 160 475 2559 154 388 275 160 770 78 4088 356 490 979 1642
leaf_count=14280 1245 5398 3460 3165 695 133 189 691 496 27 7149 630 491 1385 284 320 160 475 2559 154 388 275 160 770 78 4088 356 490 979 1642
internal_value=0.000188153 0.220217 -0.654245 0.335117 -0.416384 -0.0422019 -0.314462 -0.182475 -0.0892283 -0.0145837 0.247333 0.17997 0.0667178 -0.033401 0.298723 -0.626296 0.0362334 -0.238203 -0.926464 -0.858459 -0.476342 0.0041858 0.272291 0.23721 0.0988792 -0.0981017 -0.356999 -0.452915 -0.312343 -0.422775
internal_weight=52612 39374 13238 27384 7065 11990 4756 2435 1740 10878 13104 5671 2506 1876 7433 2309 6763 971 6173 3614 1064 5833 435 930 769 4115 744 2321 1112 2132
internal_count=52612 39374 13238 27384 7065 11990 4756 2435 1740 10878 13104 5671 2506 1876 7433 2309 6763 971 6173 3614 1064 5833 435 930 769 4115 744 2321 1112 2132
is_linear=0
shrinkage=0.05


Tree=26
num_leaves=31
num_cat=0
split_feature=7 7 7 7 18 38 7 18 18 0 19 7 18 38 7 38 18 18 7 18 38 5 31 31 18 18 38 38 13 18
split_gain=2.73687e+06 424681 314915 50150.8 46073.2 43270.3 24585.3 22574.2 20951.6 19820.5 17376 16135.6 15520.7 15830 12851.8 11617.3 10622 22016.6 10141.4 10033.3 9897.08 14351.8 9095.99 8841.97 16696.1 8831.22 8454.65 7997.76 8890.12 7526.6
threshold=20.729500000000005 32.485500000000009 12.5265 15.263500000000002 0.99250000000000005 40.927500000000002 9.9725000000000019 0.99650000000000005 0.72450000000000003 10.275500000000003 105.05650000000001 56.016500000000008 0.95400000000000007 53.484500000000004 26.398000000000003 55.380500000000005 0.72450000000000003 0.88550000000000006 26.739500000000003 0.96450000000000002 43.071500000000007 1.8875000000000002 -0.13799999999999998 1.0000000180025095e-35 0.74050000000000005 0.99950000000000017 50.452500000000008 39.692500000000003 -28.349999999999998 0.88550000000000006
decision_type=2 2 2 2 2 2 2 2 2 2 2 2 2 2 2 2 2 2 2 2 2 2 2 2 2 2 2 2 2 2
left_child=2 5 6 10 11 14 -1 9 -5 12 -4 20 13 -7 -2 -14 18 -18 -11 29 -3 26 -8 -24 -25 27 -22 -10 -29 -12
right_child=1 4 3 8 -6 7 22 -9 25 16 19 -13 15 -15 -16 -17 17 -19 -20 -21 21 -23 23 24 -26 -27 -28 28 -30 -31
leaf_value=0.3957326304273987 -0.36349501843009774 -0.75691328028833382 0.21299950922282931 -0.27303159144302647 -0.91780762054537224 -0.14697130062457042 0.46119604059095648 -0.73622092728198285 -0.72192564079703669 -0.42053823399465451 0.42954463150292527 -0.88532079576857614 -0.46038039232120992 0.16419879568143469 -0.69707429119688658 -0.071728521331072811 0.056573441624267112 -0.34297943315767537 -1.0722896644785087 0.26891564009487368 -0.5720753610458964 -0.75755929957568657 0.23842730823957214 0.21903162730243012 0.58519187966947728 -1.0136683934107775 -0.28408641596694262 0.13902539244817022 -0.0076921211100219825 -0.067782800758600145
leaf_weight=14103 462 668 4992 721 4844 1720 654 230 37 213 81 628 549 536 772 296 398 2576 83 337 485 458 5482 685 571 21 538 1210 7034 1228
leaf_count=14103 462 668 4992 721 4844 1720 654 230 37 213 81 628 549 536 772 296 398 2576 83 337 485 458 5482 685 571 21 538 1210 7034 1228
internal_value=0.000178017 -0.55896 0.232767 0.062232 -0.824705 -0.300466 0.357016 -0.249654 -0.0145114 -0.232076 0.166548 -0.662274 -0.141504 -0.0730346 -0.572228 -0.324268 -0.317959 -0.289507 -0.60361 0.0256628 -0.597053 -0.524899 0.283144 0.265854 0.385532 0.00794265 -0.420668 0.0105462 0.0138429 -0.0369742
internal_weight=52612 15456 37156 15661 7621 7835 21495 6601 9023 6371 6638 2777 3101 2256 1234 845 3270 2974 296 1646 2149 1481 7392 6738 1256 8302 1023 8281 8244 1309
internal_count=52612 15456 37156 15661 7621 7835 21495 6601 9023 6371 6638 2777 3101 2256 1234 845 3270 2974 296 1646 2149 1481 7392 6738 1256 8302 1023 8281 8244 1309
is_linear=0
shrinkage=0.05


Tree=27
num_leaves=31
num_cat=0
split_feature=7 7 7 7 38 17 19 7 17 17 17 7 17 17 37 7 17 17 14 35 7 38 14 38 32 17 31 10 2 17
split_gain=2.47223e+06 405103 262117 62932.4 46308.5 29930.5 28571.3 17990.2 15621.4 18830.9 15586.1 15165.6 14945.4 19372.9 25903.1 26692.6 17457.9 14710.3 15853.4 13828.4 13778.8 11920.6 11688.4 11125.1 9800.94 13303.7 12704.3 9722.56 9548.34 8600.47
threshold=23.079500000000003 14.957500000000001 40.281000000000006 10.036500000000002 47.590000000000011 89.90300000000002 78.263500000000008 20.423500000000001 9.9090000000000025 26.955000000000002 26.967000000000002 31.603500000000004 36.448 7.5245000000000006 0.37350000000000005 12.459500000000002 99.967000000000013 26.967000000000002 641.50000000000011 0.97550000000000014 67.870500000000007 36.728000000000002 3225.5000000000005 64.702500000000015 0.74450000000000005 89.867000000000019 -1.0000000180025095e-35 39.795500000000011 -1.0000000180025095e-35 7.5245000000000006
decision_type=2 2 2 2 2 2 2 2 2 2 2 2 2 2 2 2 2 2 2 2 2 2 2 2 2 2 2 2 2 2
left_child=1 3 4 -1 19 7 8 24 -6 11 -11 -10 13 -5 -15 -16 -14 18 29 -2 22 -21 -4 -8 26 -26 -3 -28 -19 -9
right_child=2 5 20 12 6 -7 23 17 9 10 -12 -13 16 14 15 -17 -18 28 -20 21 -22 -23 -24 -25 25 -27 27 -29 -30 -31
leaf_value=0.37515600737824184 -0.68210164536421247 0.3254886031882912 -0.78693441929277175 0.24450507303507707 -0.39334531600574185 -0.28511503383668596 -0.74594744154429626 0.1089650896463694 0.16795721588843185 -0.45575397038362003 -0.087391910270173123 -0.36185827180522923 0.2853308912518942 0.33578193593717648 0.28197746420557163 -0.14704384888944519 -0.11435192977640461 -0.49965782924602414 0.039503896677328447 -0.69078333688219118 -0.9155972120559952 -0.3189138459910914 -0.33886724111692806 -0.39576466694624135 0.39093766922429424 -0.12186444471256389 -0.027334568158565248 0.1660217933327589 0.11967746785371387 -0.34187757017963044
leaf_weight=14280 1240 293 3093 3165 701 1152 268 116 671 512 654 169 7149 630 491 1385 284 69 459 311 2927 703 153 1481 374 191 7156 715 626 1194
leaf_count=14280 1240 293 3093 3165 701 1152 268 116 671 512 654 169 7149 630 491 1385 284 69 459 311 2927 703 153 1481 374 191 7156 715 626 1194
internal_value=0.000168366 0.195345 -0.601719 0.302545 -0.385389 -0.0424493 -0.291955 -0.017471 -0.190171 -0.119153 -0.249172 0.061327 0.223414 0.162274 0.0584114 -0.0347456 0.270058 -0.136778 -0.213351 -0.570079 -0.836857 -0.43303 -0.765827 -0.449466 0.0162073 0.217584 0.00226773 -0.0097676 0.0581193 -0.301947
internal_weight=52612 39729 12883 27384 6710 12345 4456 11193 2707 2006 1166 840 13104 5671 2506 1876 7433 2464 1769 2254 6173 1014 3246 1749 8729 565 8164 7871 695 1310
internal_count=52612 39729 12883 27384 6710 12345 4456 11193 2707 2006 1166 840 13104 5671 2506 1876 7433 2464 1769 2254 6173 1014 3246 1749 8729 565 8164 7871 695 1310
is_linear=0
shrinkage=0.05


Tree=28
num_leaves=31
num_cat=0
split_feature=7 7 7 7 38 7 2 18 18 18 37 7 18 31 7 32 10 14 19 38 28 38 18 18 7 38 18 38 35 35
split_gain=2.23147e+06 437747 168305 56796.2 37695.9 37197.7 20446 13590.2 13488.1 17483.9 23377.9 24090.5 15756 12876.1 12558.2 12521.7 12773.2 10967.3 10965.2 15113.7 12822.1 12096.5 10937.2 9727.55 16982.6 9629.54 9608.09 8236.63 8032.94 7988.33
threshold=24.814500000000006 14.957500000000001 40.281000000000006 10.036500000000002 48.463500000000003 19.825000000000006 58.185500000000005 0.95400000000000007 0.88550000000000006 0.96450000000000002 0.37350000000000005 12.459500000000002 0.72450000000000003 -0.63149999999999984 74.911000000000016 0.74450000000000005 57.708500000000008 3225.5000000000005 99.696500000000015 55.233000000000011 54.645000000000003 71.587000000000003 0.75650000000000006 0.88750000000000007 31.125500000000006 65.554000000000016 0.74550000000000016 36.106000000000002 0.85850000000000015 0.97550000000000014
decision_type=2 2 2 2 2 2 2 2 2 2 2 2 2 2 2 2 2 2 2 2 2 2 2 2 2 2 2 2 2 2
left_child=1 3 4 -1 29 13 7 23 12 10 -10 -12 -5 22 17 16 27 -4 19 20 -7 -20 -3 -6 -25 -8 -17 -15 -21 -2
right_child=2 5 14 8 6 18 25 -9 9 -11 11 -13 -14 15 -16 26 -18 -19 21 28 -22 -23 -24 24 -26 -27 -28 -29 -30 -31
leaf_value=0.35639834165447482 -0.65269936343767132 -0.13015554502653401 -0.75607303171359008 -0.10863634618959693 -0.25086470590065429 -0.063491630905786064 -0.68428189104648895 -0.41265335621621357 0.31899550009144617 0.23228020657483961 0.26788146355030279 -0.13969218660754912 0.27106454762390347 -0.30115322972370162 -0.88541029967560281 -0.12193911672992115 0.21261925480640548 -0.32495923036495489 -0.36698540291114323 -0.16410042112747544 -0.29293727405943887 -0.026263096320092834 0.51116447514508556 0.18456405832245387 -0.32438565122897522 -0.36521911653023187 0.37893313416390884 -0.028399195992973299 0.10904456929006134 -0.45826156472146429
leaf_weight=14280 1244 95 3648 284 767 1093 370 579 630 3165 491 1385 7149 288 2371 132 541 154 1064 394 1375 345 221 465 253 657 348 7054 849 921
leaf_count=14280 1244 95 3648 284 767 1093 370 579 630 3165 491 1385 7149 288 2371 132 541 154 1064 394 1375 345 221 465 253 657 348 7054 849 921
internal_value=0.000159448 0.171701 -0.617964 0.287418 -0.410011 -0.0579386 -0.297926 -0.207195 0.212244 0.154161 0.0554918 -0.0330079 0.256555 0.00511394 -0.795016 -0.00672553 -0.0218245 -0.738621 -0.164819 -0.119724 -0.191332 -0.283569 0.318367 -0.127062 0.00519946 -0.480229 0.241186 -0.039103 0.0224542 -0.570012
internal_weight=52612 41183 11429 27384 5256 13799 3091 2064 13104 5671 2506 1876 7433 8679 6173 8363 7883 3802 5120 3711 2468 1409 316 1485 718 1027 480 7342 1243 2165
internal_count=52612 41183 11429 27384 5256 13799 3091 2064 13104 5671 2506 1876 7433 8679 6173 8363 7883 3802 5120 3711 2468 1409 316 1485 718 1027 480 7342 1243 2165
is_linear=0
shrinkage=0.05


Tree=29
num_leaves=31
num_cat=0
split_feature=7 7 7 7 38 7 9 17 17 17 37 7 18 18 32 32 10 7 17 17 14 17 7 17 38 17 17 35 38 5
split_gain=2.01391e+06 395068 151894 51258.4 34020.3 33571.4 19278.2 14330.5 12172.8 15779.1 21098.8 21742 14220 11803 20409.4 19075.2 13191.9 11458.3 10655.9 14174 8903.31 8523.23 9182.62 8217.72 7575.2 7561.48 19017.7 7209.37 7642.72 6332.5
threshold=24.814500000000006 14.957500000000001 40.281000000000006 10.036500000000002 48.463500000000003 19.825000000000006 0.55850000000000011 13.159500000000001 36.448 7.5245000000000006 0.37350000000000005 12.459500000000002 0.72450000000000003 0.73450000000000004 -1.0000000180025095e-35 0.74450000000000005 39.795500000000011 60.657500000000006 1.4305000000000001 7.5245000000000006 3225.5000000000005 26.955000000000002 31.603500000000004 26.967000000000002 65.554000000000016 89.90300000000002 26.967000000000002 0.97550000000000014 36.728000000000002 2.2045000000000008
decision_type=2 2 2 2 2 2 2 2 2 2 2 2 2 2 2 2 2 2 2 2 2 2 2 2 2 2 2 2 2 2
left_child=1 3 4 -1 27 13 7 -6 9 -5 -11 -12 -10 -3 -15 16 -16 20 -7 -20 -4 22 -9 -23 29 26 -21 -2 -29 -8
right_child=2 5 17 8 6 18 24 21 12 10 11 -13 -14 14 15 -17 -18 -19 19 25 -22 23 -24 -25 -26 -27 -28 28 -30 -31
leaf_value=0.33857854122088177 -0.62006702108232181 -0.1165755084681248 -0.69736962366132049 0.22066656298473328 -0.38768653243479106 -0.75597598379842257 -0.38198738724632464 0.17021132776747189 -0.10320643981510276 0.30304825621131037 0.25449011621492701 -0.13270808225008443 0.25751150772334802 0.49810435460461494 -0.025516456102051735 0.36790199533076484 0.2204437311433195 -0.81233412213589673 0.31063058898172669 -0.2065851039811494 -0.30238463066660365 -0.3891180778470964 -0.36980130664933747 -0.001722007535176813 -0.32354886932176169 -0.31645731075923289 0.027233033135972709 -0.64058044189608676 -0.3341375318121782 -0.71582799645368622
leaf_weight=14280 1244 1626 2391 3165 485 73 275 457 284 630 491 1385 7149 228 5857 367 601 3630 163 2962 152 282 95 266 936 691 1231 304 617 295
leaf_count=14280 1244 1626 2391 3165 485 73 275 457 284 630 491 1385 7149 228 5857 367 601 3630 163 2962 152 282 95 266 936 691 1231 304 617 295
internal_value=0.000151035 0.163116 -0.587068 0.273047 -0.389513 -0.0550419 -0.283033 -0.161296 0.201632 0.146454 0.0527181 -0.031357 0.243727 0.00485849 0.0328559 0.0173057 -0.00262286 -0.755267 -0.156579 -0.147894 -0.673775 -0.0614471 0.0772152 -0.201119 -0.411134 -0.163204 -0.13794 -0.541514 -0.435351 -0.554869
internal_weight=52612 41183 11429 27384 5256 13799 3091 1585 13104 5671 2506 1876 7433 8679 7053 6825 6458 6173 5120 5047 2543 1100 552 548 1506 4884 4193 2165 921 570
internal_count=52612 41183 11429 27384 5256 13799 3091 1585 13104 5671 2506 1876 7433 8679 7053 6825 6458 6173 5120 5047 2543 1100 552 548 1506 4884 4193 2165 921 570
is_linear=0
shrinkage=0.05


Tree=30
num_leaves=31
num_cat=0
split_feature=7 7 7 17 7 38 35 17 7 9 17 38 17 38 17 19 17 17 10 19 32 33 17 32 17 30 17 7 38 7
split_gain=1.83104e+06 282544 209026 40864.6 32857.4 26722.6 17112.3 16918.9 16224.4 15348 13982.5 13314.1 13233.9 11296.5 10227.8 9469.68 9196.05 21395.8 22383.7 16372 7883.42 7737.5 9271.82 7633.23 17852 7526.46 7470.45 7366.82 7065.88 6776.82
threshold=20.729500000000005 31.603500000000004 12.5265 1.4305000000000001 14.957500000000001 40.927500000000002 0.78650000000000009 1.4305000000000001 9.9725000000000019 1.2090000000000003 89.90300000000002 55.380500000000005 9.9090000000000025 41.761000000000003 1.4305000000000001 59.177500000000009 36.448 7.5245000000000006 55.041500000000006 119.52550000000001 -2.3254999999999995 5.416500000000001 44.938500000000005 1.0000000180025095e-35 89.867000000000019 -0.16349999999999998 89.867000000000019 26.398000000000003 39.692500000000003 16.710500000000003
decision_type=2 2 2 2 2 2 2 2 2 2 2 2 2 2 2 2 2 2 2 2 2 2 2 2 2 2 2 2 2 2
left_child=2 5 8 -3 16 27 -5 -7 -1 11 14 12 -9 -8 -6 -13 17 -4 19 -19 -10 -11 -23 -22 -25 26 -16 -2 -27 -12
right_child=1 3 4 6 10 7 13 9 20 21 29 15 -14 -15 25 -17 -18 18 -20 -21 23 22 -24 24 -26 28 -28 -29 -30 -31
leaf_value=0.3224064202755319 -0.30414657695149283 -0.75315963725993451 0.24160300541360408 -0.71585629973647658 -1.088030793429551 -0.62579594875996036 -0.61920803143427916 -0.39881985391527441 0.39749263545260155 -0.34367914364024027 0.080687087961650708 0.32912057022799357 -0.12168711103418856 -0.37803068636574072 0.34264272105250132 -0.043610502890158657 0.21475356540232951 -0.39173659948960987 0.24880715067389586 -0.014503622226584799 0.19063012740196938 -0.28941034385873005 0.091955563551715983 0.56908723945159112 0.17405586776375823 -0.76143060316675126 -0.081924308968718954 -0.56182265821967048 0.0059942454720803917 -0.29589171756109156
leaf_weight=14114 468 4897 1355 834 21 220 698 527 650 1579 151 222 2359 1599 325 732 2585 406 564 986 5588 409 261 472 726 30 152 683 8515 571
leaf_count=14114 468 4897 1355 834 21 220 698 527 650 1579 151 222 2359 1599 325 732 2585 406 564 986 5588 409 261 472 726 30 152 683 8515 571
internal_value=-0.00025183 -0.457081 0.189891 -0.662945 0.0508791 -0.235537 -0.521824 -0.195109 0.290913 -0.179537 -0.0053962 -0.118779 -0.172307 -0.451344 0.0115102 0.0431458 0.144082 0.0889001 -0.0168878 -0.124554 0.231134 -0.283265 -0.140849 0.215193 0.329733 0.0140821 0.207352 -0.457091 0.00329049 -0.217126
internal_weight=52699 15488 37211 8028 15661 7460 3131 6309 21550 6089 9765 3840 2886 2297 9043 954 5896 3311 1956 1392 7436 2249 670 6786 1198 9022 477 1151 8545 722
internal_count=52699 15488 37211 8028 15661 7460 3131 6309 21550 6089 9765 3840 2886 2297 9043 954 5896 3311 1956 1392 7436 2249 670 6786 1198 9022 477 1151 8545 722
is_linear=0
shrinkage=0.05


Tree=31
num_leaves=31
num_cat=0
split_feature=10 3 17 17 10 17 17 37 10 17 1 17 17 11 13 10 17 37 8 0 23 35 8 17 17 23 35 29 37 37
split_gain=574407 328698 240376 152130 116908 109852 87955.3 70509.5 87761.9 61729 46685.6 27198.2 25207.1 15904.7 12399.1 10242.3 9790.31 8867.36 6762.83 6427.91 5916.35 5893.64 5335.59 5074.98 5944.45 4784.05 4342.89 4339.19 4178.85 3712.79
threshold=43.959500000000006 1.4055000000000002 9.9090000000000025 26.967000000000002 3.9745000000000004 7.5245000000000006 1.0435000000000001 0.5445000000000001 19.884500000000006 99.967000000000013 70.28700000000002 36.448 3.8330000000000006 9.3335000000000026 -4.6514999999999995 46.812500000000007 44.938500000000005 0.10050000000000002 6.0155000000000003 57.467000000000006 0.096500000000000016 0.78650000000000009 3.2365000000000008 99.967000000000013 44.938500000000005 -0.062499999999999993 0.93150000000000011 32.701000000000008 0.81000000000000016 0.16550000000000004
decision_type=2 2 2 2 2 2 2 2 2 2 2 2 2 2 2 2 2 2 2 2 2 2 2 2 2 2 2 2 2 2
left_child=1 4 -2 17 10 -3 -6 9 12 11 13 -8 -9 19 20 26 18 -4 -12 28 -7 -17 -18 24 -15 -16 -5 -19 -1 -23
right_child=2 5 3 15 6 14 7 8 -10 -11 16 -13 -14 23 25 21 22 27 -20 -21 -22 29 -24 -25 -26 -27 -28 -29 -30 -31
leaf_value=0.17505580699332457 -0.70852947062317417 -0.70837087876201776 -0.10369703626964658 -0.36028593145959653 -0.74689314768599724 -0.20602921627924822 0.078475017068605407 0.15426712587685032 -0.43531506255038632 -0.22591245294105566 -0.16219580443205575 0.26041505748939447 -0.03151307346568346 0.035395765557666985 0.5886617964436841 -0.8149575764905781 -0.53227265109504318 0.10341395471674229 0.026313141337291159 0.0098221756256800727 -0.52830945608884694 -0.46228495135572073 0.1933331984119657 -0.2912649664241872 0.21490582947400144 -0.050482139652420169 0.13575743898528148 0.27320700609063941 0.26521862627639248 -0.64525925769295822
leaf_weight=1437 3466 1596 438 109 360 457 3447 2300 1248 1013 631 5084 8855 1038 30 192 26 1580 1933 271 207 913 867 80 830 1071 74 494 12252 400
leaf_count=1437 3466 1596 438 109 360 457 3447 2300 1248 1013 631 5084 8855 1038 30 192 26 1580 1933 271 207 913 867 80 830 1071 74 494 12252 400
internal_value=-0.000239692 0.0678684 -0.400329 -0.145978 0.106232 -0.407778 0.0282023 0.0409199 -0.0376953 0.143085 0.196115 0.186903 0.00679271 0.232306 -0.135939 -0.513057 0.0295757 0.100699 -0.0200814 0.250982 -0.306571 -0.556006 0.172144 0.0984587 0.115167 -0.0330104 -0.159708 0.14387 0.255756 -0.518076
internal_weight=52699 45033 7666 4200 41672 3361 22307 21947 12403 9544 19365 8531 11155 15908 1765 1688 3457 2512 2564 13960 664 1505 893 1948 1868 1101 183 2074 13689 1313
internal_count=52699 45033 7666 4200 41672 3361 22307 21947 12403 9544 19365 8531 11155 15908 1765 1688 3457 2512 2564 13960 664 1505 893 1948 1868 1101 183 2074 13689 1313
is_linear=0
shrinkage=0.05


Tree=32
num_leaves=31
num_cat=0
split_feature=7 7 7 17 7 17 17 7 19 7 17 38 14 2 38 19 17 31 31 17 7 10 38 3 3 17 7 30 17 17
split_gain=1.52454e+06 226177 176076 31188.4 28015.1 22963.9 16390.6 13826.2 13465.4 12108.4 12097 11243.4 15636.4 11166.5 13108.2 10118.6 8158.76 7509.83 6310.65 13780.7 6130.82 5091.05 5023.45 4613.86 4187.2 4110.09 3923.36 7195.54 4333.92 3451.61
threshold=20.729500000000005 31.603500000000004 12.5265 1.4305000000000001 16.258500000000002 89.90300000000002 1.4305000000000001 9.9725000000000019 98.784000000000006 26.739500000000003 89.90300000000002 39.692500000000003 605.50000000000011 318.66350000000006 41.761000000000003 107.49450000000002 1.4305000000000001 -1.2794999999999999 1.0000000180025095e-35 89.867000000000019 40.281000000000006 61.494500000000009 39.692500000000003 1.2735000000000001 1.3685000000000003 7.5245000000000006 14.957500000000001 -0.16349999999999998 99.967000000000013 99.967000000000013
decision_type=2 2 2 2 2 2 2 2 2 2 2 2 2 2 2 2 2 2 2 2 2 2 2 2 2 2 2 2 2 2
left_child=2 5 7 -3 15 6 -2 -1 11 -7 16 -8 -13 14 20 24 -6 -9 21 -20 -5 29 -18 -16 26 -17 28 -28 -4 -19
right_child=1 3 4 13 10 9 8 17 -10 -11 -12 12 -14 -15 23 25 22 18 19 -21 -22 -23 -24 -25 -26 -27 27 -29 -30 -31
leaf_value=0.29506343114830552 -0.58102061290268203 -0.68007572144899808 0.17874966927097452 -0.47874360325432108 -1.0139004825952633 -0.28297758099699999 -0.41264635872509214 0.38966582174840991 -0.29375852054514501 -0.60813483070932295 -0.23814248705798513 -0.15923717171638785 0.056739838280786214 -0.67216837375515437 -0.40088380556235442 0.18162430541796687 -0.61017830301939213 0.17339879473776382 0.47678989177828418 0.14702340257939914 -0.75582260475936747 0.58282997614534182 -0.0016712366091992633 -0.21166792879301499 -0.17996251656328138 -0.012845263929725133 0.40114659437568456 0.052765191106814928 -0.07235506576143251 -0.13695089440183505
leaf_weight=14114 246 4897 4247 471 20 669 309 544 1515 501 628 3067 1153 599 1282 316 34 5448 581 697 348 75 6307 431 102 1934 162 1732 179 91
leaf_count=14114 246 4897 4247 471 20 669 309 544 1515 501 628 3067 1153 599 1282 316 34 5448 581 697 348 75 6307 431 102 1934 162 1732 179 91
internal_value=-0.000228144 -0.417073 0.173272 -0.601261 0.0456863 -0.218855 -0.181013 0.265991 -0.164722 -0.422256 -0.0288048 -0.121551 -0.100226 -0.477972 -0.432004 0.105721 -0.00813336 0.210806 0.196682 0.29697 -0.596561 0.173846 -0.00494437 -0.353294 0.137689 0.0144715 0.14282 0.0825856 0.168592 0.168297
internal_weight=52699 15488 37211 8028 15661 7460 6290 21550 6044 1170 6989 4529 4220 3131 2532 8672 6361 7436 6892 1278 819 5614 6341 1713 6422 2250 6320 1894 4426 5539
internal_count=52699 15488 37211 8028 15661 7460 6290 21550 6044 1170 6989 4529 4220 3131 2532 8672 6361 7436 6892 1278 819 5614 6341 1713 6422 2250 6320 1894 4426 5539
is_linear=0
shrinkage=0.05


Tree=33
num_leaves=31
num_cat=0
split_feature=10 3 18 18 38 18 35 38 18 38 18 18 18 38 18 10 2 18 38 30 10 37 38 2 9 23 35 35 38 35
split_gain=465656 266712 196686 125642 116227 102681 100101 62438 100099 44265 32109 40380.6 27302.7 16169.3 14782 12650.5 11565.3 10034.9 9404.13 9307.18 8481.56 7318.2 6949.58 6759.07 6404.25 5972.42 5038.72 4997.72 5741.19 4447.27
threshold=43.959500000000006 1.3605000000000003 0.98350000000000015 0.89350000000000007 43.50950000000001 0.96450000000000002 0.91350000000000009 56.703500000000012 0.88550000000000006 63.905500000000011 0.88550000000000006 0.96450000000000002 0.83050000000000013 54.658500000000011 0.88550000000000006 7.838000000000001 261.85900000000009 0.72450000000000003 52.969500000000004 -1.0000000180025095e-35 46.812500000000007 0.10050000000000002 53.245500000000007 77.075500000000019 1.0995000000000001 0.096500000000000016 0.78650000000000009 0.84950000000000003 69.185500000000019 0.63950000000000007
decision_type=2 2 2 2 2 2 2 2 2 2 2 2 2 2 2 2 2 2 2 2 2 2 2 2 2 2 2 2 2 2
left_child=1 4 3 20 14 15 9 8 19 12 -11 -12 18 -10 17 27 24 -1 -6 -8 -2 -5 -23 -14 -9 -17 -22 28 -3 -24
right_child=2 5 -4 21 6 -7 7 16 13 10 11 -13 23 -15 -16 25 -18 -19 -20 -21 26 22 29 -25 -26 -27 -28 -29 -30 -31
