{"learner":{"attributes":{"best_iteration":"153","best_score":"0.1655375674784664","scikit_learn":"{\"_estimator_type\": \"classifier\"}"},"feature_names":["Real_Return_3Y","Real_Return_5Y","Real_Return_10Y","PP_Multiplier_1Y","PP_Multiplier_5Y","PP_Multiplier_10Y","PP_vs_Cash_5Y","Volatility_90D","Sharpe_Ratio_5Y","Calmar_Ratio_5Y","Max_Drawdown","Distance_From_MA_200D_Pct","Distance_From_MA_50D_Pct","Distance_From_ATH_Pct","Days_Since_ATH","Momentum_50D","Momentum_200D","Market_Cap_Saturation_Pct","Growth_Potential_Multiplier","Composite_Score_5Y","Vol_Adj_PP_Score_5Y","Correlation_With_SP500","Correlation_With_Gold","CPI_Correlation","Scarcity_Score","Days_Since_Bitcoin_Halving","Bitcoin_Cycle_Year","Real_PP_Index","Eggs_Per_100USD","Milk_Gallons_Per_100USD","Real_Return_Eggs_1Y","Real_Return_Milk_1Y","Recession_Risk","Yield_Curve_Inverted","PP_Stability_Index","Return_Consistency","Recovery_Strength","PPP_Q_Composite_Score"],"feature_types":["float","float","float","float","float","float","float","float","float","float","float","float","float","float","int","float","float","float","float","float","float","float","float","float","float","int","float","float","float","float","float","float","float","int","float","float","float","float"],"gradient_booster":{"model":{"cats":{"enc":[],"feature_segments":[],"sorted_idx":[]},"gbtree_model_param":{"num_parallel_tree":"1","num_trees":"816"},"iteration_indptr":[0,4,8,12,16,20,24,28,32,36,40,44,48,52,56,60,64,68,72,76,80,84,88,92,96,100,104,108,112,116,120,124,128,132,136,140,144,148,152,156,160,164,168,172,176,180,184,188,192,196,200,204,208,212,216,220,224,228,232,236,240,244,248,252,256,260,264,268,272,276,280,284,288,292,296,300,304,308,312,316,320,324,328,332,336,340,344,348,352,356,360,364,368,372,376,380,384,388,392,396,400,404,408,412,416,420,424,428,432,436,440,444,448,452,456,460,464,468,472,476,480,484,488,492,496,500,504,508,512,516,520,524,528,532,536,540,544,548,552,556,560,564,568,572,576,580,584,588,592,596,600,604,608,612,616,620,624,628,632,636,640,644,648,652,656,660,664,668,672,676,680,684,688,692,696,700,704,708,712,716,720,724,728,732,736,740,744,748,752,756,760,764,768,772,776,780,784,788,792,796,800,804,808,812,816],"tree_info":[0,1,2,3,0,1,2,3,0,1,2,3,0,1,2,3,0,1,2,3,0,1,2,3,0,1,2,3,0,1,2,3,0,1,2,3,0,1,2,3,0,1,2,3,0,1,2,3,0,1,2,3,0,1,2,3,0,1,2,3,0,1,2,3,0,1,2,3,0,1,2,3,0,1,2,3,0,1,2,3,0,1,2,3,0,1,2,3,0,1,2,3,0,1,2,3,0,1,2,3,0,1,2,3,0,1,2,3,0,1,2,3,0,1,2,3,0,1,2,3,0,1,2,3,0,1,2,3,0,1,2,3,0,1,2,3,0,1,2,3,0,1,2,3,0,1,2,3,0,1,2,3,0,1,2,3,0,1,2,3,0,1,2,3,0,1,2,3,0,1,2,3,0,1,2,3,0,1,2,3,0,1,2,3,0,1,2,3,0,1,2,3,0,1,2,3,0,1,2,3,0,1,2,3,0,1,2,3,0,1,2,3,0,1,2,3,0,1,2,3,0,1,2,3,0,1,2,3,0,1,2,3,0,1,2,3,0,1,2,3,0,1,2,3,0,1,2,3,0,1,2,3,0,1,2,3,0,1,2,3,0,1,2,3,0,1,2,3,0,1,2,3,0,1,2,3,0,1,2,3,0,1,2,3,0,1,2,3,0,1,2,3,0,1,2,3,0,1,2,3,0,1,2,3,0,1,2,3,0,1,2,3,0,1,2,3,0,1,2,3,0,1,2,3,0,1,2,3,0,1,2,3,0,1,2,3,0,1,2,3,0,1,2,3,0,1,2,3,0,1,2,3,0,1,2,3,0,1,2,3,0,1,2,3,0,1,2,3,0,1,2,3,0,1,2,3,0,1,2,3,0,1,2,3,0,1,2,3,0,1,2,3,0,1,2,3,0,1,2,3,0,1,2,3,0,1,2,3,0,1,2,3,0,1,2,3,0,1,2,3,0,1,2,3,0,1,2,3,0,1,2,3,0,1,2,3,0,1,2,3,0,1,2,3,0,1,2,3,0,1,2,3,0,1,2,3,0,1,2,3,0,1,2,3,0,1,2,3,0,1,2,3,0,1,2,3,0,1,2,3,0,1,2,3,0,1,2,3,0,1,2,3,0,1,2,3,0,1,2,3,0,1,2,3,0,1,2,3,0,1,2,3,0,1,2,3,0,1,2,3,0,1,2,3,0,1,2,3,0,1,2,3,0,1,2,3,0,1,2,3,0,1,2,3,0,1,2,3,0,1,2,3,0,1,2,3,0,1,2,3,0,1,2,3,0,1,2,3,0,1,2,3,0,1,2,3,0,1,2,3,0,1,2,3,0,1,2,3,0,1,2,3,0,1,2,3,0,1,2,3,0,1,2,3,0,1,2,3,0,1,2,3,0,1,2,3,0,1,2,3,0,1,2,3,0,1,2,3,0,1,2,3,0,1,2,3,0,1,2,3,0,1,2,3,0,1,2,3,0,1,2,3,0,1,2,3,0,1,2,3,0,1,2,3,0,1,2,3,0,1,2,3,0,1,2,3,0,1,2,3,0,1,2,3,0,1,2,3,0,1,2,3,0,1,2,3,0,1,2,3,0,1,2,3,0,1,2,3,0,1,2,3,0,1,2,3,0,1,2,3,0,1,2,3,0,1,2,3,0,1,2,3,0,1,2,3,0,1,2,3,0,1,2,3,0,1,2,3,0,1,2,3,0,1,2,3,0,1,2,3,0,1,2,3,0,1,2,3,0,1,2,3,0,1,2,3,0,1,2,3,0,1,2,3,0,1,2,3,0,1,2,3,0,1,2,3,0,1,2,3,0,1,2,3,0,1,2,3,0,1,2,3,0,1,2,3],"trees":[{"base_weights":[1.4272061E-1,-6.2489456E-1,1.8395332E0,-1.3156665E-2,-6.708201E-1,-3.40248E-2,9.3286745E-2,-3.4137648E-2,9.1523564E-1,-6.732701E-1,-2.2171964E-1,3.3753034E-1,1.8327748E0,-5.132659E-1,-6.775502E-1,3.7451553E-1,-3.4541768E-1,-6.496329E-1,9.314593E-2,3.7606035E-3,1.8451093E0,-3.41251E-2,1.0705751E0,-3.4151435E-2,-6.57807E-1,-1.3127476E-1,1.1822228E0,-3.9537513E-1,4.0983883E-1,8.633892E-2,-3.4097176E-2,5.475371E-2,1.8512554E0,1.8104384E0,-3.3302978E-2,7.347957E-1,-6.7136294E-1,-4.8784217E-1,5.475371E-2,3.7606035E-3,1.5114522E0,-2.8393427E-1,-3.361945E-2,4.6700694E-2,-2.7562503E-2,9.287523E-2,6.2086947E-2,4.2914484E-2,9.263979E-2,9.233431E-2,-3.3443335E-2,-3.3930305E-2,4.474388E-2,-3.240204E-2,3.7606035E-3,8.745007E-2,4.2914484E-2,2.7913466E-2,-1.9951811E-2],"categories":[],"categories_nodes":[],"categories_segments":[],"categories_sizes":[],"default_left":[0,0,0,0,0,0,0,0,0,0,0,0,0,0,0,0,0,0,0,0,0,0,0,0,0,0,0,0,0,0,0,0,0,0,0,0,0,0,0,0,0,0,0,0,0,0,0,0,0,0,0,0,0,0,0,0,0,0,0],"id":0,"left_children":[1,3,5,7,9,-1,-1,-1,11,13,15,17,19,21,23,25,27,29,-1,-1,31,-1,33,-1,35,37,39,41,43,-1,-1,-1,45,47,-1,49,51,53,-1,-1,55,57,-1,-1,-1,-1,-1,-1,-1,-1,-1,-1,-1,-1,-1,-1,-1,-1,-1],"loss_changes":[2.6811506E4,3.9811035E2,4.2360156E2,6.154507E2,1.4400879E1,0E0,0E0,0E0,2.1959344E2,8.825195E0,5.312712E0,3.8381216E2,3.2663574E0,9.1868675E1,1.2021484E0,5.1302056E0,2.2686133E0,1.1890198E1,0E0,0E0,2.355957E-1,0E0,4.270822E1,0E0,5.2527832E1,3.2960634E0,1.5823097E0,1.6203394E0,1.9190037E0,0E0,0E0,0E0,5.908203E-2,5.0746155E-1,0E0,4.203572E1,3.1276611E1,6.020129E-1,0E0,0E0,1.5254116E-1,3.9334395E0,0E0,0E0,0E0,0E0,0E0,0E0,0E0,0E0,0E0,0E0,0E0,0E0,0E0,0E0,0E0,0E0,0E0],"parents":[2147483647,0,0,1,1,2,2,3,3,4,4,8,8,9,9,10,10,11,11,12,12,13,13,14,14,15,15,16,16,17,17,20,20,22,22,24,24,25,25,26,26,27,27,28,28,32,32,33,33,35,35,36,36,37,37,40,40,41,41],"right_children":[2,4,6,8,10,-1,-1,-1,12,14,16,18,20,22,24,26,28,30,-1,-1,32,-1,34,-1,36,38,40,42,44,-1,-1,-1,46,48,-1,50,52,54,-1,-1,56,58,-1,-1,-1,-1,-1,-1,-1,-1,-1,-1,-1,-1,-1,-1,-1,-1,-1],"split_conditions":[7.0026E1,1.21E-1,9.51E-1,6.4946E1,6.988E1,-3.40248E-2,9.3286745E-2,-3.4137648E-2,8.07E-1,1.33E-1,1.008E0,5.2E-1,9.19E-1,6.4946E1,6.4946E1,9.9E-1,3.27E2,-6.261E0,9.314593E-2,3.7606035E-3,1.028E0,-3.41251E-2,5.4399E1,-3.4151435E-2,-3.5101E1,9.42E-1,9.27E-1,4.2E1,8.09E-1,8.633892E-2,-3.4097176E-2,5.475371E-2,9.58E-1,-3.253E0,-3.3302978E-2,4.3331E1,1.039E3,1.9584E1,5.475371E-2,3.7606035E-3,1.6454E1,1.081E0,-3.361945E-2,4.6700694E-2,-2.7562503E-2,9.287523E-2,6.2086947E-2,4.2914484E-2,9.263979E-2,9.233431E-2,-3.3443335E-2,-3.3930305E-2,4.474388E-2,-3.240204E-2,3.7606035E-3,8.745007E-2,4.2914484E-2,2.7913466E-2,-1.9951811E-2],"split_indices":[37,36,17,37,37,0,0,0,18,36,3,31,3,37,37,12,14,12,0,0,4,0,17,0,0,34,3,14,34,0,0,0,34,0,0,1,14,0,0,0,0,3,0,0,0,0,0,0,0,0,0,0,0,0,0,0,0,0,0],"split_type":[0,0,0,0,0,0,0,0,0,0,0,0,0,0,0,0,0,0,0,0,0,0,0,0,0,0,0,0,0,0,0,0,0,0,0,0,0,0,0,0,0,0,0,0,0,0,0,0,0,0,0,0,0,0,0,0,0,0,0],"sum_hessian":[2.0584383E4,1.4172802E4,6.4115806E3,9.898677E2,1.3182935E4,6.591271E1,6.3456675E3,5.751669E2,4.147008E2,1.3111137E4,7.1797775E1,2.5462708E2,1.6007373E2,3.4251068E2,1.2768626E4,1.2162464E1,5.9635307E1,1.54581E2,1.0004608E2,1.1770127E0,1.5889671E2,3.0955432E2,3.2956356E1,9.988521E3,2.780104E3,7.4544134E0,4.7080507E0,5.610427E1,3.531038E0,1.9616878E0,1.5261931E2,1.5693502E0,1.5732736E2,2.3147917E1,9.808439E0,2.6678955E1,2.753425E3,5.885063E0,1.5693502E0,1.1770127E0,3.531038E0,4.041077E1,1.5693502E1,2.3540254E0,1.1770127E0,1.5536568E2,1.9616878E0,1.1770127E0,2.1970903E1,1.4908827E1,1.1770126E1,2.74087E3,1.2554802E1,4.7080507E0,1.1770127E0,2.3540254E0,1.1770127E0,4.7080507E0,3.5702717E1],"tree_param":{"num_deleted":"0","num_feature":"38","num_nodes":"59","size_leaf_vector":"1"}},{"base_weights":[1.142681E-1,4.6129206E-1,-6.5136516E-1,-5.18879E-1,1.4943444E0,9.462681E-2,-3.3947896E-2,-3.390988E-2,-8.044745E-2,7.4827486E-1,1.6898563E0,1.5659896E0,-2.558472E-1,4.737209E-3,1.8785444E0,7.706331E-1,1.8024235E0,9.474885E-2,-3.3596236E-2,-3.7953603E-1,1.7094591E0,-3.3935905E-2,1.8911223E0,1.7091427E0,9.481006E-2,1.1861162E0,-3.3885676E-2,8.799881E-1,1.8227423E0,1.2143158E0,-4.5158187E-1,9.468697E-2,-3.282638E-2,9.477472E-2,4.385131E-2,9.449064E-2,1.1231105E0,-3.9997336E-1,1.4143025E0,-3.374573E-2,9.460995E-2,1.6626179E0,1.8552425E0,9.4560586E-2,-3.3501144E-2,1.9269206E-2,-3.0918587E-2,-2.9836444E-2,7.155406E-2,9.254373E-2,-3.378696E-2,7.593932E-2,-2.4056155E-2,-2.8992986E-2,9.426885E-2,9.369549E-2,7.538338E-2],"categories":[],"categories_nodes":[],"categories_segments":[],"categories_sizes":[],"default_left":[0,0,0,0,0,0,0,0,0,0,0,0,0,0,0,0,0,0,0,0,0,0,0,0,0,0,0,0,0,0,0,0,0,0,0,0,0,0,0,0,0,0,0,0,0,0,0,0,0,0,0,0,0,0,0,0,0],"id":1,"left_children":[1,3,5,7,9,-1,-1,-1,11,13,15,17,19,21,23,25,27,-1,-1,29,31,-1,33,35,-1,37,-1,39,41,43,45,-1,-1,-1,-1,-1,47,49,51,-1,-1,53,55,-1,-1,-1,-1,-1,-1,-1,-1,-1,-1,-1,-1,-1,-1],"loss_changes":[5.433754E3,1.4249914E4,4.47729E2,5.04328E2,9.9905566E2,0E0,0E0,0E0,5.5581177E2,1.1956838E3,5.613447E2,1.3666742E2,4.228501E2,1.1070657E3,1.0041504E0,3.56705E2,9.02168E1,0E0,0E0,1.8794464E2,4.5148895E1,0E0,5.690918E-1,5.2929688E0,0E0,1.6684119E2,0E0,1.6477664E2,2.3964844E1,9.050192E1,2.186907E2,0E0,0E0,0E0,0E0,0E0,7.213318E0,3.5975746E1,7.99281E1,0E0,0E0,3.9979883E2,2.4892578E1,0E0,0E0,0E0,0E0,0E0,0E0,0E0,0E0,0E0,0E0,0E0,0E0,0E0,0E0],"parents":[2147483647,0,0,1,1,2,2,3,3,4,4,8,8,9,9,10,10,11,11,12,12,13,13,14,14,15,15,16,16,19,19,20,20,22,22,23,23,25,25,27,27,28,28,29,29,30,30,36,36,37,37,38,38,41,41,42,42],"right_children":[2,4,6,8,10,-1,-1,-1,12,14,16,18,20,22,24,26,28,-1,-1,30,32,-1,34,36,-1,38,-1,40,42,44,46,-1,-1,-1,-1,-1,48,50,52,-1,-1,54,56,-1,-1,-1,-1,-1,-1,-1,-1,-1,-1,-1,-1,-1,-1],"split_conditions":[7.0026E1,5.4984E1,9.51E-1,5.0004E1,4.694E1,9.462681E-2,-3.3947896E-2,-3.390988E-2,-5.5745E1,4.46E-1,1.21E-1,4.813E1,5.2E-1,5.9594E1,5.5126E1,5.2E-1,2.55E-1,9.474885E-2,-3.3596236E-2,-3.45E-1,9.35E-1,-3.3935905E-2,7.3E-1,1E1,9.481006E-2,2.9958E1,-3.3885676E-2,2.57E-1,6.0178E1,-3.1328E1,2.43E-1,9.468697E-2,-3.282638E-2,9.477472E-2,4.385131E-2,9.449064E-2,8.356E0,6.4946E1,3.96E-1,-3.374573E-2,9.460995E-2,1.8E0,2.076E3,9.4560586E-2,-3.3501144E-2,1.9269206E-2,-3.0918587E-2,-2.9836444E-2,7.155406E-2,9.254373E-2,-3.378696E-2,7.593932E-2,-2.4056155E-2,-2.8992986E-2,9.426885E-2,9.369549E-2,7.538338E-2],"split_indices":[37,37,17,37,19,0,0,0,13,17,36,7,31,37,37,31,34,0,0,31,4,0,0,14,0,29,0,36,37,13,3,0,0,0,0,0,7,37,30,0,0,17,14,0,0,0,0,0,0,0,0,0,0,0,0,0,0],"split_type":[0,0,0,0,0,0,0,0,0,0,0,0,0,0,0,0,0,0,0,0,0,0,0,0,0,0,0,0,0,0,0,0,0,0,0,0,0,0,0,0,0,0,0,0,0,0,0,0,0,0,0,0,0,0,0,0,0],"sum_hessian":[2.0451102E4,1.4072773E4,6.378327E3,7.221187E3,6.8515864E3,6.832951E1,6.3099976E3,5.2963135E3,1.9248734E3,1.4228844E3,5.428702E3,1.851885E2,1.7396849E3,8.583895E2,5.6449493E2,5.9244794E2,4.8362544E3,1.6150612E2,2.3682388E1,1.6368024E3,1.0288251E2,6.301068E2,2.2828268E2,5.4741257E1,5.097537E2,4.6044772E2,1.320002E2,1.0443545E2,4.731819E3,7.065893E1,1.5661434E3,9.550602E1,7.3764815E0,2.2711798E2,1.1647077E0,4.1541237E1,1.320002E1,5.7847145E1,4.026006E2,4.1153004E1,6.3282448E1,7.9976587E2,3.932053E3,5.2023605E1,1.8635323E1,2.6011804E2,1.3060255E3,1.9411793E0,1.1258841E1,6.211774E0,5.1635372E1,3.8163586E2,2.0964737E1,7.221187E1,7.27554E2,3.7309468E3,2.0110619E2],"tree_param":{"num_deleted":"0","num_feature":"38","num_nodes":"57","size_leaf_vector":"1"}},{"base_weights":[1.02512844E-1,1.1005499E0,-6.230735E-1,-2.9494488E-1,1.2562352E0,4.9339524E-1,-6.4607996E-1,9.0269053E-1,-5.231453E-1,9.2845815E-1,1.4343565E0,1.5020154E0,-1.10657476E-1,-6.625988E-1,-3.377302E-1,1.3670298E0,-1.8630648E-1,6.7059094E-1,-5.989248E-1,-4.2017812E-1,9.810964E-1,1.5277679E0,4.1226378E-1,1.8511112E0,-1.0247724E-1,-3.3238804E-1,9.450456E-2,1.6840521E0,-6.647816E-1,-5.8389413E-1,9.7670406E-1,-2.9577577E-1,1.5789708E0,-4.283506E-1,9.214524E-2,-3.3459317E-2,9.48423E-2,-6.117866E-1,1.3833314E0,-6.533942E-1,1.4419308E0,1.4817976E0,7.575665E-1,1.1045908E0,1.7532268E0,-8.76798E-2,1.8335044E0,4.5476393E-3,1.877946E0,9.093084E-2,-5.864995E-1,-4.5990562E-1,1.4324754E0,4.5476393E-3,9.387008E-2,-3.427731E-1,-6.7152566E-1,1.1184149E0,-6.579768E-1,-6.39218E-1,1.7759237E0,8.665017E-2,-3.2972302E-2,1.6636118E0,-3.1239524E-2,9.030297E-2,-6.1379206E-1,-6.538574E-1,-2.491133E-1,4.5476393E-3,9.093084E-2,4.4242818E-2,-3.377289E-2,9.3717836E-2,2.5233006E-1,1.5942115E0,5.571972E-1,1.8428609E0,6.668969E-1,1.3766457E0,3.623514E-1,1.7957387E0,7.893862E-1,9.49203E-2,-2.6746833E-1,1.8881564E0,-2.6113838E-1,9.528298E-2,4.5476393E-3,4.5476393E-3,-3.3149656E-2,2.0937532E-1,-6.074264E-1,9.353396E-2,-2.8771937E-2,8.512042E-1,-4.366538E-1,-6.7292273E-1,6.929706E-1,-3.209677E-2,1.6407044E0,4.4242818E-2,-6.621626E-1,-3.3582192E-2,4.5476393E-3,9.523449E-2,1.6002381E-1,-3.087759E-2,8.7152936E-2,4.5476393E-3,-3.209502E-2,-1.4016521E-2,-3.3506162E-2,-3.3720367E-2,7.928637E-2,-2.9740764E-2,8.3937995E-2,5.1470255E-3,8.202336E-2,7.9874836E-2,-3.4939663E-3,4.5476393E-3,9.284107E-2,3.7749257E-2,-3.1886544E-2,9.545747E-2,5.066641E-2,-1.8749807E-2,3.0394642E-2,9.085259E-2,4.5248877E-2,8.8081464E-2,-8.534358E-3,8.104589E-2,-2.4023153E-2,5.6275934E-2,9.487046E-2,4.5476393E-3,-2.8771937E-2,-2.6901577E-2,9.342693E-2,2.5901694E-2,-3.130805E-2,-3.1239524E-2,6.0407218E-2,-2.948505E-2,4.5025656E-3,-1.9479262E-3,-3.3697303E-2,9.3021624E-2,-3.2230265E-2,8.774243E-2,4.5476393E-3,1.199617E-3,-3.3316646E-2,-3.1239524E-2,8.665017E-2],"categories":[],"categories_nodes":[],"categories_segments":[],"categories_sizes":[],"default_left":[0,0,0,0,0,0,0,0,0,0,0,0,0,0,0,0,0,0,0,0,0,0,0,0,0,0,0,0,0,0,0,0,0,0,0,0,0,0,0,0,0,0,0,0,0,0,0,0,0,0,0,0,0,0,0,0,0,0,0,0,0,0,0,0,0,0,0,0,0,0,0,0,0,0,0,0,0,0,0,0,0,0,0,0,0,0,0,0,0,0,0,0,0,0,0,0,0,0,0,0,0,0,0,0,0,0,0,0,0,0,0,0,0,0,0,0,0,0,0,0,0,0,0,0,0,0,0,0,0,0,0,0,0,0,0,0,0,0,0,0,0,0,0,0,0,0,0,0,0,0,0,0,0,0,0,0,0],"id":2,"left_children":[1,3,5,7,9,11,13,15,17,19,21,23,25,27,29,31,33,35,37,39,41,43,45,47,49,51,-1,53,55,57,59,61,63,65,-1,-1,-1,67,69,71,73,75,77,79,81,83,85,-1,87,-1,89,91,93,-1,-1,95,97,99,101,103,105,-1,-1,107,-1,-1,109,111,113,-1,-1,-1,-1,-1,115,117,119,121,123,125,127,129,131,-1,133,135,137,-1,-1,-1,-1,139,141,-1,-1,143,145,147,149,-1,151,-1,153,-1,-1,-1,155,-1,-1,-1,-1,-1,-1,-1,-1,-1,-1,-1,-1,-1,-1,-1,-1,-1,-1,-1,-1,-1,-1,-1,-1,-1,-1,-1,-1,-1,-1,-1,-1,-1,-1,-1,-1,-1,-1,-1,-1,-1,-1,-1,-1,-1,-1,-1,-1,-1,-1],"loss_changes":[1.4709031E4,1.8578184E3,3.0214355E2,2.3455698E2,4.4875E2,1.4481306E2,5.8575684E1,6.958091E1,6.525377E1,1.9240356E2,4.7556152E2,5.004608E1,6.579839E1,5.6033203E1,1.8977983E2,3.4129196E1,2.0110598E1,7.0903244E1,1.7295319E1,4.420627E1,2.9147314E2,4.3517773E2,2.9688068E2,3.241394E0,1.4812597E1,3.0089558E1,0E0,2.9124947E0,2.3605957E1,6.2337906E1,1.19664734E2,8.065933E0,1.6160477E1,1.524834E1,0E0,0E0,0E0,1.0174637E1,2.2406578E0,3.1119843E0,5.5577774E0,8.33114E1,1.770365E2,3.2035803E2,1.2165234E2,1.1020252E2,1.2657379E1,0E0,3.348465E0,0E0,7.2942066E-1,1.2389212E1,8.14748E0,0E0,0E0,2.5179924E1,2.0447266E1,1.9132452E1,3.094864E0,7.895298E-1,1.2652206E1,0E0,0E0,1.5159378E1,0E0,0E0,7.3672104E-1,3.5527344E0,5.499045E1,0E0,0E0,0E0,0E0,0E0,4.06576E0,4.9275513E1,5.72159E1,3.1845703E0,1.9130481E2,2.2425269E2,7.718385E1,5.3722656E1,1.17903114E2,0E0,1.13963455E2,2.3223877E-1,3.6417115E-1,0E0,0E0,0E0,0E0,2.8158607E1,2.205124E0,0E0,0E0,8.739453E0,1.6857876E1,6.8618164E0,1.7298403E1,0E0,2.6205559E0,0E0,1.4177094E0,0E0,0E0,0E0,6.068633E0,0E0,0E0,0E0,0E0,0E0,0E0,0E0,0E0,0E0,0E0,0E0,0E0,0E0,0E0,0E0,0E0,0E0,0E0,0E0,0E0,0E0,0E0,0E0,0E0,0E0,0E0,0E0,0E0,0E0,0E0,0E0,0E0,0E0,0E0,0E0,0E0,0E0,0E0,0E0,0E0,0E0,0E0,0E0,0E0,0E0,0E0,0E0,0E0,0E0,0E0],"parents":[2147483647,0,0,1,1,2,2,3,3,4,4,5,5,6,6,7,7,8,8,9,9,10,10,11,11,12,12,13,13,14,14,15,15,16,16,17,17,18,18,19,19,20,20,21,21,22,22,23,23,24,24,25,25,27,27,28,28,29,29,30,30,31,31,32,32,33,33,37,37,38,38,39,39,40,40,41,41,42,42,43,43,44,44,45,45,46,46,48,48,50,50,51,51,52,52,55,55,56,56,57,57,58,58,59,59,60,60,63,63,66,66,67,67,68,68,74,74,75,75,76,76,77,77,78,78,79,79,80,80,81,81,82,82,84,84,85,85,86,86,91,91,92,92,95,95,96,96,97,97,98,98,100,100,102,102,106,106],"right_children":[2,4,6,8,10,12,14,16,18,20,22,24,26,28,30,32,34,36,38,40,42,44,46,48,50,52,-1,54,56,58,60,62,64,66,-1,-1,-1,68,70,72,74,76,78,80,82,84,86,-1,88,-1,90,92,94,-1,-1,96,98,100,102,104,106,-1,-1,108,-1,-1,110,112,114,-1,-1,-1,-1,-1,116,118,120,122,124,126,128,130,132,-1,134,136,138,-1,-1,-1,-1,140,142,-1,-1,144,146,148,150,-1,152,-1,154,-1,-1,-1,156,-1,-1,-1,-1,-1,-1,-1,-1,-1,-1,-1,-1,-1,-1,-1,-1,-1,-1,-1,-1,-1,-1,-1,-1,-1,-1,-1,-1,-1,-1,-1,-1,-1,-1,-1,-1,-1,-1,-1,-1,-1,-1,-1,-1,-1,-1,-1,-1,-1,-1],"split_conditions":[6.102E1,-3.1896E1,7.24E-1,2.86E-1,1.01266E2,1.111E0,3.4318E1,3.611E0,-9.7E-2,-8.61E-1,9.4397E1,6.8973E1,2.6647E1,-3.49E-1,1.066E3,6.42E-1,6.5818E1,6.2282E1,-1.84E-1,8.1E-2,8.17E-1,2.884E0,4.5056E1,1.1299E1,1.389E0,3.11E-1,9.450456E-2,1.4775E1,6.3786E1,1.44E0,3.2799E2,1.1476E1,1.02E0,3.8235E1,9.214524E-2,-3.3459317E-2,9.48423E-2,3.3557E1,8.12E-1,1.7029E1,-2.0898E1,1.3171E1,-5.84E-1,4.977E0,5.0165E1,1.05582E2,7.24E-1,4.5476393E-3,2.86E-1,9.093084E-2,3.8174E1,1.071E0,1.3611E1,4.5476393E-3,9.387008E-2,9.788E0,2.39173E2,1.4E-2,6.5233E1,3.0914E2,4.97131E2,8.665017E-2,-3.2972302E-2,-3.045E0,-3.1239524E-2,9.030297E-2,3.73E0,2.7031E1,-7.606E0,4.5476393E-3,9.093084E-2,4.4242818E-2,-3.377289E-2,9.3717836E-2,1.081E0,-4.2033E1,1.26E-1,-5.58E0,1.3029E1,-1.85E-1,-1.4981E1,4.646E1,8.12E-1,9.49203E-2,1.6177E1,-1.4981E1,1.31E-1,9.528298E-2,4.5476393E-3,4.5476393E-3,-3.3149656E-2,1.10797E2,1.166E0,9.353396E-2,-2.8771937E-2,3.2672E1,5.4927E1,-8.23E-1,2.636E1,-3.209677E-2,4.51E-1,4.4242818E-2,4.4303E1,-3.3582192E-2,4.5476393E-3,9.523449E-2,9.6757E1,-3.087759E-2,8.7152936E-2,4.5476393E-3,-3.209502E-2,-1.4016521E-2,-3.3506162E-2,-3.3720367E-2,7.928637E-2,-2.9740764E-2,8.3937995E-2,5.1470255E-3,8.202336E-2,7.9874836E-2,-3.4939663E-3,4.5476393E-3,9.284107E-2,3.7749257E-2,-3.1886544E-2,9.545747E-2,5.066641E-2,-1.8749807E-2,3.0394642E-2,9.085259E-2,4.5248877E-2,8.8081464E-2,-8.534358E-3,8.104589E-2,-2.4023153E-2,5.6275934E-2,9.487046E-2,4.5476393E-3,-2.8771937E-2,-2.6901577E-2,9.342693E-2,2.5901694E-2,-3.130805E-2,-3.1239524E-2,6.0407218E-2,-2.948505E-2,4.5025656E-3,-1.9479262E-3,-3.3697303E-2,9.3021624E-2,-3.2230265E-2,8.774243E-2,4.5476393E-3,1.199617E-3,-3.3316646E-2,-3.1239524E-2,8.665017E-2],"split_indices":[19,0,18,35,27,9,11,32,23,9,17,19,7,9,14,3,10,10,9,23,18,17,19,10,32,36,0,7,19,5,2,19,3,10,0,0,0,29,3,7,0,0,9,10,19,27,9,0,35,0,1,32,0,0,0,7,30,23,19,2,1,0,0,8,0,0,32,7,11,0,0,0,0,0,3,1,36,12,24,0,1,10,18,0,7,1,12,0,0,0,0,27,8,0,0,10,17,8,0,0,35,0,0,0,0,0,9,0,0,0,0,0,0,0,0,0,0,0,0,0,0,0,0,0,0,0,0,0,0,0,0,0,0,0,0,0,0,0,0,0,0,0,0,0,0,0,0,0,0,0,0,0,0,0,0,0,0],"split_type":[0,0,0,0,0,0,0,0,0,0,0,0,0,0,0,0,0,0,0,0,0,0,0,0,0,0,0,0,0,0,0,0,0,0,0,0,0,0,0,0,0,0,0,0,0,0,0,0,0,0,0,0,0,0,0,0,0,0,0,0,0,0,0,0,0,0,0,0,0,0,0,0,0,0,0,0,0,0,0,0,0,0,0,0,0,0,0,0,0,0,0,0,0,0,0,0,0,0,0,0,0,0,0,0,0,0,0,0,0,0,0,0,0,0,0,0,0,0,0,0,0,0,0,0,0,0,0,0,0,0,0,0,0,0,0,0,0,0,0,0,0,0,0,0,0,0,0,0,0,0,0,0,0,0,0,0,0],"sum_hessian":[2.0311533E4,8.550496E3,1.1761038E4,8.5810315E2,7.6923926E3,2.3733124E2,1.1523707E4,1.3721921E2,7.20884E2,2.708823E3,4.9835693E3,8.890258E1,1.4842865E2,1.0937337E4,5.863705E2,9.6246704E1,4.0972492E1,4.290516E1,6.779788E2,1.0165817E2,2.6071648E3,4.566114E3,4.174556E2,7.305473E1,1.5847852E1,1.337404E2,1.4688252E1,1.0049857E1,1.0927287E4,4.9398914E2,9.238138E1,1.0822923E1,8.542378E1,3.672063E1,4.2518625E0,2.0486246E1,2.2418911E1,6.737269E2,4.2518625E0,9.0448715E1,1.12094555E1,8.043751E2,1.8027898E3,1.5874908E3,2.978623E3,3.0883984E2,1.0861576E2,1.1595988E0,7.1895134E1,3.0922637E0,1.2755588E1,1.2485014E2,8.890258E0,1.1595988E0,8.890258E0,2.2457565E2,1.0702711E4,2.0486246E1,4.7350287E2,3.0536104E1,6.1845276E1,1.5461318E0,9.276791E0,8.233152E1,3.0922637E0,2.7057307E0,3.40149E1,6.033779E2,7.0349E1,1.1595988E0,3.0922637E0,1.1595988E0,8.9289116E1,8.117192E0,3.0922637E0,7.170186E2,8.735645E1,1.3876534E2,1.6640244E3,1.1615315E3,4.2595932E2,2.8526133E3,1.2600974E2,2.5511175E1,2.8332867E2,1.05910034E2,2.7057307E0,7.0735535E1,1.1595988E0,1.1595988E0,1.1595989E1,2.2418911E1,1.0243124E2,7.344126E0,1.5461318E0,1.6234385E1,2.0834126E2,1.0691889E4,1.0822923E1,4.6383953E0,1.5847852E1,1.1595988E0,4.723433E2,2.9376505E1,1.1595988E0,5.720688E1,4.6383953E0,2.7057307E0,7.962579E1,1.1595988E0,3.28553E1,2.5511175E1,5.7786676E2,5.720688E1,1.314212E1,1.9326649E0,1.1595988E0,2.1645845E1,6.953728E2,3.28553E1,5.450115E1,1.1595988E0,1.3760573E2,1.5588875E3,1.0513696E2,4.7079715E2,6.907344E2,1.0629656E2,3.1966275E2,2.7857432E3,6.68702E1,6.261834E1,6.3391407E1,2.860344E1,2.5472522E2,1.5461318E0,1.043639E2,1.1595988E0,1.5461318E0,1.5461319E1,6.9575934E0,1.5461318E0,1.008851E2,3.0922637E0,1.314212E1,1.6157079E2,4.677049E1,1.7393984E1,1.0674494E4,5.7979946E0,5.0249286E0,1.4688252E1,1.1595988E0,2.7057307E0,4.6963754E2,3.0922637E0,1.5461318E0],"tree_param":{"num_deleted":"0","num_feature":"38","num_nodes":"157","size_leaf_vector":"1"}},{"base_weights":[-4.3245378E-1,1.7601118E0,-3.150934E-2,2.2961795E0,7.285818E-1,2.3343816E0,-3.2275954E-1,2.3866038E0,-6.184495E-1,2.3769329E0,1.3358775E0,1.0889136E-1,-3.0843366E-2,9.5686847E-1,1.209283E-1,-3.1479433E-2,7.346352E-2,9.6997714E-1,2.404821E0,2.327752E0,-3.0877277E-2,1.14727296E-1,-2.8106248E-2,1.1916535E-1,-3.0527307E-2,1.2069239E-1,2.073038E0,1.2029667E-1,3.8035687E-2,2.6078506E-3,1.0925221E-1],"categories":[],"categories_nodes":[],"categories_segments":[],"categories_sizes":[],"default_left":[0,0,0,0,0,0,0,0,0,0,0,0,0,0,0,0,0,0,0,0,0,0,0,0,0,0,0,0,0,0,0],"id":3,"left_children":[1,3,-1,5,7,9,11,13,15,17,19,-1,-1,21,-1,-1,-1,23,25,27,-1,-1,-1,-1,-1,-1,29,-1,-1,-1,-1],"loss_changes":[7.474422E3,7.881538E2,0E0,9.4157715E1,1.0900282E3,3.86084E1,9.936885E0,9.4279785E0,6.270035E0,3.4228027E1,7.419025E1,0E0,0E0,1.0497295E1,0E0,0E0,0E0,3.9358425E1,1.6547852E0,2.6051483E0,0E0,0E0,0E0,0E0,0E0,0E0,5.2044525E0,0E0,0E0,0E0,0E0],"parents":[2147483647,0,0,1,1,3,3,4,4,5,5,6,6,7,7,8,8,9,9,10,10,13,13,17,17,18,18,19,19,26,26],"right_children":[2,4,-1,6,8,10,12,14,16,18,20,-1,-1,22,-1,-1,-1,24,26,28,-1,-1,-1,-1,-1,-1,30,-1,-1,-1,-1],"split_conditions":[4.0058E1,-1.84E-1,-3.150934E-2,1.3679E1,3.5059E1,8.1E-2,3.4138E1,1.671E1,5.1478E1,1.671E1,6.63E-1,1.0889136E-1,-3.0843366E-2,3.4138E1,1.209283E-1,-3.1479433E-2,7.346352E-2,3.5059E1,8.42E-1,-1.8021E1,-3.0877277E-2,1.14727296E-1,-2.8106248E-2,1.1916535E-1,-3.0527307E-2,1.2069239E-1,3.3E1,1.2029667E-1,3.8035687E-2,2.6078506E-3,1.0925221E-1],"split_indices":[37,9,0,20,37,23,37,7,7,7,35,0,0,37,0,0,0,37,4,0,0,0,0,0,0,0,14,0,0,0,0],"split_type":[0,0,0,0,0,0,0,0,0,0,0,0,0,0,0,0,0,0,0,0,0,0,0,0,0,0,0,0,0,0,0],"sum_hessian":[1.7240246E4,1.42606E3,1.5814187E4,9.3824915E2,4.8781088E2,9.2480817E2,1.3441026E1,2.1866254E2,2.6914835E2,8.8677985E2,3.8028267E1,1.3113196E0,1.2129706E1,4.9174485E0,2.1374509E2,2.6783704E2,1.3113196E0,1.7374985E1,8.694049E2,2.5242903E1,1.2785366E1,2.6226392E0,2.2948093E0,9.179237E0,8.195747E0,8.454733E2,2.3931583E1,2.3931583E1,1.3113196E0,1.3113196E0,2.2620262E1],"tree_param":{"num_deleted":"0","num_feature":"38","num_nodes":"31","size_leaf_vector":"1"}},{"base_weights":[1.4032437E-1,-6.397959E-1,9.42875E-1,-6.6390944E-1,-1.0357845E-3,1.1849256E0,-5.491753E-1,-2.2291555E-1,-6.68535E-1,1.3044045E0,-3.4781247E-1,1.5466534E0,4.4621792E-1,-6.720643E-1,8.501478E-2,-6.3461894E-1,1.001062E0,-6.729382E-1,-5.3728175E-1,-2.4087358E-1,1.5099651E0,4.807075E-2,-6.344179E-1,1.6601619E0,9.6336704E-1,1.5326641E-1,1.2850244E0,-4.9522135E-1,-3.3712443E-2,-3.360654E-2,-1.2668283E-2,5.313007E-1,1.641666E0,-3.3712324E-2,-6.1908466E-1,8.5759126E-2,-5.869221E-1,-3.2720763E-2,7.7500515E-2,5.38108E-1,1.6310234E0,1.1452408E0,-2.86775E-1,-6.682707E-1,8.5151844E-2,1.4476993E0,1.6942829E0,4.7764567E-1,1.4504242E0,-1.9936764E-1,1.2547415E0,-3.2627112E-1,1.3900702E0,-3.3189896E-2,5.0970137E-2,7.939405E-2,-3.136758E-2,1.2843767E0,-5.5342764E-3,8.632433E-2,4.0134963E-2,5.5205923E-1,-6.6104454E-1,-1.4377879E-1,-6.587616E-1,-3.1695154E-2,8.1994414E-2,2.2283867E-1,8.5171185E-2,1.4995601E0,-1.7894731E-1,-5.522624E-1,9.933651E-2,-3.3701833E-2,-0E0,1.6376699E0,6.3311887E-1,1.6947086E0,3.494243E-3,-4.5062102E-2,1.1986048E0,1.6514105E0,-9.9491015E-2,-5.8200663E-1,1.7339511E-1,3.8774636E-1,1.4200976E0,1.2470158E0,-5.030848E-1,1.6232266E0,9.360871E-1,-2.709557E-2,8.5166864E-2,2.2330008E-2,-3.1653788E-2,-3.1141996E-2,6.569806E-2,-9.132223E-4,-3.3710953E-2,-2.1702787E-2,6.5590285E-2,-2.1176927E-2,-3.3661112E-2,7.512053E-2,-2.956728E-2,-2.9570848E-2,8.460085E-2,4.086729E-2,-2.2443073E-2,-2.9228479E-2,4.086729E-2,-1.4434755E-2,4.237214E-2,8.486612E-2,6.2783115E-2,6.6371545E-2,1.6303875E-3,8.067945E-2,8.515007E-2,-6.971275E-3,6.842061E-2,7.045925E-2,-2.4582539E-2,-3.2372784E-2,8.427228E-2,-2.4759397E-2,4.4007055E-2,-3.139769E-2,-1.2688167E-2,2.729093E-2,-2.766282E-2,-3.0813633E-2,5.795188E-2,7.325942E-2,-3.2813374E-2,3.3751745E-3,8.122201E-2,-1.2638137E-2,-3.3378426E-2,-2.322921E-2,8.2406305E-2,-1.1685347E-3,6.374912E-2],"categories":[],"categories_nodes":[],"categories_segments":[],"categories_sizes":[],"default_left":[0,0,0,0,0,0,0,0,0,0,0,0,0,0,0,0,0,0,0,0,0,0,0,0,0,0,0,0,0,0,0,0,0,0,0,0,0,0,0,0,0,0,0,0,0,0,0,0,0,0,0,0,0,0,0,0,0,0,0,0,0,0,0,0,0,0,0,0,0,0,0,0,0,0,0,0,0,0,0,0,0,0,0,0,0,0,0,0,0,0,0,0,0,0,0,0,0,0,0,0,0,0,0,0,0,0,0,0,0,0,0,0,0,0,0,0,0,0,0,0,0,0,0,0,0,0,0,0,0,0,0,0,0,0,0,0,0,0,0,0,0,0,0],"id":4,"left_children":[1,3,5,7,9,11,13,15,17,19,21,23,25,27,-1,29,31,33,35,37,39,41,43,45,47,49,51,53,-1,-1,55,57,59,-1,61,-1,63,-1,-1,65,67,69,71,73,-1,75,77,79,81,83,85,87,89,-1,-1,-1,-1,91,93,-1,-1,95,97,99,101,-1,-1,103,-1,105,107,109,111,-1,-1,113,115,117,-1,119,121,123,125,127,129,131,133,135,137,139,141,-1,-1,-1,-1,-1,-1,-1,-1,-1,-1,-1,-1,-1,-1,-1,-1,-1,-1,-1,-1,-1,-1,-1,-1,-1,-1,-1,-1,-1,-1,-1,-1,-1,-1,-1,-1,-1,-1,-1,-1,-1,-1,-1,-1,-1,-1,-1,-1,-1,-1,-1,-1],"loss_changes":[1.2986073E4,1.6193604E2,3.692503E3,2.0569336E1,1.7326767E2,2.3503604E3,3.9450906E2,5.322846E1,5.638672E0,2.567575E1,3.439994E1,3.90542E2,7.1045935E2,3.7249756E-1,0E0,1.7766972E0,7.6856174E0,5.131836E-1,3.6525925E1,7.0171604E0,8.043594E0,4.6790146E1,1.3913567E1,3.527539E1,2.2740027E2,8.327178E2,1.2683472E2,4.4871225E0,0E0,0E0,4.681081E0,6.417628E0,3.9804077E-1,0E0,1.1504349E1,0E0,1.0092758E1,0E0,0E0,1.0664706E1,6.1881256E0,1.413821E1,1.0029174E1,6.453934E-1,0E0,1.0568042E2,2.7539062E0,1.8179214E2,1.4980695E2,2.3164902E2,7.4299805E1,1.2737427E1,7.397485E1,0E0,0E0,0E0,0E0,5.221772E0,2.6300507E0,0E0,0E0,7.3446717E0,1.836647E0,1.8957676E1,7.9724884E-1,0E0,0E0,3.5774848E0,0E0,9.697514E0,1.6991627E0,2.5842628E0,1.1573647E1,0E0,0E0,1.21467285E1,5.3985012E1,2.2578125E0,0E0,3.7173077E1,7.2308655E1,3.3487305E1,2.1393732E1,1.1982544E1,2.2259521E2,6.47954E1,4.104413E1,1.8684974E0,1.5927563E0,2.4315674E1,7.778371E1,0E0,0E0,0E0,0E0,0E0,0E0,0E0,0E0,0E0,0E0,0E0,0E0,0E0,0E0,0E0,0E0,0E0,0E0,0E0,0E0,0E0,0E0,0E0,0E0,0E0,0E0,0E0,0E0,0E0,0E0,0E0,0E0,0E0,0E0,0E0,0E0,0E0,0E0,0E0,0E0,0E0,0E0,0E0,0E0,0E0,0E0,0E0,0E0,0E0,0E0,0E0,0E0],"parents":[2147483647,0,0,1,1,2,2,3,3,4,4,5,5,6,6,7,7,8,8,9,9,10,10,11,11,12,12,13,13,15,15,16,16,17,17,18,18,19,19,20,20,21,21,22,22,23,23,24,24,25,25,26,26,27,27,30,30,31,31,32,32,34,34,36,36,39,39,40,40,41,41,42,42,43,43,45,45,46,46,47,47,48,48,49,49,50,50,51,51,52,52,57,57,58,58,61,61,62,62,63,63,64,64,67,67,69,69,70,70,71,71,72,72,75,75,76,76,77,77,79,79,80,80,81,81,82,82,83,83,84,84,85,85,86,86,87,87,88,88,89,89,90,90],"right_children":[2,4,6,8,10,12,14,16,18,20,22,24,26,28,-1,30,32,34,36,38,40,42,44,46,48,50,52,54,-1,-1,56,58,60,-1,62,-1,64,-1,-1,66,68,70,72,74,-1,76,78,80,82,84,86,88,90,-1,-1,-1,-1,92,94,-1,-1,96,98,100,102,-1,-1,104,-1,106,108,110,112,-1,-1,114,116,118,-1,120,122,124,126,128,130,132,134,136,138,140,142,-1,-1,-1,-1,-1,-1,-1,-1,-1,-1,-1,-1,-1,-1,-1,-1,-1,-1,-1,-1,-1,-1,-1,-1,-1,-1,-1,-1,-1,-1,-1,-1,-1,-1,-1,-1,-1,-1,-1,-1,-1,-1,-1,-1,-1,-1,-1,-1,-1,-1,-1,-1],"split_conditions":[8.74E-1,2.5032E1,3.2974E1,-1.63E-1,-3.5E-2,5.2971E1,3.095E3,1.032E0,3.74E-1,8.17E-1,2.2847E1,2.0847E1,5.978E0,3.3601E1,8.501478E-2,2.1E-2,1.053E0,1.91E-1,-5.2936E1,7.49E-1,1.053E0,1.4534E1,8.4E-1,1.981E0,2.94E-1,5.48E-1,6.03E-1,5.24E-1,-3.3712443E-2,-3.360654E-2,-1.96E-1,9.1178E1,-4.4109E1,-3.3712324E-2,-5.2936E1,8.5759126E-2,1.4302E1,-3.2720763E-2,7.7500515E-2,2.0956E1,8.8E-1,6.7597E1,4.166E0,3.96E-1,8.5151844E-2,2.1174E1,5.1119E1,1.755E0,1.956E1,8.35E-1,-2E-2,1.149E0,9.99E0,-3.3189896E-2,5.0970137E-2,7.939405E-2,-3.136758E-2,4.36E-1,1.2506E1,8.632433E-2,4.0134963E-2,-3.85E-1,-1.19E-1,3.5E-2,7.9E-2,-3.1695154E-2,8.1994414E-2,1.4973E1,8.5171185E-2,1.058E0,9.99E0,1.62E-1,1.96E0,-3.3701833E-2,-0E0,1.4973E1,9.5565E1,2.557E0,3.494243E-3,3.4902E1,2.515E1,5.92E-1,8.4E-1,5.159E0,1.4909E1,2.952E0,1.404E0,5.5431E1,9.931E0,-5.6E-2,1.777E0,-2.709557E-2,8.5166864E-2,2.2330008E-2,-3.1653788E-2,-3.1141996E-2,6.569806E-2,-9.132223E-4,-3.3710953E-2,-2.1702787E-2,6.5590285E-2,-2.1176927E-2,-3.3661112E-2,7.512053E-2,-2.956728E-2,-2.9570848E-2,8.460085E-2,4.086729E-2,-2.2443073E-2,-2.9228479E-2,4.086729E-2,-1.4434755E-2,4.237214E-2,8.486612E-2,6.2783115E-2,6.6371545E-2,1.6303875E-3,8.067945E-2,8.515007E-2,-6.971275E-3,6.842061E-2,7.045925E-2,-2.4582539E-2,-3.2372784E-2,8.427228E-2,-2.4759397E-2,4.4007055E-2,-3.139769E-2,-1.2688167E-2,2.729093E-2,-2.766282E-2,-3.0813633E-2,5.795188E-2,7.325942E-2,-3.2813374E-2,3.3751745E-3,8.122201E-2,-1.2638137E-2,-3.3378426E-2,-2.322921E-2,8.2406305E-2,-1.1685347E-3,6.374912E-2],"split_indices":[8,20,7,23,23,17,14,6,8,18,17,7,8,7,0,9,4,8,2,5,4,7,35,8,35,35,34,35,0,0,23,27,2,0,2,0,7,0,0,2,34,2,17,30,0,17,30,4,11,5,23,3,7,0,0,0,0,32,7,0,0,11,23,35,32,0,0,7,0,6,7,23,12,0,0,7,27,8,0,10,10,17,34,32,7,8,3,20,7,11,6,0,0,0,0,0,0,0,0,0,0,0,0,0,0,0,0,0,0,0,0,0,0,0,0,0,0,0,0,0,0,0,0,0,0,0,0,0,0,0,0,0,0,0,0,0,0,0,0,0,0,0,0],"split_type":[0,0,0,0,0,0,0,0,0,0,0,0,0,0,0,0,0,0,0,0,0,0,0,0,0,0,0,0,0,0,0,0,0,0,0,0,0,0,0,0,0,0,0,0,0,0,0,0,0,0,0,0,0,0,0,0,0,0,0,0,0,0,0,0,0,0,0,0,0,0,0,0,0,0,0,0,0,0,0,0,0,0,0,0,0,0,0,0,0,0,0,0,0,0,0,0,0,0,0,0,0,0,0,0,0,0,0,0,0,0,0,0,0,0,0,0,0,0,0,0,0,0,0,0,0,0,0,0,0,0,0,0,0,0,0,0,0,0,0,0,0,0,0],"sum_hessian":[2.074143E4,1.0517641E4,1.0223789E4,1.0134884E4,3.8275705E2,8.7968E3,1.426989E3,1.0547634E2,1.0029407E4,8.021674E1,3.025403E2,5.9050103E3,2.8917893E3,1.3531792E3,7.380982E1,7.9024956E1,2.6451387E1,9.702729E3,3.266783E2,9.358867E0,7.085788E1,1.2693771E2,1.756026E2,4.942781E3,9.6223E2,2.143436E3,7.4835333E2,1.734806E1,1.3358312E3,7.437056E1,4.654392E0,1.5456226E1,1.0995162E1,9.469685E3,2.3304443E2,6.9283834E0,3.197499E2,7.7000966E0,1.6587698E0,8.000492E0,6.2857384E1,2.9694864E1,9.724284E1,1.7320827E2,2.3943405E0,6.8496387E2,4.257817E3,4.819776E2,4.8025238E2,1.6236274E3,5.1980853E2,4.5730564E1,7.0262274E2,1.572057E1,1.6274909E0,1.2024277E0,3.4519641E0,6.4521422E0,9.004084E0,9.781284E0,1.2138778E0,7.9362593E0,2.2510817E2,4.4840813E1,2.7490912E2,3.8532875E0,4.1472044E0,3.1611922E0,5.9696194E1,2.3475645E1,6.219218E0,5.7750195E1,3.949265E1,1.7167639E2,1.5318699E0,5.5524884E2,1.2971504E2,4.2566353E3,1.1813902E0,2.7937845E2,2.0259914E2,4.251754E2,5.507694E1,8.013047E2,8.223228E2,8.3410385E1,4.3639813E2,4.501895E0,4.122867E1,4.6389694E2,2.3872581E2,1.1539469E0,5.2981954E0,5.157594E0,3.8464894E0,3.0775268E0,4.858732E0,4.678412E0,2.2042976E2,3.7501114E1,7.3397007E0,1.64975E1,2.5841162E2,1.2441612E0,1.9170309E0,1.9173548E0,2.155829E1,1.2035246E0,5.015693E0,5.6546673E1,1.2035246E0,2.595692E1,1.3535729E1,4.7973044E2,7.551839E1,6.0025677E1,6.968936E1,3.9772583E2,3.8589094E3,2.6204523E2,1.7333227E1,1.8022202E2,2.2377129E1,6.1337824E0,4.1904166E2,3.9338646E1,1.5738293E1,7.025645E2,9.874019E1,5.437847E2,2.7853806E2,3.6190407E1,4.7219975E1,4.2719858E2,9.199541E0,1.1841314E0,3.3177633E0,1.6690147E1,2.453852E1,5.3991075E0,4.5849783E2,6.2259346E1,1.7646646E2],"tree_param":{"num_deleted":"0","num_feature":"38","num_nodes":"143","size_leaf_vector":"1"}},{"base_weights":[1.13195494E-1,4.445286E-1,-6.4384353E-1,-5.1106507E-1,1.3848977E0,8.6261354E-2,-3.352049E-2,-6.702971E-1,-7.484524E-2,7.2820354E-1,1.5531403E0,-3.3552777E-2,-6.264661E-1,1.6701907E0,-2.707624E-1,2.8870158E-2,1.7478435E0,1.6525041E0,6.994137E-1,-1.6362403E-1,-3.3478834E-2,1.7130231E0,-1.8022767E-1,-3.65851E-1,1.6469432E0,-3.3635415E-2,1.7462525E0,1.6088036E0,8.807457E-2,1.676724E0,1.2485398E0,8.775994E-2,2.2600807E-1,-3.2247197E-2,7.584098E-1,-2.679815E-2,1.7276648E0,-3.1053802E-2,4.1853454E-2,3.911254E-1,-5.2088714E-1,8.870574E-2,-3.1587742E-2,8.7492585E-2,4.1739967E-2,1.6929249E0,3.741993E-1,1.7113904E0,1.5657773E0,-3.3521947E-2,8.645542E-2,7.978767E-1,-6.460736E-1,-0E0,8.4705986E-2,8.686287E-2,3.733763E-2,-3.40206E-2,3.1686753E-2,4.7525924E-2,-2.961726E-2,8.805273E-2,6.931388E-2,-3.0655071E-2,8.155521E-2,8.586554E-2,-1.3950196E-3,8.107845E-2,1.662134E-2,6.374988E-2,-3.338626E-2,2.4230052E-2,-3.3200562E-2],"categories":[],"categories_nodes":[],"categories_segments":[],"categories_sizes":[],"default_left":[0,0,0,0,0,0,0,0,0,0,0,0,0,0,0,0,0,0,0,0,0,0,0,0,0,0,0,0,0,0,0,0,0,0,0,0,0,0,0,0,0,0,0,0,0,0,0,0,0,0,0,0,0,0,0,0,0,0,0,0,0,0,0,0,0,0,0,0,0,0,0,0,0],"id":5,"left_children":[1,3,5,7,9,-1,-1,11,13,15,17,-1,19,21,23,25,27,29,31,33,-1,35,37,39,41,-1,43,45,-1,47,49,-1,51,-1,53,-1,55,-1,-1,57,59,-1,-1,-1,-1,61,63,65,67,-1,-1,69,71,-1,-1,-1,-1,-1,-1,-1,-1,-1,-1,-1,-1,-1,-1,-1,-1,-1,-1,-1,-1],"loss_changes":[5.1398516E3,1.2808232E4,3.9261816E2,4.9096167E2,7.9336523E2,0E0,0E0,2.4414062E-4,6.463136E2,1.0447747E3,4.8475293E2,0E0,1.7383308E0,1.5307312E1,3.099345E2,1.047759E3,5.107422E-1,4.961328E1,2.9788336E2,3.6570323E0,0E0,6.3549194E0,1.9832649E0,1.901358E2,2.3490616E1,0E0,4.2285156E-1,5.451721E0,0E0,1.7987305E1,2.67991E2,0E0,2.0553322E2,0E0,2.0003676E0,0E0,1.3666382E0,0E0,0E0,7.160945E1,1.4140009E2,0E0,0E0,0E0,0E0,5.165405E-1,4.816363E0,3.8067383E1,7.903491E1,0E0,0E0,1.7422067E2,3.3591309E0,0E0,0E0,0E0,0E0,0E0,0E0,0E0,0E0,0E0,0E0,0E0,0E0,0E0,0E0,0E0,0E0,0E0,0E0,0E0,0E0],"parents":[2147483647,0,0,1,1,2,2,3,3,4,4,7,7,8,8,9,9,10,10,12,12,13,13,14,14,15,15,16,16,17,17,18,18,19,19,21,21,22,22,23,23,24,24,26,26,27,27,29,29,30,30,32,32,34,34,36,36,39,39,40,40,45,45,46,46,47,47,48,48,51,51,52,52],"right_children":[2,4,6,8,10,-1,-1,12,14,16,18,-1,20,22,24,26,28,30,32,34,-1,36,38,40,42,-1,44,46,-1,48,50,-1,52,-1,54,-1,56,-1,-1,58,60,-1,-1,-1,-1,62,64,66,68,-1,-1,70,72,-1,-1,-1,-1,-1,-1,-1,-1,-1,-1,-1,-1,-1,-1,-1,-1,-1,-1,-1,-1],"split_conditions":[7.0026E1,5.4984E1,9.51E-1,5.0004E1,4.694E1,8.6261354E-2,-3.352049E-2,4.9838E1,-1.3057E1,4.46E-1,2.666E3,-3.3552777E-2,-2.4653E1,1.5892E1,3.96E-1,5.9594E1,5.5126E1,2.452951E3,6.4946E1,2.38E-1,-3.3478834E-2,1.452E1,-3.566E0,6.42E-1,1.309E0,-3.3635415E-2,7.3E-1,2.41E2,8.807457E-2,7.73E2,6.0178E1,8.775994E-2,8.07E-1,-3.2247197E-2,-3.1896E1,-2.679815E-2,5.0937E1,-3.1053802E-2,4.1853454E-2,1.3453E1,0E0,8.870574E-2,-3.1587742E-2,8.7492585E-2,4.1739967E-2,1E1,4.048E0,1.288E3,3.0768E1,-3.3521947E-2,8.645542E-2,3.96E-1,2.2887E1,-0E0,8.4705986E-2,8.686287E-2,3.733763E-2,-3.40206E-2,3.1686753E-2,4.7525924E-2,-2.961726E-2,8.805273E-2,6.931388E-2,-3.0655071E-2,8.155521E-2,8.586554E-2,-1.3950196E-3,8.107845E-2,1.662134E-2,6.374988E-2,-3.338626E-2,2.4230052E-2,-3.3200562E-2],"split_indices":[37,37,17,37,19,0,0,37,1,17,14,0,0,20,30,37,37,2,37,35,0,10,11,3,3,0,0,14,0,14,37,0,18,0,0,0,17,0,0,17,30,0,0,0,0,14,32,25,11,0,0,30,20,0,0,0,0,0,0,0,0,0,0,0,0,0,0,0,0,0,0,0,0],"split_type":[0,0,0,0,0,0,0,0,0,0,0,0,0,0,0,0,0,0,0,0,0,0,0,0,0,0,0,0,0,0,0,0,0,0,0,0,0,0,0,0,0,0,0,0,0,0,0,0,0,0,0,0,0,0,0,0,0,0,0,0,0,0,0,0,0,0,0,0,0,0,0,0,0],"sum_hessian":[2.049107E4,1.4253095E4,6.2379756E3,7.0692915E3,7.1838037E3,6.906299E1,6.1689126E3,5.1786587E3,1.8906326E3,1.465338E3,5.718466E3,5.0869146E3,9.174447E1,1.9071039E2,1.6999221E3,8.693107E2,5.960273E2,5.1221025E3,5.963633E2,8.055749E0,8.368872E1,1.864559E2,4.254494E0,1.6197411E3,8.01811E1,6.171838E2,2.5212694E2,5.4993217E1,5.4103406E2,4.8318438E3,2.9025885E2,1.8447246E2,4.1189084E2,5.383805E0,2.6719441E0,1.138844E0,1.8531706E2,3.0639648E0,1.1905295E0,2.7520978E2,1.3445312E3,7.600535E1,4.1757455E0,2.5093436E2,1.1925907E0,5.1374626E1,3.6185906E0,3.679731E3,1.1521125E3,5.8081905E1,2.3217694E2,2.4883812E2,1.6305273E2,1.5194361E0,1.152508E0,1.8334505E2,1.9720142E0,5.0698112E1,2.2451167E2,6.215046E1,1.2823809E3,4.138048E1,9.994144E0,2.0107803E0,1.6078103E0,3.6673064E3,1.2424476E1,1.1021437E3,4.9968918E1,1.8778627E2,6.105184E1,2.4186738E0,1.6063406E2],"tree_param":{"num_deleted":"0","num_feature":"38","num_nodes":"73","size_leaf_vector":"1"}},{"base_weights":[1.0011302E-1,1.1624777E0,-5.541522E-1,-1.9074555E-1,1.5101366E0,2.184761E-1,-6.64774E-1,-6.1220586E-1,5.7987297E-1,1.7347205E0,1.133057E0,-4.635729E-1,1.5731857E0,-3.6433414E-1,-3.346266E-2,5.445349E-1,-6.3475543E-1,-6.370847E-1,1.7310336E0,7.838777E-1,8.778035E-2,-4.9246052E-1,1.3043945E0,8.8584416E-2,-6.3057977E-1,-5.632811E-1,1.7244776E0,1.5896311E0,-6.013589E-1,-3.301006E-2,9.14288E-2,-6.6812336E-1,1.24609806E-1,9.8439443E-1,-6.622706E-1,8.786065E-2,-3.128798E-2,-5.816735E-1,1.7030042E0,-6.462757E-1,5.762353E-1,1.3667314E0,-1.3604645E-1,-3.3712026E-2,8.809902E-2,-3.385203E-2,8.217954E-2,1.7572085E0,-1.8501082E-1,1.6927991E0,3.511088E-3,-6.62633E-1,1.4896624E0,-3.3506703E-2,-4.5408937E-1,-5.653076E-1,8.79763E-2,-2.8011108E-2,8.325293E-2,-6.69626E-1,-0E0,1.4782726E-2,-6.3909847E-1,8.7063E-2,2.8490522E-3,7.675653E-2,-6.616319E-1,1.5094742E0,-3.343107E-2,1.5053802E0,5.7757473E-1,1.5485744E0,-3.440405E-2,1.4471459E0,9.0128146E-2,-3.2828163E-2,8.13353E-2,2.352696E-2,9.0748064E-2,-4.885127E-3,-3.348224E-2,4.0054843E-2,8.5821986E-2,4.3103237E-2,-3.281399E-2,-3.3242084E-2,7.83665E-2,-9.207374E-3,-3.367005E-2,-3.0028958E-2,4.604016E-2,-2.2839343E-2,-3.3425868E-2,-2.4727419E-2,-3.3844758E-2,-2.9021442E-2,8.745369E-2,3.933185E-2,8.198942E-2,8.6888395E-2,-2.8914923E-2,-2.9211773E-2,8.632872E-2,5.3279538E-2,8.843816E-2],"categories":[],"categories_nodes":[],"categories_segments":[],"categories_sizes":[],"default_left":[0,0,0,0,0,0,0,0,0,0,0,0,0,0,0,0,0,0,0,0,0,0,0,0,0,0,0,0,0,0,0,0,0,0,0,0,0,0,0,0,0,0,0,0,0,0,0,0,0,0,0,0,0,0,0,0,0,0,0,0,0,0,0,0,0,0,0,0,0,0,0,0,0,0,0,0,0,0,0,0,0,0,0,0,0,0,0,0,0,0,0,0,0,0,0,0,0,0,0,0,0,0,0,0,0],"id":6,"left_children":[1,3,5,7,9,11,13,15,17,19,21,23,25,27,-1,29,31,33,35,37,-1,39,41,-1,43,45,47,49,51,-1,-1,53,55,57,59,-1,-1,61,63,65,67,69,71,-1,-1,-1,-1,73,75,77,-1,79,81,-1,83,85,-1,-1,-1,87,89,-1,91,-1,-1,-1,93,95,-1,97,99,101,-1,103,-1,-1,-1,-1,-1,-1,-1,-1,-1,-1,-1,-1,-1,-1,-1,-1,-1,-1,-1,-1,-1,-1,-1,-1,-1,-1,-1,-1,-1,-1,-1],"loss_changes":[1.4144589E4,3.649079E3,1.0764436E3,5.1494104E2,5.220967E2,1.4575364E3,1.4697754E1,2.6779388E1,7.8539496E2,7.64082E1,6.41792E2,3.9163464E2,1.7095898E2,7.5200714E1,0E0,3.0508152E1,2.5541046E1,1.116069E1,1.799823E1,1.0489104E2,0E0,3.6158436E1,1.8729102E2,0E0,1.019942E2,8.792746E0,3.1025635E1,2.5625687E0,1.8585342E1,0E0,0E0,2.7175903E-1,4.791207E1,4.5639014E0,1.2433395E0,0E0,0E0,1.745203E0,2.9536285E0,6.4520187E0,3.226457E1,2.18302E2,8.0445175E1,0E0,0E0,0E0,0E0,6.2365723E0,7.146449E0,2.129799E0,0E0,4.7493362E-1,2.5258446E-1,0E0,2.627622E0,6.3327274E0,0E0,0E0,0E0,3.8811493E-1,1.7897375E0,0E0,2.6732445E-2,0E0,0E0,0E0,3.3636475E-1,8.159367E0,0E0,1.6377295E2,4.009514E2,8.31308E0,0E0,7.2217255E0,0E0,0E0,0E0,0E0,0E0,0E0,0E0,0E0,0E0,0E0,0E0,0E0,0E0,0E0,0E0,0E0,0E0,0E0,0E0,0E0,0E0,0E0,0E0,0E0,0E0,0E0,0E0,0E0,0E0,0E0,0E0],"parents":[2147483647,0,0,1,1,2,2,3,3,4,4,5,5,6,6,7,7,8,8,9,9,10,10,11,11,12,12,13,13,15,15,16,16,17,17,18,18,19,19,21,21,22,22,24,24,25,25,26,26,27,27,28,28,31,31,32,32,33,33,34,34,37,37,38,38,39,39,40,40,41,41,42,42,47,47,48,48,49,49,51,51,52,52,54,54,55,55,59,59,60,60,62,62,66,66,67,67,69,69,70,70,71,71,73,73],"right_children":[2,4,6,8,10,12,14,16,18,20,22,24,26,28,-1,30,32,34,36,38,-1,40,42,-1,44,46,48,50,52,-1,-1,54,56,58,60,-1,-1,62,64,66,68,70,72,-1,-1,-1,-1,74,76,78,-1,80,82,-1,84,86,-1,-1,-1,88,90,-1,92,-1,-1,-1,94,96,-1,98,100,102,-1,104,-1,-1,-1,-1,-1,-1,-1,-1,-1,-1,-1,-1,-1,-1,-1,-1,-1,-1,-1,-1,-1,-1,-1,-1,-1,-1,-1,-1,-1,-1,-1],"split_conditions":[5.5486E1,3.9376E1,5.917E1,-1.4981E1,5.0004E1,1E0,6.0178E1,1.671E1,3.5059E1,4.0058E1,-1.1349E1,5.95E-1,5.8232E1,5.95E-1,-3.346266E-2,3.5059E1,8.2E-2,1.5581E1,3.8576E1,-1.3057E1,8.778035E-2,1.5892E1,6.891E0,8.8584416E-2,1.8921E1,1.303E0,3.5E-2,1.04E-1,1.73E0,-3.301006E-2,9.14288E-2,8.42E-1,6.63E-1,-1.59E-1,6.3094E1,8.786065E-2,-3.128798E-2,6.72E-1,1.512E0,1.3764E1,3.96E-1,5.4984E1,2.94E-1,-3.3712026E-2,8.809902E-2,-3.385203E-2,8.217954E-2,7.9E-2,8.94E-1,1.311E0,3.511088E-3,-1.23E-1,2.1E-2,-3.3506703E-2,7.87E-1,1.07E0,8.79763E-2,-2.8011108E-2,8.325293E-2,1.671E1,7.14E-1,1.4782726E-2,2.8344E1,8.7063E-2,2.8490522E-3,7.675653E-2,1.106E1,-6.379E0,-3.343107E-2,6.42E-1,5.375E0,-8.1E0,-3.440405E-2,1.00129E2,9.0128146E-2,-3.2828163E-2,8.13353E-2,2.352696E-2,9.0748064E-2,-4.885127E-3,-3.348224E-2,4.0054843E-2,8.5821986E-2,4.3103237E-2,-3.281399E-2,-3.3242084E-2,7.83665E-2,-9.207374E-3,-3.367005E-2,-3.0028958E-2,4.604016E-2,-2.2839343E-2,-3.3425868E-2,-2.4727419E-2,-3.3844758E-2,-2.9021442E-2,8.745369E-2,3.933185E-2,8.198942E-2,8.6888395E-2,-2.8914923E-2,-2.9211773E-2,8.632872E-2,5.3279538E-2,8.843816E-2],"split_indices":[37,37,37,1,37,36,37,7,37,37,1,34,37,34,0,37,23,7,7,1,0,20,31,0,11,3,12,23,3,0,0,4,35,11,10,0,0,3,30,10,30,37,35,0,0,0,0,32,1,4,0,9,9,0,3,3,0,0,0,7,3,0,7,0,0,0,7,31,0,3,7,1,0,27,0,0,0,0,0,0,0,0,0,0,0,0,0,0,0,0,0,0,0,0,0,0,0,0,0,0,0,0,0,0,0],"split_type":[0,0,0,0,0,0,0,0,0,0,0,0,0,0,0,0,0,0,0,0,0,0,0,0,0,0,0,0,0,0,0,0,0,0,0,0,0,0,0,0,0,0,0,0,0,0,0,0,0,0,0,0,0,0,0,0,0,0,0,0,0,0,0,0,0,0,0,0,0,0,0,0,0,0,0,0,0,0,0,0,0,0,0,0,0,0,0,0,0,0,0,0,0,0,0,0,0,0,0,0,0,0,0,0,0],"sum_hessian":[2.0349648E4,7.755962E3,1.2593687E4,1.585263E3,6.170699E3,1.5771583E3,1.1016528E4,1.0248893E3,5.6037366E2,3.866961E3,2.3037383E3,1.0490103E3,5.281481E2,1.6227908E2,1.0854249E4,1.9468163E1,1.0054211E3,2.7238144E2,2.8799222E2,8.330263E1,3.7836584E3,2.1959726E2,2.0841409E3,7.28193E1,9.761909E2,3.486528E1,4.932828E2,1.744823E1,1.4483086E2,1.0029143E1,9.439018E0,9.632383E2,4.2182793E1,4.04712E0,2.6833432E2,2.8489545E2,3.0967667E0,3.3483673E1,4.981895E1,1.920841E2,2.7513166E1,1.9977599E3,8.638103E1,9.5880774E2,1.7383217E1,3.3265167E1,1.6001129E0,4.8502917E2,8.253619E0,1.6266508E1,1.1817236E0,1.4082047E2,4.0103893E0,9.535995E2,9.638789E0,2.9667625E1,1.2515167E1,1.1983987E0,2.848721E0,2.6524243E2,3.0919104E0,1.9245468E0,3.1559126E1,4.8622368E1,1.1965822E0,1.2280352E0,1.9085606E2,1.5758486E1,1.1754681E1,1.699035E3,2.9872488E2,2.1230654E1,6.5150375E1,6.259541E1,4.2243378E2,6.643429E0,1.6101909E0,1.5965393E0,1.4669969E1,1.9195564E0,1.3890091E2,1.2151215E0,2.7952676E0,1.1742282E0,8.4645605E0,2.8455282E1,1.2123433E0,2.2893498E0,2.6295306E2,1.9554942E0,1.1364161E0,5.086914E0,2.6472212E1,1.6803493E1,1.7405257E2,1.5632714E0,1.4195214E1,2.6789673E2,1.4311383E3,1.4910191E2,1.4962299E2,1.574527E0,1.9656128E1,2.8969402E1,3.3626007E1],"tree_param":{"num_deleted":"0","num_feature":"38","num_nodes":"105","size_leaf_vector":"1"}},{"base_weights":[-4.286217E-1,1.6093714E0,-3.12437E-2,2.0849724E0,7.258258E-1,8.451868E-1,2.1083717E0,2.1235297E0,-5.842401E-1,1.0689931E-1,-3.0507205E-2,2.1429758E0,1.2806518E0,6.349163E-1,2.1553175E0,-3.124006E-2,1.8889483E0,1.8822812E0,1.0734947E-1,2.0410583E0,-3.0589676E-2,1.0310737E-1,-2.8641684E-2,6.572657E-2,1.0796052E-1,1.04669325E-1,5.2905124E-2,-2.614074E-2,1.0650851E-1,1.0711378E-1,-2.4301348E-2],"categories":[],"categories_nodes":[],"categories_segments":[],"categories_sizes":[],"default_left":[0,0,0,0,0,0,0,0,0,0,0,0,0,0,0,0,0,0,0,0,0,0,0,0,0,0,0,0,0,0,0],"id":7,"left_children":[1,3,-1,5,7,9,11,13,15,-1,-1,17,19,21,23,-1,25,27,-1,29,-1,-1,-1,-1,-1,-1,-1,-1,-1,-1,-1],"loss_changes":[6.7728203E3,6.246006E2,0E0,2.7573242E1,9.5374365E2,3.444133E1,2.6557129E1,1.1508179E1,2.695871E1,0E0,0E0,1.4550781E-1,5.5578777E1,9.706179E0,1.7590332E-1,0E0,1.9759274E-1,9.211037E0,0E0,7.2986526E0,0E0,0E0,0E0,0E0,0E0,0E0,0E0,0E0,0E0,0E0,0E0],"parents":[2147483647,0,0,1,1,3,3,4,4,5,5,6,6,7,7,8,8,11,11,12,12,13,13,14,14,16,16,17,17,19,19],"right_children":[2,4,-1,6,8,10,12,14,16,-1,-1,18,20,22,24,-1,26,28,-1,30,-1,-1,-1,-1,-1,-1,-1,-1,-1,-1,-1],"split_conditions":[4.0058E1,-1.4981E1,-3.12437E-2,1.671E1,3.5059E1,3.5059E1,8.2E-2,1.671E1,5.1478E1,1.0689931E-1,-3.0507205E-2,3E1,6.54E-1,3.4138E1,-6.3094E1,-3.124006E-2,8.79E-1,6.95E-1,1.0734947E-1,1.081E0,-3.0589676E-2,1.0310737E-1,-2.8641684E-2,6.572657E-2,1.0796052E-1,1.04669325E-1,5.2905124E-2,-2.614074E-2,1.0650851E-1,1.0711378E-1,-2.4301348E-2],"split_indices":[37,1,0,7,37,37,23,7,7,0,0,14,35,37,13,0,4,3,0,3,0,0,0,0,0,0,0,0,0,0,0],"split_type":[0,0,0,0,0,0,0,0,0,0,0,0,0,0,0,0,0,0,0,0,0,0,0,0,0,0,0,0,0,0,0],"sum_hessian":[1.6933605E4,1.4873108E3,1.5446294E4,9.666998E2,5.206109E2,1.8055191E1,9.486446E2,2.5188747E2,2.6872345E2,9.573059E0,8.482132E0,9.103083E2,3.8336353E1,5.3759604E0,2.465115E2,2.6450073E2,4.222732E0,1.4893252E1,8.9541504E2,2.7379814E1,1.095654E1,2.4696102E0,2.90635E0,1.4105775E0,2.4510094E2,3.1703236E0,1.0524083E0,1.3435365E0,1.3549716E1,2.6378094E1,1.0017204E0],"tree_param":{"num_deleted":"0","num_feature":"38","num_nodes":"31","size_leaf_vector":"1"}},{"base_weights":[1.3331795E-1,-6.2978566E-1,8.828267E-1,-6.627601E-1,-1.8784161E-1,1.1052588E0,-5.48609E-1,-6.6407984E-1,-2.8947785E-1,-5.616388E-1,8.0022436E-1,1.9001028E-1,1.3491695E0,-6.6450024E-1,7.8333884E-2,-3.3290036E-2,-5.958246E-1,1.2015105E0,-3.3008266E-2,-6.111462E-1,-9.3461305E-2,1.2366302E0,-1.3305824E-1,-4.6367195E-1,6.947039E-1,1.4861466E0,7.682034E-1,-5.273608E-1,-3.3297773E-2,5.3304493E-1,-6.4026564E-1,-2.6629204E-2,7.879717E-2,-3.31372E-2,-4.8470724E-1,-3.305946E-2,8.4879297E-1,7.010326E-1,1.5586365E0,-3.7654054E-1,6.298834E-1,1.956526E-2,-6.168601E-1,5.1603615E-1,1.5550632E0,1.5639011E0,1.0083774E0,1.3442233E0,2.4593231E-1,-3.2710724E-2,3.7569292E-2,-3.1010373E-2,1.2677169E0,-3.3301912E-2,-2.737118E-1,-5.454275E-1,1.2477698E0,8.329842E-2,3.91246E-2,-1.1524424E-1,1.1520994E0,-2.6631093E-2,7.946598E-2,-4.8957247E-1,7.3747E-2,2.1290793E-1,1.4003097E0,-6.290486E-1,3.8745663E-1,-3.8608557E-1,-6.553313E-1,7.902187E-2,1.1088151E0,8.03082E-2,-3.1467162E-2,-2.6890004E-2,1.5644155E0,1.118492E0,-2.7107292E-1,1.3973429E0,-3.301208E-2,4.9510547E-3,1.2862434E0,1.1186692E-3,8.005826E-2,-2.8651789E-2,4.0146068E-2,-2.9978631E-2,3.6851824E-3,8.102656E-2,3.640708E-3,7.4591525E-2,-3.2193284E-2,-2.4541521E-2,2.9926226E-2,6.809228E-2,-3.0896211E-2,4.7639675E-2,-2.7507419E-2,6.29622E-2,-1.1321606E-2,3.8785852E-2,7.750972E-2,-3.347384E-2,5.6454013E-3,3.545033E-2,-3.3145815E-2,-3.3191886E-2,8.830787E-3,-3.3125006E-2,-7.375508E-3,1.9938571E-2,-2.4989305E-2,8.0021404E-2,4.3855872E-2,5.2340955E-2,7.82564E-2,3.2712635E-2,7.5145334E-2,2.0979673E-2,-2.6927475E-2,5.4847192E-2,7.801144E-2,-9.528835E-3,6.5629214E-2,7.033416E-2,-2.2008142E-2],"categories":[],"categories_nodes":[],"categories_segments":[],"categories_sizes":[],"default_left":[0,0,0,0,0,0,0,0,0,0,0,0,0,0,0,0,0,0,0,0,0,0,0,0,0,0,0,0,0,0,0,0,0,0,0,0,0,0,0,0,0,0,0,0,0,0,0,0,0,0,0,0,0,0,0,0,0,0,0,0,0,0,0,0,0,0,0,0,0,0,0,0,0,0,0,0,0,0,0,0,0,0,0,0,0,0,0,0,0,0,0,0,0,0,0,0,0,0,0,0,0,0,0,0,0,0,0,0,0,0,0,0,0,0,0,0,0,0,0,0,0,0,0,0,0,0,0],"id":8,"left_children":[1,3,5,7,9,11,13,15,17,19,21,23,25,27,-1,-1,29,31,-1,33,35,37,39,41,43,45,47,49,-1,51,53,-1,-1,-1,55,-1,57,59,61,63,65,67,69,71,73,75,77,79,81,-1,-1,-1,83,-1,85,87,89,-1,91,93,95,-1,-1,97,-1,99,101,103,105,107,109,111,113,-1,-1,-1,115,117,119,121,-1,123,125,-1,-1,-1,-1,-1,-1,-1,-1,-1,-1,-1,-1,-1,-1,-1,-1,-1,-1,-1,-1,-1,-1,-1,-1,-1,-1,-1,-1,-1,-1,-1,-1,-1,-1,-1,-1,-1,-1,-1,-1,-1,-1,-1,-1],"loss_changes":[1.1853239E4,1.4954956E2,3.329038E3,4.5932617E0,2.634819E2,2.0199521E3,3.4472293E2,9.526367E-1,1.887692E1,1.1922638E1,7.985812E1,6.283135E2,5.68249E2,1.116333E-1,0E0,0E0,1.1911362E1,4.5862236E0,0E0,2.9060822E0,2.6687057E1,2.268393E1,1.1588104E1,6.1478653E1,1.6492328E2,2.1435938E2,4.1001312E2,2.5052147E0,0E0,7.708145E0,2.038948E0,0E0,0E0,0E0,1.4362938E1,0E0,1.2201077E1,1.8678747E1,5.526245E0,9.905509E0,4.637853E0,4.7639008E1,5.4649963E0,2.3047989E2,2.0812103E1,5.5625E0,1.1418738E2,6.9193726E1,1.7920473E2,0E0,0E0,0E0,2.13453E0,0E0,4.9804106E0,4.4839287E0,1.8329549E0,0E0,9.6672535E0,4.831936E0,1.2245945E1,0E0,0E0,3.9311075E0,0E0,4.708249E0,1.3177109E-1,2.2287502E0,4.3131E1,1.4228486E1,1.8735199E0,9.488349E1,4.263037E1,0E0,0E0,0E0,1.4072266E0,1.3274731E2,1.18891735E1,3.0469604E1,0E0,1.4868294E2,2.8116943E1,0E0,0E0,0E0,0E0,0E0,0E0,0E0,0E0,0E0,0E0,0E0,0E0,0E0,0E0,0E0,0E0,0E0,0E0,0E0,0E0,0E0,0E0,0E0,0E0,0E0,0E0,0E0,0E0,0E0,0E0,0E0,0E0,0E0,0E0,0E0,0E0,0E0,0E0,0E0,0E0,0E0,0E0,0E0,0E0],"parents":[2147483647,0,0,1,1,2,2,3,3,4,4,5,5,6,6,7,7,8,8,9,9,10,10,11,11,12,12,13,13,16,16,17,17,19,19,20,20,21,21,22,22,23,23,24,24,25,25,26,26,27,27,29,29,30,30,34,34,36,36,37,37,38,38,39,39,40,40,41,41,42,42,43,43,44,44,45,45,46,46,47,47,48,48,52,52,54,54,55,55,56,56,58,58,59,59,60,60,63,63,65,65,66,66,67,67,68,68,69,69,70,70,71,71,72,72,76,76,77,77,78,78,79,79,81,81,82,82],"right_children":[2,4,6,8,10,12,14,16,18,20,22,24,26,28,-1,-1,30,32,-1,34,36,38,40,42,44,46,48,50,-1,52,54,-1,-1,-1,56,-1,58,60,62,64,66,68,70,72,74,76,78,80,82,-1,-1,-1,84,-1,86,88,90,-1,92,94,96,-1,-1,98,-1,100,102,104,106,108,110,112,114,-1,-1,-1,116,118,120,122,-1,124,126,-1,-1,-1,-1,-1,-1,-1,-1,-1,-1,-1,-1,-1,-1,-1,-1,-1,-1,-1,-1,-1,-1,-1,-1,-1,-1,-1,-1,-1,-1,-1,-1,-1,-1,-1,-1,-1,-1,-1,-1,-1,-1,-1,-1],"split_conditions":[8.74E-1,3.74E-1,3.2974E1,8.0451E1,7.5389E1,8.7853E1,3.095E3,1.91E-1,1.4219E1,3.96E-1,4.4446E1,7.4E-1,8.3162E1,3.3601E1,7.8333884E-2,-3.3290036E-2,-5.2936E1,4.36E-1,-3.3008266E-2,5.0391E1,4.9285E1,2.837E0,1.96E0,3.6E1,3.96E-1,2.1023E1,9.99E0,5.24E-1,-3.3297773E-2,-3.85E-1,7.7714E1,-2.6629204E-2,7.879717E-2,-3.31372E-2,7.1724E1,-3.305946E-2,1.0558E1,5.26E-1,3.274E0,9.0276E1,1.5277E1,2.1E-1,-4.029E0,3.84E-1,2.5323E1,7E-2,1.956E1,7.5E1,1.10058E2,-3.2710724E-2,3.7569292E-2,-3.1010373E-2,3.274E0,-3.3301912E-2,1.3453E1,3.36E3,4.008E0,8.329842E-2,3.197E0,3.809E0,1.4973E1,-2.6631093E-2,7.946598E-2,6.973E0,7.3747E-2,9.99E0,1.3611E1,1.50812E2,1.5056E1,3.4211E1,1.80763E2,5.3888E1,0E0,8.03082E-2,-3.1467162E-2,-2.6890004E-2,9.21E-1,2.94E-1,6.8038E1,2.541E0,-3.301208E-2,5.48E-1,1.5056E1,1.1186692E-3,8.005826E-2,-2.8651789E-2,4.0146068E-2,-2.9978631E-2,3.6851824E-3,8.102656E-2,3.640708E-3,7.4591525E-2,-3.2193284E-2,-2.4541521E-2,2.9926226E-2,6.809228E-2,-3.0896211E-2,4.7639675E-2,-2.7507419E-2,6.29622E-2,-1.1321606E-2,3.8785852E-2,7.750972E-2,-3.347384E-2,5.6454013E-3,3.545033E-2,-3.3145815E-2,-3.3191886E-2,8.830787E-3,-3.3125006E-2,-7.375508E-3,1.9938571E-2,-2.4989305E-2,8.0021404E-2,4.3855872E-2,5.2340955E-2,7.82564E-2,3.2712635E-2,7.5145334E-2,2.0979673E-2,-2.6927475E-2,5.4847192E-2,7.801144E-2,-9.528835E-3,6.5629214E-2,7.033416E-2,-2.2008142E-2],"split_indices":[8,8,7,28,19,19,14,8,7,30,2,18,17,7,0,0,2,32,0,10,17,17,12,14,30,7,7,35,0,11,19,0,0,0,19,0,30,8,1,19,1,35,30,35,7,17,11,14,19,0,0,0,1,0,17,14,32,0,0,32,7,0,0,10,0,7,0,2,7,29,2,17,30,0,0,0,8,35,0,2,0,35,7,0,0,0,0,0,0,0,0,0,0,0,0,0,0,0,0,0,0,0,0,0,0,0,0,0,0,0,0,0,0,0,0,0,0,0,0,0,0,0,0,0,0,0,0],"split_type":[0,0,0,0,0,0,0,0,0,0,0,0,0,0,0,0,0,0,0,0,0,0,0,0,0,0,0,0,0,0,0,0,0,0,0,0,0,0,0,0,0,0,0,0,0,0,0,0,0,0,0,0,0,0,0,0,0,0,0,0,0,0,0,0,0,0,0,0,0,0,0,0,0,0,0,0,0,0,0,0,0,0,0,0,0,0,0,0,0,0,0,0,0,0,0,0,0,0,0,0,0,0,0,0,0,0,0,0,0,0,0,0,0,0,0,0,0,0,0,0,0,0,0,0,0,0,0],"sum_hessian":[2.0723914E4,1.0268769E4,1.0455145E4,9.555533E3,7.132359E2,9.049091E3,1.406054E3,9.521523E3,3.4009014E1,5.175753E2,1.9566057E2,1.9042365E3,7.1448545E3,1.3331309E3,7.292302E1,9.285089E3,2.364351E2,6.67336E0,2.7335655E1,4.6785757E2,4.9717728E1,1.3337068E2,6.2289894E1,8.295754E2,1.0746611E3,5.781415E3,1.3634393E3,1.5100784E1,1.3180302E3,8.828487E0,2.2760661E2,1.1301299E0,5.54323E0,3.3140247E2,1.3645514E2,3.1109537E1,1.8608189E1,5.0312862E1,8.3057816E1,4.735797E1,1.4931925E1,1.995434E2,6.30032E2,8.900946E2,1.8456651E2,4.971838E3,8.095773E2,6.4819135E2,7.15248E2,1.3853534E1,1.247251E0,3.388636E0,5.439851E0,2.1232352E2,1.5283094E1,1.3195653E2,4.4986067E0,9.147057E0,9.461132E0,1.7854706E1,3.2458157E1,1.1302267E0,8.192759E1,4.475337E1,2.6046019E0,9.855367E0,5.0765576E0,7.2094246E1,1.2744915E2,9.055138E1,5.394806E2,5.125267E2,3.7756793E2,1.8041817E2,4.1483397E0,1.1435418E0,4.9706943E3,7.455067E2,6.407055E1,6.315354E2,1.665593E1,5.808861E2,1.3436186E2,1.2347991E0,4.205052E0,1.2067706E1,3.2153888E0,1.2149598E2,1.0460549E1,3.3217351E0,1.1768715E0,3.0345972E0,6.426535E0,1.1811049E1,6.043656E0,2.9090517E1,3.367642E0,1.6778784E0,4.307549E1,2.9265244E0,6.9288425E0,1.2310994E0,3.8454583E0,6.8506E1,3.588247E0,9.7675514E1,2.9773634E1,6.0733E1,2.9818373E1,5.3174677E2,7.7338796E0,3.3027658E2,1.8225008E2,1.2061859E2,2.569493E2,7.2280073E0,4.9634663E3,3.3793222E2,4.0757452E2,1.7765783E1,4.6304768E1,2.2252864E2,4.0900677E2,5.0533356E2,7.555256E1,1.2567109E2,8.690777E0],"tree_param":{"num_deleted":"0","num_feature":"38","num_nodes":"127","size_leaf_vector":"1"}},{"base_weights":[1.0947717E-1,4.2617702E-1,-6.351964E-1,-4.9864164E-1,1.2919831E0,7.939041E-2,-3.3134487E-2,-3.3122342E-2,-6.60906E-2,6.854947E-1,1.4422015E0,1.4596647E0,-2.7972454E-1,1.7704759E-2,1.6104252E0,7.080036E-1,1.5263085E0,1.5544542E0,-3.9350554E-1,-3.943977E-1,1.5081902E0,-3.323025E-2,8.021902E-2,8.058899E-2,4.92984E-2,1.0547172E0,-3.3390865E-2,7.5330985E-1,1.5429897E0,-2.6823893E-2,1.5658828E0,-3.246628E-2,7.482885E-2,4.027855E-1,-5.610351E-1,8.321821E-2,-3.215986E-2,5.799446E-1,1.6183032E0,-3.3094276E-2,7.938921E-2,1.5545008E0,1.263676E0,8.010458E-2,5.2951586E-2,-3.375299E-2,3.1857844E-2,2.1773664E-2,-2.9480362E-2,8.070528E-2,-3.1523135E-2,-3.156809E-2,8.201047E-2,7.801527E-2,5.7982843E-2,-3.310354E-2,7.952752E-2],"categories":[],"categories_nodes":[],"categories_segments":[],"categories_sizes":[],"default_left":[0,0,0,0,0,0,0,0,0,0,0,0,0,0,0,0,0,0,0,0,0,0,0,0,0,0,0,0,0,0,0,0,0,0,0,0,0,0,0,0,0,0,0,0,0,0,0,0,0,0,0,0,0,0,0,0,0],"id":9,"left_children":[1,3,5,7,9,-1,-1,-1,11,13,15,17,19,21,23,25,27,29,31,33,35,-1,-1,-1,-1,37,-1,39,41,-1,43,-1,-1,45,47,-1,-1,49,51,-1,-1,53,55,-1,-1,-1,-1,-1,-1,-1,-1,-1,-1,-1,-1,-1,-1],"loss_changes":[4.831117E3,1.1508489E4,3.735874E2,4.923225E2,6.759873E2,0E0,0E0,0E0,6.222135E2,9.1023364E2,3.6704883E2,4.135956E1,3.4332535E2,9.2704193E2,1.03881836E-1,2.919461E2,6.847949E1,5.5183716E0,5.5422907E0,2.091278E2,3.4114685E1,0E0,0E0,0E0,0E0,1.3046393E2,0E0,1.3373325E2,1.6320312E1,0E0,3.6378174E0,0E0,0E0,6.8772316E1,3.7112183E1,0E0,0E0,3.325784E2,1.1209961E1,0E0,0E0,1.1045898E1,1.3092517E2,0E0,0E0,0E0,0E0,0E0,0E0,0E0,0E0,0E0,0E0,0E0,0E0,0E0,0E0],"parents":[2147483647,0,0,1,1,2,2,3,3,4,4,8,8,9,9,10,10,11,11,12,12,13,13,14,14,15,15,16,16,17,17,18,18,19,19,20,20,25,25,27,27,28,28,30,30,33,33,34,34,37,37,38,38,41,41,42,42],"right_children":[2,4,6,8,10,-1,-1,-1,12,14,16,18,20,22,24,26,28,30,32,34,36,-1,-1,-1,-1,38,-1,40,42,-1,44,-1,-1,46,48,-1,-1,50,52,-1,-1,54,56,-1,-1,-1,-1,-1,-1,-1,-1,-1,-1,-1,-1,-1,-1],"split_conditions":[7.0026E1,5.4984E1,9.51E-1,5.0004E1,4.5974E1,7.939041E-2,-3.3134487E-2,-3.3122342E-2,-1.1349E1,4.46E-1,1.21E-1,5.0937E1,5.2E-1,5.9594E1,1.15E-1,5.2E-1,2.55E-1,1.452E1,1.229E0,6.42E-1,9.35E-1,-3.323025E-2,8.021902E-2,8.058899E-2,4.92984E-2,5.2632E1,-3.3390865E-2,2.57E-1,3.302863E3,-2.6823893E-2,1.5892E1,-3.246628E-2,7.482885E-2,1.3453E1,-3.45E-1,8.321821E-2,-3.215986E-2,6.4946E1,-3.45E-1,-3.3094276E-2,7.938921E-2,6.988E1,6.0178E1,8.010458E-2,5.2951586E-2,-3.375299E-2,3.1857844E-2,2.1773664E-2,-2.9480362E-2,8.070528E-2,-3.1523135E-2,-3.156809E-2,8.201047E-2,7.801527E-2,5.7982843E-2,-3.310354E-2,7.952752E-2],"split_indices":[37,37,17,37,19,0,0,0,1,17,36,17,31,37,23,31,34,10,3,3,4,0,0,0,0,17,0,36,2,0,20,0,0,17,31,0,0,37,31,0,0,37,37,0,0,0,0,0,0,0,0,0,0,0,0,0,0],"split_type":[0,0,0,0,0,0,0,0,0,0,0,0,0,0,0,0,0,0,0,0,0,0,0,0,0,0,0,0,0,0,0,0,0,0,0,0,0,0,0,0,0,0,0,0,0,0,0,0,0,0,0,0,0,0,0,0,0],"sum_hessian":[2.0484771E4,1.437251E4,6.112262E3,6.9493867E3,7.4231235E3,7.455714E1,6.037705E3,5.040345E3,1.9090415E3,1.4738506E3,5.9492725E3,2.343417E2,1.6746998E3,8.56022E2,6.178287E2,6.116972E2,5.3375757E3,2.230051E2,1.1336607E1,1.5738877E3,1.0081206E2,5.98603E2,2.5741898E2,6.1617395E2,1.6546978E0,4.8865082E2,1.230464E2,1.12975266E2,5.2246E3,1.1397369E0,2.2186537E2,1.0089553E1,1.2470537E0,2.719852E2,1.3019026E3,9.405361E1,6.758441E0,2.654296E2,2.232212E2,4.186935E1,7.110591E1,5.017025E3,2.0757553E2,2.066866E2,1.5178759E1,4.846873E1,2.2351646E2,3.6150787E1,1.2657517E3,1.4316231E2,1.22267296E2,2.0818028E0,2.211394E2,4.943798E3,7.322681E1,3.0061687E1,1.7751385E2],"tree_param":{"num_deleted":"0","num_feature":"38","num_nodes":"57","size_leaf_vector":"1"}},{"base_weights":[9.415653E-2,9.3752635E-1,-6.565575E-1,-1.853961E-1,1.1626261E0,-3.292146E-1,-3.3063445E-2,-5.7370925E-1,5.6690603E-1,1.4439467E0,2.7256593E-1,-6.3883483E-1,1.4272294E0,-5.9416884E-1,1.2764605E0,-6.3030916E-1,1.6081182E0,1.5948747E0,1.14471E0,-6.538954E-1,8.2093574E-2,-3.3079583E-2,7.953886E-2,1.18440455E-2,1.5358915E0,-6.3212365E-1,2.4661773E-1,-2.9004669E-2,7.9192005E-2,-1.5704532E-1,-3.323894E-2,8.071822E-2,4.072601E-2,7.9159874E-1,8.063253E-2,-2.4550278E-1,1.3243558E0,-4.5428216E-1,-3.337419E-2,1.6228657E0,8.208314E-1,-6.548942E-1,-2.972332E-1,-5.547909E-1,8.1152074E-2,-3.278109E-2,1.0599258E0,8.001853E-2,-5.4411006E-1,1.2974355E0,-5.876756E-1,1.418914E0,-4.867737E-1,-3.3568226E-2,-2.2604856E-1,4.0895373E-2,8.343031E-2,1.4584531E-3,7.283937E-2,-3.3103235E-2,-1.9349772E-2,1.3951029E-2,-3.205149E-2,-3.2872517E-2,7.2667174E-2,-2.7333781E-2,7.894074E-2,-3.1615343E-2,5.3723183E-2,8.104696E-2,-3.2878608E-2,-3.261239E-2,-3.8577956E-3,3.8346097E-2,7.728238E-2,-3.426742E-2,8.0253564E-2,8.530265E-2,-1.7269721E-2],"categories":[],"categories_nodes":[],"categories_segments":[],"categories_sizes":[],"default_left":[0,0,0,0,0,0,0,0,0,0,0,0,0,0,0,0,0,0,0,0,0,0,0,0,0,0,0,0,0,0,0,0,0,0,0,0,0,0,0,0,0,0,0,0,0,0,0,0,0,0,0,0,0,0,0,0,0,0,0,0,0,0,0,0,0,0,0,0,0,0,0,0,0,0,0,0,0,0,0],"id":10,"left_children":[1,3,5,7,9,11,-1,13,15,17,19,21,23,25,27,29,31,33,35,37,-1,-1,-1,-1,39,41,43,-1,-1,45,-1,-1,-1,47,-1,49,51,53,-1,55,57,59,61,63,-1,-1,65,-1,67,69,71,73,75,-1,77,-1,-1,-1,-1,-1,-1,-1,-1,-1,-1,-1,-1,-1,-1,-1,-1,-1,-1,-1,-1,-1,-1,-1,-1],"loss_changes":[1.2869193E4,2.419748E3,1.6463867E1,4.66993E2,1.9964395E3,8.326248E1,0E0,3.992148E1,6.7851135E2,2.731836E2,2.429945E3,6.621464E0,2.7513695E0,3.3338593E1,6.761097E0,4.036911E0,1.0686035E0,5.713379E1,5.0761597E2,2.9561462E0,0E0,0E0,0E0,0E0,9.2287827E-1,7.4964905E0,4.9844357E1,0E0,0E0,1.0655359E1,0E0,0E0,0E0,9.472129E1,0E0,1.2277913E2,3.083423E2,3.5412617E0,0E0,2.9293442E-1,1.1534384E0,1.664032E0,1.2734808E1,5.886077E0,0E0,0E0,4.4158735E0,0E0,4.7387323E0,2.6885208E1,6.200577E0,1.4097192E2,3.7117157E1,0E0,8.281727E0,0E0,0E0,0E0,0E0,0E0,0E0,0E0,0E0,0E0,0E0,0E0,0E0,0E0,0E0,0E0,0E0,0E0,0E0,0E0,0E0,0E0,0E0,0E0,0E0],"parents":[2147483647,0,0,1,1,2,2,3,3,4,4,5,5,7,7,8,8,9,9,10,10,11,11,12,12,13,13,14,14,15,15,16,16,17,17,18,18,19,19,24,24,25,25,26,26,29,29,33,33,35,35,36,36,37,37,39,39,40,40,41,41,42,42,43,43,46,46,48,48,49,49,50,50,51,51,52,52,54,54],"right_children":[2,4,6,8,10,12,-1,14,16,18,20,22,24,26,28,30,32,34,36,38,-1,-1,-1,-1,40,42,44,-1,-1,46,-1,-1,-1,48,-1,50,52,54,-1,56,58,60,62,64,-1,-1,66,-1,68,70,72,74,76,-1,78,-1,-1,-1,-1,-1,-1,-1,-1,-1,-1,-1,-1,-1,-1,-1,-1,-1,-1,-1,-1,-1,-1,-1,-1],"split_conditions":[5.917E1,3.9376E1,6.0178E1,-1.84E-1,5.4984E1,9.82E-1,-3.3063445E-2,1.3679E1,3.5059E1,5.0004E1,9.95E-1,4.9547E1,5.5096E1,8.2E-2,3.4138E1,-7.71E0,8.92E-1,4.0058E1,-8.91E-1,5.5126E1,8.2093574E-2,-3.3079583E-2,7.953886E-2,1.18440455E-2,5.149E1,5.6421E1,6.63E-1,-2.9004669E-2,7.9192005E-2,3.4138E1,-3.323894E-2,8.071822E-2,4.072601E-2,9.73E-1,8.063253E-2,8.14E-1,5.2E-1,1E1,-3.337419E-2,-2.7E-2,6.39615E2,8.42E-1,-1.788E0,1.081E0,8.1152074E-2,-3.278109E-2,-3.0384E1,8.001853E-2,1.6736E1,3.96E-1,7.2307E1,6.42E-1,9.35E-1,-3.3568226E-2,4.67E0,4.0895373E-2,8.343031E-2,1.4584531E-3,7.283937E-2,-3.3103235E-2,-1.9349772E-2,1.3951029E-2,-3.205149E-2,-3.2872517E-2,7.2667174E-2,-2.7333781E-2,7.894074E-2,-3.1615343E-2,5.3723183E-2,8.104696E-2,-3.2878608E-2,-3.261239E-2,-3.8577956E-3,3.8346097E-2,7.728238E-2,-3.426742E-2,8.0253564E-2,8.530265E-2,-1.7269721E-2],"split_indices":[37,37,37,9,37,18,0,20,37,37,18,0,28,23,37,0,18,37,8,37,0,0,0,0,12,0,35,0,0,37,0,0,0,18,0,18,31,14,0,23,0,4,8,3,0,0,0,0,12,30,28,3,4,0,10,0,0,0,0,0,0,0,0,0,0,0,0,0,0,0,0,0,0,0,0,0,0,0,0],"split_type":[0,0,0,0,0,0,0,0,0,0,0,0,0,0,0,0,0,0,0,0,0,0,0,0,0,0,0,0,0,0,0,0,0,0,0,0,0,0,0,0,0,0,0,0,0,0,0,0,0,0,0,0,0,0,0,0,0,0,0,0,0,0,0,0,0,0,0,0,0,0,0,0,0,0,0,0,0,0,0],"sum_hessian":[2.0326078E4,9.572365E3,1.0753712E4,1.5983723E3,7.973993E3,1.5298103E2,1.0600731E4,1.0543229E3,5.4404944E2,6.0588145E3,1.9151786E3,1.301578E2,2.282323E1,1.042912E3,1.1410823E1,2.5304015E2,2.9100928E2,4.026948E3,2.0318665E3,1.1422921E3,7.728866E2,1.2895677E2,1.201037E0,2.0127428E0,2.0810488E1,9.9800385E2,4.4908146E1,1.5620549E0,9.848767E0,1.7413378E1,2.3562677E2,2.8850906E2,2.5002182E0,8.7403496E1,3.9395444E3,2.3244759E2,1.7994188E3,7.349255E1,1.0687996E3,1.831589E1,2.4945993E0,9.340967E2,6.3907166E1,2.837445E1,1.6533693E1,1.2443672E1,4.969705E0,5.4474335E1,3.292916E1,4.2088615E1,1.9035898E2,1.7102067E3,8.921212E1,3.7342384E1,3.615017E1,1.2038878E0,1.7112001E1,1.2278968E0,1.2667027E0,9.0924E2,2.48567E1,2.3778637E1,4.012853E1,2.7105812E1,1.2686388E0,1.1648827E0,3.8048227E0,3.1343933E1,1.5852265E0,3.6171413E1,5.917203E0,1.6878664E2,2.1572332E1,2.7857034E2,1.4316364E3,8.158268E1,7.6294394E0,1.9769955E0,3.4173176E1],"tree_param":{"num_deleted":"0","num_feature":"38","num_nodes":"79","size_leaf_vector":"1"}},{"base_weights":[-4.1871563E-1,1.4773206E0,-3.0984053E-2,1.8788774E0,6.7476195E-1,1.9090331E0,1.1075532E0,1.9058124E0,-5.785724E-1,8.203274E-1,9.63963E-2,1.8383446E0,-3.039878E-2,-0E0,1.9295549E0,-3.0982424E-2,1.5720233E0,9.621777E-2,-3.0154029E-2,9.627821E-2,1.2770414E-3,-2.7532531E-2,5.1850226E-2,9.681152E-2,1.0486149E0,9.768787E-2,7.2830576E-3,6.7147687E-3,8.9872144E-2],"categories":[],"categories_nodes":[],"categories_segments":[],"categories_sizes":[],"default_left":[0,0,0,0,0,0,0,0,0,0,0,0,0,0,0,0,0,0,0,0,0,0,0,0,0,0,0,0,0],"id":11,"left_children":[1,3,-1,5,7,9,11,13,15,17,-1,19,-1,21,23,-1,25,-1,-1,-1,-1,-1,-1,-1,27,-1,-1,-1,-1],"loss_changes":[6.318995E3,5.117959E2,0E0,2.412207E1,8.1835876E2,2.05271E1,5.0649197E1,1.2221802E1,2.3215477E1,2.7978952E1,0E0,4.2691116E0,0E0,1.9475415E0,1.0527954E0,0E0,2.4337482E0,0E0,0E0,0E0,0E0,0E0,0E0,0E0,1.3700643E0,0E0,0E0,0E0,0E0],"parents":[2147483647,0,0,1,1,3,3,4,4,5,5,6,6,7,7,8,8,9,9,11,11,13,13,14,14,16,16,24,24],"right_children":[2,4,-1,6,8,10,12,14,16,18,-1,20,-1,22,24,-1,26,-1,-1,-1,-1,-1,-1,-1,28,-1,-1,-1,-1],"split_conditions":[4.0058E1,-1.4981E1,-3.0984053E-2,8.2E-2,3.5059E1,1.671E1,6.54E-1,1.5581E1,5.1478E1,3.5059E1,9.63963E-2,-1.3698E1,-3.039878E-2,-1.2242E1,6.3094E1,-3.0982424E-2,8.72E-1,9.621777E-2,-3.0154029E-2,9.627821E-2,1.2770414E-3,-2.7532531E-2,5.1850226E-2,9.681152E-2,-5.6947E1,9.768787E-2,7.2830576E-3,6.7147687E-3,8.9872144E-2],"split_indices":[37,1,0,23,37,7,35,7,7,37,0,0,0,0,10,0,34,0,0,0,0,0,0,0,2,0,0,0,0],"split_type":[0,0,0,0,0,0,0,0,0,0,0,0,0,0,0,0,0,0,0,0,0,0,0,0,0,0,0,0,0],"sum_hessian":[1.6583531E4,1.5891685E3,1.4994362E4,1.059029E3,5.301394E2,1.0189164E3,4.0112694E1,2.6746124E2,2.6267813E2,1.7546255E1,1.0013702E3,2.8165651E1,1.19470415E1,3.2613688E0,2.641999E2,2.5787054E2,4.8076053E0,9.901491E0,7.6447635E0,2.6814154E1,1.3514962E0,2.1984022E0,1.0629666E0,2.619814E2,2.2184615E0,3.7081246E0,1.0994805E0,1.1120833E0,1.1063782E0],"tree_param":{"num_deleted":"0","num_feature":"38","num_nodes":"29","size_leaf_vector":"1"}},{"base_weights":[1.2938166E-1,-5.9982675E-1,1.4515862E0,-1.0160897E-2,-6.465197E-1,-3.282627E-2,1.469829E0,-3.294113E-2,7.7538455E-1,-6.491546E-1,-1.9996579E-1,7.532948E-2,7.3019676E-2,2.6421037E-1,1.4740087E0,-4.6937707E-1,-6.540175E-1,1.9535515E-1,-3.7943813E-1,-6.3511986E-1,7.571881E-2,3.4537416E-2,7.408627E-2,-3.2959808E-2,1.07628E0,-6.146299E-1,-6.569033E-1,-1.6680771E-1,6.0132265E-1,6.034677E-2,-4.494622E-1,8.33589E-2,-3.3420987E-2,1.6118046E0,-3.248806E-2,-6.47878E-1,8.301259E-2,-6.163508E-1,-3.2918558E-2,-4.6615458E-1,6.1148014E-2,3.1926107E-2,1.1626117E0,1.384191E-1,-5.136377E-1,5.1929068E-2,8.41544E-2,-3.2816842E-2,1.3143313E-2,-3.2927647E-2,3.9789047E-2,-3.2660034E-2,-5.423425E-3,-3.0020535E-2,2.5932759E-2,3.5219945E-2,7.90951E-2,7.29266E-2,-1.8244918E-2,-2.9360214E-2,-9.081336E-3],"categories":[],"categories_nodes":[],"categories_segments":[],"categories_sizes":[],"default_left":[0,0,0,0,0,0,0,0,0,0,0,0,0,0,0,0,0,0,0,0,0,0,0,0,0,0,0,0,0,0,0,0,0,0,0,0,0,0,0,0,0,0,0,0,0,0,0,0,0,0,0,0,0,0,0,0,0,0,0,0,0],"id":12,"left_children":[1,3,5,7,9,-1,11,-1,13,15,17,-1,-1,19,21,23,25,27,29,31,-1,-1,-1,-1,33,35,37,39,41,-1,43,-1,-1,45,-1,47,-1,49,-1,51,-1,53,55,57,59,-1,-1,-1,-1,-1,-1,-1,-1,-1,-1,-1,-1,-1,-1,-1,-1],"loss_changes":[1.9935584E4,3.6685986E2,2.828369E2,4.9843585E2,1.4432129E1,0E0,2.0107422E0,0E0,1.5775949E2,1.0588379E1,5.1910505E0,0E0,0E0,2.8761493E2,8.095093E-1,9.515085E1,1.1914062E0,3.3797386E0,5.56363E0,1.1412785E1,0E0,0E0,0E0,0E0,3.2960457E1,6.20141E1,4.9414062E-1,4.934058E0,3.3344126E0,0E0,1.8663473E0,0E0,0E0,6.612625E-1,0E0,6.282318E0,0E0,2.3447678E1,0E0,5.808847E-1,0E0,1.7347491E0,6.8911505E-1,3.2706347E0,9.800205E-1,0E0,0E0,0E0,0E0,0E0,0E0,0E0,0E0,0E0,0E0,0E0,0E0,0E0,0E0,0E0,0E0],"parents":[2147483647,0,0,1,1,2,2,3,3,4,4,6,6,8,8,9,9,10,10,13,13,14,14,15,15,16,16,17,17,18,18,19,19,24,24,25,25,26,26,27,27,28,28,30,30,33,33,35,35,37,37,39,39,41,41,42,42,43,43,44,44],"right_children":[2,4,6,8,10,-1,12,-1,14,16,18,-1,-1,20,22,24,26,28,30,32,-1,-1,-1,-1,34,36,38,40,42,-1,44,-1,-1,46,-1,48,-1,50,-1,52,-1,54,56,58,60,-1,-1,-1,-1,-1,-1,-1,-1,-1,-1,-1,-1,-1,-1,-1,-1],"split_conditions":[7.0026E1,1.21E-1,9.51E-1,6.4946E1,6.988E1,-3.282627E-2,7.1986E1,-3.294113E-2,8.07E-1,1.33E-1,1.081E0,7.532948E-2,7.3019676E-2,5.2E-1,2.2887E1,6.4946E1,-3.5101E1,9.17E-1,1.47E-1,-2.493E0,7.571881E-2,3.4537416E-2,7.408627E-2,-3.2959808E-2,5.4399E1,6.6394E1,1.51E-1,2.3422E1,8.543E1,6.034677E-2,5.13E-1,8.33589E-2,-3.3420987E-2,6.5146E1,-3.248806E-2,6.5715E1,8.301259E-2,6.4946E1,-3.2918558E-2,1.96E0,6.1148014E-2,1.91E-1,9.42E-1,7.96E-1,1.11975E2,5.1929068E-2,8.41544E-2,-3.2816842E-2,1.3143313E-2,-3.2927647E-2,3.9789047E-2,-3.2660034E-2,-5.423425E-3,-3.0020535E-2,2.5932759E-2,3.5219945E-2,7.90951E-2,7.29266E-2,-1.8244918E-2,-2.9360214E-2,-9.081336E-3],"split_indices":[37,36,17,37,37,0,37,0,18,36,3,0,0,31,20,37,0,34,35,11,0,0,0,0,17,37,36,7,19,0,36,0,0,37,0,37,0,37,0,15,0,11,34,34,27,0,0,0,0,0,0,0,0,0,0,0,0,0,0,0,0],"split_type":[0,0,0,0,0,0,0,0,0,0,0,0,0,0,0,0,0,0,0,0,0,0,0,0,0,0,0,0,0,0,0,0,0,0,0,0,0,0,0,0,0,0,0,0,0,0,0,0,0,0,0,0,0,0,0,0,0,0,0,0,0],"sum_hessian":[2.06763E4,1.3326556E4,7.3497437E3,9.7800476E2,1.2348551E4,6.2979183E1,7.2867646E3,5.357524E2,4.4225238E2,1.227585E4,7.270182E1,1.4829191E3,5.8038457E3,2.5555042E2,1.8670195E2,3.2410992E2,1.1951739E4,2.2523539E1,5.0178284E1,1.4861246E2,1.0693795E2,2.0361726E0,1.8466579E2,2.8876886E2,3.5341076E1,8.197248E2,1.1132015E4,1.1804951E1,1.0718588E1,1.9922732E0,4.8186012E1,2.0060768E0,1.4660638E2,2.7021797E1,8.319277E0,8.080307E2,1.1694119E1,3.9270175E2,1.07393125E4,9.826746E0,1.9782039E0,5.461773E0,5.2568154E0,4.577727E0,4.3608284E1,3.316008E0,2.370579E1,8.007313E2,7.299343E0,3.8142685E2,1.127491E1,6.214685E0,3.6120615E0,2.2760372E0,3.1857357E0,2.753837E0,2.5029783E0,1.2660358E0,3.311691E0,3.538882E1,8.219463E0],"tree_param":{"num_deleted":"0","num_feature":"38","num_nodes":"61","size_leaf_vector":"1"}},{"base_weights":[1.0488089E-1,4.0820685E-1,-6.2889856E-1,-4.934436E-1,1.205046E0,7.379096E-2,-3.276849E-2,-6.5456945E-1,-7.077569E-2,6.4276415E-1,1.3429255E0,-3.276838E-2,-6.0983187E-1,1.1593208E0,-2.6929554E-1,6.6006747E-3,1.4856263E0,6.2472534E-1,1.4213686E0,-1.6070347E-1,-3.2681342E-2,-3.6103275E-1,1.433447E0,-3.8402802E-1,1.4345646E0,-3.2835733E-2,7.45128E-2,1.3642315E0,7.4925445E-2,9.5218235E-1,-3.300785E-2,1.2420813E0,1.4578899E0,6.018271E-1,-3.1465273E-2,6.91925E-1,-3.2648515E-2,7.480285E-2,9.2979234E-1,3.6431634E-1,-5.4651606E-1,7.6876715E-2,-3.122609E-2,7.496873E-2,9.4591725E-1,5.153435E-1,1.4985547E0,-6.1307496E-1,1.478145E0,1.4797807E0,1.3108107E0,8.493118E-2,-3.6979949E-3,7.625022E-2,-3.0393047E-2,-1.9546254E-2,7.494331E-2,-3.348984E-2,2.9341763E-2,-2.9094292E-2,2.3362389E-2,-3.1979766E-2,6.234327E-2,7.4731305E-2,-3.1164978E-2,-3.2097224E-2,7.622545E-2,-3.338369E-2,-8.3090495E-3,7.400993E-2,8.0333883E-4,7.4304454E-2,5.7768326E-2,7.486676E-2,4.545478E-2],"categories":[],"categories_nodes":[],"categories_segments":[],"categories_sizes":[],"default_left":[0,0,0,0,0,0,0,0,0,0,0,0,0,0,0,0,0,0,0,0,0,0,0,0,0,0,0,0,0,0,0,0,0,0,0,0,0,0,0,0,0,0,0,0,0,0,0,0,0,0,0,0,0,0,0,0,0,0,0,0,0,0,0,0,0,0,0,0,0,0,0,0,0,0,0],"id":13,"left_children":[1,3,5,7,9,-1,-1,11,13,15,17,-1,19,21,23,25,27,29,31,33,-1,35,37,39,41,-1,-1,43,-1,45,-1,47,49,51,-1,53,-1,-1,55,57,59,-1,-1,-1,61,63,65,67,69,71,73,-1,-1,-1,-1,-1,-1,-1,-1,-1,-1,-1,-1,-1,-1,-1,-1,-1,-1,-1,-1,-1,-1,-1,-1],"loss_changes":[4.5312876E3,1.0349228E4,3.317544E2,4.6014417E2,5.92542E2,0E0,0E0,8.056641E-3,4.554722E2,8.074512E2,3.4565625E2,0E0,1.6661835E0,1.0817087E2,3.1397098E2,8.450528E2,5.2233887E-1,2.5462225E2,3.57959E1,2.9981534E0,0E0,1.2218675E1,6.5447693E0,1.8305801E2,2.1666977E1,0E0,0E0,3.2321396E0,0E0,1.1480975E2,0E0,4.109431E2,1.4332031E1,2.4878E0,0E0,9.467832E0,0E0,0E0,1.875376E1,6.1806023E1,4.4385284E1,0E0,0E0,0E0,7.813614E0,2.9924872E2,1.2079559E1,2.4895363E0,2.3465576E0,7.7509766E0,4.4367188E1,0E0,0E0,0E0,0E0,0E0,0E0,0E0,0E0,0E0,0E0,0E0,0E0,0E0,0E0,0E0,0E0,0E0,0E0,0E0,0E0,0E0,0E0,0E0,0E0],"parents":[2147483647,0,0,1,1,2,2,3,3,4,4,7,7,8,8,9,9,10,10,12,12,13,13,14,14,15,15,16,16,17,17,18,18,19,19,21,21,22,22,23,23,24,24,27,27,29,29,31,31,32,32,33,33,35,35,38,38,39,39,40,40,44,44,45,45,46,46,47,47,48,48,49,49,50,50],"right_children":[2,4,6,8,10,-1,-1,12,14,16,18,-1,20,22,24,26,28,30,32,34,-1,36,38,40,42,-1,-1,44,-1,46,-1,48,50,52,-1,54,-1,-1,56,58,60,-1,-1,-1,62,64,66,68,70,72,74,-1,-1,-1,-1,-1,-1,-1,-1,-1,-1,-1,-1,-1,-1,-1,-1,-1,-1,-1,-1,-1,-1,-1,-1],"split_conditions":[7.0026E1,5.4984E1,9.51E-1,5.0004E1,1.2472E1,7.379096E-2,-3.276849E-2,4.9838E1,-8.91E-1,4.46E-1,1.21E-1,-3.276838E-2,-2.4653E1,8.14E-1,1.245E0,5.9594E1,5.5126E1,5.2E-1,6.0178E1,8.07E-1,-3.2681342E-2,3.2366E1,9.81E-1,6.42E-1,9.35E-1,-3.2835733E-2,7.45128E-2,1E1,7.4925445E-2,5.2632E1,-3.300785E-2,1.708E0,7.73E2,1.0048E1,-3.1465273E-2,5.4399E1,-3.2648515E-2,7.480285E-2,1.146E1,1.3453E1,5.6638E1,7.6876715E-2,-3.122609E-2,7.496873E-2,5.356E0,6.4946E1,-3.45E-1,5.9594E1,2.5493E1,6.988E1,6.4946E1,8.493118E-2,-3.6979949E-3,7.625022E-2,-3.0393047E-2,-1.9546254E-2,7.494331E-2,-3.348984E-2,2.9341763E-2,-2.9094292E-2,2.3362389E-2,-3.1979766E-2,6.234327E-2,7.4731305E-2,-3.1164978E-2,-3.2097224E-2,7.622545E-2,-3.338369E-2,-8.3090495E-3,7.400993E-2,8.0333883E-4,7.4304454E-2,5.7768326E-2,7.486676E-2,4.545478E-2],"split_indices":[37,37,17,37,20,0,0,37,8,17,36,0,0,18,31,37,37,31,37,4,0,10,5,3,4,0,0,14,0,17,0,17,14,7,0,17,0,0,7,17,10,0,0,0,10,37,31,37,31,37,37,0,0,0,0,0,0,0,0,0,0,0,0,0,0,0,0,0,0,0,0,0,0,0,0],"split_type":[0,0,0,0,0,0,0,0,0,0,0,0,0,0,0,0,0,0,0,0,0,0,0,0,0,0,0,0,0,0,0,0,0,0,0,0,0,0,0,0,0,0,0,0,0,0,0,0,0,0,0,0,0,0,0,0,0,0,0,0,0,0,0,0,0,0,0,0,0,0,0,0,0,0,0],"sum_hessian":[2.0358418E4,1.4404246E4,5.9541724E3,6.75765E3,7.646596E3,7.384124E1,5.880331E3,4.8923413E3,1.8653082E3,1.5060624E3,6.1405337E3,4.8030586E3,8.928289E1,2.590651E2,1.606243E3,8.5839484E2,6.476675E2,6.0485315E2,5.5356807E3,8.176908E0,8.110598E1,3.9514423E1,2.1955067E2,1.505035E3,1.0120807E2,5.931822E2,2.6521262E2,6.3907516E1,5.8376E2,4.8209354E2,1.2275958E2,9.378607E2,4.59782E3,3.0203025E0,5.1566052E0,8.473332E0,3.1041088E1,1.949238E2,2.4626879E1,2.6835892E2,1.2366761E3,9.6458336E1,4.7497363E0,4.7926567E1,1.59809475E1,2.6811002E2,2.1398354E2,1.0580293E2,8.320578E2,4.0007732E3,5.9704675E2,1.1501842E0,1.8701183E0,5.2000456E0,3.2732873E0,7.3724165E0,1.7254463E1,4.7404655E1,2.2095427E2,1.1951201E3,4.1555977E1,2.478489E0,1.3502459E1,1.441722E2,1.239378E2,2.4889474E0,2.114946E2,9.404047E1,1.1762467E1,8.308212E2,1.2365633E0,3.923807E3,7.696618E1,4.0737338E2,1.8967336E2],"tree_param":{"num_deleted":"0","num_feature":"38","num_nodes":"75","size_leaf_vector":"1"}},{"base_weights":[9.341426E-2,8.863278E-1,-6.4890045E-1,-1.714848E-1,1.0872521E0,-3.2441327E-1,-3.2683294E-2,-5.535614E-1,5.4152024E-1,1.3437532E0,2.6202762E-1,1.3948836E0,-6.386751E-1,9.3580306E-1,-5.888557E-1,-6.184222E-1,1.4911842E0,1.4788713E0,1.0735873E0,7.5983465E-2,-6.468907E-1,1.4954467E0,6.1988866E-1,-3.2688342E-2,4.103752E-2,-3.2217603E-2,7.907159E-2,-6.288832E-1,2.08422E-1,7.6814646E-1,-3.2870147E-2,7.469996E-2,4.465811E-2,7.7557236E-1,7.4687764E-2,-4.0398988E-1,1.2087544E0,-4.6655437E-1,-3.297759E-2,1.5328614E0,3.8254246E-2,1.6465317E-3,4.83785E-2,-6.4586717E-1,1.1821529E0,-5.548705E-1,7.530924E-2,-2.9938865E-2,7.4918896E-2,-4.9958616E-1,7.4283496E-2,-5.819213E-1,1.3376966E0,1.2775247E0,-5.304184E-1,-2.336623E-1,-3.3160117E-2,3.9787572E-2,7.861523E-2,1.4416188E-3,-3.2395076E-2,-2.7052691E-2,7.304708E-2,-3.25257E-2,4.6952747E-2,5.2007575E-2,-2.9499054E-2,-3.2401916E-2,8.666106E-3,-2.7013207E-2,7.45058E-2,5.2871194E-2,7.637858E-2,-3.3757247E-2,7.18363E-2,7.94924E-2,-1.653844E-2],"categories":[],"categories_nodes":[],"categories_segments":[],"categories_sizes":[],"default_left":[0,0,0,0,0,0,0,0,0,0,0,0,0,0,0,0,0,0,0,0,0,0,0,0,0,0,0,0,0,0,0,0,0,0,0,0,0,0,0,0,0,0,0,0,0,0,0,0,0,0,0,0,0,0,0,0,0,0,0,0,0,0,0,0,0,0,0,0,0,0,0,0,0,0,0,0,0],"id":14,"left_children":[1,3,5,7,9,11,-1,13,15,17,19,21,23,25,27,29,31,33,35,-1,37,39,41,-1,-1,-1,-1,43,45,47,-1,-1,-1,49,-1,51,53,55,-1,57,-1,-1,-1,59,61,63,-1,-1,-1,65,-1,67,69,71,73,75,-1,-1,-1,-1,-1,-1,-1,-1,-1,-1,-1,-1,-1,-1,-1,-1,-1,-1,-1,-1,-1],"loss_changes":[1.1980271E4,2.0918652E3,1.613623E1,4.280001E2,1.7504951E3,8.2494484E1,0E0,5.379535E1,6.0391565E2,2.2991016E2,2.2422598E3,1.5329666E0,2.882225E0,2.4327648E1,3.195044E1,1.3375931E1,1.352539E-1,4.3679688E1,4.203689E2,0E0,2.4562378E0,2.1805954E-1,5.074643E-1,0E0,0E0,0E0,0E0,2.9299072E1,4.746295E1,6.89047E0,0E0,0E0,0E0,7.9405426E1,0E0,5.465799E1,2.3072388E2,3.3549786E0,0E0,2.0336151E-1,0E0,0E0,0E0,1.3582153E0,4.4100895E0,4.3303175E0,0E0,0E0,0E0,4.3760157E0,0E0,8.055187E0,4.8485203E0,1.0165039E2,2.0902813E1,6.120083E0,0E0,0E0,0E0,0E0,0E0,0E0,0E0,0E0,0E0,0E0,0E0,0E0,0E0,0E0,0E0,0E0,0E0,0E0,0E0,0E0,0E0],"parents":[2147483647,0,0,1,1,2,2,3,3,4,4,5,5,7,7,8,8,9,9,10,10,11,11,12,12,13,13,14,14,15,15,16,16,17,17,18,18,20,20,21,21,22,22,27,27,28,28,29,29,33,33,35,35,36,36,37,37,39,39,43,43,44,44,45,45,49,49,51,51,52,52,53,53,54,54,55,55],"right_children":[2,4,6,8,10,12,-1,14,16,18,20,22,24,26,28,30,32,34,36,-1,38,40,42,-1,-1,-1,-1,44,46,48,-1,-1,-1,50,-1,52,54,56,-1,58,-1,-1,-1,60,62,64,-1,-1,-1,66,-1,68,70,72,74,76,-1,-1,-1,-1,-1,-1,-1,-1,-1,-1,-1,-1,-1,-1,-1,-1,-1,-1,-1,-1,-1],"split_conditions":[5.917E1,3.9376E1,6.0178E1,-1.84E-1,5.4984E1,1.708E0,-3.2683294E-2,1.6612E1,3.5059E1,5.0004E1,4.46E-1,1.03688E2,3.9734E1,3.4138E1,8.2E-2,1.671E1,6.3758E1,4.0058E1,-1.084E0,7.5983465E-2,5.5126E1,1.04E-1,6.03E-1,-3.2688342E-2,4.103752E-2,-3.2217603E-2,7.907159E-2,1.3679E1,6.63E-1,3.4138E1,-3.2870147E-2,7.469996E-2,4.465811E-2,2.2E-1,7.4687764E-2,5.0937E1,3.96E-1,9.76E-1,-3.297759E-2,1.303E0,3.8254246E-2,1.6465317E-3,4.83785E-2,1.671E1,1.1259E1,-1.3698E1,7.530924E-2,-2.9938865E-2,7.4918896E-2,-4.8969E1,7.4283496E-2,9.92E-1,2.9481E1,9.58E-1,9.35E-1,4.67E0,-3.3160117E-2,3.9787572E-2,7.861523E-2,1.4416188E-3,-3.2395076E-2,-2.7052691E-2,7.304708E-2,-3.25257E-2,4.6952747E-2,5.2007575E-2,-2.9499054E-2,-3.2401916E-2,8.666106E-3,-2.7013207E-2,7.45058E-2,5.2871194E-2,7.637858E-2,-3.3757247E-2,7.18363E-2,7.94924E-2,-1.653844E-2],"split_indices":[37,37,37,9,37,17,0,7,37,37,17,7,20,37,23,7,10,37,8,0,37,23,9,0,0,0,0,20,35,37,0,0,0,17,0,17,30,36,0,4,0,0,0,7,0,0,0,0,0,0,0,5,10,18,4,10,0,0,0,0,0,0,0,0,0,0,0,0,0,0,0,0,0,0,0,0,0],"split_type":[0,0,0,0,0,0,0,0,0,0,0,0,0,0,0,0,0,0,0,0,0,0,0,0,0,0,0,0,0,0,0,0,0,0,0,0,0,0,0,0,0,0,0,0,0,0,0,0,0,0,0,0,0,0,0,0,0,0,0,0,0,0,0,0,0,0,0,0,0,0,0,0,0,0,0,0,0],"sum_hessian":[2.03539E4,9.841589E3,1.0512312E4,1.5708745E3,8.270714E3,1.5255518E2,1.0359757E4,1.0228985E3,5.47976E2,6.3094053E3,1.9613091E3,2.3473238E1,1.2908194E2,2.3554375E1,9.993441E2,2.466461E2,3.013299E2,4.2053584E3,2.1040464E3,8.228291E2,1.13848E3,2.0580698E1,2.8925397E0,1.2788324E2,1.1987007E0,6.7875004E0,1.6766874E1,9.5170984E2,4.7634254E1,6.6230874E0,2.4002303E2,2.996026E2,1.7272877E0,8.7402756E1,4.117956E3,1.7626529E2,1.9277811E3,7.545313E1,1.0630269E3,1.9343008E1,1.237689E0,1.2237269E0,1.6688128E0,9.42986E2,8.723821E0,2.998088E1,1.7653376E1,2.2647502E0,4.3583374E0,3.122294E1,5.6179817E1,1.600396E2,1.6225702E1,1.8545333E3,7.32478E1,3.4876225E1,4.057691E1,1.2188125E0,1.8124197E1,2.6829777E0,9.4030304E2,1.1517887E0,7.5720325E0,2.8292915E1,1.6879643E0,1.6117827E0,2.9611158E1,1.4729169E2,1.2747902E1,1.1496994E0,1.5076003E1,9.868194E2,8.67714E2,6.833666E1,4.911144E0,1.6335555E0,3.324267E1],"tree_param":{"num_deleted":"0","num_feature":"38","num_nodes":"77","size_leaf_vector":"1"}},{"base_weights":[-4.131246E-1,7.602317E-1,-5.599421E-1,-2.0477517E-1,1.5687762E0,-6.037306E-1,3.30065E-1,1.4284085E0,-5.718229E-1,1.6385894E0,-3.583735E-1,-1.03639424E-1,-6.132225E-1,1.0581785E0,-3.070741E-2,1.1675914E-1,1.6852826E0,7.323636E-1,-5.972633E-1,6.4063853E-1,1.6890519E0,6.749842E-1,-3.0515641E-2,1.5125507E0,-5.701403E-1,-5.1588225E-1,-3.0728737E-2,2.380841E-2,1.4926E0,-4.4660178E-1,1.539833E0,1.7084435E0,-2.5183482E-2,-2.9432362E-2,8.7459415E-2,6.320153E-2,-6.1025083E-1,-3.0373996E-2,8.723408E-2,1.72259E0,1.2746512E0,-2.8064895E-2,1.5789516E0,-2.9159907E-2,1.6979492E0,-6.087817E-1,8.6018E-2,-5.820837E-1,1.6165801E0,-2.4930318E-1,8.929699E-2,-5.149469E-1,1.6613739E0,3.4196198E-2,-3.038893E-2,4.304644E-2,8.6956285E-2,1.7468362E0,7.320716E-1,-3.7433956E-2,-3.0732328E-2,1.7467761E0,1.4709942E0,1.4164596E0,-2.570757E-1,4.746216E-2,8.780066E-2,1.7473993E0,9.513408E-1,1.0477568E-2,-3.0683575E-2,5.1529378E-2,-5.9271055E-1,8.694839E-2,4.7310174E-2,-4.6014574E-1,1.6276169E0,-1.496169E-1,-3.028858E-2,1.7486458E0,1.3653113E0,5.0668266E-2,8.795353E-2,8.2834736E-2,1.127897E-2,-2.882047E-2,7.7809505E-2,6.597891E-2,8.771806E-2,8.768545E-2,-1.186919E-2,5.0643176E-2,8.270233E-2,-2.9146586E-2,4.737513E-2,3.2064997E-2,8.882285E-2,8.234974E-2,-2.6071668E-2,3.006228E-4,-3.0712152E-2,-2.9418534E-2,2.8537756E-2,1.1203563E-2,8.863904E-2,4.9856346E-2,-2.8416662E-2,8.762416E-2,4.63618E-2,8.295073E-3,7.850754E-2],"categories":[],"categories_nodes":[],"categories_segments":[],"categories_sizes":[],"default_left":[0,0,0,0,0,0,0,0,0,0,0,0,0,0,0,0,0,0,0,0,0,0,0,0,0,0,0,0,0,0,0,0,0,0,0,0,0,0,0,0,0,0,0,0,0,0,0,0,0,0,0,0,0,0,0,0,0,0,0,0,0,0,0,0,0,0,0,0,0,0,0,0,0,0,0,0,0,0,0,0,0,0,0,0,0,0,0,0,0,0,0,0,0,0,0,0,0,0,0,0,0,0,0,0,0,0,0,0,0,0,0],"id":15,"left_children":[1,3,5,7,9,11,13,15,17,19,21,23,25,27,-1,29,31,33,35,37,39,41,-1,43,45,47,-1,49,51,53,55,57,-1,-1,-1,-1,59,-1,-1,61,63,-1,65,-1,67,69,-1,71,73,75,-1,77,79,-1,-1,-1,-1,81,83,85,-1,87,89,91,93,-1,-1,95,97,-1,-1,-1,99,-1,-1,101,103,105,-1,107,109,-1,-1,-1,-1,-1,-1,-1,-1,-1,-1,-1,-1,-1,-1,-1,-1,-1,-1,-1,-1,-1,-1,-1,-1,-1,-1,-1,-1,-1,-1],"loss_changes":[2.810601E3,1.4158352E3,5.651709E2,4.9585852E2,1.3301685E2,6.5526855E1,4.6756525E2,5.093567E1,2.2443192E1,4.7643066E1,9.028849E0,1.943268E2,1.640625E0,1.7239551E2,0E0,2.0241716E1,6.637268E0,1.7539637E1,1.6032196E1,6.3770393E1,1.2083496E1,7.7243977E0,0E0,2.263504E1,1.7707634E1,2.6457771E1,0E0,5.4938515E1,9.1802E1,3.305771E0,5.604229E-1,4.331787E0,0E0,0E0,0E0,0E0,1.5899506E0,0E0,0E0,4.5231934E0,1.5032089E1,0E0,5.1031113E-3,0E0,1.5240326E0,8.413086E-1,0E0,3.1355858E0,2.8532028E-2,3.894565E1,0E0,6.1207867E-1,5.8953247E0,0E0,0E0,0E0,0E0,6.272888E-1,2.1262815E0,4.5376716E0,0E0,1.9367676E0,3.6187668E1,5.5850983E0,2.3069944E0,0E0,0E0,1.2368622E0,3.9309957E0,0E0,0E0,0E0,2.3932114E0,0E0,0E0,1.1759783E1,1.7824669E0,2.1901665E0,0E0,1.7492676E-1,1.3929764E1,0E0,0E0,0E0,0E0,0E0,0E0,0E0,0E0,0E0,0E0,0E0,0E0,0E0,0E0,0E0,0E0,0E0,0E0,0E0,0E0,0E0,0E0,0E0,0E0,0E0,0E0,0E0,0E0,0E0,0E0],"parents":[2147483647,0,0,1,1,2,2,3,3,4,4,5,5,6,6,7,7,8,8,9,9,10,10,11,11,12,12,13,13,15,15,16,16,17,17,18,18,19,19,20,20,21,21,23,23,24,24,25,25,27,27,28,28,29,29,30,30,31,31,36,36,39,39,40,40,42,42,44,44,45,45,47,47,48,48,49,49,51,51,52,52,57,57,58,58,59,59,61,61,62,62,63,63,64,64,67,67,68,68,72,72,75,75,76,76,77,77,79,79,80,80],"right_children":[2,4,6,8,10,12,14,16,18,20,22,24,26,28,-1,30,32,34,36,38,40,42,-1,44,46,48,-1,50,52,54,56,58,-1,-1,-1,-1,60,-1,-1,62,64,-1,66,-1,68,70,-1,72,74,76,-1,78,80,-1,-1,-1,-1,82,84,86,-1,88,90,92,94,-1,-1,96,98,-1,-1,-1,100,-1,-1,102,104,106,-1,108,110,-1,-1,-1,-1,-1,-1,-1,-1,-1,-1,-1,-1,-1,-1,-1,-1,-1,-1,-1,-1,-1,-1,-1,-1,-1,-1,-1,-1,-1,-1],"split_conditions":[-3.11E-1,2.7372E1,1E2,7.4E-1,8.51E-1,-1.84E-1,4.2078E1,1.6521E1,1.9E-2,-1.19E-1,-1.1097E1,4.062E1,-8.9E-2,1.05582E2,-3.070741E-2,1.9576E1,8.54E-1,1.402E0,-5.6947E1,1.7061E1,3.9297E1,1.226E0,-3.0515641E-2,4.9801E1,5.8184E1,7.6084E1,-3.0728737E-2,2.6647E1,1.6177E1,-3.253E0,5.847E0,8.1E-2,-2.5183482E-2,-2.9432362E-2,8.7459415E-2,6.320153E-2,7.45E-1,-3.0373996E-2,8.723408E-2,3.3557E1,5.0391E1,-2.8064895E-2,2.1952E1,-2.9159907E-2,3.467E3,6.817E0,8.6018E-2,2.6105E1,2.389E0,3.1566E1,8.929699E-2,-1.57E-1,6.322E0,3.4196198E-2,-3.038893E-2,4.304644E-2,8.6956285E-2,1.671E1,-8.84E-1,-2.2254E1,-3.0732328E-2,2.515E1,-7.595E0,-1.5039E1,-3.253E0,4.746216E-2,8.780066E-2,5.3054E1,-4.192E1,1.0477568E-2,-3.0683575E-2,5.1529378E-2,-3.0384E1,8.694839E-2,4.7310174E-2,1.82E2,1.78E-1,2.0252E1,-3.028858E-2,5.5076E1,5.1733E1,5.0668266E-2,8.795353E-2,8.2834736E-2,1.127897E-2,-2.882047E-2,7.7809505E-2,6.597891E-2,8.771806E-2,8.768545E-2,-1.186919E-2,5.0643176E-2,8.270233E-2,-2.9146586E-2,4.737513E-2,3.2064997E-2,8.882285E-2,8.234974E-2,-2.6071668E-2,3.006228E-4,-3.0712152E-2,-2.9418534E-2,2.8537756E-2,1.1203563E-2,8.863904E-2,4.9856346E-2,-2.8416662E-2,8.762416E-2,4.63618E-2,8.295073E-3,7.850754E-2],"split_indices":[9,7,17,18,6,9,19,7,17,23,0,19,9,27,0,16,4,0,2,17,19,3,0,28,17,17,0,7,7,0,12,23,0,0,0,0,18,0,0,29,10,0,16,0,14,20,0,19,12,29,0,16,16,0,0,0,0,7,9,0,0,10,16,16,0,0,0,10,0,0,0,0,0,0,0,14,12,10,0,2,28,0,0,0,0,0,0,0,0,0,0,0,0,0,0,0,0,0,0,0,0,0,0,0,0,0,0,0,0,0,0],"split_type":[0,0,0,0,0,0,0,0,0,0,0,0,0,0,0,0,0,0,0,0,0,0,0,0,0,0,0,0,0,0,0,0,0,0,0,0,0,0,0,0,0,0,0,0,0,0,0,0,0,0,0,0,0,0,0,0,0,0,0,0,0,0,0,0,0,0,0,0,0,0,0,0,0,0,0,0,0,0,0,0,0,0,0,0,0,0,0,0,0,0,0,0,0,0,0,0,0,0,0,0,0,0,0,0,0,0,0,0,0,0,0],"sum_hessian":[1.6314927E4,1.8142734E3,1.4500653E4,8.2708704E2,9.8718646E2,1.38208125E4,6.798413E2,1.516696E2,6.754175E2,9.527393E2,3.4447132E1,2.576541E2,1.3563158E4,3.838985E2,2.9594278E2,2.4926218E1,1.26743385E2,1.2794691E1,6.6262274E2,4.601885E1,9.0672046E2,6.6414866E0,2.7805647E1,5.7613575E1,2.0004054E2,1.8738123E2,1.3375777E4,1.1364414E2,2.7025436E2,1.7855858E1,7.07036E0,1.2548331E2,1.2600839E0,5.5404987E0,7.254192E0,4.471446E0,6.581513E2,2.157864E1,2.4440207E1,8.383171E2,6.8403366E1,2.7744215E0,3.8670652E0,4.6212234E0,5.299235E1,1.9683693E2,3.203614E0,1.818552E2,5.526026E0,9.84193E1,1.522484E1,2.0896395E1,2.4935796E2,2.1101418E0,1.5745715E1,1.8391018E0,5.2312584E0,1.20561295E2,4.922013E0,5.192609E0,6.5295874E2,7.6389197E2,7.4425125E1,6.2673798E1,5.7295737E0,1.1122618E0,2.7548034E0,4.94492E1,3.5431511E0,1.0228412E0,1.9581409E2,1.0660754E0,1.8078912E2,4.4119787E0,1.114047E0,8.859572E1,9.823579E0,4.432603E0,1.6463793E1,1.91948E2,5.7409954E1,2.2496326E0,1.1831166E2,1.5917242E0,3.3302886E0,3.9748614E0,1.2177472E0,1.3861992E1,7.5002997E2,6.3905468E1,1.0519654E1,2.3574434E1,3.909936E1,4.6156077E0,1.1139657E0,1.4129428E0,4.803626E1,2.4445539E0,1.0985973E0,6.1174507E0,1.7467166E2,7.8919525E1,9.676195E0,1.0091976E0,8.814382E0,1.0847685E0,3.347834E0,1.9082143E2,1.1265748E0,8.472074E0,4.893788E1],"tree_param":{"num_deleted":"0","num_feature":"38","num_nodes":"111","size_leaf_vector":"1"}},{"base_weights":[1.3009836E-1,-6.212891E-1,7.911278E-1,-6.407681E-1,-6.237015E-2,-3.2542802E-2,9.445032E-1,-6.4326376E-1,-4.3433264E-2,-4.8823136E-1,4.8181868E-1,1.9913614E-1,1.1467022E0,-6.5020114E-1,-5.246879E-1,-3.2245297E-2,1.2609158E0,-5.9062266E-1,2.5808433E-1,8.498058E-1,-5.0190514E-1,6.412875E-1,-4.5874667E-1,1.1712189E0,-3.2434974E-2,-3.2537352E-2,-6.114975E-1,-6.3077843E-1,2.2016673E-1,3.0858194E-2,6.887331E-2,-3.4462485E-1,-3.215129E-2,-3.1853195E-2,1.2417909E0,-4.183524E-1,1.2569103E0,-6.1284983E-1,-1.9716999E-1,1.5968794E-1,8.891299E-1,1.8023986E-3,-6.1069095E-1,1.2773455E0,7.022689E-1,1.9244488E-1,-6.267642E-1,-6.476431E-1,-5.0256985E-1,-2.476495E-1,1.0088668E0,1.2172753E-1,-5.936398E-1,-2.5634894E-2,7.286115E-2,-3.220036E-2,6.947729E-2,-2.5518147E-2,1.2832259E0,-3.2342114E-2,4.4896747E-3,6.4628184E-2,-4.3551257E-1,-9.291859E-2,1.3683689E0,9.667095E-1,-7.226514E-2,-3.966924E-1,3.8209465E-1,-6.411238E-1,-2.3107162E-2,1.306564E0,7.308734E-1,3.2354046E-2,9.92551E-1,-2.5504563E-2,4.620683E-2,-3.251192E-2,-3.5442617E-3,-3.250276E-2,-4.0137274E-3,8.772624E-3,-2.8502965E-2,3.3934847E-2,-2.1172917E-2,-9.1757067E-4,6.299717E-2,-3.0452525E-2,2.8052589E-2,-3.228012E-2,-0E0,3.5005298E-2,6.746375E-2,-3.145655E-2,-3.7548281E-3,6.386729E-2,-1.4081717E-2,3.3410747E-2,6.892343E-2,3.4898903E-2,6.0061734E-2,-3.023321E-2,4.2116966E-2,-2.3161573E-2,5.9722334E-2,3.1236771E-2,-2.428204E-2,-3.2287072E-2,-1.0782225E-2,5.5851407E-2,-3.2772906E-2,6.0752153E-2,6.729259E-2,-2.770929E-2,5.451835E-2,-1.5895301E-2,3.7943207E-2,-2.2522403E-2,5.350698E-2],"categories":[],"categories_nodes":[],"categories_segments":[],"categories_sizes":[],"default_left":[0,0,0,0,0,0,0,0,0,0,0,0,0,0,0,0,0,0,0,0,0,0,0,0,0,0,0,0,0,0,0,0,0,0,0,0,0,0,0,0,0,0,0,0,0,0,0,0,0,0,0,0,0,0,0,0,0,0,0,0,0,0,0,0,0,0,0,0,0,0,0,0,0,0,0,0,0,0,0,0,0,0,0,0,0,0,0,0,0,0,0,0,0,0,0,0,0,0,0,0,0,0,0,0,0,0,0,0,0,0,0,0,0,0,0,0,0,0,0],"id":16,"left_children":[1,3,5,7,9,-1,11,13,15,17,19,21,23,25,27,-1,29,31,33,35,37,39,41,43,-1,-1,45,47,49,-1,-1,51,-1,-1,53,55,57,59,61,63,65,67,69,71,73,75,77,79,81,83,85,87,89,-1,-1,-1,-1,-1,91,-1,-1,-1,93,95,97,99,101,103,105,107,109,111,113,115,117,-1,-1,-1,-1,-1,-1,-1,-1,-1,-1,-1,-1,-1,-1,-1,-1,-1,-1,-1,-1,-1,-1,-1,-1,-1,-1,-1,-1,-1,-1,-1,-1,-1,-1,-1,-1,-1,-1,-1,-1,-1,-1,-1,-1],"loss_changes":[1.0228121E4,1.0485132E2,2.42296E3,1.3811768E1,7.530811E1,0E0,1.4921875E3,7.477051E0,3.0632742E1,1.398616E1,5.1683857E1,6.1473724E2,3.4297363E2,1.9042969E-2,4.0664627E1,0E0,6.381073E-1,1.9485359E0,1.947337E1,5.375701E1,1.2186661E0,1.5074512E2,5.9496323E1,3.8213184E2,0E0,0E0,1.60252E0,8.253784E-1,2.3724876E1,0E0,0E0,3.3922634E0,0E0,0E0,4.155937E0,1.0317784E1,3.8031693E0,7.340002E-1,3.7852404E0,1.3133826E2,6.2324463E1,3.1934698E1,1.1355164E1,9.974609E1,2.75729E2,1.2725849E0,1.5392723E0,4.6452332E-1,2.4950724E0,6.548484E0,6.3001423E0,3.223268E0,6.0982513E-1,0E0,0E0,0E0,0E0,0E0,2.6907043E0,0E0,0E0,0E0,5.8042085E-1,9.185223E1,2.2901917E-1,4.8389343E1,3.0361044E1,1.0863615E1,2.2774982E1,1.0928802E0,2.2897675E1,2.0963867E1,1.4720901E2,1.0924024E2,1.108963E2,0E0,0E0,0E0,0E0,0E0,0E0,0E0,0E0,0E0,0E0,0E0,0E0,0E0,0E0,0E0,0E0,0E0,0E0,0E0,0E0,0E0,0E0,0E0,0E0,0E0,0E0,0E0,0E0,0E0,0E0,0E0,0E0,0E0,0E0,0E0,0E0,0E0,0E0,0E0,0E0,0E0,0E0,0E0,0E0],"parents":[2147483647,0,0,1,1,2,2,3,3,4,4,6,6,7,7,8,8,9,9,10,10,11,11,12,12,13,13,14,14,16,16,17,17,18,18,19,19,20,20,21,21,22,22,23,23,26,26,27,27,28,28,31,31,34,34,35,35,36,36,37,37,38,38,39,39,40,40,41,41,42,42,43,43,44,44,45,45,46,46,47,47,48,48,49,49,50,50,51,51,52,52,58,58,62,62,63,63,64,64,65,65,66,66,67,67,68,68,69,69,70,70,71,71,72,72,73,73,74,74],"right_children":[2,4,6,8,10,-1,12,14,16,18,20,22,24,26,28,-1,30,32,34,36,38,40,42,44,-1,-1,46,48,50,-1,-1,52,-1,-1,54,56,58,60,62,64,66,68,70,72,74,76,78,80,82,84,86,88,90,-1,-1,-1,-1,-1,92,-1,-1,-1,94,96,98,100,102,104,106,108,110,112,114,116,118,-1,-1,-1,-1,-1,-1,-1,-1,-1,-1,-1,-1,-1,-1,-1,-1,-1,-1,-1,-1,-1,-1,-1,-1,-1,-1,-1,-1,-1,-1,-1,-1,-1,-1,-1,-1,-1,-1,-1,-1,-1,-1,-1,-1],"split_conditions":[8.06E-1,2.488E1,1.942E0,8.0451E1,7.5389E1,-3.2542802E-2,8.7853E1,1.91E-1,1.39E-1,3.96E-1,1.483E0,8.3162E1,9.418E0,1.014E0,7.4321E1,-3.2245297E-2,4.36E-1,2.2847E1,4.8729E1,5.26E-1,1.96E0,8.51E-1,3.6E1,8.3162E1,-3.2434974E-2,-3.2537352E-2,8.8863E1,2.4273E1,1.3453E1,3.0858194E-2,6.887331E-2,2.89E-1,-3.215129E-2,-3.1853195E-2,9.25E-1,3.5E-2,8.8E-1,1.3171E1,5.855E0,3.96E-1,2.067E0,9.1576E1,1.8863E1,1.2579E1,5.464E0,4.87E-1,7.5897E1,7.3775E1,6.23E-1,1.45E2,-1.162E0,-0E0,8.43E-1,-2.5634894E-2,7.286115E-2,-3.220036E-2,6.947729E-2,-2.5518147E-2,1.053E0,-3.2342114E-2,4.4896747E-3,6.4628184E-2,2.6469E1,2.2847E1,1.088E0,2.4921E1,-2.515E1,8.3126E1,9.6613E1,2.798E0,-4.977E0,8.6E-1,7.85E-1,9.37E-1,5.95E-1,-2.5504563E-2,4.620683E-2,-3.251192E-2,-3.5442617E-3,-3.250276E-2,-4.0137274E-3,8.772624E-3,-2.8502965E-2,3.3934847E-2,-2.1172917E-2,-9.1757067E-4,6.299717E-2,-3.0452525E-2,2.8052589E-2,-3.228012E-2,-0E0,3.5005298E-2,6.746375E-2,-3.145655E-2,-3.7548281E-3,6.386729E-2,-1.4081717E-2,3.3410747E-2,6.892343E-2,3.4898903E-2,6.0061734E-2,-3.023321E-2,4.2116966E-2,-2.3161573E-2,5.9722334E-2,3.1236771E-2,-2.428204E-2,-3.2287072E-2,-1.0782225E-2,5.5851407E-2,-3.2772906E-2,6.0752153E-2,6.729259E-2,-2.770929E-2,5.451835E-2,-1.5895301E-2,3.7943207E-2,-2.2522403E-2,5.350698E-2],"split_indices":[8,20,17,28,19,0,19,8,8,30,5,17,5,6,19,0,32,17,17,8,12,5,14,17,0,0,27,20,17,0,0,36,0,0,3,12,34,0,0,30,5,27,31,32,8,5,19,19,34,14,11,11,34,0,0,0,0,0,4,0,0,0,20,17,6,0,13,28,27,5,13,34,34,34,34,0,0,0,0,0,0,0,0,0,0,0,0,0,0,0,0,0,0,0,0,0,0,0,0,0,0,0,0,0,0,0,0,0,0,0,0,0,0,0,0,0,0,0,0],"split_type":[0,0,0,0,0,0,0,0,0,0,0,0,0,0,0,0,0,0,0,0,0,0,0,0,0,0,0,0,0,0,0,0,0,0,0,0,0,0,0,0,0,0,0,0,0,0,0,0,0,0,0,0,0,0,0,0,0,0,0,0,0,0,0,0,0,0,0,0,0,0,0,0,0,0,0,0,0,0,0,0,0,0,0,0,0,0,0,0,0,0,0,0,0,0,0,0,0,0,0,0,0,0,0,0,0,0,0,0,0,0,0,0,0,0,0,0,0,0,0],"sum_hessian":[2.0592363E4,9.637425E3,1.09549375E4,9.312674E3,3.2475137E2,1.0530968E3,9.901841E3,9.273753E3,3.8920834E1,1.8229128E2,1.4246008E2,2.1130793E3,7.788761E3,8.75995E3,5.1380304E2,2.6724586E1,1.2196248E1,1.6043512E2,2.185616E1,1.03760925E2,3.869916E1,1.2638336E3,8.4924567E2,7.6839253E3,1.0483578E2,8.634004E3,1.2594553E2,4.4987622E2,6.392684E1,2.0976532E0,1.0098596E1,2.8642643E1,1.3179248E2,1.1408392E1,1.0447767E1,2.5154512E1,7.8606415E1,2.8055689E1,1.0643475E1,4.2960553E2,8.3422815E2,2.1053784E2,6.387078E2,6.265592E3,1.4183336E3,2.2034032E0,1.23742134E2,3.965312E2,5.3345028E1,4.0089577E1,2.3837263E1,9.848332E0,1.879431E1,1.0767218E0,9.371046E0,2.2469631E1,2.68488E0,1.0705745E0,7.7535835E1,2.6904371E1,1.1513171E0,1.3491135E0,9.294361E0,3.5534937E2,7.425615E1,7.7203253E2,6.219559E1,1.0267796E2,1.0785987E2,6.0708563E2,3.16222E1,5.947284E3,3.1830768E2,4.2892157E2,9.8941205E2,1.0698245E0,1.1335789E0,1.1853946E2,5.2026725E0,3.946625E2,1.8686662E0,4.680584E0,4.8664444E1,6.2584753E0,3.3831104E1,4.6219788E0,1.9215284E1,3.597667E0,6.250665E0,1.733832E1,1.4559901E0,8.160878E0,6.937496E1,5.817265E0,3.4770956E0,4.288134E1,3.1246802E2,1.2922077E0,7.296394E1,3.6016284E2,4.1186972E2,3.9402363E1,2.2793228E1,9.8684845E1,3.99312E0,8.4402145E1,2.3457727E1,6.002841E2,6.80152E0,1.1197752E1,2.0424448E1,1.7879645E3,4.15932E3,6.950832E1,2.4879936E2,2.8934372E2,1.3957782E2,5.03949E1,9.3901715E2],"tree_param":{"num_deleted":"0","num_feature":"38","num_nodes":"119","size_leaf_vector":"1"}},{"base_weights":[9.610649E-2,2.0088889E-2,1.3665916E0,-2.7093405E-1,2.0784107E-1,1.3773539E0,-3.126445E-2,-2.0626912E-2,-5.255772E-1,9.187272E-1,-5.308385E-2,6.899601E-2,7.763779E-1,-4.5485342E-1,3.072105E-1,-5.3629565E-1,1.3372512E0,1.052919E0,-5.9004414E-1,5.2118826E-1,-3.5815236E-1,-2.72322E-2,6.575519E-2,-5.866255E-1,-1.884869E-1,1.5292788E-1,6.950211E-2,6.891502E-2,-5.4474306E-1,6.85833E-2,3.370809E-2,1.130452E0,-1.19553715E-1,-6.155083E-1,6.6847466E-2,7.2057986E-1,-2.1224394E-1,-5.999964E-1,3.8504642E-1,-6.2651265E-1,6.288048E-1,2.1577752E-1,-3.233966E-2,-6.2267816E-1,3.9482597E-1,-4.1212848E-1,-6.420117E-1,1.3344561E0,9.1368425E-1,-3.5169157E-1,1.2793261E0,4.774566E-2,-6.3025546E-1,9.4370824E-1,-1.750053E-1,1.1801594E0,-3.2668296E-1,-3.7376675E-1,-6.3637286E-1,1.0094534E0,5.0255667E-2,-1.784962E-2,-3.1935297E-2,-3.2946516E-3,6.907452E-2,4.0253516E-2,-1.10921385E-2,-2.2645446E-2,-3.248697E-2,6.0470235E-2,-8.423454E-3,1.9326491E-2,-2.6965532E-2,-2.2363313E-2,-3.2370962E-2,6.808659E-2,3.8946006E-2,1.0858255E-2,5.17518E-2,-2.4789063E-2,4.227204E-2,-2.6790923E-2,6.8568625E-2,4.2839933E-2,-3.207592E-2,5.0589304E-2,-2.7146477E-3,3.4162473E-2,-1.784652E-2,-2.6995827E-2,6.1794218E-2,-2.8929299E-2,5.6080483E-3,-3.000994E-2,1.8509386E-2,-2.0121327E-2,-3.2167256E-2,6.5379314E-2,1.1870262E-2,6.1036717E-2,-2.1629927E-3],"categories":[],"categories_nodes":[],"categories_segments":[],"categories_sizes":[],"default_left":[0,0,0,0,0,0,0,0,0,0,0,0,0,0,0,0,0,0,0,0,0,0,0,0,0,0,0,0,0,0,0,0,0,0,0,0,0,0,0,0,0,0,0,0,0,0,0,0,0,0,0,0,0,0,0,0,0,0,0,0,0,0,0,0,0,0,0,0,0,0,0,0,0,0,0,0,0,0,0,0,0,0,0,0,0,0,0,0,0,0,0,0,0,0,0,0,0,0,0,0,0],"id":17,"left_children":[1,3,5,7,9,11,-1,13,15,17,19,-1,21,23,25,27,29,31,33,35,37,-1,-1,39,41,43,-1,-1,45,-1,-1,47,49,51,-1,53,55,57,59,61,63,65,-1,67,69,71,73,75,77,79,81,-1,83,85,87,89,91,93,95,97,99,-1,-1,-1,-1,-1,-1,-1,-1,-1,-1,-1,-1,-1,-1,-1,-1,-1,-1,-1,-1,-1,-1,-1,-1,-1,-1,-1,-1,-1,-1,-1,-1,-1,-1,-1,-1,-1,-1,-1,-1],"loss_changes":[1.9566257E3,1.0445608E3,2.468042E1,4.7777136E2,2.1555664E3,1.4318848E0,0E0,5.38247E2,7.418628E1,6.3182983E2,1.489227E3,0E0,3.872035E0,5.7006622E1,3.597163E2,5.97489E1,1.8750763E-1,2.605957E2,1.251532E1,4.313283E2,9.978818E2,0E0,0E0,5.27847E1,9.987956E1,3.538063E2,0E0,0E0,4.7320435E1,0E0,0E0,1.1851001E2,5.7670486E1,5.855568E0,0E0,4.6345618E2,1.00391754E2,3.434619E1,2.8481213E2,3.3399048E0,1.820148E1,7.3889496E1,0E0,1.9197083E0,6.597719E2,1.5821347E2,2.095642E0,2.0654053E1,1.1004346E2,2.632669E1,4.3770065E0,0E0,4.210945E0,1.2622839E2,7.220209E1,4.720459E0,6.4456665E1,9.789276E1,5.7545166E0,1.092872E2,9.726256E1,0E0,0E0,0E0,0E0,0E0,0E0,0E0,0E0,0E0,0E0,0E0,0E0,0E0,0E0,0E0,0E0,0E0,0E0,0E0,0E0,0E0,0E0,0E0,0E0,0E0,0E0,0E0,0E0,0E0,0E0,0E0,0E0,0E0,0E0,0E0,0E0,0E0,0E0,0E0,0E0],"parents":[2147483647,0,0,1,1,2,2,3,3,4,4,5,5,7,7,8,8,9,9,10,10,12,12,13,13,14,14,15,15,16,16,17,17,18,18,19,19,20,20,23,23,24,24,25,25,28,28,31,31,32,32,33,33,35,35,36,36,37,37,38,38,39,39,40,40,41,41,43,43,44,44,45,45,46,46,47,47,48,48,49,49,50,50,52,52,53,53,54,54,55,55,56,56,57,57,58,58,59,59,60,60],"right_children":[2,4,6,8,10,12,-1,14,16,18,20,-1,22,24,26,28,30,32,34,36,38,-1,-1,40,42,44,-1,-1,46,-1,-1,48,50,52,-1,54,56,58,60,62,64,66,-1,68,70,72,74,76,78,80,82,-1,84,86,88,90,92,94,96,98,100,-1,-1,-1,-1,-1,-1,-1,-1,-1,-1,-1,-1,-1,-1,-1,-1,-1,-1,-1,-1,-1,-1,-1,-1,-1,-1,-1,-1,-1,-1,-1,-1,-1,-1,-1,-1,-1,-1,-1,-1],"split_conditions":[4.304E0,8.51E-1,1.096E3,1.5056E1,9.21E-1,1.066E3,-3.126445E-2,2.42E-1,1.17896E2,6.5808E1,8.07E-1,6.899601E-2,4.568E0,2.3453E1,1.3029E1,-3.045E0,1.8433E1,1.1281E1,3.96E-1,6.066E0,2.0847E1,-2.72322E-2,6.575519E-2,4.5633E1,1.6052E1,6.1E-2,6.950211E-2,6.891502E-2,2.6966E1,6.85833E-2,3.370809E-2,9.047E0,7.1989E1,5.684E0,6.6847466E-2,5.48E-1,6.03E-1,1.981E0,7.77E-1,-2.6715E1,-3.85E-1,1.0048E1,-3.233966E-2,7.9E-2,4.4943E1,9.28E-1,1.5293E1,5.9E-1,3.575E0,1.7061E1,2.3E1,4.774566E-2,2.6E1,3.5609E1,-2E-2,8.4E-2,9.931E0,2.1174E1,3.891E1,3E2,1.61E-1,-1.784962E-2,-3.1935297E-2,-3.2946516E-3,6.907452E-2,4.0253516E-2,-1.10921385E-2,-2.2645446E-2,-3.248697E-2,6.0470235E-2,-8.423454E-3,1.9326491E-2,-2.6965532E-2,-2.2363313E-2,-3.2370962E-2,6.808659E-2,3.8946006E-2,1.0858255E-2,5.17518E-2,-2.4789063E-2,4.227204E-2,-2.6790923E-2,6.8568625E-2,4.2839933E-2,-3.207592E-2,5.0589304E-2,-2.7146477E-3,3.4162473E-2,-1.784652E-2,-2.6995827E-2,6.1794218E-2,-2.8929299E-2,5.6080483E-3,-3.000994E-2,1.8509386E-2,-2.0121327E-2,-3.2167256E-2,6.5379314E-2,1.1870262E-2,6.1036717E-2,-2.1629927E-3],"split_indices":[6,6,14,7,8,14,0,35,27,17,18,0,10,0,24,8,7,11,30,8,7,0,0,10,17,17,0,0,17,0,0,7,24,10,0,35,34,8,34,30,11,7,0,32,17,18,7,8,17,17,14,0,14,10,23,12,7,17,28,14,17,0,0,0,0,0,0,0,0,0,0,0,0,0,0,0,0,0,0,0,0,0,0,0,0,0,0,0,0,0,0,0,0,0,0,0,0,0,0,0,0],"split_type":[0,0,0,0,0,0,0,0,0,0,0,0,0,0,0,0,0,0,0,0,0,0,0,0,0,0,0,0,0,0,0,0,0,0,0,0,0,0,0,0,0,0,0,0,0,0,0,0,0,0,0,0,0,0,0,0,0,0,0,0,0,0,0,0,0,0,0,0,0,0,0,0,0,0,0,0,0,0,0,0,0,0,0,0,0,0,0,0,0,0,0,0,0,0,0,0,0,0,0,0,0],"sum_hessian":[2.0260646E4,1.9116988E4,1.1436566E3,7.4965215E3,1.1620468E4,1.1375911E3,6.0655007E0,3.7806992E3,3.7158223E3,3.1200547E3,8.500413E3,1.1324592E3,5.131876E0,1.6265591E3,2.1541401E3,3.6946885E3,2.1133883E1,2.8653076E3,2.5474707E2,2.948899E3,5.5515137E3,1.4324967E0,3.6993792E0,1.0878845E3,5.3867456E2,1.8856744E3,2.6846576E2,1.6106525E1,3.6785818E3,1.984618E1,1.2877038E0,2.687667E3,1.7764069E2,2.5154301E2,3.2040553E0,2.318679E3,6.302202E2,4.188643E3,1.362871E3,1.0534441E3,3.444044E1,2.8612402E2,2.5255055E2,4.4815833E2,1.4375161E3,1.5571459E3,2.121436E3,1.3840944E3,1.3035725E3,1.5248314E2,2.515755E1,2.2177558E0,2.4932526E2,1.8563014E3,4.6237747E2,4.7725765E1,5.8249445E2,5.807522E2,3.6078906E3,4.7551105E2,8.8735986E2,4.6081596E1,1.0073624E3,1.7888487E1,1.6551952E1,1.21993706E2,1.6413033E2,6.2367016E1,3.8579132E2,5.8770337E2,8.4981274E2,2.1376814E2,1.3433777E3,5.8040436E1,2.0633955E3,1.3190084E3,6.508597E1,1.9358138E2,1.1099912E3,1.3622847E2,1.6254663E1,1.1384737E0,2.4019077E1,1.7510116E0,2.4757425E2,1.7378539E3,1.18447525E2,8.0724434E1,3.8165305E2,1.4140604E0,4.6311707E1,3.7019373E2,2.1230072E2,4.4535608E2,1.3539609E2,1.0499831E2,3.5028923E3,3.428989E2,1.3261215E2,6.564049E1,8.2171936E2],"tree_param":{"num_deleted":"0","num_feature":"38","num_nodes":"101","size_leaf_vector":"1"}},{"base_weights":[8.82124E-2,8.386869E-1,-6.4182955E-1,-1.7340122E-1,1.022309E0,-3.3020994E-1,-3.231741E-2,-5.37069E-1,5.3119564E-1,1.2547561E0,2.568172E-1,1.2260879E0,-6.309524E-1,-5.7236916E-1,8.950313E-1,-6.247662E-1,6.9708966E-2,1.3785676E0,1.0087254E0,7.071858E-2,-6.3896585E-1,9.363579E-3,1.3205272E0,-3.232905E-2,4.0041603E-2,5.71824E-1,-5.9551436E-1,-3.1576686E-2,6.937253E-2,6.647273E-1,-6.456926E-1,6.6983515E-1,6.963529E-2,-3.818568E-1,1.1299374E0,-4.6555892E-1,-3.2590367E-2,1.3957325E0,4.008489E-4,-3.2131743E-2,7.604561E-2,-6.335872E-1,-0E0,-2.6933474E-2,6.528293E-2,-3.5054125E-3,-3.250521E-2,-5.2666265E-1,6.930687E-2,-6.0349476E-1,1.2783815E0,1.2089508E0,-4.9647045E-1,-3.276689E-2,-2.1627833E-1,7.419057E-2,1.7569473E-2,2.7972697E-3,-3.214837E-2,-2.882196E-2,7.023798E-2,4.265781E-2,-2.929449E-2,-3.2344986E-2,3.0338361E-3,-2.6533911E-2,6.957086E-2,3.3299383E-2,6.5462746E-2,-3.3591624E-2,6.972317E-2,6.0263403E-2,-1.6818974E-2],"categories":[],"categories_nodes":[],"categories_segments":[],"categories_sizes":[],"default_left":[0,0,0,0,0,0,0,0,0,0,0,0,0,0,0,0,0,0,0,0,0,0,0,0,0,0,0,0,0,0,0,0,0,0,0,0,0,0,0,0,0,0,0,0,0,0,0,0,0,0,0,0,0,0,0,0,0,0,0,0,0,0,0,0,0,0,0,0,0,0,0,0,0],"id":18,"left_children":[1,3,5,7,9,11,-1,13,15,17,19,21,23,25,27,29,-1,31,33,-1,35,-1,37,-1,-1,39,41,-1,-1,43,45,47,-1,49,51,53,-1,55,-1,-1,-1,57,59,-1,-1,-1,-1,61,-1,63,65,67,69,-1,71,-1,-1,-1,-1,-1,-1,-1,-1,-1,-1,-1,-1,-1,-1,-1,-1,-1,-1],"loss_changes":[1.1097033E4,1.856209E3,1.4338379E1,3.930401E2,1.5040732E3,6.894623E1,0E0,5.116736E1,5.209929E2,1.9715234E2,2.0422415E3,2.162323E0,2.8007545E0,2.6189575E1,1.843748E1,6.0635605E0,0E0,4.2918945E1,3.6613477E2,0E0,2.3301697E0,0E0,2.0043411E0,0E0,0E0,2.2714886E1,2.1931274E1,0E0,0E0,2.8751485E0,4.814148E-1,7.274339E1,0E0,6.40786E1,2.568235E2,3.5619926E0,0E0,1.6489677E0,0E0,0E0,0E0,5.9473877E0,4.7282894E1,0E0,0E0,0E0,0E0,2.6167297E0,0E0,4.494278E0,4.348892E0,1.03465576E2,3.0713099E1,0E0,5.7324452E0,0E0,0E0,0E0,0E0,0E0,0E0,0E0,0E0,0E0,0E0,0E0,0E0,0E0,0E0,0E0,0E0,0E0,0E0],"parents":[2147483647,0,0,1,1,2,2,3,3,4,4,5,5,7,7,8,8,9,9,10,10,11,11,12,12,13,13,14,14,15,15,17,17,18,18,20,20,22,22,25,25,26,26,29,29,30,30,31,31,33,33,34,34,35,35,37,37,41,41,42,42,47,47,49,49,50,50,51,51,52,52,54,54],"right_children":[2,4,6,8,10,12,-1,14,16,18,20,22,24,26,28,30,-1,32,34,-1,36,-1,38,-1,-1,40,42,-1,-1,44,46,48,-1,50,52,54,-1,56,-1,-1,-1,58,60,-1,-1,-1,-1,62,-1,64,66,68,70,-1,72,-1,-1,-1,-1,-1,-1,-1,-1,-1,-1,-1,-1,-1,-1,-1,-1,-1,-1],"split_conditions":[5.917E1,3.9376E1,6.0178E1,0E0,5.4984E1,1.708E0,-3.231741E-2,1.3679E1,3.5059E1,5.0004E1,4.46E-1,1.311E0,4.7871E1,1.671E1,3.5059E1,1.5581E1,6.9708966E-2,4.0058E1,-1.084E0,7.071858E-2,5.5126E1,9.363579E-3,1.15667E2,-3.232905E-2,4.0041603E-2,3.5059E1,9.76E-1,-3.1576686E-2,6.937253E-2,-1.59E-1,1.671E1,1.06E-1,6.963529E-2,5.0937E1,5.2E-1,1E1,-3.2590367E-2,5.353E0,4.008489E-4,-3.2131743E-2,