{"learner":{"attributes":{"best_iteration":"196","best_score":"0.13392527875846844","scikit_learn":"{\"_estimator_type\": \"classifier\"}"},"feature_names":["Real_Return_3Y","Real_Return_5Y","Real_Return_10Y","PP_Multiplier_1Y","PP_Multiplier_5Y","PP_Multiplier_10Y","PP_vs_Cash_5Y","Volatility_90D","Sharpe_Ratio_5Y","Calmar_Ratio_5Y","Max_Drawdown","Distance_From_MA_200D_Pct","Distance_From_MA_50D_Pct","Distance_From_ATH_Pct","Days_Since_ATH","Momentum_50D","Momentum_200D","Market_Cap_Saturation_Pct","Growth_Potential_Multiplier","Composite_Score_5Y","Vol_Adj_PP_Score_5Y","Correlation_With_SP500","Correlation_With_Gold","CPI_Correlation","Scarcity_Score","Days_Since_Bitcoin_Halving","Bitcoin_Cycle_Year","Real_PP_Index","Eggs_Per_100USD","Milk_Gallons_Per_100USD","Real_Return_Eggs_1Y","Real_Return_Milk_1Y","Real_Commodity_Basket_Return_1Y","Recession_Risk","Yield_Curve_Inverted","PP_Stability_Index","Return_Consistency","Recovery_Strength","PPP_Q_Composite_Score"],"feature_types":["float","float","float","float","float","float","float","float","float","float","float","float","float","float","int","float","float","float","float","float","float","float","float","float","float","int","float","float","float","float","float","float","float","float","int","float","float","float","float"],"gradient_booster":{"model":{"cats":{"enc":[],"feature_segments":[],"sorted_idx":[]},"gbtree_model_param":{"num_parallel_tree":"1","num_trees":"988"},"iteration_indptr":[0,4,8,12,16,20,24,28,32,36,40,44,48,52,56,60,64,68,72,76,80,84,88,92,96,100,104,108,112,116,120,124,128,132,136,140,144,148,152,156,160,164,168,172,176,180,184,188,192,196,200,204,208,212,216,220,224,228,232,236,240,244,248,252,256,260,264,268,272,276,280,284,288,292,296,300,304,308,312,316,320,324,328,332,336,340,344,348,352,356,360,364,368,372,376,380,384,388,392,396,400,404,408,412,416,420,424,428,432,436,440,444,448,452,456,460,464,468,472,476,480,484,488,492,496,500,504,508,512,516,520,524,528,532,536,540,544,548,552,556,560,564,568,572,576,580,584,588,592,596,600,604,608,612,616,620,624,628,632,636,640,644,648,652,656,660,664,668,672,676,680,684,688,692,696,700,704,708,712,716,720,724,728,732,736,740,744,748,752,756,760,764,768,772,776,780,784,788,792,796,800,804,808,812,816,820,824,828,832,836,840,844,848,852,856,860,864,868,872,876,880,884,888,892,896,900,904,908,912,916,920,924,928,932,936,940,944,948,952,956,960,964,968,972,976,980,984,988],"tree_info":[0,1,2,3,0,1,2,3,0,1,2,3,0,1,2,3,0,1,2,3,0,1,2,3,0,1,2,3,0,1,2,3,0,1,2,3,0,1,2,3,0,1,2,3,0,1,2,3,0,1,2,3,0,1,2,3,0,1,2,3,0,1,2,3,0,1,2,3,0,1,2,3,0,1,2,3,0,1,2,3,0,1,2,3,0,1,2,3,0,1,2,3,0,1,2,3,0,1,2,3,0,1,2,3,0,1,2,3,0,1,2,3,0,1,2,3,0,1,2,3,0,1,2,3,0,1,2,3,0,1,2,3,0,1,2,3,0,1,2,3,0,1,2,3,0,1,2,3,0,1,2,3,0,1,2,3,0,1,2,3,0,1,2,3,0,1,2,3,0,1,2,3,0,1,2,3,0,1,2,3,0,1,2,3,0,1,2,3,0,1,2,3,0,1,2,3,0,1,2,3,0,1,2,3,0,1,2,3,0,1,2,3,0,1,2,3,0,1,2,3,0,1,2,3,0,1,2,3,0,1,2,3,0,1,2,3,0,1,2,3,0,1,2,3,0,1,2,3,0,1,2,3,0,1,2,3,0,1,2,3,0,1,2,3,0,1,2,3,0,1,2,3,0,1,2,3,0,1,2,3,0,1,2,3,0,1,2,3,0,1,2,3,0,1,2,3,0,1,2,3,0,1,2,3,0,1,2,3,0,1,2,3,0,1,2,3,0,1,2,3,0,1,2,3,0,1,2,3,0,1,2,3,0,1,2,3,0,1,2,3,0,1,2,3,0,1,2,3,0,1,2,3,0,1,2,3,0,1,2,3,0,1,2,3,0,1,2,3,0,1,2,3,0,1,2,3,0,1,2,3,0,1,2,3,0,1,2,3,0,1,2,3,0,1,2,3,0,1,2,3,0,1,2,3,0,1,2,3,0,1,2,3,0,1,2,3,0,1,2,3,0,1,2,3,0,1,2,3,0,1,2,3,0,1,2,3,0,1,2,3,0,1,2,3,0,1,2,3,0,1,2,3,0,1,2,3,0,1,2,3,0,1,2,3,0,1,2,3,0,1,2,3,0,1,2,3,0,1,2,3,0,1,2,3,0,1,2,3,0,1,2,3,0,1,2,3,0,1,2,3,0,1,2,3,0,1,2,3,0,1,2,3,0,1,2,3,0,1,2,3,0,1,2,3,0,1,2,3,0,1,2,3,0,1,2,3,0,1,2,3,0,1,2,3,0,1,2,3,0,1,2,3,0,1,2,3,0,1,2,3,0,1,2,3,0,1,2,3,0,1,2,3,0,1,2,3,0,1,2,3,0,1,2,3,0,1,2,3,0,1,2,3,0,1,2,3,0,1,2,3,0,1,2,3,0,1,2,3,0,1,2,3,0,1,2,3,0,1,2,3,0,1,2,3,0,1,2,3,0,1,2,3,0,1,2,3,0,1,2,3,0,1,2,3,0,1,2,3,0,1,2,3,0,1,2,3,0,1,2,3,0,1,2,3,0,1,2,3,0,1,2,3,0,1,2,3,0,1,2,3,0,1,2,3,0,1,2,3,0,1,2,3,0,1,2,3,0,1,2,3,0,1,2,3,0,1,2,3,0,1,2,3,0,1,2,3,0,1,2,3,0,1,2,3,0,1,2,3,0,1,2,3,0,1,2,3,0,1,2,3,0,1,2,3,0,1,2,3,0,1,2,3,0,1,2,3,0,1,2,3,0,1,2,3,0,1,2,3,0,1,2,3,0,1,2,3,0,1,2,3,0,1,2,3,0,1,2,3,0,1,2,3,0,1,2,3,0,1,2,3,0,1,2,3,0,1,2,3,0,1,2,3,0,1,2,3,0,1,2,3,0,1,2,3,0,1,2,3,0,1,2,3,0,1,2,3,0,1,2,3,0,1,2,3,0,1,2,3,0,1,2,3,0,1,2,3,0,1,2,3,0,1,2,3,0,1,2,3,0,1,2,3,0,1,2,3,0,1,2,3,0,1,2,3,0,1,2,3,0,1,2,3,0,1,2,3,0,1,2,3,0,1,2,3,0,1,2,3,0,1,2,3,0,1,2,3,0,1,2,3,0,1,2,3,0,1,2,3,0,1,2,3,0,1,2,3,0,1,2,3,0,1,2,3,0,1,2,3,0,1,2,3,0,1,2,3,0,1,2,3,0,1,2,3,0,1,2,3,0,1,2,3,0,1,2,3,0,1,2,3,0,1,2,3,0,1,2,3],"trees":[{"base_weights":[3.034278E-2,-6.3039255E-1,7.704389E-1,-6.595937E-1,-6.0247142E-2,-3.1568435E-1,1.0872364E0,-3.4735805E-1,-6.629795E-1,1.3344303E0,-3.8522673E-1,-5.911818E-1,3.1423196E-1,1.3947188E0,-3.3356354E-2,-5.972153E-1,8.136488E-1,-3.33525E-2,-5.8284974E-1,1.5597726E0,-1.7385757E-1,-5.6618965E-1,8.081315E-1,-6.166219E-1,1.6156878E0,-3.6653295E-1,9.8251855E-1,3.862522E-1,1.5824687E0,-6.422361E-1,9.038233E-2,1.692469E0,2.0924225E-1,1.6034436E0,-6.3465387E-1,1.0846096E0,9.8273896E-2,-3.255031E-2,9.336393E-2,-6.2444484E-1,1.4181234E-1,1.7397212E0,-2.3188138E-1,-6.50962E-1,-7.324097E-2,-2.982296E-2,9.868247E-2,3.8880974E-2,-5.593392E-1,-9.854172E-2,1.5233083E0,1.5750539E-2,1.9336281E0,9.871113E-1,1.839163E0,-3.3254955E-2,-4.5576346E-1,6.0275043E-3,9.741579E-2,7.0969296E-1,-3.139455E-2,-2.816285E-2,9.814661E-2,-3.3220246E-2,-4.2902273E-1,1.2129718E-1,1.4749796E0,9.038233E-2,-6.3639975E-1,-5.955046E-1,1.2396432E0,-2.982296E-2,1.9452542E0,-3.2799017E-2,3.3014244E-1,-6.524222E-1,4.6774864E-2,-4.019354E-1,1.6159621E0,-3.2709596E-1,7.766442E-1,5.3565997E-1,-6.0810655E-1,-2.8274313E-1,1.5124935E0,-3.2630976E-2,1.6444991E0,9.946391E-2,-1.4228868E-1,1.9764179E0,-3.0679742E-2,1.1265922E0,-3.3295266E-2,1.9644685E0,1.681457E0,8.407454E-3,-3.2320704E-2,-2.982296E-2,6.6623434E-2,6.991448E-2,-2.7828684E-2,-1.44361425E-2,6.27021E-2,-2.982296E-2,8.330324E-2,-8.9549115E-3,-3.2254096E-2,-3.281305E-2,6.0275043E-3,-2.982296E-2,8.657055E-2,9.913147E-2,4.6774864E-2,7.477491E-2,-2.4370953E-2,-3.286249E-2,-2.5366832E-2,9.693041E-2,-2.95068E-2,9.814661E-2,4.222491E-2,-3.318114E-2,1.7354166E-2,-3.2630976E-2,7.477094E-2,-3.096944E-2,6.2242042E-2,-1.5623598E-2,-3.2223713E-2,2.8231641E-2,-2.6573855E-2,9.808161E-2,-2.9150525E-2,3.597123E-2,9.407675E-2,5.5269685E-2,-1.9016298E-2,9.935929E-2,7.477491E-2,8.7299205E-2,3.7381742E-2,9.931147E-2,3.3677336E-2,4.6534162E-2,9.030122E-2],"categories":[],"categories_nodes":[],"categories_segments":[],"categories_sizes":[],"default_left":[0,0,0,0,0,0,0,0,0,0,0,0,0,0,0,0,0,0,0,0,0,0,0,0,0,0,0,0,0,0,0,0,0,0,0,0,0,0,0,0,0,0,0,0,0,0,0,0,0,0,0,0,0,0,0,0,0,0,0,0,0,0,0,0,0,0,0,0,0,0,0,0,0,0,0,0,0,0,0,0,0,0,0,0,0,0,0,0,0,0,0,0,0,0,0,0,0,0,0,0,0,0,0,0,0,0,0,0,0,0,0,0,0,0,0,0,0,0,0,0,0,0,0,0,0,0,0,0,0,0,0,0,0,0,0,0,0,0,0,0,0,0,0,0,0],"id":0,"left_children":[1,3,5,7,9,11,13,15,17,19,21,23,25,27,-1,29,31,-1,33,35,37,39,41,43,45,47,49,51,53,55,-1,57,59,61,63,65,-1,-1,-1,67,69,71,73,75,77,-1,-1,79,81,83,85,87,89,91,93,-1,95,-1,-1,97,-1,-1,-1,-1,99,101,103,-1,105,107,109,-1,111,-1,113,115,-1,117,119,121,123,125,127,129,131,-1,133,-1,135,137,-1,139,-1,141,143,-1,-1,-1,-1,-1,-1,-1,-1,-1,-1,-1,-1,-1,-1,-1,-1,-1,-1,-1,-1,-1,-1,-1,-1,-1,-1,-1,-1,-1,-1,-1,-1,-1,-1,-1,-1,-1,-1,-1,-1,-1,-1,-1,-1,-1,-1,-1,-1,-1,-1],"loss_changes":[9.638946E3,1.7330371E2,3.1991465E3,1.0348633E1,2.3004861E2,3.6438763E2,3.8830068E3,3.1007053E1,3.0327148E0,3.2760727E1,8.896366E1,8.2012665E1,2.9070575E2,1.159375E3,0E0,9.528482E0,9.805223E0,0E0,5.388501E1,1.5579254E1,1.2171863E1,1.4812775E1,5.2703156E1,2.6872253E1,1.3424461E1,2.4788536E1,1.8866614E2,5.510314E2,7.8860547E2,2.2641373E-1,0E0,2.8316784E0,4.816441E0,8.814617E0,2.7058716E0,1.4411716E1,0E0,0E0,0E0,9.613419E0,2.211459E1,1.4008759E1,6.1672964E0,3.1790771E0,4.7767467E1,0E0,0E0,2.7587116E1,1.1500565E1,3.1835083E1,5.6901306E1,2.4221281E2,2.049707E1,3.588413E2,7.059277E1,0E0,1.2771719E0,0E0,0E0,6.040861E0,0E0,0E0,0E0,0E0,1.3852133E1,5.413853E0,1.110149E1,0E0,1.2130737E0,7.686424E-1,1.0144587E1,0E0,5.1898956E-1,0E0,1.0649228E1,8.007202E-1,0E0,3.1797455E1,3.3010864E0,1.5505197E1,3.5020504E1,7.6073966E0,2.0947113E0,2.0398281E1,1.0600454E1,0E0,4.427643E1,0E0,2.1333699E2,3.0059814E-1,0E0,3.3641602E2,0E0,5.604541E1,1.490332E2,0E0,0E0,0E0,0E0,0E0,0E0,0E0,0E0,0E0,0E0,0E0,0E0,0E0,0E0,0E0,0E0,0E0,0E0,0E0,0E0,0E0,0E0,0E0,0E0,0E0,0E0,0E0,0E0,0E0,0E0,0E0,0E0,0E0,0E0,0E0,0E0,0E0,0E0,0E0,0E0,0E0,0E0,0E0,0E0,0E0,0E0,0E0,0E0,0E0,0E0],"parents":[2147483647,0,0,1,1,2,2,3,3,4,4,5,5,6,6,7,7,8,8,9,9,10,10,11,11,12,12,13,13,15,15,16,16,18,18,19,19,20,20,21,21,22,22,23,23,24,24,25,25,26,26,27,27,28,28,29,29,31,31,32,32,33,33,34,34,35,35,39,39,40,40,41,41,42,42,43,43,44,44,47,47,48,48,49,49,50,50,51,51,52,52,53,53,54,54,56,56,59,59,64,64,65,65,66,66,68,68,69,69,70,70,72,72,74,74,75,75,77,77,78,78,79,79,80,80,81,81,82,82,83,83,84,84,86,86,88,88,89,89,91,91,93,93,94,94],"right_children":[2,4,6,8,10,12,14,16,18,20,22,24,26,28,-1,30,32,-1,34,36,38,40,42,44,46,48,50,52,54,56,-1,58,60,62,64,66,-1,-1,-1,68,70,72,74,76,78,-1,-1,80,82,84,86,88,90,92,94,-1,96,-1,-1,98,-1,-1,-1,-1,100,102,104,-1,106,108,110,-1,112,-1,114,116,-1,118,120,122,124,126,128,130,132,-1,134,-1,136,138,-1,140,-1,142,144,-1,-1,-1,-1,-1,-1,-1,-1,-1,-1,-1,-1,-1,-1,-1,-1,-1,-1,-1,-1,-1,-1,-1,-1,-1,-1,-1,-1,-1,-1,-1,-1,-1,-1,-1,-1,-1,-1,-1,-1,-1,-1,-1,-1,-1,-1,-1,-1,-1,-1],"split_conditions":[9.92E-1,2.5032E1,7.45E-1,-1.63E-1,-3.5E-2,5.117E0,9.9E-1,3.14E-1,2.5E-1,5.0937E1,8.4862E1,1.0661E1,8.84E1,8.7853E1,-3.3356354E-2,8.2034E1,9.38E-1,-3.33525E-2,-5.2936E1,8.82E2,8.58E-1,5.15E-1,5.511E1,5.53E-1,3.5522E1,1E1,2.8E-1,9.03E-1,8.5E-1,1.011E0,9.038233E-2,4.76E-1,1.786E0,-1.48E-1,7.1724E1,1.066E0,9.8273896E-2,-3.255031E-2,9.336393E-2,-5.2936E1,6.6934E1,5.747E0,-1.048E0,1.2191E1,9.48E-1,-2.982296E-2,9.868247E-2,2.3774E1,-3.503E0,1.14724E2,6.44E-1,9.6E-2,6.2401E1,7.965E0,2.6479E1,-3.3254955E-2,-1.96E-1,6.0275043E-3,9.741579E-2,3.27E2,-3.139455E-2,-2.816285E-2,9.814661E-2,-3.3220246E-2,8.9123E1,7.6E-1,4.568E0,9.038233E-2,-4.6727E1,7.7327E1,1.042E0,-2.982296E-2,1.4337E1,-3.2799017E-2,3.641E0,7.5342E1,4.6774864E-2,-2.378E0,4E1,4.0588E1,1.03284E2,-2.894E0,1.9E1,3.017E0,7E0,-3.2630976E-2,5.154E0,9.946391E-2,0E0,9.5787E1,-3.0679742E-2,4.7E-2,-3.3295266E-2,2.0548E1,3.549E0,8.407454E-3,-3.2320704E-2,-2.982296E-2,6.6623434E-2,6.991448E-2,-2.7828684E-2,-1.44361425E-2,6.27021E-2,-2.982296E-2,8.330324E-2,-8.9549115E-3,-3.2254096E-2,-3.281305E-2,6.0275043E-3,-2.982296E-2,8.657055E-2,9.913147E-2,4.6774864E-2,7.477491E-2,-2.4370953E-2,-3.286249E-2,-2.5366832E-2,9.693041E-2,-2.95068E-2,9.814661E-2,4.222491E-2,-3.318114E-2,1.7354166E-2,-3.2630976E-2,7.477094E-2,-3.096944E-2,6.2242042E-2,-1.5623598E-2,-3.2223713E-2,2.8231641E-2,-2.6573855E-2,9.808161E-2,-2.9150525E-2,3.597123E-2,9.407675E-2,5.5269685E-2,-1.9016298E-2,9.935929E-2,7.477491E-2,8.7299205E-2,3.7381742E-2,9.931147E-2,3.3677336E-2,4.6534162E-2,9.030122E-2],"split_indices":[8,20,18,23,23,32,18,8,8,17,19,8,19,19,0,28,18,0,2,14,5,36,2,36,0,14,36,32,35,4,0,33,33,12,19,6,0,0,0,2,28,1,16,30,35,0,0,0,12,27,35,37,0,5,17,0,23,0,0,14,0,0,0,0,27,8,10,0,0,19,5,0,10,0,17,0,0,12,14,30,2,16,14,16,14,0,8,0,32,27,0,23,0,16,8,0,0,0,0,0,0,0,0,0,0,0,0,0,0,0,0,0,0,0,0,0,0,0,0,0,0,0,0,0,0,0,0,0,0,0,0,0,0,0,0,0,0,0,0,0,0,0,0,0,0],"split_type":[0,0,0,0,0,0,0,0,0,0,0,0,0,0,0,0,0,0,0,0,0,0,0,0,0,0,0,0,0,0,0,0,0,0,0,0,0,0,0,0,0,0,0,0,0,0,0,0,0,0,0,0,0,0,0,0,0,0,0,0,0,0,0,0,0,0,0,0,0,0,0,0,0,0,0,0,0,0,0,0,0,0,0,0,0,0,0,0,0,0,0,0,0,0,0,0,0,0,0,0,0,0,0,0,0,0,0,0,0,0,0,0,0,0,0,0,0,0,0,0,0,0,0,0,0,0,0,0,0,0,0,0,0,0,0,0,0,0,0,0,0,0,0,0,0],"sum_hessian":[1.971101E4,1.0413782E4,9.297229E3,9.906224E3,5.075587E2,2.099362E3,7.197866E3,1.0669627E2,9.799527E3,9.580123E1,4.1175748E2,1.460687E3,6.386749E2,6.1245166E3,1.0733495E3,8.791172E1,1.8784555E1,9.323902E3,4.7562494E2,8.340343E1,1.2397807E1,3.5765793E2,5.409952E1,1.4441566E3,1.6530409E1,3.163319E2,3.22343E2,9.6139355E2,5.163123E3,8.640896E1,1.5027645E0,7.5138226E0,1.1270734E1,1.0895042E1,4.6472992E2,3.8696186E1,4.470724E1,1.0143661E1,2.2541466E0,3.306082E2,2.704976E1,2.8552525E1,2.5546995E1,1.3581234E3,8.6033264E1,2.2541466E0,1.4276262E1,1.01812294E2,2.1451962E2,1.0744766E2,2.1489532E2,7.758021E2,1.8559142E2,1.5557369E3,3.607386E3,7.62653E1,1.0143661E1,1.1270733E0,6.386749E0,7.138131E0,4.132602E0,1.5027645E0,9.392278E0,4.0537073E2,5.9359196E1,1.1270734E1,2.7425451E1,1.5027645E0,3.291054E2,1.6154718E1,1.0895042E1,2.2541466E0,2.6298378E1,1.4651954E1,1.0895042E1,1.3569963E3,1.1270733E0,7.213269E1,1.3900571E1,6.800009E1,3.38122E1,9.016586E0,2.0550304E2,9.655262E1,1.0895042E1,1.1270734E1,2.0362459E2,5.748074E1,7.183214E2,1.8258588E2,3.005529E0,1.4347644E3,1.2097254E2,2.009196E3,1.5981901E3,2.2541466E0,7.8895135E0,2.2541466E0,4.8839846E0,3.7569113E0,5.5602283E1,8.265204E0,3.005529E0,2.2541466E0,2.5171305E1,6.386749E0,3.2271866E2,1.5027645E1,1.1270733E0,2.2541466E0,8.640896E0,2.5171305E1,1.1270733E0,4.508293E0,6.386749E0,1.3122891E3,4.470724E1,5.2596755E0,6.687302E1,9.392278E0,4.508293E0,4.5458626E1,2.2541468E1,1.1270734E1,2.2541468E1,3.38122E0,5.635367E0,2.2917158E1,1.8258588E2,2.1790085E1,7.4762535E1,9.016586E0,1.8784556E0,4.1701714E1,1.6192287E2,1.1496148E2,6.033599E2,1.7807759E2,4.508293E0,5.443764E2,8.9038794E2,1.9757595E3,3.343651E1,2.2766882E2,1.3705212E3],"tree_param":{"num_deleted":"0","num_feature":"39","num_nodes":"145","size_leaf_vector":"1"}},{"base_weights":[3.4014857E-1,1.0823216E0,2.4293904E-1,-5.814666E-1,1.4911059E0,2.0150065E-1,1.4119843E0,-3.5700288E-2,8.283977E-2,1.6644486E0,1.06349684E-1,3.2613778E-1,-1.1025339E-1,5.641788E-1,1.6355319E0,8.2444334E-1,8.330446E-2,-4.0083414E-1,6.509492E-1,-3.851218E-3,7.2876847E-1,-4.6479544E-1,9.9682546E-1,-3.1138632E-1,1.5701357E0,1.6559942E0,9.4596887E-1,-2.9416298E-2,7.8224264E-2,8.2332194E-1,-3.5627652E-2,-3.553314E-2,1.6310227E0,2.7014208E-1,-6.957528E-1,1.0242786E0,2.501422E-1,-7.0261925E-1,1.2515904E0,3.719131E-2,1.2129371E0,-6.737378E-1,5.8523166E-1,8.309912E-2,-3.2447025E-2,1.6617842E0,1.0307976E0,-2.9416298E-2,1.0914502E0,1.3934734E0,-2.2367944E-1,8.309912E-2,1.9651454E-2,5.812067E-1,-4.664513E-1,-7.103485E-1,-2.706458E-1,-1.15434684E-1,1.1210227E0,1.1355106E0,-3.1927454E-1,-7.088611E-1,-4.9824545E-1,1.5362827E0,5.855196E-1,8.3442664E-1,-3.8337687E-1,1.5213503E0,1.0159749E0,-1.7878592E-4,-3.5548534E-2,1.0574796E0,-5.3135467E-1,8.3285354E-2,1.186088E0,7.987639E-2,-2.9416298E-2,3.7476343E-1,8.166211E-2,8.2327336E-2,-9.09845E-3,7.582339E-2,-3.446157E-2,5.9390128E-2,9.20322E-3,-3.5124682E-2,-5.8734543E-3,-3.5663143E-2,-3.092449E-2,5.3678066E-2,-3.55566E-2,4.5247566E-2,-3.1098917E-2,-3.4858797E-2,5.7874706E-2,8.07911E-2,9.993172E-3,-2.400308E-2,4.109707E-2,-3.5513666E-2,-2.2687312E-2,-3.562845E-2,6.111172E-2,8.087337E-2,4.0544443E-2,6.056446E-2,-1.1050544E-2,7.398308E-2,-5.7947133E-3,-2.8313175E-2,3.8553897E-2,8.076491E-2,6.0426515E-2,3.4357928E-2,7.833371E-2,-3.090329E-2,3.6751106E-2,7.40842E-2,-3.2898974E-2,-0E0,-3.405082E-2,7.9459384E-2,-0E0,-3.2447025E-2,5.410691E-2],"categories":[],"categories_nodes":[],"categories_segments":[],"categories_sizes":[],"default_left":[0,0,0,0,0,0,0,0,0,0,0,0,0,0,0,0,0,0,0,0,0,0,0,0,0,0,0,0,0,0,0,0,0,0,0,0,0,0,0,0,0,0,0,0,0,0,0,0,0,0,0,0,0,0,0,0,0,0,0,0,0,0,0,0,0,0,0,0,0,0,0,0,0,0,0,0,0,0,0,0,0,0,0,0,0,0,0,0,0,0,0,0,0,0,0,0,0,0,0,0,0,0,0,0,0,0,0,0,0,0,0,0,0,0,0,0,0,0,0,0,0,0,0,0,0],"id":1,"left_children":[1,3,5,7,9,11,13,-1,-1,15,17,19,21,23,25,27,-1,29,31,33,35,37,39,41,43,45,47,-1,-1,49,-1,-1,51,53,55,57,59,61,63,65,67,69,71,-1,-1,73,75,-1,77,79,81,-1,-1,83,85,87,89,91,93,95,97,99,101,103,105,107,109,111,113,115,-1,117,119,-1,121,-1,-1,123,-1,-1,-1,-1,-1,-1,-1,-1,-1,-1,-1,-1,-1,-1,-1,-1,-1,-1,-1,-1,-1,-1,-1,-1,-1,-1,-1,-1,-1,-1,-1,-1,-1,-1,-1,-1,-1,-1,-1,-1,-1,-1,-1,-1,-1,-1,-1],"loss_changes":[1.5962734E3,1.7429976E3,9.4762036E2,1.4996495E2,4.935962E2,7.3424097E2,1.2660864E2,0E0,0E0,2.1333008E0,6.331301E1,1.7936285E3,2.1182058E3,1.2346704E2,7.0585938E0,4.2468157E0,0E0,4.5288254E1,1.4776984E2,1.4064939E3,8.598662E2,1.6686317E3,2.7134436E2,2.43732E1,1.3499847E1,1.4210205E0,3.6060658E0,0E0,0E0,1.4500925E1,0E0,0E0,2.1963196E0,1.2176956E3,1.2941223E1,4.1460913E2,1.1704182E3,4.4240723E0,9.402759E1,8.081388E1,6.4487305E1,1.26927E0,1.1458088E1,0E0,0E0,4.6740723E-1,4.9120865E0,0E0,5.3224964E0,6.4130383E0,6.908897E0,0E0,0E0,8.999945E2,1.2988474E2,3.6730957E-1,4.1635677E1,1.5206194E2,2.2991064E2,4.0815527E2,2.5923804E2,1.1063232E0,3.9570824E1,2.0139587E1,7.543851E1,5.1214443E1,3.3302876E1,1.1747009E1,1.1781317E2,1.414915E0,0E0,1.1257162E1,5.7696724E-1,0E0,2.0984645E0,0E0,0E0,4.748729E0,0E0,0E0,0E0,0E0,0E0,0E0,0E0,0E0,0E0,0E0,0E0,0E0,0E0,0E0,0E0,0E0,0E0,0E0,0E0,0E0,0E0,0E0,0E0,0E0,0E0,0E0,0E0,0E0,0E0,0E0,0E0,0E0,0E0,0E0,0E0,0E0,0E0,0E0,0E0,0E0,0E0,0E0,0E0,0E0,0E0,0E0,0E0],"parents":[2147483647,0,0,1,1,2,2,3,3,4,4,5,5,6,6,9,9,10,10,11,11,12,12,13,13,14,14,15,15,17,17,18,18,19,19,20,20,21,21,22,22,23,23,24,24,25,25,26,26,29,29,32,32,33,33,34,34,35,35,36,36,37,37,38,38,39,39,40,40,41,41,42,42,45,45,46,46,48,48,49,49,50,50,53,53,54,54,55,55,56,56,57,57,58,58,59,59,60,60,61,61,62,62,63,63,64,64,65,65,66,66,67,67,68,68,69,69,71,71,72,72,74,74,77,77],"right_children":[2,4,6,8,10,12,14,-1,-1,16,18,20,22,24,26,28,-1,30,32,34,36,38,40,42,44,46,48,-1,-1,50,-1,-1,52,54,56,58,60,62,64,66,68,70,72,-1,-1,74,76,-1,78,80,82,-1,-1,84,86,88,90,92,94,96,98,100,102,104,106,108,110,112,114,116,-1,118,120,-1,122,-1,-1,124,-1,-1,-1,-1,-1,-1,-1,-1,-1,-1,-1,-1,-1,-1,-1,-1,-1,-1,-1,-1,-1,-1,-1,-1,-1,-1,-1,-1,-1,-1,-1,-1,-1,-1,-1,-1,-1,-1,-1,-1,-1,-1,-1,-1,-1,-1,-1],"split_conditions":[5.375E0,7E-3,7.1989E1,6.096E0,4.4943E1,9.9854E1,-5.365E0,-3.5700288E-2,8.283977E-2,2.28E-1,8.17E-1,5.7207E1,2.0847E1,4.78E-1,8.8717E1,6.1E-2,8.330446E-2,4.18E-1,9.73E-1,6.9858E1,8.7487E1,4.5914E1,4.15E-1,6.581E0,4.325E0,1.314E3,1.099E0,-2.9416298E-2,7.8224264E-2,3.1746E1,-3.5627652E-2,-3.553314E-2,4.99E1,2.7372E1,1.6733E1,7.24E-1,7.45E-1,6.19E2,9.28E-1,6.4624E1,8.8374E1,2.619E0,1.8304E1,8.309912E-2,-3.2447025E-2,1.066E3,-6.633E0,-2.9416298E-2,4.67E0,1.397E0,1.324E0,8.309912E-2,1.9651454E-2,2.6966E1,3.575E0,7.64E-1,7.6084E1,1.2868E1,9.6E-2,5.117E0,2.1889E1,2.0695E1,1.4427E1,4.793E0,1.4E-1,9.3116E1,7.65E-1,3.2992E1,1.9749E1,3.771E0,-3.5548534E-2,1.01E3,-2.0845E1,8.3285354E-2,1.84936E2,7.987639E-2,-2.9416298E-2,2.095E1,8.166211E-2,8.2327336E-2,-9.09845E-3,7.582339E-2,-3.446157E-2,5.9390128E-2,9.20322E-3,-3.5124682E-2,-5.8734543E-3,-3.5663143E-2,-3.092449E-2,5.3678066E-2,-3.55566E-2,4.5247566E-2,-3.1098917E-2,-3.4858797E-2,5.7874706E-2,8.07911E-2,9.993172E-3,-2.400308E-2,4.109707E-2,-3.5513666E-2,-2.2687312E-2,-3.562845E-2,6.111172E-2,8.087337E-2,4.0544443E-2,6.056446E-2,-1.1050544E-2,7.398308E-2,-5.7947133E-3,-2.8313175E-2,3.8553897E-2,8.076491E-2,6.0426515E-2,3.4357928E-2,7.833371E-2,-3.090329E-2,3.6751106E-2,7.40842E-2,-3.2898974E-2,-0E0,-3.405082E-2,7.9459384E-2,-0E0,-3.2447025E-2,5.410691E-2],"split_indices":[7,36,24,30,17,19,31,0,0,35,18,19,7,36,24,17,0,36,35,17,19,17,37,16,33,25,3,0,0,29,0,0,17,7,32,18,18,14,35,7,0,33,16,0,0,14,0,0,10,4,4,0,0,17,17,18,17,10,37,32,7,7,16,30,23,27,35,29,10,0,0,25,30,0,0,0,0,32,0,0,0,0,0,0,0,0,0,0,0,0,0,0,0,0,0,0,0,0,0,0,0,0,0,0,0,0,0,0,0,0,0,0,0,0,0,0,0,0,0,0,0,0,0,0,0],"split_type":[0,0,0,0,0,0,0,0,0,0,0,0,0,0,0,0,0,0,0,0,0,0,0,0,0,0,0,0,0,0,0,0,0,0,0,0,0,0,0,0,0,0,0,0,0,0,0,0,0,0,0,0,0,0,0,0,0,0,0,0,0,0,0,0,0,0,0,0,0,0,0,0,0,0,0,0,0,0,0,0,0,0,0,0,0,0,0,0,0,0,0,0,0,0,0,0,0,0,0,0,0,0,0,0,0,0,0,0,0,0,0,0,0,0,0,0,0,0,0,0,0,0,0,0,0],"sum_hessian":[2.2127611E4,2.5623787E3,1.9565232E4,5.053347E2,2.0570442E3,1.8895652E4,6.69579E2,4.7719055E2,2.8144161E1,1.8281102E3,2.2893384E2,1.3499115E4,5.3965376E3,1.3988068E2,5.296983E2,3.7805588E0,1.8243297E3,1.1845751E2,1.1047633E2,7.418717E3,6.080399E3,4.0876243E3,1.3089135E3,7.477105E1,6.510963E1,5.14156E2,1.5542297E1,1.2601863E0,2.5203726E0,2.3943539E1,9.451397E1,4.620683E1,6.42695E1,5.3142056E3,2.104511E3,3.7591357E3,2.3212632E3,3.5902708E3,4.9735352E2,2.4069559E2,1.0682179E3,5.3347885E1,2.1423166E1,6.2589252E1,2.5203726E0,5.0911526E2,5.0407453E0,1.2601863E0,1.4282111E1,1.5542297E1,8.401242E0,6.2589252E1,1.6802484E0,3.7364524E3,1.5777532E3,2.0343607E3,7.015037E1,2.9404346E2,3.4650923E3,9.085943E2,1.4126688E3,3.4831548E3,1.0711584E2,3.4823148E2,1.4912204E2,8.3172295E1,1.5752328E2,4.1586148E2,6.5235645E2,2.9404347E0,5.040745E1,1.5122235E1,6.3009315E0,5.0449457E2,4.620683E0,3.7805588E0,1.2601863E0,6.3009315E0,7.9811797E0,1.3441987E1,2.1003106E0,1.6802484E0,6.7209935E0,1.4781985E3,2.258254E3,9.409391E2,6.3681415E2,1.9700912E3,6.42695E1,1.7222546E1,5.2927822E1,9.745441E1,1.9658907E2,6.805006E1,3.3970422E3,6.0026874E2,3.083256E2,1.238343E3,1.7432578E2,3.4634119E3,1.9742918E1,9.5354095E1,1.1761739E1,3.1294626E2,3.5285217E1,8.401242E1,6.510963E1,4.9567326E1,3.360497E1,1.3610011E2,2.1423166E1,3.192472E2,9.661428E1,4.0872043E2,2.4363602E2,1.6802484E0,1.2601863E0,1.2181801E1,2.9404347E0,1.2601863E0,5.0407453E0,3.3604968E0,1.2601863E0,2.5203726E0,3.7805588E0],"tree_param":{"num_deleted":"0","num_feature":"39","num_nodes":"125","size_leaf_vector":"1"}},{"base_weights":[1.4240246E-2,1.2827386E0,-5.176823E-1,4.2212784E-1,1.6928612E0,1.19831696E-1,-6.648406E-1,-3.1113148E-1,8.8541335E-1,-1.5633892E-1,1.7709786E0,1.00437604E-1,-6.4392585E-1,-5.5963635E-1,-3.3282038E-2,9.3750304E-1,-5.3981894E-1,1.9717389E0,-2.869288E-1,-3.319233E-2,5.357269E-1,1.0042312E-1,1.5350372E0,-3.327824E-2,9.94583E-2,-6.4916927E-1,-1.4885141E-1,-3.309756E-2,1.00234486E-1,9.856543E-2,-5.728761E-1,1.0043161E-1,9.0995646E-1,7.1578884E-1,-6.033459E-1,-1.7614876E-1,1.4068046E0,9.2284E-1,1.7332964E0,-3.315782E-2,-3.887223E-1,5.133675E-1,-3.9476842E-1,-5.90255E-1,1.0331146E0,1.4706954E0,-2.0199227E-1,-3.314717E-2,1.9065173E0,-2.8382882E-1,-6.462785E-1,-5.6514287E-1,9.7821765E-2,-4.8494944E-1,1.9133906E0,-5.609234E-1,1.4752367E0,1.7993051E0,-2.4975581E-1,6.2794904E-3,-3.0588303E-2,-2.9728476E-2,9.281754E-2,1.7362727E-1,-5.4216325E-1,-3.145334E-2,-7.042387E-3,9.688599E-2,-2.9728476E-2,1.3798772E-2,9.8864995E-2,-3.0588303E-2,5.3586336E-3,1.00238144E-1,-3.0217547E-2,7.1542285E-2,-2.524656E-2,-3.325815E-2,-2.2042153E-2,-3.297021E-2,-1.3627742E-3,6.2794904E-3,-3.172143E-2,5.8114916E-2,9.975499E-2,9.558992E-2,-3.1177858E-2,-1.6811645E-2,8.914899E-2,9.534283E-2,4.8350442E-2,-2.6959045E-2,9.763702E-2,4.721026E-2,-2.6465127E-2,-3.2235336E-2,-0E0],"categories":[],"categories_nodes":[],"categories_segments":[],"categories_sizes":[],"default_left":[0,0,0,0,0,0,0,0,0,0,0,0,0,0,0,0,0,0,0,0,0,0,0,0,0,0,0,0,0,0,0,0,0,0,0,0,0,0,0,0,0,0,0,0,0,0,0,0,0,0,0,0,0,0,0,0,0,0,0,0,0,0,0,0,0,0,0,0,0,0,0,0,0,0,0,0,0,0,0,0,0,0,0,0,0,0,0,0,0,0,0,0,0,0,0,0,0],"id":2,"left_children":[1,3,5,7,9,11,13,15,17,19,21,-1,23,25,-1,27,29,31,33,-1,35,-1,37,-1,-1,39,41,-1,-1,-1,43,-1,45,47,49,51,53,55,57,-1,59,61,63,65,67,69,71,-1,73,75,77,79,-1,81,83,85,87,89,91,-1,-1,-1,-1,93,95,-1,-1,-1,-1,-1,-1,-1,-1,-1,-1,-1,-1,-1,-1,-1,-1,-1,-1,-1,-1,-1,-1,-1,-1,-1,-1,-1,-1,-1,-1,-1,-1],"loss_changes":[1.3255875E4,2.0483604E3,1.298605E3,6.3652997E2,5.6801855E2,3.7451648E3,7.866211E-1,2.071424E2,1.4625337E3,5.6021454E1,2.1066797E2,0E0,1.0532013E2,3.0904732E0,0E0,1.9188109E2,5.0877625E1,2.2873535E1,1.752604E2,0E0,4.1939095E1,0E0,2.292832E2,0E0,0E0,1.2680244E-1,2.5817835E0,0E0,0E0,0E0,1.6912964E1,0E0,1.2806623E1,2.1768652E2,5.6493073E0,3.0758137E1,2.9352306E1,3.7991547E2,1.8730127E2,0E0,5.395273E-1,6.504414E0,1.0256062E0,1.0362427E1,9.754811E0,7.926634E0,9.22223E-1,0E0,1.780841E1,1.9010273E1,1.2949219E0,1.5268564E0,0E0,6.480074E-1,9.2692566E-1,1.9460815E1,1.8845789E2,1.2336035E2,2.9340887E1,0E0,0E0,0E0,0E0,1.3606629E0,5.28116E-1,0E0,0E0,0E0,0E0,0E0,0E0,0E0,0E0,0E0,0E0,0E0,0E0,0E0,0E0,0E0,0E0,0E0,0E0,0E0,0E0,0E0,0E0,0E0,0E0,0E0,0E0,0E0,0E0,0E0,0E0,0E0,0E0],"parents":[2147483647,0,0,1,1,2,2,3,3,4,4,5,5,6,6,7,7,8,8,9,9,10,10,12,12,13,13,15,15,16,16,17,17,18,18,20,20,22,22,25,25,26,26,30,30,32,32,33,33,34,34,35,35,36,36,37,37,38,38,40,40,41,41,42,42,43,43,44,44,45,45,46,46,48,48,49,49,50,50,51,51,53,53,54,54,55,55,56,56,57,57,58,58,63,63,64,64],"right_children":[2,4,6,8,10,12,14,16,18,20,22,-1,24,26,-1,28,30,32,34,-1,36,-1,38,-1,-1,40,42,-1,-1,-1,44,-1,46,48,50,52,54,56,58,-1,60,62,64,66,68,70,72,-1,74,76,78,80,-1,82,84,86,88,90,92,-1,-1,-1,-1,94,96,-1,-1,-1,-1,-1,-1,-1,-1,-1,-1,-1,-1,-1,-1,-1,-1,-1,-1,-1,-1,-1,-1,-1,-1,-1,-1,-1,-1,-1,-1,-1,-1],"split_conditions":[5.5054E1,-1.4931E1,5.998E1,4.005E1,3.5116E1,9.51E-1,6.0202E1,-2.025E0,5.02E1,3.4504E1,4.9951E1,1.00437604E-1,1.05494E2,1.73E0,-3.3282038E-2,3.5116E1,1.671E1,4.9951E1,1.2095E1,-3.319233E-2,3.41E2,1.0042312E-1,-2.4442E1,-3.327824E-2,9.94583E-2,1.315E0,3.75E-1,-3.309756E-2,1.00234486E-1,9.856543E-2,3.467E3,1.0043161E-1,-3.85E-1,-3.14E-1,1.2814E1,7.104E0,-2.5944E1,3.51E-1,2.0563E1,-3.315782E-2,-2.7838E1,2.46E0,6E0,3.9822E1,-1.785E0,-4.2775E1,-2.834E1,-3.314717E-2,-4.737E0,-4.3676E1,2.91E-1,3.0695E1,9.7821765E-2,-1.2822E1,3.49E2,1.3453E1,-2.49E0,5.2E-1,7.37E-1,6.2794904E-3,-3.0588303E-2,-2.9728476E-2,9.281754E-2,7.745E0,1.29E2,-3.145334E-2,-7.042387E-3,9.688599E-2,-2.9728476E-2,1.3798772E-2,9.8864995E-2,-3.0588303E-2,5.3586336E-3,1.00238144E-1,-3.0217547E-2,7.1542285E-2,-2.524656E-2,-3.325815E-2,-2.2042153E-2,-3.297021E-2,-1.3627742E-3,6.2794904E-3,-3.172143E-2,5.8114916E-2,9.975499E-2,9.558992E-2,-3.1177858E-2,-1.6811645E-2,8.914899E-2,9.534283E-2,4.8350442E-2,-2.6959045E-2,9.763702E-2,4.721026E-2,-2.6465127E-2,-3.2235336E-2,-0E0],"split_indices":[38,1,38,38,38,17,38,8,38,38,38,0,0,3,0,38,7,38,7,0,14,0,13,0,0,3,36,0,0,0,14,0,11,32,7,12,13,6,11,0,0,33,14,38,12,13,1,0,0,13,36,7,0,12,14,17,32,31,0,0,0,0,0,6,14,0,0,0,0,0,0,0,0,0,0,0,0,0,0,0,0,0,0,0,0,0,0,0,0,0,0,0,0,0,0,0,0],"split_type":[0,0,0,0,0,0,0,0,0,0,0,0,0,0,0,0,0,0,0,0,0,0,0,0,0,0,0,0,0,0,0,0,0,0,0,0,0,0,0,0,0,0,0,0,0,0,0,0,0,0,0,0,0,0,0,0,0,0,0,0,0,0,0,0,0,0,0,0,0,0,0,0,0,0,0,0,0,0,0,0,0,0,0,0,0,0,0,0,0,0,0,0,0,0,0,0,0],"sum_hessian":[1.9645504E4,5.80415E3,1.38413545E4,1.8734038E3,3.9307458E3,2.595698E3,1.1245657E4,7.2528503E2,1.1481188E3,1.5926363E2,3.7714822E3,7.473427E2,1.8483553E3,8.636126E1,1.1159296E4,1.1215748E2,6.1312756E2,5.959301E2,5.5218866E2,9.196913E1,6.729449E1,1.8790117E3,1.8924706E3,1.833401E3,1.495433E1,7.065921E1,1.5702047E1,4.486299E1,6.729449E1,7.8510237E0,6.0527655E2,5.7574176E2,2.0188347E1,1.3234583E2,4.1984283E2,3.701197E1,3.028252E1,4.632104E2,1.4292601E3,6.6546776E1,4.112441E0,4.112441E0,1.1589606E1,5.9892096E2,6.355591E0,1.3458898E1,6.729449E0,6.1312756E1,7.103307E1,5.0097008E1,3.6974582E2,3.1404095E1,5.607874E0,6.355591E0,2.392693E1,1.2561638E2,3.3759402E2,1.3832756E3,4.5984566E1,1.1215749E0,2.9908662E0,2.2431498E0,1.8692913E0,2.2431498E0,9.346457E0,5.510671E2,4.785386E1,4.112441E0,2.2431498E0,4.112441E0,9.346457E0,2.9908662E0,3.7385826E0,6.841606E1,2.617008E0,5.607874E0,4.4489136E1,3.3796786E2,3.1777954E1,2.6543938E1,4.8601575E0,1.1215749E0,5.234016E0,2.617008E0,2.1309921E1,2.9908662E0,1.2262551E2,4.8975433E1,2.886186E2,1.2247596E3,1.5851591E2,4.0750553E1,5.234016E0,1.1215749E0,1.1215749E0,7.8510237E0,1.4954331E0],"tree_param":{"num_deleted":"0","num_feature":"39","num_nodes":"97","size_leaf_vector":"1"}},{"base_weights":[-5.0428367E-1,1.4244242E0,-3.1263925E-2,1.2472514E-1,7.2350293E-1,2.3777184E0,-3.1855696E-1,1.2441462E-1,1.8739171E0,1.1796169E0,-3.1237919E-2,2.3338008E0,2.224338E-1,2.0272212E-1,2.01091E0,1.2057072E-1,1.8545867E0,-2.193488E-1,1.1450236E-1,2.1344154E0,-3.5177556E-1,2.3483512E0,-3.527631E-1,4.1969117E-2,1.1948059E-1,-3.0015916E-2,7.593591E-2,1.21426E-1,3.9750487E-2,5.5755377E-2,-2.370899E-2,1.2204585E-1,9.0636864E-2,-2.8541086E-2,3.5650716E-3],"categories":[],"categories_nodes":[],"categories_segments":[],"categories_sizes":[],"default_left":[0,0,0,0,0,0,0,0,0,0,0,0,0,0,0,0,0,0,0,0,0,0,0,0,0,0,0,0,0,0,0,0,0,0,0],"id":3,"left_children":[1,3,-1,-1,5,7,9,-1,11,13,-1,15,17,19,21,-1,23,25,-1,27,29,31,33,-1,-1,-1,-1,-1,-1,-1,-1,-1,-1,-1,-1],"loss_changes":[3.932625E3,7.4560474E2,0E0,0E0,1.0367134E3,1.2045044E1,1.692622E2,0E0,3.1893677E1,5.05634E1,0E0,3.5749817E-1,8.837063E0,3.1251408E1,2.7198639E1,0E0,2.3156662E0,5.1579027E0,0E0,2.048586E0,4.0342865E0,5.9877014E-1,4.4848078E-1,0E0,0E0,0E0,0E0,0E0,0E0,0E0,0E0,0E0,0E0,0E0,0E0],"parents":[2147483647,0,0,1,1,4,4,5,5,6,6,8,8,9,9,11,11,12,12,13,13,14,14,16,16,17,17,19,19,20,20,21,21,22,22],"right_children":[2,4,-1,-1,6,8,10,-1,12,14,-1,16,18,20,22,-1,24,26,-1,28,30,32,34,-1,-1,-1,-1,-1,-1,-1,-1,-1,-1,-1,-1],"split_conditions":[4.005E1,3.4504E1,-3.1263925E-2,1.2472514E-1,2.2E-1,3.9822E1,3.5116E1,1.2441462E-1,-2.214E0,7E-3,-3.1237919E-2,2.722E1,5.357E0,1.13117E2,7.104E0,1.2057072E-1,7.6657E1,1.008E0,1.1450236E-1,1.013E0,-3.306E0,4.157E0,9.64E-1,4.1969117E-2,1.1948059E-1,-3.0015916E-2,7.593591E-2,1.21426E-1,3.9750487E-2,5.5755377E-2,-2.370899E-2,1.2204585E-1,9.0636864E-2,-2.8541086E-2,3.5650716E-3],"split_indices":[38,38,0,0,17,38,38,0,12,36,0,19,33,27,12,0,7,3,0,3,1,12,3,0,0,0,0,0,0,0,0,0,0,0,0],"split_type":[0,0,0,0,0,0,0,0,0,0,0,0,0,0,0,0,0,0,0,0,0,0,0,0,0,0,0,0,0,0,0,0,0,0,0],"sum_hessian":[1.685178E4,9.9465515E2,1.5857124E4,3.9350406E2,6.011511E2,2.323212E2,3.6882993E2,1.9002272E2,4.229848E1,6.2486393E1,3.0634354E2,3.3005634E1,9.292848E0,2.8839872E1,3.364652E1,2.7878544E1,5.1270885E0,7.690633E0,1.6022152E0,6.4088607E0,2.2431013E1,2.9480759E1,4.1657596E0,1.9226582E0,3.2044303E0,6.4088607E0,1.2817721E0,5.1270885E0,1.2817721E0,1.6022152E0,2.0828796E1,2.4674114E1,4.8066454E0,2.8839874E0,1.2817721E0],"tree_param":{"num_deleted":"0","num_feature":"39","num_nodes":"35","size_leaf_vector":"1"}},{"base_weights":[3.150865E-2,-6.5166086E-1,6.878281E-1,-2.8577682E-1,-6.5549487E-1,1.0634819E0,-3.825999E-1,-6.318779E-1,7.5041485E-1,-3.2974523E-2,-5.8687973E-1,1.6802752E0,-6.8583615E-2,1.2904563E0,-4.9029925E-1,5.911229E-3,-6.447068E-1,1.4668871E0,8.333816E-2,1.1674358E0,-6.253245E-1,5.489125E-1,1.7827939E0,-3.9294538E-1,6.3826513E-1,1.7973782E0,-3.2757502E-2,-2.7305079E-1,-6.506688E-1,-3.28937E-2,-3.2302704E-1,-2.6173398E-2,1.680916E0,6.216962E-1,-3.167589E-2,-3.0366695E-2,1.7218157E0,-2.5883394E-1,-6.575868E-1,1.2407323E0,-1.6153306E-1,1.4205469E0,1.7978417E0,-6.0824186E-1,4.5638958E-1,9.2700355E-2,3.1298444E-1,-2.7090257E-2,9.101089E-2,-4.5625353E-1,3.7888393E-1,-6.569115E-1,-2.4087882E-1,-2.9532421E-2,6.63336E-3,3.999825E-2,9.233209E-2,9.0417884E-2,-1.9626833E-1,4.4606995E-2,9.1169946E-2,1.554628E0,-4.2698988E-1,-3.2983847E-2,-0E0,8.8072747E-1,1.8112586E0,-3.1078905E-1,1.7152448E0,1.5222237E0,2.3163545E-1,1.7114527E0,1.808746E0,-6.230601E-1,1.373532E0,1.8429099E0,-1.0900286E-1,-3.5968384E-1,9.0593994E-1,-5.611356E-1,4.8014104E-1,-6.5482974E-1,1.3546447E0,-5.439638E-1,-3.3013746E-2,-4.4970024E-1,7.352692E-2,4.55007E-2,-3.0858552E-2,4.5418076E-2,8.903411E-2,-2.4970533E-2,8.983996E-2,8.8293225E-2,-4.689423E-4,-2.631518E-2,9.233995E-2,-2.1118304E-2,7.898511E-2,5.1690698E-2,9.294129E-2,8.142391E-2,1.2736373E-2,7.3598236E-2,-3.2994047E-2,8.810794E-2,3.1849556E-2,8.792588E-2,9.093686E-2,-3.1545997E-2,-4.9032024E-3,8.988508E-2,-2.8777508E-2,9.480255E-2,7.619159E-2,7.555925E-2,-1.5711134E-2,-3.762016E-3,-3.2041255E-2,8.67046E-3,8.13365E-2,2.881929E-2,-2.9268643E-2,-2.0737214E-2,6.638151E-2,-3.804406E-3,-3.362791E-2,-3.0670539E-2,8.722447E-2,1.510084E-3,-3.3055242E-2,6.486614E-2,-3.2672804E-2],"categories":[],"categories_nodes":[],"categories_segments":[],"categories_sizes":[],"default_left":[0,0,0,0,0,0,0,0,0,0,0,0,0,0,0,0,0,0,0,0,0,0,0,0,0,0,0,0,0,0,0,0,0,0,0,0,0,0,0,0,0,0,0,0,0,0,0,0,0,0,0,0,0,0,0,0,0,0,0,0,0,0,0,0,0,0,0,0,0,0,0,0,0,0,0,0,0,0,0,0,0,0,0,0,0,0,0,0,0,0,0,0,0,0,0,0,0,0,0,0,0,0,0,0,0,0,0,0,0,0,0,0,0,0,0,0,0,0,0,0,0,0,0,0,0,0,0,0,0,0,0,0,0],"id":4,"left_children":[1,3,5,7,9,11,13,15,17,-1,19,21,23,25,27,-1,29,31,33,35,37,39,41,43,45,47,-1,49,51,-1,53,-1,55,57,-1,-1,59,61,63,65,67,69,71,73,75,-1,77,-1,-1,79,81,83,85,-1,-1,-1,-1,-1,87,-1,-1,89,91,-1,-1,93,95,97,99,101,103,105,107,109,111,113,115,117,119,121,123,125,127,129,-1,131,-1,-1,-1,-1,-1,-1,-1,-1,-1,-1,-1,-1,-1,-1,-1,-1,-1,-1,-1,-1,-1,-1,-1,-1,-1,-1,-1,-1,-1,-1,-1,-1,-1,-1,-1,-1,-1,-1,-1,-1,-1,-1,-1,-1,-1,-1,-1],"loss_changes":[8.875345E3,1.34921875E1,4.0596685E3,3.6265354E1,2.4677734E0,5.2183057E3,4.725389E2,7.902279E-1,1.1909315E1,0E0,3.5792984E1,5.607549E2,6.042988E2,1.5663885E2,8.57392E1,0E0,1.9717026E-1,5.360197E0,5.156837E0,1.13869915E1,6.029953E0,1.9778992E2,2.3601562E1,3.3043414E2,3.2755353E2,6.9513855E0,0E0,1.2506388E2,3.5200806E0,0E0,4.7237265E-1,0E0,1.1933422E0,7.6753716E0,0E0,0E0,3.0073738E-1,1.2889649E1,6.695862E-1,4.1437164E1,5.5496155E1,2.1263733E1,3.350586E0,4.2344116E1,2.8659988E2,0E0,2.6101788E2,0E0,0E0,8.031416E1,2.3173993E2,3.739624E-1,7.7066965E0,0E0,0E0,0E0,0E0,0E0,2.1694102E0,0E0,0E0,9.101391E-2,6.2328553E0,0E0,0E0,9.887844E1,6.7639465E0,3.8751007E1,9.454613E-1,2.1796997E1,1.5870112E1,2.5804932E1,1.21875E0,5.8256836E0,9.055338E0,1.1644592E0,8.6231445E1,2.44328E1,1.8343173E2,2.0305054E1,6.2556713E1,1.064064E0,9.089961E1,2.875718E0,0E0,6.939529E0,0E0,0E0,0E0,0E0,0E0,0E0,0E0,0E0,0E0,0E0,0E0,0E0,0E0,0E0,0E0,0E0,0E0,0E0,0E0,0E0,0E0,0E0,0E0,0E0,0E0,0E0,0E0,0E0,0E0,0E0,0E0,0E0,0E0,0E0,0E0,0E0,0E0,0E0,0E0,0E0,0E0,0E0,0E0,0E0,0E0,0E0,0E0],"parents":[2147483647,0,0,1,1,2,2,3,3,4,4,5,5,6,6,7,7,8,8,10,10,11,11,12,12,13,13,14,14,16,16,17,17,18,18,19,19,20,20,21,21,22,22,23,23,24,24,25,25,27,27,28,28,30,30,32,32,33,33,36,36,37,37,38,38,39,39,40,40,41,41,42,42,43,43,44,44,46,46,49,49,50,50,51,51,52,52,58,58,61,61,62,62,65,65,66,66,67,67,68,68,69,69,70,70,71,71,72,72,73,73,74,74,75,75,76,76,77,77,78,78,79,79,80,80,81,81,82,82,83,83,85,85],"right_children":[2,4,6,8,10,12,14,16,18,-1,20,22,24,26,28,-1,30,32,34,36,38,40,42,44,46,48,-1,50,52,-1,54,-1,56,58,-1,-1,60,62,64,66,68,70,72,74,76,-1,78,-1,-1,80,82,84,86,-1,-1,-1,-1,-1,88,-1,-1,90,92,-1,-1,94,96,98,100,102,104,106,108,110,112,114,116,118,120,122,124,126,128,130,-1,132,-1,-1,-1,-1,-1,-1,-1,-1,-1,-1,-1,-1,-1,-1,-1,-1,-1,-1,-1,-1,-1,-1,-1,-1,-1,-1,-1,-1,-1,-1,-1,-1,-1,-1,-1,-1,-1,-1,-1,-1,-1,-1,-1,-1,-1,-1,-1],"split_conditions":[2.5032E1,-1.63E-1,2.0847E1,1.032E0,3.374E0,5.1749E1,9.6E-2,1.23E0,9.1178E1,-3.2974523E-2,-5.2936E1,8.9014E1,5.117E0,2.9689E1,3.1959E1,5.911229E-3,2.1E-2,7.6364E1,1.2506E1,-3.85E-1,1.3971E1,1.4973E1,9.1453E1,5.48E-1,8.3162E1,1.3763E1,-3.2757502E-2,8.8374E1,3.203E3,-3.28937E-2,8.81E-1,-2.6173398E-2,4.36E-1,-1.0029E1,-3.167589E-2,-3.0366695E-2,1.044E0,8.9123E1,8.1652E1,8.6E-2,3.2366E1,1.43E-1,3.5E-2,1.21073E2,0E0,9.2700355E-2,8.8141E1,-2.7090257E-2,9.101089E-2,5.95E-1,4.977E0,3.2974E1,3.7135E1,-2.9532421E-2,6.63336E-3,3.999825E-2,9.233209E-2,9.0417884E-2,1.0277E1,4.4606995E-2,9.1169946E-2,3.948E0,1.8563E1,-3.2983847E-2,-0E0,-3.9E-2,7.633E0,5.03E-1,1.109E0,1.452E1,3.8468E1,1.6575E1,9.9588E1,8.1E-1,9.72E0,9.762E0,9.931E0,3.4E1,3.05E-1,-3.7634E1,4.216E0,7.5E-1,-0E0,1.8E1,-3.3013746E-2,1.8298E1,7.352692E-2,4.55007E-2,-3.0858552E-2,4.5418076E-2,8.903411E-2,-2.4970533E-2,8.983996E-2,8.8293225E-2,-4.689423E-4,-2.631518E-2,9.233995E-2,-2.1118304E-2,7.898511E-2,5.1690698E-2,9.294129E-2,8.142391E-2,1.2736373E-2,7.3598236E-2,-3.2994047E-2,8.810794E-2,3.1849556E-2,8.792588E-2,9.093686E-2,-3.1545997E-2,-4.9032024E-3,8.988508E-2,-2.8777508E-2,9.480255E-2,7.619159E-2,7.555925E-2,-1.5711134E-2,-3.762016E-3,-3.2041255E-2,8.67046E-3,8.13365E-2,2.881929E-2,-2.9268643E-2,-2.0737214E-2,6.638151E-2,-3.804406E-3,-3.362791E-2,-3.0670539E-2,8.722447E-2,1.510084E-3,-3.3055242E-2,6.486614E-2,-3.2672804E-2],"split_indices":[20,23,7,6,1,17,37,33,27,0,2,19,32,17,7,0,9,19,7,11,7,7,19,36,17,2,0,0,14,0,11,0,33,0,0,0,4,27,19,36,10,23,36,19,31,0,19,0,0,36,10,7,20,0,0,0,0,0,7,0,0,11,32,0,0,23,7,36,12,10,20,11,19,18,7,33,7,14,36,0,9,12,11,14,0,11,0,0,0,0,0,0,0,0,0,0,0,0,0,0,0,0,0,0,0,0,0,0,0,0,0,0,0,0,0,0,0,0,0,0,0,0,0,0,0,0,0,0,0,0,0,0,0],"split_type":[0,0,0,0,0,0,0,0,0,0,0,0,0,0,0,0,0,0,0,0,0,0,0,0,0,0,0,0,0,0,0,0,0,0,0,0,0,0,0,0,0,0,0,0,0,0,0,0,0,0,0,0,0,0,0,0,0,0,0,0,0,0,0,0,0,0,0,0,0,0,0,0,0,0,0,0,0,0,0,0,0,0,0,0,0,0,0,0,0,0,0,0,0,0,0,0,0,0,0,0,0,0,0,0,0,0,0,0,0,0,0,0,0,0,0,0,0,0,0,0,0,0,0,0,0,0,0,0,0,0,0,0,0],"sum_hessian":[1.979415E4,9.698614E3,1.0095537E4,1.0092357E2,9.59769E3,7.473053E3,2.6224836E3,7.575573E1,2.5167843E1,9.067364E3,5.303264E2,4.837458E3,2.6355955E3,1.5848415E2,2.4639995E3,1.1289659E0,7.462676E1,1.2004562E1,1.316328E1,1.1253802E1,5.1907263E2,4.0206042E2,4.4353975E3,1.8067103E3,8.288851E2,1.2577331E2,3.2710842E1,1.0468088E3,1.4171907E3,7.129317E1,3.333592E0,1.1061496E0,1.0898414E1,7.6048317E0,5.5584474E0,2.6334019E0,8.6204E0,4.2320957E1,4.7675165E2,2.0373393E2,1.9832649E2,1.7754341E2,4.257854E3,1.4414625E3,3.6524777E2,1.7479782E2,6.540872E2,1.1518613E0,1.24621445E2,8.1731525E2,2.2949359E2,1.3956257E3,2.1565E1,2.2197824E0,1.1138095E0,1.9134059E0,8.985007E0,3.1035433E0,4.5012884E0,1.1544148E0,7.465986E0,3.4708369E0,3.885012E1,4.7527338E2,1.4782592E0,1.2517657E2,7.855737E1,1.8384262E2,1.4483872E1,1.6345265E2,1.4090762E1,4.8000708E2,3.777847E3,1.4308824E3,1.05800705E1,1.0578371E2,2.5946408E2,3.0638486E2,3.4770236E2,7.3512366E2,8.219156E1,1.1140372E2,1.18089874E2,4.1688587E1,1.3539371E3,1.933764E1,2.2273598E0,1.1430793E0,3.3582094E0,1.1441191E0,2.3267179E0,3.774346E1,1.1066579E0,6.2770477E1,6.2406086E1,1.1136799E0,7.7443695E1,1.7372018E2,1.0122436E1,2.7846258E0,1.1699247E1,1.5071114E2,1.2741522E1,5.9122953E0,8.178467E0,4.5822537E2,2.1781717E1,6.313943E2,3.1464526E3,1.4095688E3,2.1313679E1,8.737617E0,1.8424537E0,8.998885E1,1.5794856E1,2.9043688E1,2.3042038E2,1.525378E2,1.5384706E2,1.7257704E2,1.7512532E2,1.52029705E1,7.199207E2,3.994533E1,4.224623E1,3.4945529E0,1.07909164E2,1.9472559E1,9.861731E1,6.9320025E0,3.4756584E1,1.9124672E0,1.7425175E1],"tree_param":{"num_deleted":"0","num_feature":"39","num_nodes":"133","size_leaf_vector":"1"}},{"base_weights":[3.2590196E-1,1.0143251E0,2.338663E-1,-5.7414305E-1,1.3836199E0,1.9434513E-1,1.3067524E0,-3.51512E-2,7.6503925E-2,7.6844275E-2,1.1622864E-1,3.149465E-1,-1.0348407E-1,5.2441466E-1,1.5081875E0,-3.6728933E-1,6.2057954E-1,-2.69267E-3,6.986227E-1,-4.478413E-1,9.4865483E-1,-2.595913E-1,1.3988335E0,1.5260644E0,9.077642E-1,8.19845E-1,-3.5093736E-2,1.4947733E0,-3.501789E-2,2.5952473E-1,-6.848775E-1,-7.7493794E-2,8.5376054E-1,-6.92124E-1,1.191307E0,1.1399808E0,1.1166624E-1,1.2465061E0,-4.921863E-1,7.673498E-2,-3.3181887E-2,1.5328729E0,8.4444773E-1,3.5810557E-1,1.240328E0,1.3736036E0,-3.3206654E-1,7.6041296E-2,3.0618742E-2,5.499754E-1,-4.5583823E-1,-6.9853866E-1,-3.7617785E-1,5.896604E-1,-6.280125E-1,1.0123316E0,2.5058484E-1,-6.9857955E-1,-5.046628E-1,1.3709006E0,3.433545E-1,1.4330392E0,9.5378095E-1,9.112546E-1,-3.5057735E-1,-2.8938724E-2,7.601465E-2,8.9671403E-1,-6.3596123E-1,7.69017E-2,1.0495788E0,-3.0707676E-2,7.4424624E-2,-3.1258877E-2,8.546556E-1,3.860814E-1,7.566614E-2,7.623305E-2,9.737081E-3,6.911356E-2,-3.4021597E-2,5.5351425E-2,8.904993E-3,-3.4528505E-2,-5.3152363E-3,-3.5152793E-2,-2.8092384E-2,4.7542367E-2,-3.515498E-2,-1.8228218E-2,4.227602E-2,3.6735665E-2,-3.330755E-2,-6.052786E-3,5.4932296E-2,6.897408E-2,4.927984E-3,-3.5081986E-2,-2.8274491E-2,-3.509498E-2,5.9563477E-2,7.13392E-2,-2.0163413E-2,-3.414665E-2,5.583142E-2,7.568612E-2,5.8339495E-2,3.139279E-2,7.481258E-2,-3.4713954E-2,5.502363E-2,-3.514717E-2,4.7246582E-4,7.460623E-2,-3.0546153E-2,-8.332032E-3,-3.5080865E-2,7.451854E-2,-2.8853318E-2,-2.9537505E-2,7.4370995E-2,-2.9330013E-2,6.8036936E-2],"categories":[],"categories_nodes":[],"categories_segments":[],"categories_sizes":[],"default_left":[0,0,0,0,0,0,0,0,0,0,0,0,0,0,0,0,0,0,0,0,0,0,0,0,0,0,0,0,0,0,0,0,0,0,0,0,0,0,0,0,0,0,0,0,0,0,0,0,0,0,0,0,0,0,0,0,0,0,0,0,0,0,0,0,0,0,0,0,0,0,0,0,0,0,0,0,0,0,0,0,0,0,0,0,0,0,0,0,0,0,0,0,0,0,0,0,0,0,0,0,0,0,0,0,0,0,0,0,0,0,0,0,0,0,0,0,0,0,0,0,0,0,0],"id":5,"left_children":[1,3,5,7,9,11,13,-1,-1,-1,15,17,19,21,23,25,27,29,31,33,35,37,39,41,43,45,-1,47,-1,49,51,53,55,57,59,61,63,65,67,-1,-1,69,71,73,75,77,79,-1,-1,81,83,85,87,89,91,93,95,97,99,101,103,105,107,109,111,-1,-1,113,115,-1,117,-1,-1,-1,119,121,-1,-1,-1,-1,-1,-1,-1,-1,-1,-1,-1,-1,-1,-1,-1,-1,-1,-1,-1,-1,-1,-1,-1,-1,-1,-1,-1,-1,-1,-1,-1,-1,-1,-1,-1,-1,-1,-1,-1,-1,-1,-1,-1,-1,-1,-1,-1],"loss_changes":[1.4127219E3,1.5426509E3,8.338618E2,1.3454308E2,4.1425635E2,6.814462E2,1.0982861E2,0E0,0E0,0E0,5.6223156E1,1.6457589E3,1.9810388E3,9.840503E1,5.5804443E0,4.6743553E1,1.3054099E2,1.3215428E3,7.3650244E2,1.6496049E3,2.1576709E2,2.6466667E1,1.9196442E1,2.1350098E0,2.8063107E0,1.662654E1,0E0,1.2569885E0,0E0,1.1087983E3,8.517029E0,3.742556E2,4.8739502E2,4.1834717E0,8.114929E1,5.950049E1,9.288086E1,5.221101E0,1.3132342E1,0E0,0E0,9.1052246E-1,5.533339E0,3.2315972E0,2.1086798E0,2.9187088E0,5.0452404E0,0E0,0E0,7.8610046E2,1.26341E2,1.0466919E0,3.798429E1,1.1253642E2,2.9061676E1,3.949546E2,1.8199289E2,1.244873E0,4.025377E1,4.386261E1,7.441368E1,8.70459E0,1.1841461E2,2.8089668E1,2.025143E1,0E0,0E0,5.682668E0,1.7373085E0,0E0,4.591863E0,0E0,0E0,0E0,4.2052E0,2.6891599E0,0E0,0E0,0E0,0E0,0E0,0E0,0E0,0E0,0E0,0E0,0E0,0E0,0E0,0E0,0E0,0E0,0E0,0E0,0E0,0E0,0E0,0E0,0E0,0E0,0E0,0E0,0E0,0E0,0E0,0E0,0E0,0E0,0E0,0E0,0E0,0E0,0E0,0E0,0E0,0E0,0E0,0E0,0E0,0E0,0E0,0E0,0E0],"parents":[2147483647,0,0,1,1,2,2,3,3,4,4,5,5,6,6,10,10,11,11,12,12,13,13,14,14,15,15,16,16,17,17,18,18,19,19,20,20,21,21,22,22,23,23,24,24,25,25,27,27,29,29,30,30,31,31,32,32,33,33,34,34,35,35,36,36,37,37,38,38,41,41,42,42,43,43,44,44,45,45,46,46,49,49,50,50,51,51,52,52,53,53,54,54,55,55,56,56,57,57,58,58,59,59,60,60,61,61,62,62,63,63,64,64,67,67,68,68,70,70,74,74,75,75],"right_children":[2,4,6,8,10,12,14,-1,-1,-1,16,18,20,22,24,26,28,30,32,34,36,38,40,42,44,46,-1,48,-1,50,52,54,56,58,60,62,64,66,68,-1,-1,70,72,74,76,78,80,-1,-1,82,84,86,88,90,92,94,96,98,100,102,104,106,108,110,112,-1,-1,114,116,-1,118,-1,-1,-1,120,122,-1,-1,-1,-1,-1,-1,-1,-1,-1,-1,-1,-1,-1,-1,-1,-1,-1,-1,-1,-1,-1,-1,-1,-1,-1,-1,-1,-1,-1,-1,-1,-1,-1,-1,-1,-1,-1,-1,-1,-1,-1,-1,-1,-1,-1,-1,-1],"split_conditions":[5.375E0,7E-3,7.1989E1,6.096E0,4.4943E1,9.9588E1,-2.559E0,-3.51512E-2,7.6503925E-2,7.6844275E-2,8.17E-1,5.7207E1,2.0847E1,4.78E-1,8.8717E1,4.18E-1,7.37E-1,6.9858E1,5.135E0,4.5914E1,4.93E2,1.92E-1,4.325E0,1.066E3,4.67E0,3.1746E1,-3.5093736E-2,4.99E1,-3.501789E-2,2.7372E1,1.5473E1,8.9014E1,4.18E-1,6.19E2,5.53E-1,8.8374E1,6.4624E1,5.0391E1,2.54E0,7.673498E-2,-3.3181887E-2,3.6E0,4.568E0,1.315E0,1.3471E1,1.397E0,1.324E0,7.6041296E-2,3.0618742E-2,2.6966E1,3.575E0,7.64E-1,7.6084E1,1.06E-1,7.6E-1,7.24E-1,-2E-2,1.505E0,1.4427E1,1.0661E1,1.0694E1,3.2992E1,1.9749E1,2.67E-1,1.1959E1,-2.8938724E-2,7.601465E-2,7.73E2,2.515E1,7.69017E-2,-6.633E0,-3.0707676E-2,7.4424624E-2,-3.1258877E-2,6.39615E2,1.123E0,7.566614E-2,7.623305E-2,9.737081E-3,6.911356E-2,-3.4021597E-2,5.5351425E-2,8.904993E-3,-3.4528505E-2,-5.3152363E-3,-3.5152793E-2,-2.8092384E-2,4.7542367E-2,-3.515498E-2,-1.8228218E-2,4.227602E-2,3.6735665E-2,-3.330755E-2,-6.052786E-3,5.4932296E-2,6.897408E-2,4.927984E-3,-3.5081986E-2,-2.8274491E-2,-3.509498E-2,5.9563477E-2,7.13392E-2,-2.0163413E-2,-3.414665E-2,5.583142E-2,7.568612E-2,5.8339495E-2,3.139279E-2,7.481258E-2,-3.4713954E-2,5.502363E-2,-3.514717E-2,4.7246582E-4,7.460623E-2,-3.0546153E-2,-8.332032E-3,-3.5080865E-2,7.451854E-2,-2.8853318E-2,-2.9537505E-2,7.4370995E-2,-2.9330013E-2,6.8036936E-2],"split_indices":[7,36,24,30,17,19,31,0,0,0,18,19,7,36,24,36,0,17,17,17,14,26,33,14,10,29,0,17,0,7,30,19,36,14,36,0,7,10,33,0,0,26,10,3,12,4,4,0,0,17,17,18,17,17,8,18,23,3,11,8,7,29,10,37,8,0,0,14,10,0,0,0,0,0,0,3,0,0,0,0,0,0,0,0,0,0,0,0,0,0,0,0,0,0,0,0,0,0,0,0,0,0,0,0,0,0,0,0,0,0,0,0,0,0,0,0,0,0,0,0,0,0,0],"split_type":[0,0,0,0,0,0,0,0,0,0,0,0,0,0,0,0,0,0,0,0,0,0,0,0,0,0,0,0,0,0,0,0,0,0,0,0,0,0,0,0,0,0,0,0,0,0,0,0,0,0,0,0,0,0,0,0,0,0,0,0,0,0,0,0,0,0,0,0,0,0,0,0,0,0,0,0,0,0,0,0,0,0,0,0,0,0,0,0,0,0,0,0,0,0,0,0,0,0,0,0,0,0,0,0,0,0,0,0,0,0,0,0,0,0,0,0,0,0,0,0,0,0,0],"sum_hessian":[2.229918E4,2.6293855E3,1.9669793E4,4.959221E2,2.1334634E3,1.8971178E4,6.986169E2,4.6740805E2,2.851404E1,1.9032083E3,2.3025514E2,1.35034795E4,5.4676973E3,1.4322267E2,5.553942E2,1.1746812E2,1.1278703E2,7.3874067E3,6.116073E3,4.1195513E3,1.348146E3,7.5492165E1,6.773051E1,5.3902466E2,1.636951E1,2.573049E1,9.173763E1,6.790812E1,4.4878914E1,5.3361997E3,2.0512068E3,1.01877893E3,5.0972944E3,3.585345E3,5.342062E2,1.0971862E3,2.509598E2,9.983197E0,6.550897E1,6.361398E1,4.116525E0,5.334248E2,5.599877E0,6.3623104E0,1.00072E1,1.7422525E1,8.307964E0,6.578029E1,2.12783E0,3.7953713E3,1.5408285E3,1.9638486E3,8.735803E1,4.6051193E2,5.5826697E2,4.036017E3,1.0612771E3,3.4652087E3,1.2013636E2,4.4068982E2,9.351635E1,4.258063E2,6.713798E2,9.197711E1,1.5898268E2,1.2399646E0,8.743233E0,6.0307965E0,5.9478172E1,5.27368E2,6.056841E0,1.6691161E0,3.9307606E0,2.0585718E0,4.3037386E0,2.570719E0,7.4364805E0,1.5342413E1,2.080112E0,1.3045098E0,7.0034547E0,1.5192041E3,2.2761672E3,9.215627E2,6.1926587E2,1.8999169E3,6.3931747E1,1.7169142E1,7.018889E1,9.7278915E1,3.6323303E2,1.5077688E1,5.431893E2,2.85531E2,3.750486E3,1.2578291E2,9.354942E2,3.3861714E3,7.903721E1,1.0772548E2,1.2410884E1,4.2730634E2,1.3383472E1,4.013355E1,5.3382797E1,3.2613223E2,9.967406E1,4.196484E2,2.5173145E2,9.613151E0,8.236396E1,8.043838E1,7.854431E1,4.371657E0,1.6591394E0,7.5299234E0,5.194825E1,4.820441E0,1.2363999E0,1.2643111E0,3.0394275E0,1.255239E0,1.3154801E0],"tree_param":{"num_deleted":"0","num_feature":"39","num_nodes":"123","size_leaf_vector":"1"}},{"base_weights":[1.7611017E-2,1.1926975E0,-5.0905204E-1,-3.290961E-2,1.343032E0,1.13104634E-1,-6.5742075E-1,6.6028756E-1,1.6037942E0,-6.3896596E-1,9.1451935E-2,-5.632397E-1,-3.2906678E-2,1.1568501E0,-2.744857E-1,1.7844793E0,1.4116025E0,-3.3011228E-2,9.0695016E-2,-5.97107E-1,3.9094556E-2,6.890534E-3,1.7997588E0,5.6306165E-1,-6.310842E-1,5.206488E-1,9.135816E-2,1.5925311E0,8.4278226E-1,-3.28633E-2,-1.5378664E-1,1.7195332E0,-5.29672E-1,9.161329E-2,6.984834E-1,-3.303855E-2,1.6213827E0,-5.08116E-1,-3.296862E-2,1.0943065E0,-4.936074E-1,1.6525179E0,-2.9385486E-1,1.3754033E0,-5.551117E-1,4.553328E-2,-3.1037346E-1,-3.0958125E-2,9.17645E-2,-2.82021E-2,8.926095E-2,7.084482E-2,-1.9002816E-2,9.241624E-2,-3.212526E-2,9.4337486E-2,-3.303274E-2,-3.2030497E-2,7.559154E-2,-3.0548409E-2,8.125039E-2,8.759559E-2,4.3577097E-2,-3.0452508E-2,7.774076E-2,-1.889822E-2,8.115991E-2,9.482566E-2,-3.074078E-2,-2.4368184E-2,8.237973E-3],"categories":[],"categories_nodes":[],"categories_segments":[],"categories_sizes":[],"default_left":[0,0,0,0,0,0,0,0,0,0,0,0,0,0,0,0,0,0,0,0,0,0,0,0,0,0,0,0,0,0,0,0,0,0,0,0,0,0,0,0,0,0,0,0,0,0,0,0,0,0,0,0,0,0,0,0,0,0,0,0,0,0,0,0,0,0,0,0,0,0,0],"id":6,"left_children":[1,3,5,-1,7,9,11,13,15,17,-1,19,-1,21,23,25,27,-1,-1,29,-1,31,33,35,37,39,-1,41,43,-1,45,47,49,-1,51,-1,53,55,-1,57,59,61,63,65,67,-1,69,-1,-1,-1,-1,-1,-1,-1,-1,-1,-1,-1,-1,-1,-1,-1,-1,-1,-1,-1,-1,-1,-1,-1,-1],"loss_changes":[1.2147518E4,1.6904541E3,1.2511758E3,0E0,9.9993945E2,3.3681575E3,5.751953E-1,7.21015E2,1.4060645E2,9.4622375E1,0E0,3.852703E0,0E0,7.497582E2,1.6096677E2,1.1267529E2,2.0244336E2,0E0,0E0,2.0962162E0,0E0,3.3461234E2,2.2908936E1,2.0856174E2,1.1647949E0,4.0059494E1,0E0,1.6934766E2,3.545066E2,0E0,1.656587E0,2.3755035E1,2.2027107E1,0E0,1.4803818E1,0E0,4.459868E1,2.6230705E1,0E0,3.2017E1,6.16626E0,1.1205591E2,2.6866175E1,1.4994934E2,1.9210659E1,0E0,7.960277E-1,0E0,0E0,0E0,0E0,0E0,0E0,0E0,0E0,0E0,0E0,0E0,0E0,0E0,0E0,0E0,0E0,0E0,0E0,0E0,0E0,0E0,0E0,0E0,0E0],"parents":[2147483647,0,0,1,1,2,2,4,4,5,5,6,6,7,7,8,8,9,9,11,11,13,13,14,14,15,15,16,16,19,19,21,21,22,22,23,23,24,24,25,25,27,27,28,28,30,30,31,31,32,32,34,34,36,36,37,37,39,39,40,40,41,41,42,42,43,43,44,44,46,46],"right_children":[2,4,6,-1,8,10,12,14,16,18,-1,20,-1,22,24,26,28,-1,-1,30,-1,32,34,36,38,40,-1,42,44,-1,46,48,50,-1,52,-1,54,56,-1,58,60,62,64,66,68,-1,70,-1,-1,-1,-1,-1,-1,-1,-1,-1,-1,-1,-1,-1,-1,-1,-1,-1,-1,-1,-1,-1,-1,-1,-1],"split_conditions":[5.5054E1,3.4504E1,5.998E1,-3.290961E-2,-1.4931E1,9.95E-1,6.0202E1,5.02E1,4.9951E1,1.05494E2,9.1451935E-2,1.0035E1,-3.2906678E-2,4.005E1,1.2361E1,3.5116E1,2.4442E1,-3.3011228E-2,9.0695016E-2,8.92896E2,3.9094556E-2,1.54E-1,4.9951E1,-3.14E-1,8.31E-1,5.4885E1,9.135816E-2,2.0563E1,9.6E-1,-3.28633E-2,3.81E-1,3.5116E1,4.3637E1,9.161329E-2,-3.85E-1,-3.303855E-2,-4.737E0,8.98E-1,-3.296862E-2,1.10691E2,1.195E0,5.2E-1,5.988E1,-6.379E0,2.43E-1,4.553328E-2,9.81E-1,-3.0958125E-2,9.17645E-2,-2.82021E-2,8.926095E-2,7.084482E-2,-1.9002816E-2,9.241624E-2,-3.212526E-2,9.4337486E-2,-3.303274E-2,-3.2030497E-2,7.559154E-2,-3.0548409E-2,8.125039E-2,8.759559E-2,4.3577097E-2,-3.0452508E-2,7.774076E-2,-1.889822E-2,8.115991E-2,9.482566E-2,-3.074078E-2,-2.4368184E-2,8.237973E-3],"split_indices":[38,38,38,0,1,18,38,38,38,0,0,6,0,38,7,38,10,0,0,0,0,37,38,32,18,28,0,11,35,0,36,38,19,0,11,0,0,3,0,27,3,31,28,31,3,0,37,0,0,0,0,0,0,0,0,0,0,0,0,0,0,0,0,0,0,0,0,0,0,0,0],"split_type":[0,0,0,0,0,0,0,0,0,0,0,0,0,0,0,0,0,0,0,0,0,0,0,0,0,0,0,0,0,0,0,0,0,0,0,0,0,0,0,0,0,0,0,0,0,0,0,0,0,0,0,0,0,0,0,0,0,0,0,0,0,0,0,0,0,0,0,0,0,0,0],"sum_hessian":[1.962809E4,6.0745854E3,1.3553505E4,4.562554E2,5.61833E3,2.6096733E3,1.0943831E4,1.5529729E3,4.0653572E3,1.8144354E3,7.95238E2,8.385168E1,1.08599795E4,1.0142661E3,5.3870685E2,2.0947104E3,1.9706467E3,1.798958E3,1.5477414E1,8.19191E1,1.9325802E0,3.6380002E2,6.5046606E2,1.607688E2,3.7793805E2,6.855408E1,2.0261564E3,1.4948225E3,4.758242E2,7.188975E1,1.0029348E1,8.677873E1,2.770213E2,6.316637E2,1.8802408E1,7.4528175E1,8.624062E1,7.169841E1,3.0623965E2,4.3845825E1,2.4708256E1,1.4488158E3,4.600678E1,3.4459924E2,1.3122493E2,1.1425154E0,8.886833E0,4.0314007E0,8.274733E1,2.7308554E2,3.9357603E0,1.1322117E1,7.480292E0,7.843998E1,7.8006406E0,4.185973E0,6.7512436E1,8.448264E0,3.539756E1,2.3523531E1,1.1847243E0,1.2850205E3,1.6379526E2,3.940879E1,6.5979886E0,4.261371E1,3.0198553E2,3.0067575E0,1.2821817E2,6.626362E0,2.260471E0],"tree_param":{"num_deleted":"0","num_feature":"39","num_nodes":"71","size_leaf_vector":"1"}},{"base_weights":[-4.990673E-1,1.3229179E0,-3.1010851E-2,1.9084415E0,3.6286303E-1,2.0363364E0,-4.0801582E-1,1.7731262E0,-3.0979088E-2,2.1070523E0,1.1374559E0,1.8136333E0,-3.0751452E-2,1.099584E-1,1.0036106E0,4.784059E-1,2.135687E0,1.6626602E0,-5.1328075E-1,5.425283E-2,1.0586276E-1,-3.0452022E-2,1.4890873E0,1.06159404E-1,-2.9651647E-2,2.1466029E0,5.8804E-1,1.8788931E0,-2.8702546E-2,-3.016136E-2,3.2801905E-3,1.7815939E0,-2.96428E-2,1.09542064E-1,9.6242175E-2,8.122186E-2,-2.6918236E-2,5.3165425E-2,1.0946715E-1,1.0447582E-1,-2.9279713E-2],"categories":[],"categories_nodes":[],"categories_segments":[],"categories_sizes":[],"default_left":[0,0,0,0,0,0,0,0,0,0,0,0,0,0,0,0,0,0,0,0,0,0,0,0,0,0,0,0,0,0,0,0,0,0,0,0,0,0,0,0,0],"id":7,"left_children":[1,3,-1,5,7,9,11,13,-1,15,17,19,-1,-1,21,23,25,27,29,-1,-1,-1,31,-1,-1,33,35,37,-1,-1,-1,39,-1,-1,-1,-1,-1,-1,-1,-1,-1],"loss_changes":[3.6427368E3,5.780803E2,0E0,1.8956421E2,5.4053345E2,3.7933594E1,1.5388424E1,5.1976654E1,0E0,2.5810791E1,3.8773685E1,7.7768326E-2,0E0,0E0,4.5079784E1,1.7701965E1,8.916748E0,1.6596634E1,6.18469E-1,0E0,0E0,0E0,2.711605E1,0E0,0E0,4.5375977E0,4.9405923E0,7.26709E0,0E0,0E0,0E0,2.8543892E1,0E0,0E0,0E0,0E0,0E0,0E0,0E0,0E0,0E0],"parents":[2147483647,0,0,1,1,3,3,4,4,5,5,6,6,7,7,9,9,10,10,11,11,14,14,15,15,16,16,17,17,18,18,22,22,25,25,26,26,27,27,31,31],"right_children":[2,4,-1,6,8,10,12,14,-1,16,18,20,-1,-1,22,24,26,28,30,-1,-1,-1,32,-1,-1,34,36,38,-1,-1,-1,40,-1,-1,-1,-1,-1,-1,-1,-1,-1],"split_conditions":[4.005E1,9.73E-1,-3.1010851E-2,1.3679E1,3.5116E1,6.6064E1,3.5116E1,3.4504E1,-3.0979088E-2,9.6E-2,1.408E1,-3.566E0,-3.0751452E-2,1.099584E-1,5.1256E1,3.4504E1,4.2978E1,3.9822E1,9.7737E1,5.425283E-2,1.0586276E-1,-3.0452022E-2,-9.962E0,1.06159404E-1,-2.9651647E-2,6.37E-1,-1.503E1,-1.909E0,-2.8702546E-2,-3.016136E-2,3.2801905E-3,7.867E0,-2.96428E-2,1.09542064E-1,9.6242175E-2,8.122186E-2,-2.6918236E-2,5.3165425E-2,1.0946715E-1,1.0447582E-1,-2.9279713E-2],"split_indices":[38,35,0,20,38,0,38,38,0,37,11,11,0,0,28,38,19,38,0,0,0,0,13,0,0,36,11,8,0,0,0,12,0,0,0,0,0,0,0,0,0],"split_type":[0,0,0,0,0,0,0,0,0,0,0,0,0,0,0,0,0,0,0,0,0,0,0,0,0,0,0,0,0,0,0,0,0,0,0,0,0,0,0,0,0],"sum_hessian":[1.6502754E4,1.0287932E3,1.5473961E4,6.389213E2,3.8987183E2,6.055437E2,3.3377666E1,1.6008995E2,2.2978189E2,5.611517E2,4.4392E1,2.7377033E0,3.0639963E1,1.0283802E2,5.725193E1,9.786626E0,5.5136505E2,3.372256E1,1.06694355E1,1.0367138E0,1.7009895E0,1.3193727E1,4.4058205E1,3.8585212E0,5.928105E0,5.474009E2,3.9641771E0,3.0805193E1,2.9173694E0,9.380453E0,1.2889831E0,3.8685474E1,5.3727303E0,4.5524576E2,9.215512E1,2.0877845E0,1.8763924E0,8.703858E0,2.2101334E1,3.4280285E1,4.405186E0],"tree_param":{"num_deleted":"0","num_feature":"39","num_nodes":"41","size_leaf_vector":"1"}},{"base_weights":[2.8556678E-2,-6.132217E-1,6.8534225E-1,-6.4472127E-1,-3.5309434E-2,1.027041E0,-3.5812098E-1,-6.468773E-1,-1.0664032E-1,-4.8340738E-1,7.437775E-1,1.5859756E0,-7.105506E-2,-4.6513066E-1,1.5645291E0,-3.261081E-2,-5.4509366E-1,-3.23445E-2,1.4614888E0,-5.8385444E-1,3.4284815E-1,1.3607012E0,-4.561139E-1,4.6523106E-1,1.636915E0,-2.9617107E-1,7.821155E-1,-2.2919028E-1,-6.404893E-1,1.6766423E0,-3.132152E-2,8.865476E-1,-6.0987186E-1,8.4169006E-1,8.652943E-2,-6.38878E-1,-2.1240644E-1,8.665461E-2,-3.2164246E-2,-3.1411894E-2,1.4360944E0,-5.9964234E-1,1.5495594E-1,1.6663795E0,-3.5282217E-2,1.273412E0,1.6448262E0,-5.9893906E-1,1.8476038E-1,4.0542713E-1,1.423752E0,-4.349461E-1,3.9280644E-1,-6.5011436E-1,7.98333E-3,3.8484838E-2,8.422748E-2,-3.1681787E-2,8.693793E-2,-4.0684813E-1,-6.503876E-1,8.355024E-2,-0E0,-1.668234E-1,-3.2519046E-2,-3.6421806E-1,1.1631156E0,-3.0595705E-2,1.5070096E0,-2.4563733E-1,-3.2728795E-2,-3.187337E-2,1.2690797E0,-3.7076572E-1,9.0023465E-2,1.1728692E0,-2.645691E-1,1.4860194E0,2.3835188E-1,-2.6851846E-2,1.6454071E0,-6.221222E-1,1.3687606E0,-1.8925268E-2,1.7404014E0,1.7039323E0,-2.0253116E-1,8.407413E-1,8.504597E-2,-5.504614E-1,4.8159745E-1,-6.497434E-1,1.2910767E0,-5.41506E-1,-3.2647304E-2,8.0268495E-2,-3.900857E-1,8.535128E-2,-2.5862643E-2,-3.26515E-2,-0E0,-3.1469073E-2,8.692515E-2,-2.7258515E-2,2.0772718E-2,4.191855E-3,8.0423735E-2,4.473841E-2,8.262449E-2,8.18948E-2,-3.2300364E-2,9.152617E-2,-0E0,4.2807814E-3,-3.0285856E-2,-3.1876523E-2,8.704353E-2,-1.7629584E-2,7.475023E-2,8.673202E-2,4.3585733E-2,-2.5021633E-2,8.736504E-2,7.826122E-2,8.2985036E-2,-3.1228542E-2,7.776715E-2,-2.8671164E-2,8.372646E-2,1.9659681E-2,-3.0083576E-2,8.751011E-2,4.3021884E-2,5.6913055E-2,8.7463394E-2,6.0818404E-2,-1.5913656E-2,5.9915073E-2,-1.6679784E-2,7.696622E-2,-2.8705433E-2,-2.3277134E-2,6.117584E-2,3.9528743E-3,-3.2922428E-2,-3.0584631E-2,8.2664564E-2,-3.9998308E-4,-3.2741085E-2,-3.24416E-2,8.617362E-2],"categories":[],"categories_nodes":[],"categories_segments":[],"categories_sizes":[],"default_left":[0,0,0,0,0,0,0,0,0,0,0,0,0,0,0,0,0,0,0,0,0,0,0,0,0,0,0,0,0,0,0,0,0,0,0,0,0,0,0,0,0,0,0,0,0,0,0,0,0,0,0,0,0,0,0,0,0,0,0,0,0,0,0,0,0,0,0,0,0,0,0,0,0,0,0,0,0,0,0,0,0,0,0,0,0,0,0,0,0,0,0,0,0,0,0,0,0,0,0,0,0,0,0,0,0,0,0,0,0,0,0,0,0,0,0,0,0,0,0,0,0,0,0,0,0,0,0,0,0,0,0,0,0,0,0,0,0,0,0,0,0,0,0,0,0,0,0,0,0,0,0],"id":8,"left_children":[1,3,5,7,9,11,13,15,17,19,21,23,25,27,29,-1,31,-1,33,35,37,39,41,43,45,47,49,51,53,55,-1,57,59,61,-1,63,65,-1,-1,-1,67,69,71,73,75,77,79,81,83,85,87,89,91,93,95,-1,-1,-1,-1,97,99,-1,-1,101,-1,103,105,-1,107,109,-1,-1,111,113,-1,115,117,119,121,-1,123,125,127,129,131,133,135,137,-1,139,141,143,145,147,-1,-1,149,-1,-1,-1,-1,-1,-1,-1,-1,-1,-1,-1,-1,-1,-1,-1,-1,-1,-1,-1,-1,-1,-1,-1,-1,-1,-1,-1,-1,-1,-1,-1,-1,-1,-1,-1,-1,-1,-1,-1,-1,-1,-1,-1,-1,-1,-1,-1,-1,-1,-1,-1,-1,-1,-1],"loss_changes":[8.311595E3,1.8148071E2,3.4748306E3,1.0889648E1,1.800677E2,4.5060903E3,4.945773E2,4.963867E0,3.224777E1,2.7231598E1,1.395299E2,2.774668E2,4.7559637E2,9.412509E1,3.1337555E1,0E0,4.3706985E1,0E0,1.2204571E0,5.873764E0,4.8837814E1,1.8829788E1,5.6629925E0,1.27464935E2,1.2879883E1,2.8538477E2,1.2470123E2,1.2433888E2,8.217102E0,4.8995972E-1,0E0,2.660149E1,3.57547E0,2.3950763E0,0E0,1.2878952E0,7.915678E0,0E0,0E0,0E0,1.760498E1,9.0403175E-1,1.0836802E1,1.7238632E1,4.1353527E1,2.1761795E1,5.970703E0,5.487317E1,2.4003593E2,2.5750504E2,3.0480011E1,7.73322E1,2.2620868E2,2.4108887E-1,1.2297416E1,0E0,0E0,0E0,0E0,1.7627907E1,6.6778564E-1,0E0,0E0,5.6292605E0,0E0,4.8948674E0,1.6169124E0,0E0,9.931824E0,5.57367E0,0E0,0E0,3.7343225E0,4.739722E-1,0E0,2.469057E1,1.9423248E1,1.2222336E1,1.9399174E1,0E0,4.635742E0,6.342346E0,8.511652E0,1.6080566E2,3.4466553E-1,2.1794128E0,3.6414764E1,2.6111534E1,0E0,3.20403E1,5.752519E1,7.7204895E-1,8.963246E1,2.0001802E0,0E0,0E0,8.360625E0,0E0,0E0,0E0,0E0,0E0,0E0,0E0,0E0,0E0,0E0,0E0,0E0,0E0,0E0,0E0,0E0,0E0,0E0,0E0,0E0,0E0,0E0,0E0,0E0,0E0,0E0,0E0,0E0,0E0,0E0,0E0,0E0,0E0,0E0,0E0,0E0,0E0,0E0,0E0,0E0,0E0,0E0,0E0,0E0,0E0,0E0,0E0,0E0,0E0,0E0,0E0,0E0,0E0,0E0],"parents":[2147483647,0,0,1,1,2,2,3,3,4,4,5,5,6,6,7,7,8,8,9,9,10,10,11,11,12,12,13,13,14,14,16,16,18,18,19,19,20,20,21,21,22,22,23,23,24,24,25,25,26,26,27,27,28,28,29,29,31,31,32,32,33,33,35,35,36,36,40,40,41,41,42,42,43,43,44,44,45,45,46,46,47,47,48,48,49,49,50,50,51,51,52,52,53,53,54,54,59,59,60,60,63,63,65,65,66,66,68,68,69,69,72,72,73,73,75,75,76,76,77,77,78,78,80,80,81,81,82,82,83,83,84,84,85,85,86,86,87,87,89,89,90,90,91,91,92,92,93,93,96,96],"right_children":[2,4,6,8,10,12,14,16,18,20,22,24,26,28,30,-1,32,-1,34,36,38,40,42,44,46,48,50,52,54,56,-1,58,60,62,-1,64,66,-1,-1,-1,68,70,72,74,76,78,80,82,84,86,88,90,92,94,96,-1,-1,-1,-1,98,100,-1,-1,102,-1,104,106,-1,108,110,-1,-1,112,114,-1,116,118,120,122,-1,124,126,128,130,132,134,136,138,-1,140,142,144,146,148,-1,-1,150,-1,-1,-1,-1,-1,-1,-1,-1,-1,-1,-1,-1,-1,-1,-1,-1,-1,-1,-1,-1,-1,-1,-1,-1,-1,-1,-1,-1,-1,-1,-1,-1,-1,-1,-1,-1,-1,-1,-1,-1,-1,-1,-1,-1,-1,-1,-1,-1,-1,-1,-1,-1,-1,-1],"split_conditions":[9.92E-1,2.5032E1,2.0847E1,8.0451E1,7.6776E1,5.2632E1,3.467E3,2.5E-1,7.6364E1,3.96E-1,5.511E1,8.8141E1,5.53E-1,3.1959E1,2.9689E1,-3.261081E-2,-4.9821E1,-3.23445E-2,-1.1062E1,6.8681E1,9.809E0,9.3E-1,9.21E-1,9.576E0,8.9926E1,5.2E-1,5.2E-1,8.8374E1,3.095E3,1.046E0,-3.132152E-2,-3.85E-1,1.2506E1,-1.2177E1,8.652943E-2,-4.6727E1,3.467E3,8.665461E-2,-3.2164246E-2,-3.1411894E-2,7E-2,1.1397E1,1.2E0,-3.85E-1,2.1174E1,3.8174E1,7E-2,1.0661E1,2.505E3,0E0,5.95E-1,5.95E-1,4.977E0,3.2974E1,2.0563E1,3.8484838E-2,8.422748E-2,-3.1681787E-2,8.693793E-2,-4.4109E1,8.2698E1,8.355024E-2,-0E0,2.3323E1,-3.2519046E-2,7.3242E1,6.0505E1,-3.0595705E-2,1.066E0,7.5826E1,-3.2728795E-2,-3.187337E-2,1.5E0,1.994E0,9.0023465E-2,9.0119E1,5.28E-1,2.69E2,1.853E0,-2.6851846E-2,8.6E-2,4.0588E1,3.5522E1,9.99E0,5.19E-1,5.4555E1,1.0277E1,9E0,8.504597E-2,-3.9442E1,4.216E0,3.5E-2,-0E0,1.7E1,-3.2647304E-2,8.0268495E-2,3.7471E1,8.535128E-2,-2.5862643E-2,-3.26515E-2,-0E0,-3.1469073E-2,8.692515E-2,-2.7258515E-2,2.0772718E-2,4.191855E-3,8.0423735E-2,4.473841E-2,8.262449E-2,8.18948E-2,-3.2300364E-2,9.152617E-2,-0E0,4.2807814E-3,-3.0285856E-2,-3.1876523E-2,8.704353E-2,-1.7629584E-2,7.475023E-2,8.673202E-2,4.3585733E-2,-2.5021633E-2,8.736504E-2,7.826122E-2,8.2985036E-2,-3.1228542E-2,7.776715E-2,-2.8671164E-2,8.372646E-2,1.9659681E-2,-3.0083576E-2,8.751011E-2,4.3021884E-2,5.6913055E-2,8.7463394E-2,6.0818404E-2,-1.5913656E-2,5.9915073E-2,-1.6679784E-2,7.696622E-2,-2.8705433E-2,-2.3277134E-2,6.117584E-2,3.9528743E-3,-3.2922428E-2,-3.0584631E-2,8.2664564E-2,-3.9998308E-4,-3.2741085E-2,-3.24416E-2,8.617362E-2],"split_indices":[8,20,7,28,19,17,14,8,19,30,2,19,36,7,17,0,2,0,0,28,1,3,8,7,19,31,31,0,14,8,0,11,7,0,0,0,14,0,0,0,17,7,9,11,17,1,17,8,14,31,36,36,10,7,11,0,0,0,0,2,19,0,0,1,0,19,0,0,6,2,0,0,9,0,0,27,36,14,5,0,36,30,0,7,36,28,7,14,0,0,9,12,11,14,0,0,20,0,0,0,0,0,0,0,0,0,0,0,0,0,0,0,0,0,0,0,0,0,0,0,0,0,0,0,0,0,0,0,0,0,0,0,0,0,0,0,0,0,0,0,0,0,0,0,0,0,0,0,0,0,0],"split_type":[0,0,0,0,0,0,0,0,0,0,0,0,0,0,0,0,0,0,0,0,0,0,0,0,0,0,0,0,0,0,0,0,0,0,0,0,0,0,0,0,0,0,0,0,0,0,0,0,0,0,0,0,0,0,0,0,0,0,0,0,0,0,0,0,0,0,0,0,0,0,0,0,0,0,0,0,0,0,0,0,0,0,0,0,0,0,0,0,0,0,0,0,0,0,0,0,0,0,0,0,0,0,0,0,0,0,0,0,0,0,0,0,0,0,0,0,0,0,0,0,0,0,0,0,0,0,0,0,0,0,0,0,0,0,0,0,0,0,0,0,0,0,0,0,0,0,0,0,0,0,0],"sum_hessian":[1.9718363E4,9.973049E3,9.745315E3,9.457383E3,5.156664E2,7.3413657E3,2.4039497E3,9.419433E3,3.7949345E1,3.2748E2,1.8818639E2,4.865073E3,2.4762925E3,2.2773274E3,1.2662231E2,8.948528E3,4.7090482E2,2.831635E1,9.632993E0,2.921179E2,3.536212E1,1.2433138E2,6.3855E1,2.1163972E2,4.653433E3,1.9594565E3,5.1683606E2,9.712871E2,1.3060404E3,1.205241E2,6.098201E0,2.0263153E1,4.5064166E2,3.1536956E0,6.479297E0,2.5413152E2,3.7986374E1,1.4684984E1,2.0677135E1,4.4655824E0,1.198658E2,5.1843487E1,1.2011513E1,6.224028E1,1.4939944E2,9.973419E1,4.553699E3,1.2025687E3,7.568879E2,3.258543E2,1.9098174E2,7.299961E2,2.4129105E2,1.2870905E3,1.8949905E1,1.2360226E0,1.1928808E2,7.2459865E0,1.3017167E1,7.556401E1,3.7507764E2,1.5832735E0,1.570422E0,6.2889714E0,2.4784254E2,3.4342346E1,3.644025E0,3.9388962E0,1.159269E2,7.282276E0,4.456121E1,6.991685E0,5.0198274E0,3.7868404E0,5.845344E1,2.3695606E1,1.25703835E2,8.262281E1,1.7111383E1,1.1415942E0,4.5525576E3,1.188683E3,1.3885682E1,6.6928986E2,8.759801E1,1.0390769E2,2.2194661E2,6.1784546E1,1.2919719E2,6.484221E2,8.157396E1,1.1163808E2,1.2965297E2,3.409069E1,1.2529998E3,3.769886E0,1.5180018E1,3.6339693E0,7.1930046E1,3.7361356E2,1.4640753E0,5.15656E0,1.1324117E0,2.8001812E1,6.340535E0,1.1647484E0,2.4792767E0,2.252686E1,9.340005E1,1.1786191E0,6.1036572E0,3.4752862E0,1.5445411E0,1.1639217E0,2.6229188E0,5.6139326E0,1.8081675E1,1.1984537E2,5.858465E0,5.85723E1,2.405051E1,1.1487596E1,5.623787E0,6.915022E2,3.8610554E3,1.187465E3,1.218085E0,1.8323517E0,1.205333E1,3.9195776E2,2.773321E2,8.642293E1,1.1750841E0,8.067111E0,9.584058E1,1.660223E1,2.0534438E2,4.7427124E1,1.435742E1,7.136172E0,6.4128595E2,3.578852E1,4.578544E1,1.1725957E0,1.1046548E2,2.0678846E1,1.0897413E2,6.145651E0,2.7945042E1,1.3628236E1,1.5517828E0],"tree_param":{"num_deleted":"0","num_feature":"39","num_nodes":"151","size_leaf_vector":"1"}},{"base_weights":[3.1028822E-1,6.2097037E-1,-6.920813E-1,-3.6986378E-1,1.2239742E0,7.096103E-2,-7.002999E-1,-3.4932666E-2,6.1243568E-2,8.962819E-1,1.3543065E0,-3.5752367E-2,-3.485627E-2,1.1802763E0,-2.8604254E-1,-3.49711E-2,1.4847875E0,5.71181E-1,1.4222432E0,4.4051915E-1,1.4013803E0,-4.641475E-1,2.5045988E-1,1.5038087E0,-3.448397E-2,9.0808976E-1,-3.6420442E-2,7.9018235E-1,1.439517E0,7.8222595E-2,-6.0892767E-1,2.5044915E-1,1.4565574E0,-5.281097E-1,1.3016614E0,-2.3804003E-1,1.4622687E0,7.42425E-2,1.5313035E0,-6.509421E-1,1.1297452E0,7.2271906E-2,-6.2158215E-1,1.4443327E0,1.0318906E0,-3.5441823E-2,7.4527755E-2,-1.3311158E-2,6.47472E-2,5.6710828E-2,7.373945E-2,-3.1389624E-2,1.2708688E-2,7.543077E-2,-3.324424E-2,6.0722318E-2,-2.4080662E-2,-3.4035128E-2,7.5930685E-2,7.153296E-2,7.7160604E-2,7.27012E-2,-3.5023525E-2,2.5402188E-2,7.098251E-2,-3.517663E-2,6.646339E-2,6.372354E-2,7.277791E-2,4.3212336E-2,6.888182E-2],"categories":[],"categories_nodes":[],"categories_segments":[],"categories_sizes":[],"default_left":[0,0,0,0,0,0,0,0,0,0,0,0,0,0,0,0,0,0,0,0,0,0,0,0,0,0,0,0,0,0,0,0,0,0,0,0,0,0,0,0,0,0,0,0,0,0,0,0,0,0,0,0,0,0,0,0,0,0,0,0,0,0,0,0,0,0,0,0,0,0,0],"id":9,"left_children":[1,3,5,7,9,-1,11,-1,13,15,17,-1,-1,19,21,-1,23,25,27,29,31,33,35,37,-1,39,-1,41,43,-1,45,47,49,51,53,55,57,-1,59,61,63,-1,65,67,69,-1,-1,-1,-1,-1,-1,-1,-1,-1,-1,-1,-1,-1,-1,-1,-1,-1,-1,-1,-1,-1,-1,-1,-1,-1,-1],"loss_changes":[6.9830796E3,1.0227666E4,9.2089355E1,9.180413E2,4.5414746E2,0E0,5.6396484E-2,0E0,1.0890887E3,2.844313E3,4.0476172E2,0E0,0E0,1.0831818E2,2.0437065E2,0E0,9.170508E1,2.6629767E2,7.614844E1,1.8063681E2,3.2235046E1,1.8134222E2,3.15619E2,6.142578E-1,0E0,1.6701147E2,0E0,1.7291052E2,1.2988281E1,0E0,1.662754E1,1.2859587E1,2.4360352E0,1.2089557E2,2.3017395E1,1.3436288E2,1.8682556E1,0E0,5.4833984E-1,6.2946587E0,7.596008E1,0E0,9.497999E0,1.2389648E1,4.30571E0,0E0,0E0,0E0,0E0,0E0,0E0,0E0,0E0,0E0,0E0,0E0,0E0,0E0,0E0,0E0,0E0,0E0,0E0,0E0,0E0,0E0,0E0,0E0,0E0,0E0,0E0],"parents":[2147483647,0,0,1,1,2,2,3,3,4,4,6,6,8,8,9,9,10,10,13,13,14,14,16,16,17,17,18,18,19,19,20,20,21,21,22,22,23,23,25,25,27,27,28,28,30,30,31,31,32,32,33,33,34,34,35,35,36,36,38,38,39,39,40,40,42,42,43,43,44,44],"right_children":[2,4,6,8,10,-1,12,-1,14,16,18,-1,-1,20,22,-1,24,26,28,30,32,34,36,38,-1,40,-1,42,44,-1,46,48,50,52,54,56,58,-1,60,62,64,-1,66,68,70,-1,-1,-1,-1,-1,-1,-1,-1,-1,-1,-1,-1,-1,-1,-1,-1,-1,-1,-1,-1,-1,-1,-1,-1,-1,-1],"split_conditions":[7.003E1,5.5054E1,9.51E-1,4.9951E1,5.998E1,7.096103E-2,7.1486E1,-3.4932666E-2,-1.4931E1,9.51E-1,1.21E-1,-3.5752367E-2,-3.485627E-2,1.2095E1,2.4442E1,-3.49711E-2,2.07853E2,9.03E-1,-1.0109E1,-3.14E-1,5.02E1,2.0563E1,9.6E-1,5.48E-1,-3.448397E-2,9.6E-2,-3.6420442E-2,6.4984E1,6.9896E1,7.8222595E-2,6.2617E1,9.6E-1,1.2361E1,5.2E-1,7.5E-1,-6.379E0,2.43E-1,7.42425E-2,5.375E0,6.4827E1,-4.1619E1,7.2271906E-2,4.395E1,-3.45E-1,3.001E0,-3.5441823E-2,7.4527755E-2,-1.3311158E-2,6.47472E-2,5.6710828E-2,7.373945E-2,-3.1389624E-2,1.2708688E-2,7.543077E-2,-3.324424E-2,6.0722318E-2,-2.4080662E-2,-3.4035128E-2,7.5930685E-2,7.153296E-2,7.7160604E-2,7.27012E-2,-3.5023525E-2,2.5402188E-2,7.098251E-2,-3.517663E-2,6.646339E-2,6.372354E-2,7.277791E-2,4.3212336E-2,6.888182E-2],"split_indices":[38,38,17,38,38,0,38,0,1,17,37,0,0,7,10,0,1,32,32,32,38,11,35,36,0,37,0,38,38,0,28,3,7,31,1,31,3,0,7,38,2,0,1,31,12,0,0,0,0,0,0,0,0,0,0,0,0,0,0,0,0,0,0,0,0,0,0,0,0,0,0],"split_type":[0,0,0,0,0,0,0,0,0,0,0,0,0,0,0,0,0,0,0,0,0,0,0,0,0,0,0,0,0,0,0,0,0,0,0,0,0,0,0,0,0,0,0,0,0,0,0,0,0,0,0,0,0,0,0,0,0,0,0,0,0,0,0,0,0,0,0,0,0,0,0],"sum_hessian":[2.2423254E4,1.7117775E4,5.3054785E3,6.476197E3,1.0641579E4,2.045863E1,5.2850195E3,3.6741948E3,2.8020017E3,3.0285332E3,7.6130464E3,9.2656525E2,4.3584546E3,6.6364355E2,2.1383582E3,8.1594635E2,2.212587E3,6.079111E2,7.0051353E3,1.5288416E2,5.1075937E2,1.6055553E3,5.32803E2,2.193476E3,1.9110743E1,4.8284442E2,1.25066666E2,1.8663058E2,6.8185044E3,7.3844574E1,7.903958E1,2.347448E1,4.872849E2,1.5495531E3,5.600215E1,3.7972675E2,1.5307622E2,1.3036766E3,8.8979956E2,6.0022987E1,4.2282144E2,1.275145E2,5.9116085E1,6.7383975E3,8.010689E1,7.555785E1,3.481728E0,1.5691337E1,7.783143E0,2.6717268E1,4.6056763E2,1.3745483E3,1.7500475E2,5.0736874E1,5.2652783E0,5.4416832E1,3.253099E2,3.847857E0,1.4922836E2,9.631432E1,7.934852E2,1.2682301E0,5.8754757E1,1.3466101E2,2.8816043E2,5.684343E1,2.2726564E0,4.1897125E2,6.3194263E3,5.4378986E1,2.5727901E1],"tree_param":{"num_deleted":"0","num_feature":"39","num_nodes":"71","size_leaf_vector":"1"}},{"base_weights":[1.617104E-2,1.1131241E0,-5.0196105E-1,3.8279912E-1,1.4444945E0,1.0433294E-1,-6.5040326E-1,-3.021141E-1,7.912664E-1,-1.403804E-1,1.506413E0,8.400524E-2,-6.332733E-1,-5.7820135E-1,-3.254674E-2,-4.8986053E-1,1.0380719E0,8.434983E-2,-2.573349E-1,-3.2499533E-2,5.4694444E-1,8.398432E-2,1.3249449E0,-3.276062E-2,8.314274E-2,-6.3715595E-1,-1.8419808E-1,1.5878859E0,-5.642643E-1,-3.2260425E-2,8.323451E-2,5.8196795E-1,-5.455352E-1,-1.535545E-1,1.2059332E0,1.4876213E0,7.966291E-1,-4.1766983E-1,-3.255195E-2,5.608504E-2,-4.2553756E-1,3.721892E-2,8.307617E-2,-5.9648675E-1,6.0574602E-2,-6.407807E-1,1.45848E0,7.3647934E-1,-6.0370404E-1,-5.4221594E-1,8.224564E-2,1.6479516E0,-4.9928108E-1,1.5402391E0,-2.3046009E-1,1.2887772E0,-5.569538E-1,-3.0529475E-2,-0E0,-9.7458504E-2,-3.130941E-2,-3.1852495E-2,-7.356272E-3,-3.2223567E-2,8.9208744E-2,-0E0,-3.2849535E-2,8.462449E-2,-2.6462302E-2,-1.6955864E-2,6.672466E-2,-1.613777E-2,-3.202285E-2,-3.2377288E-2,1.6060605E-3,8.395551E-2,5.068754E-2,-3.1545762E-2,7.6092854E-3,8.152154E-2,4.072089E-2,-2.5442783E-2,8.2954384E-2,-1.5154302E-2,7.459315E-2,8.783422E-2,-3.0511875E-2,2.7340105E-2,-2.9410666E-2],"categories":[],"categories_nodes":[],"categories_segments":[],"categories_sizes":[],"default_left":[0,0,0,0,0,0,0,0,0,0,0,0,0,0,0,0,0,0,0,0,0,0,0,0,0,0,0,0,0,0,0,0,0,0,0,0,0,0,0,0,0,0,0,0,0,0,0,0,0,0,0,0,0,0,0,0,0,0,0,0,0,0,0,0,0,0,0,0,0,0,0,0,0,0,0,0,0,0,0,0,0,0,0,0,0,0,0,0,0],"id":10,"left_children":[1,3,5,7,9,11,13,15,17,19,21,-1,23,25,-1,27,29,-1,31,-1,33,-1,35,-1,-1,37,39,41,43,-1,-1,45,47,49,51,53,55,57,-1,-1,59,-1,-1,61,63,65,67,69,71,73,-1,75,77,79,81,83,85,-1,-1,87,-1,-1,-1,-1,-1,-1,-1,-1,-1,-1,-1,-1,-1,-1,-1,-1,-1,-1,-1,-1,-1,-1,-1,-1,-1,-1,-1,-1,-1],"loss_changes":[1.11175625E4,1.5184116E3,1.1957273E3,5.480789E2,4.2375E2,3.03719E3,2.4951172E-1,1.8411728E2,1.1528076E3,5.6904305E1,1.3010059E2,0E0,8.966705E1,1.7703133E0,0E0,9.923161E1,9.5014755E1,0E0,1.3678404E2,0E0,3.2014458E1,0E0,1.741128E2,0E0,0E0,7.7861786E-2,3.3840988E0,1.0130424E0,1.25381775E1,0E0,0E0,1.5501541E2,3.1426315E1,2.3397024E1,2.7091682E1,1.4044751E2,3.187372E2,4.2113948E-1,0E0,0E0,5.3100836E-1,0E0,0E0,1.0660294E1,3.7097042E1,6.169338E-1,3.9384903E1,1.187923E1,4.042755E0,1.7375116E0,0E0,1.2182617E-1,6.899557E-1,9.819141E1,2.4242142E1,1.1357648E2,1.5715176E1,0E0,0E0,1.2444371E0,0E0,0E0,0E0,0E0,0E0,0E0,0E0,0E0,0E0,0E0,0E0,0E0,0E0,0E0,0E0,0E0,0E0,0E0,0E0,0E0,0E0,0E0,0E0,0E0,0E0,0E0,0E0,0E0,0E0],"parents":[2147483647,0,0,1,1,2,2,3,3,4,4,5,5,6,6,7,7,8,8,9,9,10,10,12,12,13,13,15,15,16,16,18,18,20,20,22,22,25,25,26,26,27,27,28,28,31,31,32,32,33,33,34,34,35,35,36,36,37,37,40,40,43,43,44,44,45,45,46,46,47,47,48,48,49,49,51,51,52,52,53,53,54,54,55,55,56,56,59,59],"right_children":[2,4,6,8,10,12,14,16,18,20,22,-1,24,26,-1,28,30,-1,32,-1,34,-1,36,-1,-1,38,40,42,44,-1,-1,46,48,50,52,54,56,58,-1,-1,60,-1,-1,62,64,66,68,70,72,74,-1,76,78,80,82,84,86,-1,-1,88,-1,-1,-1,-1,-1,-1,-1,-1,-1,-1,-1,-1,-1,-1,-1,-1,-1,-1,-1,-1,-1,-1,-1,-1,-1,-1,-1,-1,-1],"split_conditions":[5.5054E1,-1.4931E1,5.998E1,4.005E1,3.5116E1,9.51E-1,6.0202E1,9.73E-1,4.9951E1,3.4504E1,4.9951E1,8.400524E-2,1.05494E2,2.576E0,-3.254674E-2,1.671E1,3.5116E1,8.434983E-2,1.2095E1,-3.2499533E-2,3.41E2,8.398432E-2,2.4442E1,-3.276062E-2,8.314274E-2,5.7E-2,3.75E-1,-4.4109E1,3.36E3,-3.2260425E-2,8.323451E-2,0E0,5.02E1,6.884E0,2.515E1,2.0563E1,9.6E-1,1.7585E1,-3.255195E-2,5.608504E-2,8.8452E1,3.721892E-2,8.307617E-2,3.9822E1,3.4504E1,4.235E0,5.3452E1,1.905E0,1.2814E1,3.0695E1,8.224564E-2,5.13E-1,6.4E-2,5.2E-1,7.37E-1,-6.379E0,2.43E-1,-3.0529475E-2,-0E0,8.968E0,-3.130941E-2,-3.1852495E-2,-7.356272E-3,-3.2223567E-2,8.9208744E-2,-0E0,-3.2849535E-2,8.462449E-2,-2.6462302E-2,-1.6955864E-2,6.672466E-2,-1.613777E-2,-3.202285E-2,-3.2377288E-2,1.6060605E-3,8.395551E-2,5.068754E-2,-3.1545762E-2,7.6092854E-3,8.152154E-2,4.072089E-2,-2.5442783E-2,8.2954384E-2,-1.5154302E-2,7.459315E-2,8.783422E-2,-3.0511875E-2,2.7340105E-2,-2.9410666E-2],"split_indices":[38,1,38,38,38,17,38,35,38,38,38,0,0,3,0,7,38,0,7,0,14,0,10,0,0,17,36,2,14,0,0,30,38,15,10,11,35,9,0,0,7,0,0,38,38,20,38,33,7,7,0,37,23,31,0,31,3,0,0,33,0,0,0,0,0,0,0,0,0,0,0,0,0,0,0,0,0,0,0,0,0,0,0,0,0,0,0,0,0],"split_type":[0,0,0,0,0,0,0,0,0,0,0,0,0,0,0,0,0,0,0,0,0,0,0,0,0,0,0,0,0,0,0,0,0,0,0,0,0,0,0,0,0,0,0,0,0,0,0,0,0,0,0,0,0,0,0,0,0,0,0,0,0,0,0,0,0,0,0,0,0,0,0,0,0,0,0,0,0,0,0,0,0,0,0,0,0,0,0,0,0],"sum_hessian":[1.9560242E4,6.275105E3,1.3285137E4,1.9587112E3,4.3163936E3,2.6128064E3,1.067233E4,7.316575E2,1.2270537E3,1.622285E2,4.154165E3,8.3307965E2,1.7797268E3,8.015489E1,1.0592176E4,6.418753E2,8.978214E1,6.617833E2,5.652704E2,9.324433E1,6.898418E1,2.1243591E3,2.029806E3,1.7629967E3,1.6730133E1,6.944791E1,1.07069845E1,2.2074018E1,6.1980133E2,2.4311577E1,6.5470566E1,1.4437363E2,4.2089676E2,3.340254E1,3.558164E1,1.5516566E3,4.7814944E2,4.744868E0,6.470304E1,1.548554E0,9.15843E0,1.970551E0,2.0103468E1,5.895626E2,3.0238674E1,6.0244446E1,8.412918E1,1.8143227E1,4.027535E2,2.7569935E1,5.8326025E0,2.830622E1,7.2754173E0,1.5056144E3,4.6042236E1,3.507127E2,1.2743672E2,3.2965965E0,1.4482714E0,3.7210996E0,5.4373307E0,5.405076E2,4.905503E1,2.1463522E1,8.775153E0,1.5117524E0,5.8732693E1,7.532636E1,8.802819E0,6.4386487E0,1.1704578E1,4.701998E1,3.5573355E2,2.3433706E1,4.1362286E0,2.667331E1,1.6329099E0,6.182789E0,1.0926284E0,1.3389695E3,1.6664485E2,4.0239555E1,5.802682E0,3.9619366E1,3.1109335E2,2.754615E0,1.24682106E2,1.5158762E0,2.2052236E0],"tree_param":{"num_deleted":"0","num_feature":"39","num_nodes":"89","size_leaf_vector":"1"}},{"base_weights":[-4.9068335E-1,1.2200553E0,-3.076812E-2,1.697272E0,2.5153548E-1,7.5772566E-1,1.9056549E0,1.5204221E0,-3.0732542E-2,9.896284E-2,-3.0690787E-2,7.3891884E-1,1.9193492E0,9.855273E-2,8.233529E-1,9.524512E-2,-2.837849E-2,1.9461579E0,1.5888796E0,1.6015966E0,-1.2238497E-1,1.9661266E0,1.5569797E0,1.7231833E0,-2.6065505E-1,9.777703E-2,-2.920998E-2,-5.137255E-1,1.3406295E0,9.8944046E-2,8.195178E-2,9.8433554E-2,-2.988483E-2,9.4842546E-2,4.2466544E-2,-2.781627E-2,1.1618586E-2,-3.0433703E-2,2.6290238E-2,9.6865945E-2,3.5580777E-2],"categories":[],"categories_nodes":[],"categories_segments":[],"categories_sizes":[],"default_left":[0,0,0,0,0,0,0,0,0,0,0,0,0,0,0,0,0,0,0,0,0,0,0,0,0,0,0,0,0,0,0,0,0,0,0,0,0,0,0,0,0],"id":11,"left_children":[1,3,-1,5,7,9,11,13,-1,-1,-1,15,17,-1,19,-1,-1,21,23,25,27,29,31,33,35,-1,-1,37,39,-1,-1,-1,-1,-1,-1,-1,-1,-1,-1,-1,-1],"loss_changes":[3.4378372E3,5.057975E2,0E0,1.431731E2,3.9759622E2,2.2372339E2,9.18042E0,4.5661163E1,0E0,0E0,0E0,1.1223611E1,4.590576E0,0E0,4.2772083E1,0E0,0E0,3.5986328E0,1.1448555E1,2.4868744E1,1.4967006E1,1.4848633E0,2.4612373E1,5.986023E0,4.9788308E-1,0E0,0E0,2.090323E0,1.6599417E0,0E0,0E0,0E0,0E0,0E0,0E0,0E0,0E0,0E0,0E0,0E0,0E0],"parents":[2147483647,0,0,1,1,3,3,4,4,5,5,6,6,7,7,11,11,12,12,14,14,17,17,18,18,19,19,20,20,21,21,22,22,23,23,24,24,27,27,28,28],"right_children":[2,4,-1,6,8,10,12,14,-1,-1,-1,16,18,-1,20,-1,-1,22,24,26,28,30,32,34,36,-1,-1,38,40,-1,-1,-1,-1,-1,-1,-1,-1,-1,-1,-1,-1],"split_conditions":[4.005E1,-1.1428E1,-3.076812E-2,2.5323E1,3.5116E1,3.5116E1,9.6E-2,3.4504E1,-3.0732542E-2,9.896284E-2,-3.0690787E-2,3.3942E1,3.9822E1,9.855273E-2,2.93E2,9.524512E-2,-2.837849E-2,3.36E3,8.83E-1,6.884E0,5.4885E1,8.75E-1,3.5116E1,-2.458E0,3.68E0,9.777703E-2,-2.920998E-2,5.13E-1,-1.18E-1,9.8944046E-2,8.195178E-2,9.8433554E-2,-2.988483E-2,9.4842546E-2,4.2466544E-2,-2.781627E-2,1.1618586E-2,-3.0433703E-2,2.6290238E-2,9.6865945E-2,3.5580777E-2],"split_indices":[38,1,0,7,38,38,37,38,0,0,0,38,38,0,14,0,0,14,35,12,28,36,38,12,11,0,0,37,8,0,0,0,0,0,0,0,0,0,0,0,0],"split_type":[0,0,0,0,0,0,0,0,0,0,0,0,0,0,0,0,0,0,0,0,0,0,0,0,0,0,0,0,0,0,0,0,0,0,0,0,0,0,0,0,0],"sum_hessian":[1.6117717E4,1.0947548E3,1.5022962E4,7.332726E2,3.6148224E2,1.3328185E2,5.999907E2,1.4666737E2,2.1481485E2,7.0511246E1,6.277059E1,7.108982E0,5.928818E2,8.888189E1,5.778548E1,3.772727E0,3.336255E0,5.4766205E2,4.5219704E1,3.1719788E1,2.6065693E1,5.203033E2,2.7358753E1,4.2215157E1,3.004547E0,2.7347687E1,4.372102E0,2.0669943E1,5.3957486E0,4.9999612E2,2.030718E1,2.3016132E1,4.342621E0,3.502321E1,7.191948E0,1.9969544E0,1.0075926E0,1.9066128E1,1.6038157E0,2.5806987E0,2.81505E0],"tree_param":{"num_deleted":"0","num_feature":"39","num_nodes":"41","size_leaf_vector":"1"}},{"base_weights":[2.7769182E-2,-5.834512E-1,1.5594295E0,-4.3331288E-2,-6.2312675E-1,-3.174617E-2,1.5658971E0,-6.3283885E-1,9.342706E-1,-4.1989964E-1,-6.3753486E-1,1.6468738E0,1.5494719E0,-3.2375943E-2,2.6528303E-2,8.075415E-2,2.4143773E-1,-3.230651E-2,5.435865E-1,-6.409004E-1,-8.9632235E-2,1.6135342E0,1.7485715E0,7.862798E-2,7.704738E-2,-3.165217E-2,1.5056894E0,-3.251442E-2,8.1298105E-2,-3.218841E-2,1.5876621E0,-4.626188E-1,-6.4246583E-1,1.054376E-1,-5.62828E-1,1.5933223E0,8.5048854E-2,9.5521845E-2,1.7148199E0,4.1808464E-2,8.585954E-2,8.211391E-2,-2.8507188E-2,-3.2279488E-2,8.361803E-2,-5.7958674E-1,-6.4386797E-1,-3.3777452E-1,2.8456855E-1,8.324757E-3,-6.05983E-1,8.363619E-2,7.838946E-2,8.988618E-2,8.3230786E-2,-3.0941358E-2,1.1063784E-2,-3.2348275E-2,-3.1444203E-2,-2.883145E-2,1.6610783E-2,3.1888556E-2,-9.174235E-3,-1.9542146E-2,-3.233731E-2],"categories":[],"categories_nodes":[],"categories_segments":[],"categories_sizes":[],"default_left":[0,0,0,0,0,0,0,0,0,0,0,0,0,0,0,0,0,0,0,0,0,0,0,0,0,0,0,0,0,0,0,0,0,0,0,0,0,0,0,0,0,0,0,0,0,0,0,0,0,0,0,0,0,0,0,0,0,0,0,0,0,0,0,0,0],"id":12,"left_children":[1,3,5,7,9,-1,11,13,15,17,19,21,23,-1,25,-1,27,-1,29,31,33,35,37,-1,-1,-1,39,-1,-1,-1,41,43,45,47,49,51,-1,-1,53,-1,-1,-1,-1,-1,-1,55,57,59,61,-1,63,-1,-1,-1,-1,-1,-1,-1,-1,-1,-1,-1,-1,-1,-1],"loss_changes":[1.836815E4,3.004546E2,7.9618164E1,5.532416E2,3.8120117E1,0E0,6.8476562E0,5.861389E0,1.7009259E2,1.8872597E2,2.241504E1,2.5632324E0,3.59375E-1,0E0,1.285801E1,0E0,2.2138504E2,0E0,2.0421635E2,3.243164E0,6.95336E0,6.520996E-1,5.648804E-1,0E0,0E0,0E0,1.7926121E-1,0E0,0E0,0E0,1.0529724E1,4.1586998E1,8.9990234E-1,4.202474E0,7.46181E-1,5.859375E-1,0E0,0E0,1.5197754E-1,0E0,0E0,0E0,0E0,0E0,0E0,8.371559E0,3.7695312E-1,2.4608889E0,6.3182487E0,0E0,5.4370403E-2,0E0,0E0,0E0,0E0,0E0,0E0,0E0,0E0,0E0,0E0,0E0,0E0,0E0,0E0],"parents":[2147483647,0,0,1,1,2,2,3,3,4,4,6,6,7,7,8,8,9,9,10,10,11,11,12,12,14,14,16,16,18,18,19,19,20,20,21,21,22,22,26,26,30,30,31,31,32,32,33,33,34,34,35,35,38,38,45,45,46,46,47,47,48,48,50,50],"right_children":[2,4,6,8,10,-1,12,14,16,18,20,22,24,-1,26,-1,28,-1,30,32,34,36,38,-1,-1,-1,40,-1,-1,-1,42,44,46,48,50,52,-1,-1,54,-1,-1,-1,-1,-1,-1,56,58,60,62,-1,64,-1,-1,-1,-1,-1,-1,-1,-1,-1,-1,-1,-1,-1,-1],"split_conditions":[7.003E1,1.21E-1,9.51E-1,6.5176E1,-3.476E0,-3.174617E-2,7.1486E1,6.4984E1,5.3449E1,6.4984E1,6.9896E1,7.7859E1,7.3154E1,-3.2375943E-2,3.5223E1,8.075415E-2,5.2E-1,-3.230651E-2,9.962E0,1.26E-1,3.001E0,2.0121E1,8.7853E1,7.862798E-2,7.704738E-2,-3.165217E-2,4.582E0,-3.251442E-2,8.1298105E-2,-3.218841E-2,4.5051E1,6.4984E1,-3.45E-1,-1.784E0,2.7255E1,9.0276E1,8.5048854E-2,9.5521845E-2,1.976E0,4.1808464E-2,8.585954E-2,8.211391E-2,-2.8507188E-2,-3.2279488E-2,8.361803E-2,3.6476E1,7.95E2,7.1378E1,3.836E0,8.324757E-3,3.2414E1,8.363619E-2,7.838946E-2,8.988618E-2,8.3230786E-2,-3.0941358E-2,1.1063784E-2,-3.2348275E-2,-3.1444203E-2,-2.883145E-2,1.6610783E-2,3.1888556E-2,-9.174235E-3,-1.9542146E-2,-3.233731E-2],"split_indices":[38,37,17,38,31,0,38,38,17,38,38,17,38,0,10,0,31,0,10,37,15,7,19,0,0,0,1,0,0,0,0,38,31,15,29,19,0,0,5,0,0,0,0,0,0,0,14,28,31,0,0,0,0,0,0,0,0,0,0,0,0,0,0,0,0],"split_type":[0,0,0,0,0,0,0,0,0,0,0,0,0,0,0,0,0,0,0,0,0,0,0,0,0,0,0,0,0,0,0,0,0,0,0,0,0,0,0,0,0,0,0,0,0,0,0,0,0,0,0,0,0,0,0,0,0,0,0,0,0,0,0,0,0],"sum_hessian":[1.9619975E4,1.4023707E4,5.5962676E3,9.5983246E2,1.3063875E4,1.6371891E1,5.579896E3,5.988532E2,3.6097925E2,8.655265E2,1.2198348E4,9.3825653E2,4.641639E3,5.8596094E2,1.2892274E1,1.8192911E2,1.7905014E2,7.0105304E2,1.6447343E2,1.2123679E4,7.466947E1,7.086191E2,2.2963745E2,1.2435247E3,3.3981145E3,8.909183E0,3.9830909E0,1.0889519E2,7.015496E1,7.692947E1,8.7543976E1,1.063453E2,1.2017333E4,5.2778496E1,2.1890974E1,5.780677E2,1.305514E2,3.8150837E1,1.9148662E2,1.188616E0,2.7944748E0,8.545136E1,2.0926144E0,9.805817E1,8.287133E0,2.6458783E2,1.1752745E4,1.5005224E1,3.777327E1,1.0775326E0,2.0813442E1,1.3813547E2,4.3993222E2,7.015886E1,1.2132776E2,2.523699E2,1.2217937E1,9.730378E3,2.0223678E3,1.1181987E1,3.8232372E0,2.1628984E1,1.6144285E1,3.874838E0,1.6938602E1],"tree_param":{"num_deleted":"0","num_feature":"39","num_nodes":"65","size_leaf_vector":"1"}},{"base_weights":[3.0010867E-1,5.9508747E-1,-6.8310297E-1,-3.5940832E-1,1.1507789E0,6.643862E-2,-6.906358E-1,-3.4430597E-2,6.559508E-2,8.457659E-1,1.2695125E0,-3.4408133E-2,-3.569652E-2,1.1159084E0,-2.7669302E-1,-3.4448095E-2,1.3860441E0,5.316115E-1,1.3305775E0,7.053718E-1,1.3758535E0,-4.545886E-1,2.4166302E-1,1.4018496E0,-3.392067E-2,1.1741539E0,-1.4650553E-1,8.999034E-1,1.3532945E0,1.1075397E0,-6.3873535E-1,-2.9309813E-2,1.3821701E0,-5.1553977E-1,1.1656176E0,1.3769987E0,-2.3360978E-1,6.927978E-2,1.4256206E0,7.0600174E-2,6.7669815E-1,4.4023326E-1,-3.5694312E-2,6.7770176E-2,-4.649331E-2,1.3580656E0,9.39648E-1,6.940558E-3,6.734222E-2,6.705316E-2,-3.5143074E-2,4.349416E-2,6.946787E-2,-2.9988522E-2,5.5968305E-3,6.790243E-2,-2.5313467E-2,-3.435378E-2,7.095795E-2,5.6897886E-2,-2.4634518E-2,6.890471E-2,7.216654E-2,-3.4693003E-2,6.539305E-2,6.435033E-2,-3.5653558E-2,6.339678E-2,-3.4492742E-2,6.2148333E-2,6.8313345E-2,3.898781E-2,6.3553825E-2],"categories":[],"categories_nodes":[],"categories_segments":[],"categories_sizes":[],"default_left":[0,0,0,0,0,0,0,0,0,0,0,0,0,0,0,0,0,0,0,0,0,0,0,0,0,0,0,0,0,0,0,0,0,0,0,0,0,0,0,0,0,0,0,0,0,0,0,0,0,0,0,0,0,0,0,0,0,0,0,0,0,0,0,0,0,0,0,0,0,0,0,0,0],"id":13,"left_children":[1,3,5,7,9,-1,11,-1,13,15,17,-1,-1,19,21,-1,23,25,27,29,31,33,35,37,-1,39,41,43,45,47,49,-1,51,53,55,57,59,-1,61,-1,63,65,-1,-1,67,69,71,-1,-1,-1,-1,-1,-1,-1,-1,-1,-1,-1,-1,-1,-1,-1,-1,-1,-1,-1,-1,-1,-1,-1,-1,-1,-1],"loss_changes":[6.4989917E3,9.142697E3,7.83999E1,8.874709E2,3.9422852E2,0E0,1.07421875E-1,0E0,9.953888E2,2.531795E3,3.5307715E2,0E0,0E0,7.232019E1,1.9257143E2,0E0,7.3854004E1,2.613825E2,7.050488E1,1.4293283E2,5.3217773E0,1.535239E2,2.8797125E2,3.876953E-1,0E0,3.613437E1,9.718147E1,1.5678122E2,1.321875E1,4.6996445E1,7.7559605E0,0E0,1.1820068E0,7.925168E1,1.827864E1,1.38749695E1,1.336124E2,0E0,2.8015137E-1,0E0,8.661076E1,1.401921E2,0E0,0E0,9.989388E1,5.9882812E0,3.8821335E0,0E0,0E0,0E0,0E0,0E0,0E0,0E0,0E0,0E0,0E0,0E0,0E0,0E0,0E0,0E0,0E0,0E0,0E0,0E0,0E0,0E0,0E0,0E0,0E0,0E0,0E0],"parents":[2147483647,0,0,1,1,2,2,3,3,4,4,6,6,8,8,9,9,10,10,13,13,14,14,16,16,17,17,18,18,19,19,20,20,21,21,22,22,23,23,25,25,26,26,27,27,28,28,29,29,30,30,32,32,33,33,34,34,35,35,36,36,38,38,40,40,41,41,44,44,45,45,46,46],"right_children":[2,4,6,8,10,-1,12,-1,14,16,18,-1,-1,20,22,-1,24,26,28,30,32,34,36,38,-1,40,42,44,46,48,50,-1,52,54,56,58,60,-1,62,-1,64,66,-1,-1,68,70,72,-1,-1,-1,-1,-1,-1,-1,-1,-1,-1,-1,-1,-1,-1,-1,-1,-1,-1,-1,-1,-1,-1,-1,-1,-1,-1],"split_conditions":[7.003E1,5.5054E1,9.51E-1,4.9951E1,5.998E1,6.643862E-2,4.5914E1,-3.4430597E-2,-1.4931E1,9.51E-1,1.21E-1,-3.4408133E-2,-3.569652E-2,8.31E-1,2.4442E1,-3.4448095E-2,2.07853E2,6.6256E1,-4.998E0,4.0172E1,1.6193E1,1.956E1,3.47E-1,5.28E-1,-3.392067E-2,6.4984E1,8.07E-1,6.4984E1,6.9896E1,5.0952E1,-1.6517E1,-2.9309813E-2,5.02E1,9.03E-1,5.988E1,1.3453E1,-2.49E0,6.927978E-2,2.2847E1,7.0600174E-2,5.2202E1,9.03E-1,-3.5694312E-2,6.7770176E-2,5.48E-1,3.11E-1,3.001E0,6.940558E-3,6.734222E-2,6.705316E-2,-3.5143074E-2,4.349416E-2,6.946787E-2,-2.9988522E-2,5.5968305E-3,6.790243E-2,-2.5313467E-2,-3.435378E-2,7.095795E-2,5.6897886E-2,-2.4634518E-2,6.890471E-2,7.216654E-2,-3.4693003E-2,6.539305E-2,6.435033E-2,-3.5653558E-2,6.339678E-2,-3.4492742E-2,6.2148333E-2,6.8313345E-2,3.898781E-2,6.3553825E-2],"split_indices":[38,38,17,38,38,0,17,0,1,17,37,0,0,18,10,0,1,38,32,10,10,11,4,36,0,38,18,38,38,38,30,0,38,32,28,17,32,0,17,0,17,32,0,0,36,37,12,0,0,0,0,0,0,0,0,0,0,0,0,0,0,0,0,0,0,0,0,0,0,0,0,0,0],"split_type":[0,0,0,0,0,0,0,0,0,0,0,0,0,0,0,0,0,0,0,0,0,0,0,0,0,0,0,0,0,0,0,0,0,0,0,0,0,0,0,0,0,0,0,0,0,0,0,0,0,0,0,0,0,0,0,0,0,0,0,0,0,0,0,0,0,0,0,0,0,0,0,0,0],"sum_hessian":[2.2408053E4,1.7236865E4,5.1711875E3,6.342458E3,1.0894408E4,1.9174753E1,5.1520127E3,3.574138E3,2.76832E3,3.053072E3,7.8413364E3,4.664177E3,4.878357E2,6.804428E2,2.0878772E3,7.948862E2,2.2581858E3,5.995126E2,7.2418237E3,2.6410016E2,4.1634268E2,1.5545675E3,5.333097E2,2.2411084E3,1.7077288E1,3.07869E2,2.916436E2,3.632726E2,6.8785513E3,2.0334859E2,6.0751575E1,1.255788E0,4.1508688E2,1.498331E3,5.6236423E1,1.5737991E2,3.7592978E2,1.3370204E3,9.040881E2,2.080221E2,9.9846886E1,1.433003E2,1.4834329E2,2.4528136E2,1.17991264E2,6.7996523E3,7.889856E1,4.0396305E1,1.6295229E2,1.7946211E0,5.8956955E1,6.104459E0,4.0898242E2,1.3211478E3,1.7718332E2,5.0502293E1,5.7341313E0,3.072169E0,1.5430774E2,5.961324E1,3.1631653E2,2.491121E2,6.5497595E2,3.1429644E1,6.8417244E1,8.267453E1,6.062576E1,3.8690853E1,7.9300415E1,4.5410422E2,6.3455483E3,5.3652065E1,2.5246494E1],"tree_param":{"num_deleted":"0","num_feature":"39","num_nodes":"73","size_leaf_vector":"1"}},{"base_weights":[1.5680093E-2,1.0435028E0,-4.93675E-1,-3.223963E-2,1.163007E0,1.0134385E-1,-6.433264E-1,5.8594716E-1,1.3744128E0,1.2445486E0,-2.2267115E-1,-5.5218786E-1,-3.2197915E-2,1.0173416E0,-2.8395247E-1,1.5153137E0,1.2234145E0,7.67843E-2,-6.0447246E-1,-6.323707E-1,1.3138373E0,-3.2222424E-2,-1.3277647E-1,3.8824126E-2,1.5291623E0,5.7267654E-1,-5.8634037E-1,4.814372E-1,7.746853E-2,1.0247246E-2,1.278023E0,1.780414E-1,-3.2048415E-2,-6.460729E-1,7.73767E-2,-2.672085E-1,1.4660336E0,-3.1232337E-2,2.2084479E-1,-5.0870055E-1,1.4994259E0,7.7782184E-2,6.2257004E-1,-3.2464575E-2,1.490655E0,-1.2234648E-1,-6.185366E-1,9.588233E-1,-4.8057157E-1,-5.9295267E-1,1.3080568E0,1.4944293E0,1.0172749E0,-2.4955204E-2,2.643928E-2,-0E0,-6.466708E-1,-3.2362863E-2,7.4938014E-2,1.502556E0,4.2169842E-1,8.232233E-2,-1.5273757E-1,-2.7296264E-2,6.406391E-2,-2.9502366E-2,7.8017995E-2,5.9222486E-2,-1.333937E-2,7.855298E-2,-3.0010203E-2,-2.9958611E-2,6.236977E-2,-2.5502509E-2,-3.231139E-2,-3.153811E-2,6.6445984E-2,-2.986424E-2,7.084933E-2,7.4145615E-2,-3.3519443E-2,-3.2343823E-2,7.788282E-2,7.666319E-2,4.2262837E-2,6.895109E-2,2.9733395E-2,-1.8876582E-2,-3.2363005E-2,4.411234E-2,7.7585116E-2,-3.0954702E-2,7.6708175E-2,2.617707E-2,-2.0251699E-2],"categories":[],"categories_nodes":[],"categories_segments":[],"categories_sizes":[],"default_left":[0,0,0,0,0,0,0,0,0,0,0,0,0,0,0,0,0,0,0,0,0,0,0,0,0,0,0,0,0,0,0,0,0,0,0,0,0,0,0,0,0,0,0,0,0,0,0,0,0,0,0,0,0,0,0,0,0,0,0,0,0,0,0,0,0,0,0,0,0,0,0,0,0,0,0,0,0,0,0,0,0,0,0,0,0,0,0,0,0,0,0,0,0,0,0],"id":14,"left_children":[1,3,5,-1,7,9,11,13,15,17,19,21,-1,23,25,27,29,-1,31,33,35,-1,37,39,41,43,45,47,-1,49,51,53,-1,55,-1,57,59,-1,61,63,65,-1,67,-1,69,71,73,75,77,79,81,83,85,-1,-1,-1,87,-1,-1,89,91,-1,93,-1,-1,-1,-1,-1,-1,-1,-1,-1,-1,-1,-1,-1,-1,-1,-1,-1,-1,-1,-1,-1,-1,-1,-1,-1,-1,-1,-1,-1,-1,-1,-1],"loss_changes":[1.0229834E4,1.3064766E3,1.1634658E3,0E0,7.374077E2,9.726921E2,4.4628906E-1,6.086451E2,9.369531E1,3.123626E2,1.2878525E3,2.764534E0,0E0,5.427965E2,1.3928809E2,8.030029E1,1.4144556E2,0E0,2.3113537E0,4.825641E1,1.03784485E2,0E0,2.4206817E0,2.980593E2,1.6772705E1,1.5747205E2,5.856003E0,3.371958E1,0E0,7.235023E1,1.1498462E2,8.541239E-1,0E0,6.141968E-1,0E0,2.5409512E1,1.4730103E1,0E0,4.366332E0,1.8050346E1,1.3129318E1,0E0,1.035434E1,0E0,1.3665253E1,1.706729E1,9.6728516E-1,2.9002712E1,5.3801093E0,1.0142193E1,1.4512604E1,2.7793213E1,1.415827E2,0E0,0E0,0E0,1.274414E-1,0E0,0E0,1.1188965E1,1.5826383E1,0E0,1.0795714E0,0E0,0E0,0E0,0E0,0E0,0E0,0E0,0E0,0E0,0E0,0E0,0E0,0E0,0E0,0E0,0E0,0E0,0E0,0E0,0E0,0E0,0E0,0E0,0E0,0E0,0E0,0E0,0E0,0E0,0E0,0E0,0E0],"parents":[2147483647,0,0,1,1,2,2,4,4,5,5,6,6,7,7,8,8,9,9,10,10,11,11,13,13,14,14,15,15,16,16,18,18,19,19,20,20,22,22,23,23,24,24,25,25,26,26,27,27,29,29,30,30,31,31,33,33,35,35,36,36,38,38,39,39,40,40,42,42,44,44,45,45,46,46,47,47,48,48,49,49,50,50,51,51,52,52,56,56,59,59,60,60,62,62],"right_children":[2,4,6,-1,8,10,12,14,16,18,20,22,-1,24,26,28,30,-1,32,34,36,-1,38,40,42,44,46,48,-1,50,52,54,-1,56,-1,58,60,-1,62,64,66,-1,68,-1,70,72,74,76,78,80,82,84,86,-1,-1,-1,88,-1,-1,90,92,-1,94,-1,-1,-1,-1,-1,-1,-1,-1,-1,-1,-1,-1,-1,-1,-1,-1,-1,-1,-1,-1,-1,-1,-1,-1,-1,-1,-1,-1,-1,-1,-1,-1],"split_conditions":[5.5054E1,3.4504E1,5.998E1,-3.223963E-2,-1.4931E1,5.375E0,6.0202E1,5.02E1,4.9951E1,-1.85E-1,4.0025E1,7.197E1,-3.2197915E-2,4.005E1,1.2095E1,3.5116E1,-1.682E0,7.67843E-2,2.28E-1,1.3029E1,1.346E0,-3.2222424E-2,3.6E-2,2.076E3,4.9951E1,-3.14E-1,1.2361E1,5.4885E1,7.746853E-2,5.5371E1,1.9689E1,5.5516E1,-3.2048415E-2,-8.23E-1,7.73767E-2,6.432E1,1.29E-1,-3.1232337E-2,3.75E-1,4.2078E1,3.5116E1,7.7782184E-2,-3.85E-1,-3.2464575E-2,-4.737E0,-5.9E-2,4.5633E1,1.10691E2,1.195E0,-9.1E-1,-6.2E-2,3.9323E1,1.05013E2,-2.4955204E-2,2.643928E-2,-0E0,-7.47E-1,-3.2362863E-2,7.4938014E-2,4.6301E1,1.05494E2,8.232233E-2,1.4129E1,-2.7296264E-2,6.406391E-2,-2.9502366E-2,7.8017995E-2,5.9222486E-2,-1.333937E-2,7.855298E-2,-3.0010203E-2,-2.9958611E-2,6.236977E-2,-2.5502509E-2,-3.231139E-2,-3.153811E-2,6.6445984E-2,-2.986424E-2,7.084933E-2,7.4145615E-2,-3.3519443E-2,-3.2343823E-2,7.788282E-2,7.666319E-2,4.2262837E-2,6.895109E-2,2.9733395E-2,-1.8876582E-2,-3.2363005E-2,4.411234E-2,7.7585116E-2,-3.0954702E-2,7.6708175E-2,2.617707E-2,-2.0251699E-2],"split_indices":[38,38,38,0,1,7,38,38,38,0,7,7,0,38,7,38,30,0,35,24,4,0,23,14,38,32,7,28,0,28,7,38,0,9,0,10,23,0,36,19,38,0,11,0,0,23,10,27,3,9,23,0,27,0,0,0,9,0,0,1,0,0,10,0,0,0,0,0,0,0,0,0,0,0,0,0,0,0,0,0,0,0,0,0,0,0,0,0,0,0,0,0,0,0,0],"split_type":[0,0,0,0,0,0,0,0,0,0,0,0,0,0,0,0,0,0,0,0,0,0,0,0,0,0,0,0,0,0,0,0,0,0,0,0,0,0,0,0,0,0,0,0,0,0,0,0,0,0,0,0,0,0,0,0,0,0,0,0,0,0,0,0,0,0,0,0,0,0,0,0,0,0,0,0,0,0,0,0,0,0,0,0,0,0,0,0,0,0,0,0,0,0,0],"sum_hessian":[1.9539928E4,6.474728E3,1.30652E4,4.2792606E2,6.046802E3,2.6254983E3,1.0439701E4,1.6215143E3,4.4252876E3,5.798101E2,2.0456882E3,7.357365E1,1.0366128E4,1.0840286E3,5.374858E2,2.2883718E3,2.1369155E3,5.0099673E2,7.881336E1,1.6151448E3,4.3054346E2,6.006801E1,1.3505634E1,3.7238745E2,7.1164105E2,1.4012064E2,3.9736514E2,7.3118744E1,2.2152532E3,9.212994E1,2.0447856E3,3.3726192E0,7.544074E1,1.6051714E3,9.9733925E0,3.7741753E1,3.928017E2,5.734862E0,7.7707725E0,2.7085193E2,1.015355E2,6.9126733E2,2.037375E1,6.007374E1,8.004689E1,2.6016422E1,3.7134872E2,4.8938057E1,2.4180685E1,6.2881115E1,2.924882E1,1.1169353E3,9.2785034E2,1.0391102E0,2.3335092E0,1.4982814E0,1.6036731E3,3.1156609E1,6.585145E0,3.7939395E2,1.3407762E1,1.5983562E0,6.172416E0,2.6545682E2,5.3951254E0,2.8060024E0,9.872949E1,1.253416E1,7.839592E0,7.715265E1,2.8942416E0,1.9394274E1,6.622147E0,7.6641785E1,2.9470694E2,9.177882E0,3.9760174E1,2.2893778E1,1.286906E0,2.1495962E0,6.073152E1,3.2481997E0,2.600062E1,1.0536162E3,6.33191E1,4.9967285E2,4.2817746E2,4.0144706E0,1.5996587E3,2.8140741E1,3.512532E2,6.903495E0,6.5042663E0,1.5401591E0,4.632257E0],"tree_param":{"num_deleted":"0","num_feature":"39","num_nodes":"95","size_leaf_vector":"1"}},{"base_weights":[-4.8615485E-1,7.928325E-1,-5.588375E-1,-6.465279E-2,1.2371024E0,-3.7543442E-2,-5.861842E-1,1.5981294E0,-3.6719668E-1,1.6062914E0,1.4721645E-1,4.50518E-1,-6.0198045E-1,6.900581E-1,-5.9363556E-1,-2.6836568E-2,1.7059616E0,1.6885993E0,-5.639975E-1,3.838453E-1,1.6650999E0,1.133029E0,-5.7325256E-1,-1.8055223E-1,9.555963E-1,5.4007447E-1,-3.0518714E-2,1.5381184E0,-4.426629E-1,-3.0160326E-1,-6.0966074E-1,-2.5457917E-2,8.948579E-2,8.942757E-2,2.6783897E-3,1.1589592E0,-5.852494E-1,-2.9821208E-2,8.807934E-2,1.6890346E0,-2.8635783E-2,-1.8527131E-1,1.7197701E0,-3.0430114E-2,7.908891E-2,1.2233026E0,-2.6926348E-1,1.3741148E0,3.010137E-1,8.054963E-2,-2.4426235E-2,2.8268468E-1,1.7275956E0,-3.0334467E-2,6.553572E-1,-5.9757215E-1,4.4371083E-1,-4.8204255E-1,-3.0522753E-2,8.1479006E-2,1.1592736E-2,-6.069817E-1,4.5694205E-1,1.1935184E0,1.729746E0,-4.263611E-1,8.321897E-2,9.15856E-2,1.003643E0,-2.727831E-2,8.788824E-2,-5.302308E-1,2.2024196E-1,8.025011E-2,1.53726E0,-2.7539307E-1,8.8298553E-1,1.2119964E0,-2.8907254E-2,1.782513E0,1.4001197E-3,8.584502E-2,-2.6852269E-2,-3.0522231E-2,1.1754978E0,1.6413256E0,2.8110307E-1,1.1570703E0,-3.0418223E-2,-8.330998E-3,-3.0550787E-2,8.1669524E-2,-1.1005411E-2,-2.955752E-2,8.378631E-2,8.70654E-2,1.4547022E-2,2.4748268E-2,-2.9955847E-2,-2.7240608E-2,8.83089E-2,-0E0,-2.8580833E-2,-9.413545E-3,5.3526785E-2,4.6223063E-2,-2.9715333E-2,2.3359812E-3,8.153611E-2,-2.426243E-2,8.6216174E-2,-2.654612E-2,7.7560805E-2,8.395202E-2,8.879718E-3,5.690158E-2,9.0141945E-2,8.422742E-2,3.9450396E-3,2.4771782E-2,8.8040546E-2,7.5121306E-2,3.335192E-3,8.627213E-2,-1.8469982E-3],"categories":[],"categories_nodes":[],"categories_segments":[],"categories_sizes":[],"default_left":[0,0,0,0,0,0,0,0,0,0,0,0,0,0,0,0,0,0,0,0,0,0,0,0,0,0,0,0,0,0,0,0,0,0,0,0,0,0,0,0,0,0,0,0,0,0,0,0,0,0,0,0,0,0,0,0,0,0,0,0,0,0,0,0,0,0,0,0,0,0,0,0,0,0,0,0,0,0,0,0,0,0,0,0,0,0,0,0,0,0,0,0,0,0,0,0,0,0,0,0,0,0,0,0,0,0,0,0,0,0,0,0,0,0,0,0,0,0,0,0,0,0,0,0,0],"id":15,"left_children":[1,3,5,7,9,11,13,15,17,19,21,23,25,27,29,-1,31,33,35,37,39,41,43,45,47,49,-1,51,53,55,57,-1,-1,-1,-1,59,61,-1,-1,63,-1,65,67,-1,-1,69,71,73,75,-1,-1,77,79,-1,81,83,85,87,-1,-1,-1,89,91,93,95,97,-1,-1,99,-1,-1,101,103,105,107,109,111,113,-1,115,-1,-1,-1,-1,117,119,121,123,-1,-1,-1,-1,-1,-1,-1,-1,-1,-1,-1,-1,-1,-1,-1,-1,-1,-1,-1,-1,-1,-1,-1,-1,-1,-1,-1,-1,-1,-1,-1,-1,-1,-1,-1,-1,-1],"loss_changes":[1.4698245E3,3.240016E2,2.1321631E2,1.4590916E2,2.2517108E2,2.0555457E2,1.3521436E2,1.0484154E1,9.936117E1,2.9802979E1,1.0090561E2,1.27602715E2,3.3575897E0,7.941155E1,6.6029785E1,0E0,8.114944E0,3.310131E0,8.223129E0,2.6432661E1,2.157898E1,4.6602417E1,6.2450542E0,2.2084578E1,6.0692276E1,2.9350808E0,0E0,1.09876175E1,6.4000583E0,1.6233182E2,1.21875E0,0E0,0E0,0E0,0E0,9.580717E-1,5.063675E0,0E0,0E0,7.4663086E0,0E0,8.205919E0,2.8665771E0,0E0,0E0,1.0163299E1,2.1428885E1,2.842453E1,2.924311E1,0E0,0E0,5.2402563E0,3.636795E0,0E0,5.9848723E0,1.2037308E1,4.0477287E1,1.7432991E1,0E0,0E0,0E0,2.980652E-1,3.7546387E0,2.644329E1,5.809082E0,2.6682005E0,0E0,0E0,7.260511E0,0E0,0E0,2.392025E0,2.0308264E1,8.826126E0,1.6574799E1,1.8281515E1,4.1153584E1,1.3101277E0,0E0,1.9691467E-2,0E0,0E0,0E0,0E0,1.9174871E0,3.0963364E0,4.8085808E1,4.24492E0,0E0,0E0,0E0,0E0,0E0,0E0,0E0,0E0,0E0,0E0,0E0,0E0,0E0,0E0,0E0,0E0,0E0,0E0,0E0,0E0,0E0,0E0,0E0,0E0,0E0,0E0,0E0,0E0,0E0,0E0,0E0,0E0,0E0,0E0,0E0,0E0,0E0],"parents":[2147483647,0,0,1,1,2,2,3,3,4,4,5,5,6,6,7,7,8,8,9,9,10,10,11,11,12,12,13,13,14,14,16,16,17,17,18,18,19,19,20,20,21,21,22,22,23,23,24,24,25,25,27,27,28,28,29,29,30,30,35,35,36,36,39,39,41,41,42,42,45,45,46,46,47,47,48,48,51,51,52,52,54,54,55,55,56,56,57,57,61,61,62,62,63,63,64,64,65,65,68,68,71,71,72,72,73,73,74,74,75,75,76,76,77,77,79,79,84,84,85,85,86,86,87,87],"right_children":[2,4,6,8,10,12,14,16,18,20,22,24,26,28,30,-1,32,34,36,38,40,42,44,46,48,50,-1,52,54,56,58,-1,-1,-1,-1,60,62,-1,-1,64,-1,66,68,-1,-1,70,72,74,76,-1,-1,78,80,-1,82,84,86,88,-1,-1,-1,90,92,94,96,98,-1,-1,100,-1,-1,102,104,106,108,110,112,114,-1,116,-1,-1,-1,-1,118,120,122,124,-1,-1,-1,-1,-1,-1,-1,-1,-1,-1,-1,-1,-1,-1,-1,-1,-1,-1,-1,-1,-1,-1,-1,-1,-1,-1,-1,-1,-1,-1,-1,-1,-1,-1,-1,-1,-1],"split_conditions":[-3.6013E1,-1.788E0,7.26E-1,7.24E-1,-6.83E-1,4.2978E1,-5.6947E1,4.265E0,-9.933E0,1.14E2,-1.941E1,2.09E2,1.3679E1,8.45E-1,-1.4931E1,-2.6836568E-2,4.646E1,2.3102E1,8.8068E1,4E-3,1.049E3,-6E-3,-2.4649E1,9.5796E1,1.13202E2,-1.1062E1,-3.0518714E-2,-8.25E-1,6.9858E1,-6.49E-1,-4.9821E1,-2.5457917E-2,8.948579E-2,8.942757E-2,2.6783897E-3,-4.6727E1,8.9885E1,-2.9821208E-2,8.807934E-2,-1.15E-1,-2.8635783E-2,7.52E2,-2.5308E1,-3.0430114E-2,7.908891E-2,9.854E0,1.11725E2,-1.788E0,5.2715E1,8.054963E-2,-2.4426235E-2,6.5818E1,-1.84E-1,-3.0334467E-2,-4.192E1,6.1154E1,6.1E-1,-2.2792E1,-3.0522753E-2,8.1479006E-2,1.1592736E-2,-5.9772E1,1.76E-1,1.7061E1,-3.95E-1,6.44E-1,8.321897E-2,9.15856E-2,-6.08E-1,-2.727831E-2,8.788824E-2,9.7075E1,5.9137E1,5.89E-1,1.0971E1,1.801E1,9.962E0,-1.711E0,-2.8907254E-2,-7.63E-1,1.4001197E-3,8.584502E-2,-2.6852269E-2,-3.0522231E-2,3E2,-3.2188E1,-5.164E1,1.3679E1,-3.0418223E-2,-8.330998E-3,-3.0550787E-2,8.1669524E-2,-1.1005411E-2,-2.955752E-2,8.378631E-2,8.70654E-2,1.4547022E-2,2.4748268E-2,-2.9955847E-2,-2.7240608E-2,8.83089E-2,-0E0,-2.8580833E-2,-9.413545E-3,5.3526785E-2,4.6223063E-2,-2.9715333E-2,2.3359812E-3,8.153611E-2,-2.426243E-2,8.6216174E-2,-2.654612E-2,7.7560805E-2,8.395202E-2,8.879718E-3,5.690158E-2,9.0141945E-2,8.422742E-2,3.9450396E-3,2.4771782E-2,8.8040546E-2,7.5121306E-2,3.335192E-3,8.627213E-2,-1.8469982E-3],"split_indices":[1,8,18,18,9,19,2,0,12,14,16,14,20,35,1,0,10,19,27,17,25,23,0,27,27,0,0,8,17,8,2,0,0,0,0,0,17,0,0,23,0,14,16,0,0,10,27,8,28,0,0,10,9,0,0,24,35,16,0,0,0,0,36,17,8,35,0,0,8,0,0,27,28,5,10,0,10,12,0,8,0,0,0,0,14,12,0,20,0,0,0,0,0,0,0,0,0,0,0,0,0,0,0,0,0,0,0,0,0,0,0,0,0,0,0,0,0,0,0,0,0,0,0,0,0],"split_type":[0,0,0,0,0,0,0,0,0,0,0,0,0,0,0,0,0,0,0,0,0,0,0,0,0,0,0,0,0,0,0,0,0,0,0,0,0,0,0,0,0,0,0,0,0,0,0,0,0,0,0,0,0,0,0,0,0,0,0,0,0,0,0,0,0,0,0,0,0,0,0,0,0,0,0,0,0,0,0,0,0,0,0,0,0,0,0,0,0,0,0,0,0,0,0,0,0,0,0,0,0,0,0,0,0,0,0,0,0,0,0,0,0,0,0,0,0,0,0,0,0,0,0,0,0],"sum_hessian":[1.5811022E4,8.5006995E2,1.4960952E4,2.900687E2,5.600012E2,7.459156E2,1.4215037E4,4.4536606E1,2.4553207E2,4.1820044E2,1.418008E2,3.9993762E2,3.4597794E2,8.238244E1,1.4132654E4,2.0776768E0,4.2458927E1,2.1340584E1,2.241915E2,1.9307594E1,3.9889285E2,5.9909122E1,8.189168E1,1.7773405E2,2.2220358E2,2.391166E0,3.4358676E2,4.714088E1,3.5241554E1,7.356092E2,1.3397045E4,1.4848881E0,4.097404E1,2.0044672E1,1.295912E0,2.609049E0,2.2158244E2,1.12717905E1,8.035804E0,3.9474008E2,4.152765E0,1.8420227E1,4.1488895E1,8.068632E1,1.205364E0,1.0420677E1,1.6731337E2,1.3538208E2,8.68215E1,1.1913748E0,1.1997912E0,6.283666E0,4.0857216E1,3.0779427E1,4.4621277E0,5.2663367E2,2.0897552E2,8.4019684E1,1.3313025E4,1.6087664E0,1.0002828E0,2.1719118E2,4.391264E0,3.0386103E1,3.6435397E2,1.6412039E1,2.0081878E0,3.5624767E1,5.8641276E0,2.3741045E0,8.046573E0,1.092601E2,5.805327E1,1.5244435E1,1.2013764E2,4.355944E1,4.3262062E1,3.0578868E0,3.225779E0,3.9516632E1,1.3405837E0,2.381691E0,2.0804367E0,5.22959E2,3.6746955E0,2.4799744E1,1.8417578E2,5.89682E0,7.812286E1,2.2350144E0,2.1495616E2,1.6064067E0,2.7848575E0,6.414783E0,2.397132E1,3.6135965E2,2.9943337E0,2.4706135E0,1.3941425E1,1.9010789E0,3.9630487E0,7.9416385E0,1.0131847E2,3.9186745E1,1.8866524E1,6.820164E0,8.424272E0,7.160549E0,1.1297709E2,3.953615E1,4.0232863E0,1.3842865E1,2.9419195E1,1.9971551E0,1.0607318E0,1.5328388E0,3.798379E1,2.4107814E0,1.2639142E0,2.4693842E0,2.233036E1,2.734397E1,1.568318E2,4.02167E0,1.8751502E0],"tree_param":{"num_deleted":"0","num_feature":"39","num_nodes":"125","size_leaf_vector":"1"}},{"base_weights":[3.160252E-2,-5.7668066E-1,1.4484562E0,-6.165991E-1,-4.2017855E-2,-3.1371992E-2,1.4539074E0,-4.5156938E-1,-6.301284E-1,-3.20356E-2,8.3627576E-1,1.5226486E0,1.4401089E0,-3.1996217E-2,7.4998975E-1,-6.336801E-1,-6.7995E-2,7.4819714E-2,1.6857438E-1,1.4950566E0,1.6035391E0,7.299019E-2,7.163843E-2,1.487553E0,-3.176093E-2,-4.7162956E-1,-6.353625E-1,1.1260533E-1,-5.47345E-1,-5.559467E-1,7.399234E-2,7.786331E-2,7.3981166E-2,8.658019E-2,1.5771447E0,7.5678736E-2,-2.4774639E-2,-3.1960744E-2,7.962181E-2,-4.4264045E-1,-6.3602245E-1,8.886714E-2,7.196872E-2,8.485438E-3,-5.93247E-1,8.5880205E-2,-3.2166738E-2,8.242235E-2,7.689344E-2,5.4154783E-2,-3.1934395E-2,-3.194369E-2,-3.109458E-2,-2.2738473E-2,1.3475058E-2,-1.6051946E-2,-3.2237895E-2],"categories":[],"categories_nodes":[],"categories_segments":[],"categories_sizes":[],"default_left":[0,0,0,0,0,0,0,0,0,0,0,0,0,0,0,0,0,0,0,0,0,0,0,0,0,0,0,0,0,0,0,0,0,0,0,0,0,0,0,0,0,0,0,0,0,0,0,0,0,0,0,0,0,0,0,0,0],"id":16,"left_children":[1,3,5,7,9,-1,11,13,15,-1,17,19,21,-1,23,25,27,-1,29,31,33,-1,-1,35,-1,37,39,41,43,45,-1,-1,-1,-1,47,-1,-1,-1,-1,49,51,-1,53,-1,55,-1,-1,-1,-1,-1,-1,-1,-1,-1,-1,-1,-1],"loss_changes":[1.6802771E4,2.910503E2,6.644141E1,2.820166E1,4.9847397E2,0E0,5.024414E0,2.1789153E2,2.3344727E1,0E0,1.691535E2,1.623291E0,2.0507812E-1,0E0,1.3342801E2,3.0371094E0,6.4503236E0,0E0,1.8181932E2,1.6503906E-1,2.2515869E-1,0E0,0E0,4.572418E0,0E0,4.178099E1,1.3305664E0,3.430592E0,7.23927E-1,2.4475536E1,0E0,0E0,0E0,0E0,2.380371E-3,0E0,0E0,0E0,0E0,1.2052649E1,2.9785156E-1,0E0,5.458222E0,0E0,1.537261E-1,0E0,0E0,0E0,0E0,0E0,0E0,0E0,0E0,0E0,0E0,0E0,0E0],"parents":[2147483647,0,0,1,1,2,2,3,3,4,4,6,6,7,7,8,8,10,10,11,11,12,12,14,14,15,15,16,16,18,18,19,19,20,20,23,23,25,25,26,26,27,27,28,28,29,29,34,34,39,39,40,40,42,42,44,44],"right_children":[2,4,6,8,10,-1,12,14,16,-1,18,20,22,-1,24,26,28,-1,30,32,34,-1,-1,36,-1,38,40,42,44,46,-1,-1,-1,-1,48,-1,-1,-1,-1,50,52,-1,54,-1,56,-1,-1,-1,-1,-1,-1,-1,-1,-1,-1,-1,-1],"split_conditions":[7.003E1,2.666E3,9.51E-1,-4.172E0,6.4984E1,-3.1371992E-2,7.1486E1,6.4984E1,6.9896E1,-3.20356E-2,5.3449E1,7.7859E1,7.3154E1,-3.1996217E-2,9.3022E1,1.26E-1,3.001E0,7.4819714E-2,9.03E-1,8.9926E1,8.7853E1,7.299019E-2,7.163843E-2,4.216E0,-3.176093E-2,6.4984E1,-1.8538E1,8.12E-1,2.7255E1,-6.452E0,7.399234E-2,7.786331E-2,7.3981166E-2,8.658019E-2,4.9024E1,7.5678736E-2,-2.4774639E-2,-3.1960744E-2,7.962181E-2,-1.1895E1,7.95E2,8.886714E-2,-1.785E0,8.485438E-3,1.786E0,8.5880205E-2,-3.2166738E-2,8.242235E-2,7.689344E-2,5.4154783E-2,-3.1934395E-2,-3.194369E-2,-3.109458E-2,-2.2738473E-2,1.3475058E-2,-1.6051946E-2,-3.2237895E-2],"split_indices":[38,14,17,32,38,0,38,38,38,0,17,17,38,0,19,37,12,0,32,19,19,0,0,9,0,38,30,3,29,30,0,0,0,0,2,0,0,0,0,2,14,0,12,0,33,0,0,0,0,0,0,0,0,0,0,0,0],"split_type":[0,0,0,0,0,0,0,0,0,0,0,0,0,0,0,0,0,0,0,0,0,0,0,0,0,0,0,0,0,0,0,0,0,0,0,0,0,0,0,0,0,0,0,0,0,0,0,0,0,0,0,0,0,0,0,0,0],"sum_hessian":[1.949591E4,1.3639984E4,5.8559253E3,1.2692172E4,9.4781226E2,1.5259236E1,5.840666E3,9.6249677E2,1.1729675E4,5.637022E2,3.8411005E2,9.7336383E2,4.8673022E3,8.3217584E2,1.3032092E2,1.165584E4,7.3835884E1,1.930141E2,1.9109596E2,7.28168E2,2.4519576E2,1.3124565E3,3.5548457E3,8.5082825E1,4.5238102E1,1.2066805E2,1.1535171E4,5.3534187E1,2.0301695E1,1.2307457E2,6.802139E1,1.414667E2,5.8670135E2,4.0148197E1,2.0504756E2,8.405396E1,1.0288624E0,1.1171517E2,8.952882E0,4.011144E1,1.149506E4,1.1151674E0,5.2419018E1,1.0741234E0,1.9227571E1,4.44409E0,1.1863048E2,7.047076E1,1.345768E2,4.4576106E0,3.5653828E1,9.555433E3,1.9396274E3,1.4122806E1,3.8296215E1,3.4835265E0,1.5744045E1],"tree_param":{"num_deleted":"0","num_feature":"39","num_nodes":"57","size_leaf_vector":"1"}},{"base_weights":[2.8563988E-1,8.5749996E-1,2.0494027E-1,-5.474486E-1,1.1395718E0,